{"layers":[{"layerWeights":[[-0.8596491228070176,1.2456140350877194,0.5789473684210527,1.0701754385964912,-0.9649122807017544,-1.7543859649122806,0.7192982456140351,0.17543859649122806,-0.9122807017543859,-0.07017543859649122,-0.42105263157894735,-1.6140350877192982,1.6666997006552124,-1.0174727989282635,-0.14035229304507293,1.2280701164447592,0.8771929824561403,0.08771929824561403,-0.6842105263157895,-0.21052631578947367,-0.24561403508771928,-0.017543859649122806,-1.5087719298245614,1.6666666666666667,0.8596491228070176,-0.9298245614035088,0.5087719298245614,-1.6666666666666667,-0.03508771929824561,-0.8070175438596491,-1.263157894736842,1.5789473684210527,-0.5438919618168879,1.5788524495917349,-1.1754468945752543,-0.4392946173174427,-0.29369101633341516,0.5370083690005623,-0.7292889480858871,-0.10568582274173455,-1.3910532561217368,1.6804988920841089,1.5784226738636482,-0.6266329338476169,0.11519799603842452,1.4549266792496298,1.4405220575143205,-0.16059217632335598,-0.6174345876359295,-0.3516015631093141,1.7367056735878645,0.8771929544143311,0.14035087719298245,-1.1403508771929824,1.6491228070175439,1.4385964912280702,0.5087719298245614,0.7543859649122807,-0.22807017822414527,0.01653836441704629,0.2629933987739106,-0.33369832003194616,1.6643240552297947,1.1260589542670614,-1.5185123783769556,1.2386107889360736,-0.9168661325229953,-1.5297863342047395,0.7588161316414607,-0.3739965284578836,-1.7005660043915003,1.4589625215079034,0.424104267269371,-0.7484551006784249,0.5867986053889436,-1.6002305043466303,0.14141465079208554,-0.4539253323292849,-1.3333931242926265,-1.7308054292253983,-0.26708570085665745,-0.20367189827470017,0.42105263157894735,-0.017543859649122806,0.9473684210526315,1.2280701754385965,0.6143127968204645,-1.060471767727502,1.554123171208713,1.5447021575474051,-0.45955579877412867,0.11474781121915345,-1.3045630442988658,-1.0999997762794875,-0.8756405811285358,1.1004077825902272,-0.783829550619734,-0.5978585753753181,1.3893023525889538,0.8881220424374391,0.47917969210884215,-1.6305969473818522,-0.7224949125507153,0.956137921984213,-1.4556105359712752,0.9837902886117368,-0.40354990166289784,1.567661114333945,-0.6610543540079253,1.7145029995842282,-0.369753521724417,0.38596491228070173,-1.4912280701754386,-0.719269299708588,-0.9988776435712047,-0.472566690447731,0.3341522605520861,0.622298436939938,0.21578308876425742,1.6773934162986244,-1.3073665786151074,2.058088138981173,-0.8020624429916778,0.9129421157722284,0.17231918024770845,1.9371492583220744,-0.1208716726338082,-0.8254706191068615,-0.03608390500677534,0.7870840923703695,-1.0808547833316375,0.5744602972437147,-0.33594604718564924,-0.9340000567698508,0.019930710465897283,0.5738125165571972,-0.03126865640923565,-0.024002014623402755,1.2088908107108938,0.08752969282859585,0.6666666666666666,1.1578947368421053,-0.7013201981037023,0.8815271232680555,-1.657081667600546,-0.8650245991378893,0.7891477942822499,1.1900529299737896,0.38233645566922553,-0.5676204238722794,0.13851036333685532,1.8762773556754098,0.8609708218959923,0.008346443829369663,0.8345328526245461,1.3130273149102767,0.29540497853742015,1.2147927266264082,-0.43884595890754446,0.45566406464096904,-0.7791494760362728,-0.3805345080824266,-0.6973453115574099,-2.0992474809398267,0.5245335411630092,-0.9485440064122803,0.040333542969029815,-0.26341654152773736,-1.5087719298245614,-1.5263131457870955,-1.6242181737330281,1.6283463979099029,0.7705633946792363,-0.8131436516143894,-0.7668681308232836,-0.4365442009390009,2.4628474612951274,1.2009622453986684,-0.2069223133509699,-0.1098478902954731,0.9780415970963144,1.3950322588256383,-0.23538034513806527,1.3986901394186884,-0.29155045574110955,0.3542703590627256,-1.0406125719191304,-0.4848519541623106,-0.8669612381985249,-0.7099474654857991,1.0824555776035836,-1.9362206462843068,-0.7496824426236149,-0.7175147426804943,0.16099261434962805,-0.15875076389023504,-1.0877193821448177,1.3316939840469149,1.0195369105666272,0.695593700951884,-0.10948052841270692,1.3030472759192033,1.977715203086822,1.1104132450351833,-0.7182686667591377,0.3150199761793784,-0.8474895364896996,0.1149054384915854,1.774154907606345,-0.42890387928319484,1.911782447251152,1.3043726509305151,-0.7580072604575683,0.6967957448096919,1.3256582654572808,1.453061806480573,0.21370637238408985,0.4913206977138131,-0.5417167538074211,-0.33380278574560934,-1.3669358435796508,-0.3530983212813306,-1.003129818270367,0.9124134914645027,-0.20970398630822068,0.6467262422677236,-1.1534589031319726,0.8977759880105003,0.8684658146811848,0.07388174457056136,-0.46503050342506785,-0.18740833042099106,0.4866495905625047,0.22425161624726353,-0.438685562599491,-0.1932061609587418,0.19670052813194636,-0.3878716400068518,0.037845685325489785,0.3755871830005726,1.555372688031515,-0.06661206508888573,-0.96966573437862,-0.3857585306845437,-0.2600927123432459,0.36708738828650206,0.17455955603520174,0.6162669477429327,-0.4838771495279076,0.7870323062252017,-0.21741808053316014,-0.4716855880320183,-1.4738590900052793,0.48024715397602663,-0.5954702060493418,-0.45825100001123775,0.07917000247917039,-0.40044823446934363,-0.8763793646889594,-0.06424600424466022,0.32571308759183637,-1.9074356184898777,0.568364827544934,-1.7211451173082768,0.4695416448563322,0.16788079617655666,0.9589054892667989,2.057324543076934,-0.5231738144063324,0.40121822692637515,1.7981823054800479,1.1677533080130293,1.3301233507873607,-0.5024592608250189,-0.6518599719209798,-0.9503128622717751,-2.0916997201622443,-0.1512687901802331,-1.4496465609112021,-0.5955378434330788,0.9294902648382437,-0.1591484482961544,1.4108063191773492,-0.6583202162532964,-0.0902311052707016,0.2076994939665567,-0.03007286725792713,-1.8041904691856712,-1.4286789927181829,-0.648514743936381,-0.7285773931919309,-2.045570489813363,-2.522354391624468,-0.09096685440497175,1.2265323101538386,0.6363020110941812,1.5249678830658737,1.8148340836809207,1.3953732323638495,0.6413075195507024,0.18612891821482644,1.7660887759349293,0.6688150652024243,0.09369908180102857,0.9790714716751204,-0.745443185338625,1.3435404236605752,0.6143028537017738,1.1927040314157862,1.5991314858488193,-0.5249255765999568,0.6744294831972151,-0.05950765533433513,0.5995720768207081,-1.1146216088473893,-1.4373721169206142,-2.368490478533541,-0.9731632291034641,-2.727723991850637,-0.050957442106829454,-1.8862483417889273,-1.4397861599617505,-0.6423422226099526,1.4251858892735696,0.6046372924062129,-0.3092622482079936,0.11108164738724141,1.217641427900926,0.048500914126065636,1.106069862275525,-0.37395875449487737,1.4483051538592757,-1.1712909786006256,0.507414152818814,-0.27633222962950243,0.17524939680695745,0.298234463489972,0.34465683974327477,-0.25541345133026444,-1.6361843582142512,-1.8846116871731027,0.4350370425727106,-1.935237094410383,-1.3290656964231689,-2.1031816597638304,-1.9404653808624495,0.8603977958101563,-2.539230421624445,-0.4544537561230713,-2.054271931523379,0.6192619178994458,0.7178493144121338,0.8602588429760264,-1.9262802060774893,-1.3182087821834079,0.6716859459277443,-0.510978623351991,-0.3227416129935916,-0.4062117854503328,0.5409746165944052,-1.4536932520500512,1.1877038891443812,-1.3830315737085408,0.7891871658458534,1.5263164675182173,-0.8617051303615114,-1.0255802629100483,0.12457870710240597,-1.0270269636363019,-0.5778871995932052,-0.6971119705792608,-1.5603253760350604,-0.40153801005534767,-0.321029863838324,-1.4238883494942838,-1.1347020914542267,-0.08569488393007572,-1.557724838216359,0.08547925275068026,-1.3621493867152257,-0.26522633046702127,-0.6291595762601009,0.1508748098502391,0.816288239394859,0.6387366786871648,-0.44269097917688455,-1.4267506411729687,1.1252153521365176,0.4773756392542575,1.5702791020906302,1.52860765008302,0.823112876548791,0.49121026401327783,1.2445362306845351,0.048300189076865174,1.37166545738015,1.2096225126797937,-1.9445531195470986,-0.3704692591422786,-1.2650580227414399,-0.8671027045762637,1.2467586117060925,-1.2172616203723374,-0.18567870307151219,-0.2995117566058524,-0.8811782347544225,-0.8223733701717302,0.5470622990978763,-0.07750914279837107,0.9828680698699206,-0.6306216060695955,-0.8904067745510208,0.4229459858451751,0.9643172645462833,-0.6853977252961332,1.0788959811565297,-1.1984154308703183,0.39797519799523645,1.28748639705008,0.05263665862833699,-0.877199731278515,0.5439581100539497,0.9312460026512229,-0.6090797168420166,0.5267054971860248,1.4698320347235494,0.5228566057097026,1.1600449909458188,-1.274895389427841,0.47403632445034727,0.9824672531866107,0.6719688699730381,0.07088795487572136,0.24016828497213266,-1.7269485421712873,-0.34992471402423003,-1.0396210979678786,-0.8753797011894425,0.5032190814193093,-0.06992457694506386,-0.27868468100994914,1.1743183890405213,-0.4784590230245866,1.4075417956295428,1.2999458459331235,-1.4311468157182554,1.1427471331518884,-0.5458010739267912,-1.350882441474409,-0.9109973998400317,0.2539296764508733,1.0274607371049125,-1.1505681231098086,1.267700255798344,-0.029390650157293592,1.43523753924172,0.606800416457011,-0.4352809881058046,0.2383841926756101,-1.8133596544645663,0.29797717032098,-1.3424561603071663,0.4878914568858463,-0.5936558835872612,0.21784915248987813,-0.10469438643926647,1.3290262656583525,-0.5546598439402838,0.22536575456809013,-1.362016136352066,0.6229314445295753,-0.16684099225777432,0.9208627760429321,1.4292488788331075,1.493657988340272,1.5107717473942408,-0.017543859649122806,1.0353431531611927,-1.02542305455629,-1.2866909853535222,0.22826344469294213,-0.7927402672259647,0.12621317149645078,-0.49329685919575034,0.243846366146139,0.22628476680777024,1.2206882941401487,-2.0187905447730174,1.0177111432813282,-1.5251133530750436,-0.49019295286503806,-0.8481515178476564,-0.48247091986224167,0.7244958190195371,1.0561448641285252,0.08694109471061508,0.19621969962575886,0.6194480943929813,-0.9459507811482972,0.5863617093608128,-1.103155910119135,0.26400565776067114,0.7735564495840295,-0.8690852474036578,-1.2633229752533888,-0.6313267819271147,-0.32074800728492014,1.036565958859503,-0.5101146852977165,0.5603973312909731,0.9504787958052582,0.7482849742055558,-0.8618824380089626,0.9342547439821538,-1.311533776414242,1.5413573348971281,-0.8428217942713703,-0.6065019671129728,0.18356395091540395,0.6714073384849063,-0.007999794996373946,-0.1352708243495086,-0.7279557054841883,1.0491466965742233,0.7034749986008738,1.6471415775655596,1.2021631739923877,1.0905282642997267,1.332242349853735,1.7882192707104085,1.6977076720312805,0.8087436859908642,1.1578945698303946,0.4740791165932451,0.6459895223012735,0.24116364718874178,-1.0400702143103964,0.63338743821247,-0.4690233131085116,1.2550022553011482,0.18199663579825495,1.5629938206812697,-0.8973179409051132,-0.6902997359093924,1.4943090595229778,-0.967855427679842,0.04668745956237274,-0.3556484491537427,-0.5733951845236576,1.1401474392036204,-0.2225389940202535,-0.09558089032375687,1.0027511743069568,-0.846207616622982,-0.6059562586535204,1.013119840650314,1.0866695160049673,-1.329483939447874,0.2926243872538003,-0.3155025924001237,-1.2280701754385965,0.5265295788202156,-1.1084554270566052,1.1713731685205582,1.4593048499951506,-0.7012346202262929,0.9470718848300423,0.7209941618858717,-1.453134720303928,0.9510099881301028,0.4716693460010301,0.01941816953865181,0.8860941920401241,-0.0764752301740621,-1.1818430624523106,0.04199573216058967,0.5965191221775147,-1.6108514523993358,0.14766220978282055,0.2628579936260671,0.9092407664177552,1.9009390140897298,0.7243996985860581,1.015165234037504,1.3014130865034963,-0.07518991721881833,-0.39832574503481777,-1.122805713650258,-0.2631571080543584,0.7896914521775662,0.48868588695353704,-0.4782206468876668,1.3326926358532678,1.0918473699071274,-0.6412132216019779,0.38217727300445103,0.9518840433279961,-0.4565917762084377,0.49863416878487515,-0.36328378837260555,-1.577490998855681,0.8829814216849523,-0.7874799458101789,-1.0946550698410733,0.11572729515910883,0.7710326770411556,0.5126421855055682,-0.7017298751958014,-1.1329739479318037,-0.6675105965182981,0.22896573333120446,1.6974219283945775,1.089705182533477,-0.641904917794971,0.07422213978875263,-0.7719134926746507,-0.12280625544520339,-0.26317097983496984,-1.6718819066473103,1.2070590024825603,-0.04869080861144298,1.992525934805053,-0.5876390484504562,-0.8497001506086151,0.8132314480163868,-0.31054785452514755,0.6279900711542992,0.7201257004655156,0.8115760421268844,-0.2994736517147181,-0.5278668824128957,1.4951990513351145,-1.0631361615981616,-0.6748104023805144,-0.926728662557522,1.5504463865816702,-0.43887581514562946,-0.8171478271116335,0.7104405098014298,-1.0549730371578876,-0.998164679891209,-1.0348974479610618,0.7266051018727628,0.31581962485975423,-0.6666666666666666,-0.5263157894736842,1.1044074069279954,-1.1185015040980653,0.15537710581893585,-0.17423268612150247,0.30291989779026407,1.5702176462540676,1.1804103456352022,1.1651135007549631,-0.5456144763237287,-0.46246488111891365,-0.5031118687319825,1.823788065880001,-1.3126376004505065,0.9747883106864741,0.3535095722690592,0.40364898496197027,-0.39282882339438735,-0.0639605038468178,-1.2785676561132233,-0.32280904657795056,-1.0768624308653638,0.6753203084120603,-0.8588213433201506,0.897324405500696,-0.4511426597682216,-0.8947368421052632,1.280701754385965,1.6140350877192982,-1.2921251849436342,-0.38222287003169725,-1.2526119952645614,-0.12983758615394683,-0.5571268774000181,0.26754714563140475,-0.6994961754773986,0.987100760868516,-0.4881024818393245,-0.8251737896402151,1.6588397400661044,0.7912811333742589,-0.09313475629560795,-1.6890332886351291,0.6012622660315319,-0.6353902243296397,-1.678769273291999,0.44606092953807086,-1.7597006306778618,1.3471641566168138,-1.5378584326990425,1.461972945342856,-0.7235218479391653,-1.3668117821646915,-0.5786242571427186,0.017543859649122806,1.263157894736842,0.24561403508771928,0.052986592296803435,1.2298465268954857,0.5643927178331832,0.822210813935552,1.3916420338550526,0.14794065360576727,0.18625556718599445,-1.2773713590594928,1.8553324662900745,-0.5836302941809853,-0.9491788521219715,1.3272701541476846,0.040738239990356424,-0.19704764163475258,0.809463657057255,-0.9852552899915711,-1.5187403301260178,-0.7957104572169668,-0.5691117397977021,-0.9574537588495728,-0.20028425410647233,-0.7741890016641247,0.741224024421232,0.5614291574967979,1.175469257340199,-0.17543859649122806,-1.5789473684210527,-1.5087719298245614,-0.9824561403508771,-0.035360129199593374,-0.2664192021679199,1.1955950335959113,-1.7732026248601467,0.9648405987852157,1.3131405927917286,0.28673900582394474,-0.13681972954455177,0.618964598139944,-1.3674110081578272,0.1793353904543377,0.34307994035869716,0.7984079536719465,0.08721801855321566,-1.8737100572932543,0.36104042615791826,-1.1052833499468009,1.2148087555292162,-0.39911924378749564,-0.12986564589369728,0.2460152990899478,-0.543653403555327,-1.0000426417518316,-0.21052631578947367,-0.6666666666666666,1.3157894736842106,-1.2280701754385965,-1.631578947368421,-0.8771929824561403,0.5625528707553556,0.9502187271700077,-1.5416769737681606,1.10449526573581,-1.5619387408243022,0.33291459621581543,1.0872388885314794,0.6473647531377164,0.11126131954316629,-0.7382693325481274,1.1731062620393529,-1.447896826207357,-0.3981110454961873,0.7567658494137472,-1.469936406050864,-0.14862809510641062,-1.6813937523316844,-1.5216536622004364,1.0626787941080698,0.38475526059059534,-0.49122807017543857,-1.280701754385965,0.631578947368421,-0.6842105263157895],[-0.5263157894736842,0.9298245614035088,1.5789473684210527,-1.631578947368421,0.9298245614035088,0.45614035087719296,0.8421052631578947,-0.9122807017543859,-0.07017543859649122,-0.8421052631578947,-0.9649122807017544,-1.087719298245614,-0.17545312408376199,0.789467099400502,0.12283508881925558,0.8245625731452466,-1.0,0.15789473684210525,-1.7017543859649122,0.15789473684210525,-1.0526315789473684,1.1754385964912282,-1.6666666666666667,0.21052631578947367,0.07017543859649122,-1.1228070175438596,-1.3859649122807018,0.19298245614035087,-0.7368421052631579,-0.12280701754385964,1.4736842105263157,0.9649122807017544,1.4210395736583357,0.3508370574625682,-1.6350859533989608,0.0775124520055047,-1.2285276507292096,-1.0951899596489199,1.5628662135572338,-0.270038936037374,1.3692952543694827,1.6167997558922464,0.9765980114444867,0.04136815456071363,-0.536352976083492,1.2755716591312503,-1.2754918689069272,0.026476337689478623,-1.7673989226873466,0.6775551224062727,-1.2822332022620417,-0.5088832556991004,-0.19298245614035087,0.5087719298245614,1.3508771929824561,-0.22807017543859648,-0.6491228070175439,1.6140350877192982,-1.6315942532701242,1.6310074268155708,1.701315260655597,-0.4562106238197175,0.204932709841206,0.01375773678665544,0.9285205982264094,0.9037058697884627,0.456400719058723,0.18046335153957066,-1.0939040867079555,-0.02056882284446269,0.3544677405986585,-0.8996224552687309,1.1237919269834846,0.879383529627723,-0.28394504483845123,-1.0982613594752817,0.1271499894313175,-0.08992900555963985,0.715394808807919,0.8709773539772994,0.7791621621400295,1.2606100408100485,-0.2982456140350877,-1.2982456140350878,1.280701754385965,1.631578947368421,-1.508793190020053,-1.124469334825154,-0.18119949883451525,-1.2657212466246923,-1.3384591069484764,0.6478611154086791,-0.5941484320806384,1.5093114020301597,-1.5749368733102682,0.21863087222097144,0.8494835212270981,-0.03779143634366722,-1.6039698517186647,-0.9676193483371731,-1.933992607096698,-0.264559657765054,-1.0522896507266748,0.6286376821590377,0.8276303522134367,-0.5477012419129809,0.4107322477838419,0.8286350955851061,1.4992143948512506,1.3684832159563038,-0.19299005961331253,0.5789473684210527,0.12280701754385964,0.15789461318378675,-1.4035522931203035,-0.7543663424192082,-0.48570736148135385,-0.18712891005769092,-0.5166498065725211,0.5494778861425357,-0.7679218701270671,-0.8294286761469088,1.1197752055778687,0.7610099979081094,-0.4720416015766433,-0.10025573561422356,1.192452117704854,-0.028229597349458485,0.6656850209317184,1.0285387135669115,1.1452997830439744,-0.5836871340906306,-1.591206402155039,-0.33419342763829574,0.015546322629905046,-0.46401920655747203,1.0161262828450133,-0.4333359970639201,-0.39604663280311414,-0.29824560054351407,1.4736842105263157,0.15789473684210525,0.33363432088582257,1.6648392499430942,-0.14507070694329977,0.2500335468126681,-1.206969820330548,-1.4613404663421252,0.8892235508107109,-0.5134154935569925,0.4795004180870069,-0.8583173761243321,0.09452791474605367,0.8001953306062944,-1.2272034886436867,-0.9844341318755219,-1.216184713238245,0.3174926713421222,0.6866601602241857,-1.3067209683122207,0.8563618386611408,1.815496645248898,-0.7674306779316229,0.2549973885240861,0.9902741983919109,-0.18474740237483678,0.9297132217602155,-0.5430858818186171,1.263157894736842,-0.736861657826534,-1.4206970974468085,0.8240181380291822,1.6728421908782654,1.6835346965377522,0.5176224075366301,-0.630107020360793,0.023737962810668627,-0.47908400568480286,0.4685487891193652,0.5264940070436693,0.15965735312964077,-1.5681409647801858,0.3130485927606131,0.7132271318886162,-1.376254815024192,-0.007444827878091983,-0.9965808002784626,1.5515013181956627,0.5547610372412365,0.694621860492164,-0.20877237073049615,2.1218315811976742,-0.4312040821403798,0.8312868380510676,1.3096731683924159,-0.06796029548884001,-0.5964892751963444,-1.6856037720630501,-1.390660215382852,-0.67558404117152,-0.9219796191588994,-0.3586461763808714,0.9688682308658133,1.185289937714834,0.20013410698825163,0.7047786891191925,-0.6818547571759127,0.7225628934635351,-0.09599129430492515,-0.6692289519521889,0.8916189518926051,1.0139264069765026,-1.0240720912076486,-0.9496387605775861,2.138029441542631,-0.12602451475673868,-0.46075698821107447,0.9205361289270844,2.5839379125708977,0.5969734805394019,-0.7326833573080286,0.17797312680090327,0.6880554422391252,1.6510786022498711,-1.5789303384744955,-0.3331752561766284,1.5485210677787287,-0.6025652197922062,0.8780349325363995,0.4159754778022077,-0.27358114635062314,1.2466216619332962,0.38945307075454333,1.3822741265150376,-1.117938069009353,1.4715598263429817,-0.8026954992336972,-1.7312079666128504,-0.7896045926578095,-0.3110889820756857,0.7032271335087124,-0.5343724604156057,-0.29907257362787293,0.7827213367697033,-0.4890289290400758,-0.3253137013570037,-0.2090015729876447,0.8644343029858589,0.9156310939674422,-0.03917932333698628,1.6390580225576548,-0.06873956735711059,-0.7716826613140204,1.4916384899833035,-0.6500978847249055,0.7182403126531801,1.5015438729772612,1.6560169510128142,0.3934759060324445,-0.7765261633748759,0.12850643439382173,0.16065068584814038,0.3984902916231103,-1.1216392125810946,0.6172574694919447,-0.029054616081583426,0.3510009398693952,-1.7854371359452994,1.4384694640165305,2.024607982167519,0.685852759106633,0.8063896978064357,1.7873593246878776,1.564267217907695,0.015423002236735156,-0.28596729948618504,1.403742227497713,1.410605795320977,1.3905344441733447,0.7357895001308892,0.9827429569650655,1.1237107982172982,0.5513547134525466,-1.681427494190452,-1.4072961617791482,-0.9042367977310497,-0.2831216059243232,1.6656179887211588,-0.5375415676154537,1.7865061666847841,1.8917368037747646,1.5887757317066171,0.5368512506962336,-1.2161977176330816,-0.9332234583310033,-1.2940528879054236,0.5457638474990832,-0.20952826075836697,1.3157139565451808,-0.12395356436705161,-1.6783821587398975,-0.5742446494188506,0.7307954614687439,-0.9939675444574061,0.7209058134522557,-0.7597360398212486,-0.7297614407409592,1.5083687482515404,1.210628012654926,-1.393068265598198,-0.8523166842002781,-0.7083593932300463,0.2268873267956802,0.7023036845981384,-0.18761362663280182,0.7517080001066195,-0.21890831376515446,1.8337838658707553,-1.3292053646789332,-0.33004787043757133,1.0633408085195788,-1.7551748251841917,-1.4947247827666619,-1.0711532146363358,2.0366103029229468,1.736564759120634,1.5201267566696979,0.5523245316323224,0.8000032210102053,0.9824674972843718,-1.5318509242743457,0.23382108236672633,0.8050760754133607,-0.1702085843408406,1.6278075856796377,-1.087809218898453,0.6141111877138861,0.9563147729269528,1.5750669526622687,-1.6453452408351212,0.47034561205972036,0.991177426019846,-1.2666099028222277,0.9655680230108253,0.09651307222786709,-0.1054097272848952,-0.756125601234669,0.20164790776056396,-1.5662915429739417,-0.995570665845037,-0.6483655364317756,1.7433631184565184,-0.6164347016593698,-0.35712836825477867,0.15889003284789271,-0.06930578057687405,-0.9646145856316334,-1.0312529956618302,-2.0370916286200855,0.3746464754059459,-0.3692393568619924,-0.7305591333023893,-1.1750877184613064,-1.1742234213283977,0.07016587331518967,-0.2426677769209653,-0.7062341361956231,0.22107512043512706,1.4885097739267263,1.0380970517304637,-1.701296078571224,1.0470361300546458,-1.3986800120282443,-1.1847689319209036,-0.34184303336370087,-1.707913488483402,-0.12101310921303861,1.213148954935955,0.8447820978322005,0.37915967857667027,0.8113658796091217,-0.060047248755040854,0.5098249721609015,-0.7377363285301015,1.4973480139634916,-2.027853135923656,-0.6652938668554985,-1.3567931542542728,-1.823630379174626,-1.6123876804661013,-1.0587645492413995,-0.4364668578074635,1.141005091393669,0.21166381601931195,-0.776367316814647,0.4568019524493696,-1.3305257029988624,0.20419085158505282,-1.8308877565014492,0.4289429188630129,0.11765818150317359,0.17587928414137205,-0.2669897991011569,1.0947133879682671,0.8587717628157643,0.8463476909357098,-0.6511881336222295,1.2533407284832296,1.253003998624631,-0.6700580838811078,1.34236442618809,0.604191736906242,0.7286419184060791,-0.13912349323679848,0.270039745507937,-0.9781359913869832,-1.8831179321367346,-0.9825953149070245,-1.2594537770321088,1.5089458303302488,-1.1752241646538881,0.789462567806626,-0.0891593757908362,1.61892354271067,0.09403651602463661,-1.7212561655366347,1.509578080844092,-1.3387874409511518,-0.7736414310435752,-1.4863097631852078,0.8526714779522424,-1.1426809535742284,2.0797682462671885,-0.7088298564096823,0.12068199426895819,0.9247243481163643,0.5323025299176366,0.7630419071118552,0.8365340785532627,0.43227838896919335,0.8161930111919167,-2.043481558078397,-1.8495027903842167,0.11787508907234756,-1.548827571647778,-1.447072594653963,1.15798449429056,-0.9293039985117862,0.31579073144370867,1.631490793877093,-0.013346062704333087,-0.5271141718158936,-0.42582072696528933,-0.1170336151923071,1.0971572358578852,-0.35267161120892454,1.1686376831579606,0.48216899446333494,-1.8464171952697344,1.3431796268371503,0.9488186555061292,1.4689412476964754,1.6301786592583656,0.6397568431739908,1.7624951292478725,0.07201848705716186,-0.7346886262586698,-0.19128497095076408,-0.9795415595701785,-1.8919183562232604,1.0447971970813688,-1.0245169015604045,1.3445458814786515,1.3473165250596235,-0.2632034609004764,0.24655459489587972,0.2631578947368421,1.2278420455022043,-1.215583312226909,0.46967929955520893,-0.33899193802642413,-1.1819902122404928,-0.6997100535918244,-1.4835160365595612,-1.1362763696139409,-0.879531582541048,-1.7777741638815887,1.345116350720406,-1.0734755787148405,0.38233656195416865,1.3101341048007829,0.05405850182199877,-0.3557092309928612,-0.3216645857224629,0.23356759443204955,-1.6938981559068893,-1.6544503874545295,1.116165509875701,-0.896517921662684,-0.3082192145432319,-0.29760146771895907,1.169289160320571,1.5333141587288384,0.3011114789502693,0.9324181512537798,-1.2633177950689671,1.4705542314477458,-1.0561075676768585,0.8170880634086505,1.197512823574382,0.09866304669441057,-0.11550272863574301,-1.611611274335122,0.7874509780205914,-0.4301637406715699,-0.8086917537378524,-0.5622229630808705,-0.4762514871780886,0.2002885768383041,0.4239516396412016,1.6214466841734616,1.5994533438122387,0.9471738100037342,-1.010386137059136,-0.012996801429451615,1.0783960283572667,0.334556517234032,-0.17372331471189095,1.442979487698473,-1.3979657957106866,-1.438365698105346,0.7726871804525932,-1.5087721118295776,-0.03657510800033451,0.2134757709156889,-1.6286540734308503,-0.36830701390157905,-0.2719917678889267,1.3494259164450544,1.2624415614452866,0.5650457263543536,-0.33391432567984314,-1.754381042832094,-1.9465076255136742,-0.03849265819451841,0.46464927127419015,-1.0686570171609888,-0.3428900639208568,-1.4326301350837167,0.8776777680433677,0.34493358322618894,0.9340672158269988,1.2972415646049917,-0.513400434959342,-0.5508479334207744,-1.0668572387182498,0.41838464456873353,0.56688648193757,0.5925533661905286,-1.0527318778164947,1.105263157894737,0.649152120421529,0.3207814367410796,1.1351820524613732,0.6349752248904571,1.840889547677007,0.38563474522010177,1.3919623841335098,0.8938355798339899,0.5458990204598303,-0.7882209828979186,-0.9728707960190347,0.5461093333450427,-0.7286649374423181,0.47936004758438266,-2.029581426442173,-0.47214815298165197,-2.1027445520286348,0.16920938225482224,-1.9048521117785029,-0.5907191865217554,0.9499726358160548,-1.0142393403835404,-1.173201261358677,-0.4913578278430279,-0.03910324659808369,-0.37812297922485427,1.4911885877972926,1.6140346410557327,-1.0664941642917256,-0.6921468049923144,0.25566346577581966,-0.16830708831173039,1.5810242169259139,-1.1514832372372128,-0.16547213114999357,-1.084013355679293,1.3892524515518008,0.43131054857313794,-0.9984949027011368,-0.6550454798227177,-1.9690107962063383,-1.1240488192638136,-0.8356001803799468,0.8031954345728376,-1.3876389245660128,0.7051695982836012,1.6456992093675085,-1.1600442328959901,1.0524330744368213,-1.099649593062465,1.032955938218451,1.6107722460399658,-0.36213382485257956,1.1420759676463041,0.9297804591625097,1.4912276374701088,-0.5789917194190883,1.2730533690061052,-1.4936127131589745,-0.5160379130891829,-1.5420077730796788,-0.6248107492026739,1.4617550535704056,0.8113651851295276,-0.2801541917015074,1.5331197678440738,-1.1732945277312032,1.0995038617350827,0.3761760499939108,0.01921084474581052,0.8371503702299693,-1.9584300456684034,1.37839741230943,1.1156885957494154,-0.778493493700082,0.16793093288396993,-0.5824833923706166,-0.26135356084857575,1.1977382217521613,0.6415688893584741,-1.3259413736950396,-0.7900722057699741,0.017462440127278513,-0.9649122807017544,-0.05263157894736842,-0.8459408664053908,-1.4876388024993268,-0.7298665765050386,-0.8197939924443616,-1.0735771803347947,0.7985571382006741,1.8216790533881795,0.49151246108662744,0.6031436566518847,-1.84221270882528,1.542226940698801,0.19665803057531697,1.1505431794968106,1.304914138497727,0.32551634773734633,0.20771216050809665,0.6425680583242138,-0.485196833874515,-0.048877939478442996,0.11269134429728257,-0.35993631554975436,-0.42771054919175383,-0.04980260564695141,-1.0696064932819533,-0.721167983826189,0.5964912280701754,-0.9122807017543859,-1.368421052631579,1.471039679279534,-0.5527761050079625,1.1993607921876317,-0.9746847478210383,0.30669127073529145,-0.6668598765708755,0.06216262625730815,-1.403217390839069,0.21224471015214397,1.1106687938104898,-1.066836741227214,1.6271179605742334,-1.3518694907207462,0.23436907049118041,1.2204282812982308,0.661035400682089,-0.34360020938060243,0.40865131828612145,0.16056687961480212,1.3632329052094874,-0.6510465009125513,-0.5260301380550798,-1.1608895868148554,-0.9481964390529043,0.33323077758734937,-0.7192982456140351,1.105263157894737,-0.9122807017543859,1.4559829855227258,0.9116135373904303,0.720987457533022,-0.7636046951354883,-0.49254921428371456,-0.6278668077989054,1.3997125187452026,1.5226591386833603,1.4985837794219667,-0.4320721697853761,1.6891647272875583,-1.2451386495582923,1.3532035707833643,1.5907910043665818,1.460703636937873,-1.3794765154825113,-0.06590430359176104,0.7535331134184844,-1.049560157029324,-0.6130709146804253,0.16430685180571697,-0.8868542484032592,-1.2383505980929834,-1.2982457853946738,-0.9122813409637975,-0.5087719298245614,-0.7543859649122807,1.0350877192982457,-0.47368421052631576,0.8421089300169767,1.615119520558199,-0.7476271438893495,-0.8705179265361135,-0.5596307018456698,1.0347026076368395,1.6653438133580194,1.2688842796969932,1.250047624868694,1.8582139257410406,-0.7968661228330008,-0.4893938933237987,-0.556189786783262,-1.4952605252002804,-0.6867013934252115,1.24267761926439,0.29172357627127005,-0.6877298748192409,-1.2466369626765696,1.2537818812553552,1.284772389654164,-1.2807008225746552,1.684215917790583,-1.6140350877192982,-1.543859649122807,1.0,-0.8947368421052632,0.05263157894736842,-0.40350877192982454,-0.9298152655497465,-1.3858976374948917,-0.36828624451923636,0.08794360821023828,0.1446093016848033,0.8322060559018134,0.6341088423774006,-1.3312867263844292,1.024283597446871,0.23593303554996034,-1.0988888081494372,1.3476947092430815,-0.1378884710296936,-1.6157694082751133,0.2177683675803662,-0.34543423270482054,1.0748363685347437,-0.5890017352652839,-0.8928267658037208,0.9866135838129346,1.4736842105263157,0.3333333333333333,0.17543859649122806,-1.6842105263157894],[1.736842105263158,1.5087719298245614,-1.368421052631579,-1.2105263157894737,0.24561403508771928,0.45614035087719296,1.263157894736842,-0.07017543859649122,0.3508771929824561,-1.1403508771929824,-0.6491228070175439,0.8771929824561403,-0.3509286321669571,-1.088830268415105,1.086608341186265,-0.07022172847396407,0.7368421052631579,1.5964912280701755,-0.08771929824561403,-1.2982456140350878,1.2982456140350878,0.7017543859649122,-0.3333333333333333,-1.4736842105263157,-0.7368421052631579,0.15789473684210525,-1.719298245614035,-1.368421052631579,-0.8421052631578947,-0.10526315789473684,1.2456140350877194,1.5614035087719298,-0.9999840397386642,-1.052584689750548,-0.6840481791571801,-0.700490494147456,0.9499135847227285,-0.6275851535733062,-0.804118058121024,-0.6147612399480858,1.476130250049139,-0.9717722272460593,-1.29467382356747,0.297060231050285,0.5908086429750213,1.3739208278401547,0.7405790431487886,-0.7681446229214834,0.6700752182384805,0.5797558543013126,-1.666621007257607,-0.3157964646539919,-0.3333333333333333,-0.03508771929824561,1.4385964912280702,0.05263157894736842,1.7017543859649122,-0.7543859649122807,-0.4736841046737582,0.22750550973723777,0.3858285231062886,-1.2982435973906317,1.7186633987459523,-0.5787625838448353,-0.8633814471609316,1.057808398617289,0.04534401784405337,0.07278533438985867,1.225571540867747,-0.04001794342141774,-1.3294322806806975,0.7057931240713222,1.4869173293949747,-0.532497973598326,1.5028459487505175,0.09415857670509951,1.7431141126401077,0.305731815029362,-0.8658218625175274,0.8367689707582885,-0.8143079663324403,-1.192620913538135,-1.1578947368421053,-0.22807017543859648,-0.05263157894736842,0.0,1.1588303273976617,-0.966076522013076,-1.1056834595763654,-0.5135454243111456,-0.2715417622779385,0.34892442264827694,-0.5187587175775711,0.6133158957860203,-1.745411988556951,1.000689304955777,0.2339945259469947,-1.3881293759933875,0.5683027113218608,-1.0425982476214457,0.10136522702104485,1.3817111995065121,-0.8019114115639601,0.5985772517879104,1.3375259871182827,0.4237604744404749,-0.3695123742423159,1.6661273333314697,-0.8880800805353529,-1.6289069525718298,-1.1747771657481583,-0.7368421052631579,0.45614035087719296,-1.1403428247786598,-0.11931022195828814,-0.19039600930703582,-1.3960315548182054,1.68381632909735,-1.3245839304923666,-0.7054672770387876,1.229224312745788,-0.21608710364911524,-0.6876217638161364,0.29815347882414783,-0.16696500410437176,-0.1326283910332492,0.5807978992699419,0.9538601276579071,-1.0132588246752012,0.9434939525965991,-0.6661675704895387,0.47414864958947855,0.5227543244645636,-1.18613292257293,-1.3813621837305683,-0.3055747366429203,0.12000067811149856,-1.3877725363335855,1.0545934665970427,-0.4035001827083099,-0.38596491228070173,-1.4385964912280702,-1.6307596710470045,-0.13488969857195887,-0.3694815220273053,1.5443742555502329,-1.135649709679041,-1.1717578249094078,1.0083895963867526,0.13317333930047967,0.25545366817411275,-0.8537281474466215,-1.100738884463826,-1.6316394111944714,0.5843240319889695,-2.120319407556249,0.5854656195090927,-1.355275152549567,0.5231645679256597,-0.12749169173585526,1.0192490689345683,1.1090280461300535,0.3284634536616058,-1.636034035015117,1.6662690400885845,-0.4266115457966324,1.3704827525804435,1.1751351800879926,-0.05263157894736842,-1.1052730907271495,-0.2969446064534903,1.3400249373460111,-0.1247531179656823,0.4643763890953792,0.8482731503866279,-1.2247120450429816,-0.47656633157232275,0.3152221453342571,0.6042287985203709,-0.7574783118767877,0.7558778254599496,-1.043800963611701,-2.2032585470356016,1.203854349157393,-0.6751109438289079,-1.2868304871007674,0.4831692802927679,-1.4617524389897951,-1.577372678619421,-0.8315809369697882,-0.48517001848755564,0.5026926242728896,0.5603423119275497,-1.0506814565468319,0.5151206066919661,-0.16029544971210072,-0.8771932807492363,-0.2978777266926012,-0.2259394449632922,1.291819499256564,-0.9433542341620264,0.23788215570484533,-1.138427891733977,-0.1571285243467231,-0.5190499872344878,-0.8091111716847974,0.43523294483315117,-1.099705921857939,0.07720967419981631,-0.02662360023831438,0.7599254886648777,0.06319951808498955,-1.3961255725921162,-0.11831513963868949,-0.2733430683969719,-0.23698628261456456,1.534627102492307,-0.47545571731140973,-1.6593704512157754,-0.13657429069685167,-0.3379024175220185,-0.8441202190894643,0.25162792414922786,-0.6532508309092641,1.1576037538748407,0.42296292860106466,-1.2903688158441144,0.48930775131779475,0.8068978300653497,-0.05042386487003683,1.337615752453963,-1.0915345173051765,-1.2136596489038414,-1.1037597844875096,-0.14214210430894927,-0.42259621011459425,-0.8356507273753856,1.056963811304064,-0.7137236299560409,0.8205699193910552,0.30208930575134674,0.1718025592912788,0.5374909457040352,-1.2319418798550679,-1.1510465965599992,-0.820887229213475,-1.364350357664725,-0.5157151400627291,0.22800058884355529,0.6554117405064027,-0.4237038723172809,-0.1190688408733464,1.3859648028482312,0.4745409536305856,-0.7063576601999082,0.5341767816377909,1.4070347251878146,0.7800529927975852,-1.4612576848972012,0.30566030700592767,-0.5308240990153837,-0.7778356618150916,1.4556045377174802,0.5555614419199391,-0.9157036370468179,-0.2096969218172015,-1.3238089082913531,1.199758246850267,0.04254015535630071,-1.1515051574429795,0.3844856472265807,0.8051456711964443,-0.7660887996595314,-0.36195463535893785,0.862868572371021,-0.9600367246769336,-2.105003799574627,-2.016316836830323,0.4988274278553713,0.42204530391200273,0.4736843961353151,-0.1401856349669888,-0.3949943885673971,1.7829394880194616,-1.1441212271920311,-0.4123384221865302,0.1496318546484035,0.9849715562448657,0.46033609195373976,0.3460481032241952,-0.9527661216399251,-0.3229637648493527,0.38622973963962925,-0.12156192787968577,-0.24186379945377132,0.8541027235053431,0.22343867420660296,1.4599837928858435,-0.6340432514451841,-0.3978755024079676,1.798783486846222,-1.3731918688207427,-0.44637098917351803,-1.7085333086201648,0.1955399358865757,0.9396642143320276,-0.24876619061157154,-0.7062841007082169,0.8245614332177568,0.3685076242817751,0.02995551911425902,1.7388390419615936,-0.6060049549809197,-0.6618882647754532,0.5384940383022183,0.39521544314995366,-1.213357724550325,-0.5872572421553255,-0.23788812613164806,0.46349357746905206,-1.0664336549580453,-0.06346356311817998,-0.4705656333278585,0.6023612934329828,1.375473456906179,-0.2997372751870201,0.8781367834187118,0.3975583555340014,-0.43074056456683385,1.6508456312187,0.9230475543807438,-0.8899954523523014,-0.686731416772428,-1.5356049388215829,-0.0965804267353322,-1.0367200914001289,0.6491227940598221,1.6138703819158404,-0.3100459175158869,-1.2046791238660313,0.686347665019209,0.1542438487665387,1.1161831187746467,-0.7368161554810333,0.7150602055309381,-0.09834618315186609,-0.3608492947540677,0.22313214100863465,-0.45458968438440867,0.3593693745125471,-1.557465287783274,0.9256843176828441,1.4162269160155645,1.178968059715745,1.3984271448165373,1.0349791671126323,1.5925639403145977,-1.1214308735954546,0.44173725005034836,-0.01778880027507718,-0.5656084264648404,-0.73311110965049,-1.5810623813776756,1.4207125084702914,-1.0526559543449363,-0.9831418596956231,-1.1208147765860392,-0.31637744555862385,-0.9652257746020296,1.0946083900605321,-0.9742726922546524,-0.27043567352438563,0.06943898324779238,-0.7061711154267404,0.9336663944086654,-1.6536054607810753,-0.4897397967859438,-0.4088740213800876,-0.5204372287390436,0.7026927778460906,1.3621403608709315,1.421521168749418,-0.111065441876098,-0.46833268251812615,0.8472997330267236,0.461107146459656,-0.054630252636191645,0.1417631730791374,-1.7244649123395177,-0.6433761962729525,-1.702789887119444,1.2536317129634669,-1.754853291696988,-1.49078057192117,0.7546271073693747,1.5223033762944351,0.702151630966025,0.2967882066957383,0.09186530744156124,1.7215022030556277,1.3235867824346221,-0.3254683951967397,1.1684555248507595,-0.5427293679537499,0.7541421872032567,-1.0579389982499026,-0.8756366702987171,1.692414739050947,-0.21627967951044966,1.066832476319792,1.8798297766350311,0.9416369132355777,1.407921668569151,0.08429417776917188,0.8226405119063666,1.4121492492144434,1.6067487262177835,-0.602686490003993,-0.31263288132371364,1.1923422542565718,1.0525092069106656,1.158024834812218,1.1435525862056537,-1.477979289876052,1.4901909690580604,-0.783806183287742,1.0027579574476397,0.5089677122072496,-0.2098729334847563,0.4475686446661153,-1.557856562840632,1.0870282792996901,-0.283051068766651,-1.6617579172910524,1.3573799832058113,0.34354154298819634,0.8314388025396482,0.7745019184262022,1.8017279115839937,1.8394323669161516,0.8780497828043955,2.15656694988578,0.20460431026224152,1.4837598858535448,-0.5081687004499422,-1.0135815998130775,-0.16754896119597304,-0.8636309484232537,-0.10508803522031349,-1.158010422377557,-0.7443691694821558,1.479368660154205,-1.116901445550341,-0.5594852986209776,-0.9203023745982408,-0.46324143032198123,0.29896637761494516,0.6267059088731148,-0.0881861048784343,0.8962346762838884,0.07517313183452083,-0.9897595600722177,0.3741880463470008,2.2379049864539846,0.27375394695583843,0.8523007856066797,-1.1217485948516084,-0.26228095415348596,-0.1666831073339538,0.3867883485959883,1.0682802423733124,0.9677322932634199,-0.1710853671205641,0.3222297145886205,1.4247697523353036,0.4123739826192858,-0.5263157894736842,-1.578857785114288,-0.4385653154471235,-1.4501544232446335,1.4264680329451065,-0.3436789455668726,1.681757931906177,-0.9378040624308589,1.4732599524368177,-1.2486657240669177,-0.3173265635876734,1.2076806929625206,1.0804284022803714,-0.6440040652577261,0.11999329712009488,0.05796107739514661,0.8857426556132814,0.23876408595365878,0.8113147474985225,0.06556277653536464,0.9831446570325838,-0.7863915395843213,-0.6668493113598254,0.6447988873935224,-1.79518668498294,0.5027618827748069,-0.1452756995316792,-1.4603559270544415,1.2807040265560086,-1.7017248405503547,1.744269687090525,1.6973198821753936,-0.25142500645970817,-1.636099647185289,-1.9592594059580368,-1.3766458054570228,-1.2303885282014497,0.37878447805012605,0.37709812925224845,-1.1284466169118093,-1.1439807181471167,0.7890937831108729,0.05026726150730183,1.106019004419109,0.19633852539966395,0.5114104106248951,0.7487427938472595,-1.4347692874464884,1.3906997971851587,1.5649363727692358,-1.7665342796465902,0.5242865647295575,0.7702685350681417,-0.736176184691275,1.110618382159157,0.402176924960215,-0.1754180691347505,0.01743777298404367,-0.8728363605973429,0.3775584272379846,0.03906974194073647,-0.1789849129822479,-0.08271858024712132,-1.450807208428293,0.5817114449111909,-1.493161005231844,-1.3586700040084565,0.4546870506452717,0.7937205577727323,0.4780389760744131,-1.1776155573672764,-0.7972473868380203,-0.8279836823148594,-1.6364573809657441,1.2848601901945702,0.10257003668378209,-0.6703922919947519,-0.22864600548570244,0.8124331656655165,-0.5539990192450269,-0.1471922804351265,1.5567300299531175,-0.06114485142489081,0.7013333691936781,-0.17543859649122806,0.08778131884930734,0.7472944844918705,-1.635678062194466,-1.6129340075041487,0.7218202922196923,-1.7365526073658446,0.10949264255588544,-1.603276048258651,-0.7766089651135767,-1.8144030388675276,0.5557008287502961,-0.48219147483171126,-1.1715101385530686,1.5621361316774136,0.28595011820057376,-0.2447290875338398,1.1293206308144896,-1.251680217630438,-0.33655684526819973,-0.14239975377115976,-2.138727341255391,-2.012392422830204,-1.9965556412990784,0.23986830401018552,-0.4421118328978481,-0.025570744607228378,-0.7718293811404547,1.4736745689891666,1.2104905128844514,0.5504804580296315,1.2758462085991722,1.0426212588386217,-1.8913007871208165,-1.6909153334530966,-0.19360926151693442,-2.471973491269485,0.195940147638834,0.29650041699620044,-0.15158228203302368,0.49587225796343526,0.888366673592218,-0.12439031545212897,-0.020250540319671297,1.155346157216406,-1.3514216748849726,-1.1549271180090874,-0.02882050962487051,-1.9008104217705988,0.9827133987489638,-1.2838618606486054,-0.34250930362786897,-1.0476174497165887,-1.7706715430026303,0.6057887319624337,1.1052061041878376,-1.4386058314671837,1.1227748241399909,1.7120044085564812,0.5688634123037746,-0.9592971616028435,-1.3974599207083518,0.5037012728995972,-1.151593104770744,-0.14936866997818682,-0.2556812717836489,-1.566939170663802,-1.8867021624805287,-1.0546621414536086,-1.89107894834865,-0.1325547773743704,-0.7945047242677044,0.7882636735456128,-2.2336570932317894,-0.46163388810953626,-0.49649844572850776,0.5640562005197167,-1.392509747764751,0.449380037277965,1.5302274935766584,0.31129425936427063,0.29062327700761464,1.6314871817293761,1.1928771262199216,0.15789473684210525,1.3157894736842106,-0.6810308118731967,-1.5055855292056721,0.2810457475606577,-0.9920881045809401,0.4452357622678353,0.04966703736518045,0.5607524408426409,-0.829220905250869,1.4257743325507486,-1.606032309249946,-1.6102813172028883,-1.2399573190974833,-1.652968727636733,-1.9726633085100975,-0.5440743056435552,1.1091314694808851,-1.1713423363031747,-0.8255529126482027,-1.536329180933197,0.27576365142907716,-0.020312431479736034,-0.6753830001425492,-1.366863643602587,1.0476692212869996,0.6147074086858066,-1.6666666666666667,1.456140350877193,0.0,-1.6126144296223706,1.3553406537418948,-0.02754755769710827,-0.5794283230122972,1.5612234602918325,0.27704598119870966,1.6590032508846317,-1.2899916369514357,-1.1479846499970743,0.7040762106848258,0.49645612330622124,0.3164071685977152,-0.20542218241985719,-1.5500413746526553,0.4006973949582343,0.051526874196502065,0.20475966050250205,0.14775080729386514,-1.054473663412764,-0.8298141847140678,1.5478041632403687,-0.780631762097413,-0.8764347923128464,0.025333746114457444,-0.0037542087903091512,0.03508771929824561,-0.3157894736842105,0.17543859649122806,0.509233464207175,-0.21530322576310496,0.7693941366638297,1.6453279591752696,-0.8240081405213607,0.4335877604259817,1.6239950430033074,1.4057915854897272,1.1517905037502012,0.8302795997931872,0.43632487245638113,2.005389231802871,-0.49347725612425863,1.3994422931244848,-1.1080505252365132,-0.9393739542982664,2.1369796447841423,-0.5280052487076257,1.0297391762245791,-0.3498222628365942,-0.5947783825561931,-0.8687361058975274,-0.6701928763589383,1.5054391166613628,-0.5127560078069343,0.05263157894736842,0.38596491228070173,1.6842105263157894,-0.08771929824561403,1.6842274489861961,1.3807196413268563,-0.3454015761465406,-0.5627802015168897,0.223059233930088,-1.2168292678235442,-0.7827714421502621,1.7658713842697182,-0.7188176319759709,0.07389957929898519,-0.6725027012498674,1.8923622096222223,1.7497912930932515,-0.3222475084695103,0.192367901580574,-0.8250827703640948,-0.04778269016829364,0.4474806476017981,-0.22580033412085693,0.9251376094546311,-0.5790831627463162,-0.7719323520275736,-0.4035092431402756,0.6140350877192983,-0.42105263157894735,-1.3508771929824561,0.8421052631578947,-0.22807017543859648,-0.6140350877192983,-0.9648425295376808,-0.5612240535197399,-1.1399190962653387,1.5095045846276591,1.61660691495972,-0.44789423225395897,1.1090162110761637,1.2534260811788278,0.06421645475468533,0.3005418852607574,0.7474117372338961,-1.5988350276712542,1.421207068512836,-0.4696649311221687,1.2689023901106757,0.5252897862709306,0.026159560367276343,1.4640163807349906,0.030390092798081553,0.0020941872339334125,-1.631578947368421,-0.5614035087719298,-0.9298245614035088,0.3684210526315789],[0.8947368421052632,1.5614035087719298,0.9824561403508771,0.3333333333333333,-0.7017543859649122,1.2105263157894737,-1.4385964912280702,1.631578947368421,-0.8070175438596491,0.21052631578947367,-0.21052631578947367,-0.6842105263157895,-1.2460484677829942,-1.0191219380629775,1.0694779071813199,-1.193011519949316,-0.24561403508771928,-1.1228070175438596,1.1929824561403508,0.7192982456140351,1.4736842105263157,-1.5263157894736843,-1.0701754385964912,0.3684210526315789,1.368421052631579,-1.631578947368421,0.7368421052631579,1.1403508771929824,0.6666666666666666,1.6140350877192982,-0.17543859649122806,0.017543859649122806,-1.1228100735576656,1.2631489188803995,0.45614747212053736,1.2983467280983405,-1.332160864531507,0.14168846155022213,-0.859297919928817,0.14089193128857644,-0.5408377403128279,1.184827605896003,-0.5595079809658401,1.1529050075709997,0.9904252906978346,-0.3354461792749975,-0.8321694404533119,1.4335817589256616,0.4198545268246698,-0.7896369456000928,-0.6841250483677762,0.8773031868194717,0.9473684210526315,0.3508771929824561,0.6666666666666666,-1.1754385964912282,0.14035087719298245,-0.42105263157894735,-1.7368140767442064,1.3333333530541502,0.5966133392341187,1.5791194709308751,-0.15634479503438306,0.3716202555087736,-0.5275540631253275,1.629954047578813,-0.9258248604588153,-1.1742600711621531,-0.020725015762239642,-1.1500241741038006,0.2082872552637606,-1.5511290249183107,-0.2775446060220004,-1.1003810238772032,1.0051875843312412,0.5451618904525445,1.3407195471089128,1.290469954307774,-1.0229576406234349,-0.10087002875467938,0.9304664002022511,1.1227952278678255,-0.49122807017543857,1.5614035087719298,-0.5789473684210527,1.6491228070175439,-0.07010286726339979,-1.7194201504526712,-0.4735923152856494,0.64527613245018,1.171225299436772,1.3734385788319419,1.248755707077555,0.7355916246000497,-0.6373132549469576,1.3205686973814537,-1.4290452597922103,0.9202290431902738,-0.42745172770263207,-1.0719961112058365,-0.3221907650770087,-0.4720624266041063,0.7919518950074018,0.8862284150763506,-0.8299279257646295,-0.23169039825300738,1.368877335068408,0.44585877379180505,0.9344107499739188,-0.3864205367317379,-1.7542055525578721,1.3508771929824561,1.719298245614035,0.1403322323335694,1.3682781095637682,-1.1246100098509657,0.7153280392805659,-1.1755720003869068,0.33457720181025785,-0.651348929200607,-0.6431543109356652,-0.08205312851826217,-1.6382867035706414,0.6197140440960667,-1.5469406698737078,-1.6924841993670274,-0.1477074572044568,-0.6421937023507912,-0.6209744717745126,-0.6081501583679247,1.033089002853136,-0.8526577955543719,1.7334654910030167,-0.31998797228331755,-0.8100092756710363,1.479449563617215,-1.3441429796759,0.0200134342539144,0.8375006340278404,-0.3331811240933324,0.17543859649122806,1.105263157894737,-1.2457019994943659,-0.31126114201260835,-1.0986176595668493,0.8622467019486498,-1.9128013949140192,0.6500646650468734,0.6181481006673657,-0.37209995932578743,-1.728055355296947,-0.5478524534149094,-0.5319550632374116,-0.14835535673989744,-1.1909099190277839,-0.30319447080051837,1.2215916295468718,0.32885247328648987,-0.3836965018016119,0.009063956303950661,-0.8442479826428331,-0.0943726979235563,-0.06946934202184278,-0.9641530850993667,-0.24794453285388604,1.3826276889345457,0.537768966637869,-1.5614345074281324,-1.087719298245614,-0.42105746121417176,-0.8065750433562858,-0.7698156592068769,0.7963434949368075,0.9632318120631681,-0.16138721191129551,-0.24939617289150492,-1.0120482887101916,0.2129618997126451,-0.5549342116340422,0.30028519323135416,-1.2332338445265691,-1.2506604099488356,-1.5879321471190695,-0.1218991808788119,-0.1361010545900227,-1.0697283708098775,-0.5531796713809437,-0.6798518689220292,1.1997811241701828,-0.8609599889283895,0.6803463684676623,1.9073151789460994,1.344323888439601,-0.8476179077335021,-1.4580530546966326,0.8412794563626501,0.2456491992890421,-0.3333692819835752,1.047728760106985,-0.9266862067279265,1.0363336533067529,1.1406355097559644,1.1641142256300883,0.929262295263078,-1.0534466055766065,-0.39800490270570765,0.768587854379978,-0.32727113875914315,-0.570382626189802,-0.5824619937465957,-2.621222993812682,-0.8556159624162196,-0.5617614938403644,-1.2957526549778884,0.7469788998699783,-1.087065035745308,0.23079387326985923,0.9140966587712238,0.23805359429140316,1.0165245222095038,0.7071322866760399,-1.0045317705011192,-0.21076453566187342,-0.15827649170525188,-0.8423913738117296,1.7106807242189512,-1.0025747074976399,0.6356913851920069,-1.5797176216793505,0.2460959915826726,-0.5952637915349274,0.15080330197929329,0.9170314826350885,0.09811782534616323,-0.5353881359938286,-0.2358229792909006,-0.13187976188956546,-1.1534091432283649,-1.607307451865623,-2.086198659598645,-0.8525693407614119,-1.5837333049442066,-0.02930295166481177,-0.39830912165475324,-0.39324867331343066,-1.003754607407562,-0.22964896974284127,1.6075724463364895,-0.5453404331265197,-0.37890485745073665,-0.29215322773895974,0.08757065698210673,-0.4387627000130805,-0.5503877908997176,1.7407330265517331,-1.2082851307794336,1.0101638082709314,0.1822696300520973,-1.2339994516370996,-0.36224032698777214,0.4273614498293624,0.17160108460290063,-0.8330747277664233,-0.6595305063626182,0.4986211421800266,-0.7277827818561244,-2.2288499402830357,0.006944520651666647,0.970171374104012,0.32915046361076294,-0.07441926151838449,0.15013333010357563,-0.02453802207566109,1.0167244183860138,-0.4200932672143767,-0.2978141152360451,0.5564423750770647,0.24471371102942527,-1.6727950235535671,-1.0858924656905091,0.7015407191119192,-0.5678867379829937,-1.034023417709273,-0.6737667420476658,-0.22245642536233112,-0.6300193860552187,-1.1919760488187445,-1.1048334272084412,1.3338670154878307,0.2458952562295675,-0.05451519103928017,1.1055771778372567,0.03157612798067545,-0.31450067325047115,-0.7310025554045535,-1.3476787530817198,-0.32008988666762733,0.9720817164715345,-1.2207837100088281,-0.1353440374271237,-0.3654378569522933,-0.4306200048394656,0.1791703059526795,0.972713580970508,-1.3673003303303397,0.1763095413613479,0.5919629561386262,-0.015632123061262996,0.438381190666119,0.36776119381869665,1.6501227406594698,0.8518986281806258,-1.515810207321556,-0.5251844857343708,-0.5306091071065235,0.04923121007625594,-0.4823754160269944,0.6561529719857763,1.5837767397826723,-0.6616670264703509,1.1317104687842026,-1.8642873876861425,-1.246438790114632,-0.47255467733221873,0.20700620986657772,-0.5697677030124622,0.5506281879361791,0.30740032239964377,-1.167510982771598,0.1920252737481289,-0.6806819898778159,0.17657278864913492,-1.7855029544616903,1.2051663990592392,-0.9492534384009624,-0.3335309305673207,1.403546994854028,-1.1611660775789205,-0.6900530678550375,-0.6668880721655296,-1.3692403230529633,1.3413405568301286,0.7599067472909217,0.21388592466468892,-0.05702919445489212,-0.4100304688469862,0.7554416022912106,2.191864894101488,1.0993452575929867,-1.6389472265916973,-2.371692134657526,-1.258403590337096,1.1749550627535095,-1.3952301151375175,-0.2132823710215187,-0.7778049913318773,-0.5895557262172849,-1.007133239251856,-0.7761008506528037,-1.0415603722465174,0.9371293449504229,0.584021987357035,0.3790695122117908,-0.12169486644463734,1.5263158444696454,0.9278618229501676,-0.09999556387455422,-1.493432665757639,-1.2187267571963742,0.49902916947519416,-0.16867574466322113,1.6795041116362224,-0.34234377030752206,1.6692170946352247,1.2835647284207532,2.9781440440982716,1.5099526433314159,-1.7663455012099114,-0.000832932606806737,-1.2502343578826471,-0.7765985901421876,-0.39276672638684246,-0.9777118710716679,-1.330361222346589,0.3665583551554372,0.07640010226636422,1.1233306294760173,1.679719094153795,1.201111056495102,1.636431503740139,-1.4542219990284817,-0.04543264289493974,0.8771960525625117,-0.8091513396087625,-0.6424987883397388,0.6966329305190804,-0.19676050986835342,0.7279098065687344,1.08837455361702,1.1132575092582082,-0.08548135076478447,1.740277797496359,1.1282160506373047,1.7186691010246782,0.3934839852752948,-0.6469149812762061,0.5268268733959569,-1.2063097365085518,-0.18593504236064096,0.18399168957888087,-1.1538237736310943,0.5224040499164877,0.7129138621891061,-0.3894957606243617,1.8768489842498073,0.825038705684807,0.5983026008385416,-0.05965357184579115,0.6502696100484713,0.05270879878755106,-1.6315751039333977,0.122648913320459,1.3253089505645879,-1.7104723370852821,0.18416016052603756,0.34676299686402473,0.3675100710643041,-0.7604627417920471,1.4437262819043761,0.6833054790466226,1.521380221114352,1.8943026129154221,-0.427139876501838,-0.1356385507010369,-0.31006519309463615,-0.2548032829323219,0.8973299133807874,-0.7815399096596847,0.8946794485440014,-0.010558477339338082,1.0260141835095602,0.46104423322136984,0.45098050938785766,1.7294005336295153,1.0902999168253502,-0.07590478435019703,-1.3116374633586276,-1.704775056359595,0.5263320076391351,0.87704715477996,-0.32251282832909256,0.9894458822564202,0.3596604347988886,0.07937125005755621,1.244771651195231,-0.5034412317713776,1.5403423810142258,1.1386382688685404,1.1461433429060086,-0.07837510532476752,-2.2098443156960985,-0.40691928469881394,1.6464892220008247,-0.3067797608044732,-0.618862276837729,0.7983171810994536,1.0258141195732535,0.4836318970777319,0.5306668906312386,1.4159622942058794,0.839566534040688,-1.2224666256627479,-0.11686492421797369,0.9950149039901203,-0.9161043854646913,-0.6165147760811654,0.8070175438596491,0.5788038396048019,0.1508487865892411,-0.0666262770742142,-0.13107324883099247,-0.5328087061986185,0.49009498731269086,0.148916039209897,1.2371752354198495,-0.5442902509352873,1.4479986473484625,0.19970254668703802,-1.5184897377921092,0.08981423659230481,-0.2240413091306139,1.7872590158899708,0.5654611639915132,-0.9107363765642816,0.38661864244556976,-0.7801477067134084,-0.7745832346427233,1.271086672377314,-0.2835653113129949,1.2484826781865588,1.0578609243109696,-0.3949511279955799,0.7364905201827492,1.4546580785224088,0.9292734013191528,-0.26320602370270413,1.2396639650224668,1.3182152194750139,0.5203363790992735,0.5414567317640031,0.490374983012792,1.08645484916828,0.9407082947581277,1.3211843667819907,-0.9374625349699904,-0.19814309805113167,-0.4198592977191882,-0.13520636342336934,-0.5441678529341957,-1.0961481933993422,-0.393667208441743,1.0666652033571178,-0.4332342762821667,0.8413266076397019,0.530313012433059,-1.0468835377230883,-0.7539533388072869,1.2421645801626318,0.37623967807871417,1.3831056929186711,-0.166836446107007,0.6665187642405461,-1.192982454503308,0.0007005685723243041,-0.3245626605721117,-1.7651129093236655,-1.0709735706690189,0.7132673706171997,0.15545382822379028,1.2291776793410765,1.1512165081941492,1.1397814667181438,-0.6456940832734648,-0.8473093603750494,-0.41926704012144256,-0.261990378988291,1.8253158070945745,1.0649236026006752,0.9034429598072533,1.0966240583909375,-0.5640165738916054,-1.0287177177956122,0.64928543856023,0.5301069808376649,0.6488016223715062,1.038591311735692,-0.46686234901379847,-0.6450408310491854,0.25581383266528107,-0.7014810542341733,-0.9298245614035088,1.4923012517477428,-0.5261914993822965,-0.12871299563045646,1.183213280770239,-0.7497286336774909,-1.1099474716936213,0.09403406295198213,-1.0666179704842182,0.09612964569307197,0.5404787614596244,1.5745912445646797,0.6990412892287078,-0.7515334233563309,0.48028645715264984,-0.2049635927197551,-1.5797212417301085,0.5046980503118087,1.1887466884675724,1.1144331954383504,-1.814513121773347,-1.28418619252761,-0.9787494294048086,1.0388395325049329,-0.09328812472651417,1.037993317310282,0.3083380473607802,1.2105339060031453,0.2280701795351166,0.08767304589126203,0.1300910445284309,-1.781846131891754,-1.4496884681667372,-0.050922526183617894,-1.5594480778358808,0.5841935431908869,1.0264577307879679,0.37850038652774737,0.7247040310413826,0.7444758642248097,-0.3032159473684163,-1.2096521421624904,-0.73633261135348,1.375060259195361,-0.10408532745077133,-1.4483693079448305,-1.0484644590890793,-0.05865648933266748,0.6536753744763045,-0.2523058613391344,1.117718573611527,1.3223384616669112,-0.9702515066471724,-1.7326416738617716,-1.144132580791256,-0.9473680907960845,1.1052631618632407,0.9473677836040633,-1.72183444510347,-0.986471050254196,0.6987119934999309,0.2874478315535891,-1.0088564926523391,-0.25501776854358765,1.093672563765618,-1.681935505380074,-0.9909951757154531,0.9106128867790562,1.0932777731385266,1.0085494413194203,-0.6719327753605299,1.4650635169086585,-0.013601543643133762,1.1800944764000079,-0.1351108322055581,-0.109116796934394,0.7823671697406177,-1.0698260090448684,0.2958908519817657,-1.736755757200907,1.6950147992409452,-0.9099995607968847,-0.947718901726988,-1.1578941271377108,1.0,-0.43859649122807015,-0.78968997021607,-1.4488693369726182,-0.9430582554378898,-0.3336663479480357,-1.7561791677901983,-0.722007976706765,1.2381299090220164,0.9607089615684254,-0.3166547027386971,-0.23349341409403637,-0.2986191165410075,0.5151606943771612,-0.7417116874823467,-0.4452480423911916,-1.0737531070702386,1.0570630330118147,0.702751894146326,0.5207971031924414,0.6806479843794692,-1.5846112453912606,-1.6142321463642217,0.8955777219000824,0.013118508289987715,-0.38409830118719923,0.6976101718479126,0.5263157894736842,-0.3157894736842105,0.19298245614035087,0.4034605463403865,1.069944427656702,0.8748842674756037,-1.4982483892428657,-1.5875458973835612,-1.5460683784876397,-0.7063741374676229,-0.3314557531372059,0.03917454777097803,-1.240833726397657,0.6129793638397307,-0.42340636344742716,-0.35757301982361495,-0.20102431367096477,0.5089070863403689,-1.431055281814352,0.47232457938489325,-1.227568925213658,1.1374638727686404,-0.19073481059526887,-0.5219706922874694,0.47809697514063537,1.5688497082900341,-1.6444033538068619,1.2105562123372886,0.9649122807017544,0.19298245614035087,0.6666666666666666,-0.07017794024156082,-0.035022802964534375,0.5028183130040065,0.9371557370368504,1.0098803238452816,-0.9122992716074589,-0.7459701545174273,-0.7616961897209964,-0.9796628674206427,-0.9648649320162566,-0.40909057057559894,-1.0858846906019743,-0.1657128369623852,-1.3485788443139022,0.2763385419016046,-0.6746555997210181,0.21043171671364985,-0.983882675151097,0.5156928674402307,-1.5227934749737118,-0.4280477300191298,0.8592381755206061,-0.49863752908217013,0.5087984581256013,0.5614352423890174,0.3684210526315789,0.7894736842105263,-0.43859649122807015,-1.1754385964912282,0.8070174249318727,-1.6121746347491046,-0.08234362960393216,0.1474427650100923,-1.2648245218785998,0.21945019627654544,-0.42396157077371355,-1.2894822732793763,0.0022511018049389173,-1.7542064290241015,-1.743220141992238,-1.9401554990302268,-0.34173471204349753,-1.9257756195572726,0.7045962228740686,-0.4031592563628681,-1.867767928595649,0.4278750137479006,0.06317306571548442,1.1255638852464613,-1.09339009279743,-0.6842069994028607,-0.10526244918216145,1.5614035087719298,1.4385964912280702,1.2280701754385965,1.5087719298245614,-0.9298245614035088,0.3508771929824561,0.3684571407820788,-1.2276104650792103,0.9832950192996124,-1.1395178342278258,1.349319815059914,0.6770980794477383,0.6128078747252228,-0.45324963960191994,1.1508061120020712,1.6152241439168047,-0.1422699181261,-0.6740052761441919,-1.446717899419574,1.5916212798022396,1.5523909958572275,-0.02160307150243567,1.5524220838801903,1.3827656580759307,0.9957138390323371,-0.6673667273807997,0.03508771929824561,0.543859649122807,0.19298245614035087,-0.9824561403508771],[0.43859649122807015,-1.2982456140350878,1.0,-0.2807017543859649,-0.8596491228070176,-0.7719298245614035,0.47368421052631576,-1.6666666666666667,0.7368421052631579,1.2280701754385965,-1.3859649122807018,-0.38596491228070173,0.6315688104921964,-0.8772151787198647,0.3684210526312827,1.2105263157894617,0.43859649122807015,-0.15789473684210525,-1.6491228070175439,-1.2105263157894737,-0.7719298245614035,-0.9824561403508771,1.4210526315789473,1.543859649122807,0.12280701754385964,-1.456140350877193,-0.5964912280701754,0.2631578947368421,0.38596491228070173,0.6491228070175439,-0.07017543859649122,1.5964912280701755,0.8947368419216348,-0.6842105268552385,-0.9473684211204741,0.9824392958689834,1.5602320939321452,-0.3868523467242795,-1.614439939173101,-0.8947964701589879,-1.499436806530124,-1.6842493575549204,-0.9704191379399635,1.262322627369462,-1.4388659564399522,1.2798458590113504,-0.3158060155884903,-0.6842131228410061,1.5087715448124879,-0.7017543951350427,-1.4736842108526464,-0.33333333368279805,1.368421052631579,-1.3508771929824561,-0.8596491228070176,-1.6842105263157894,-1.3333333333333333,0.8771929824561403,-0.701754385965304,-1.7543859649143385,-0.017543863519155465,-1.7368420579492714,0.6491231117362491,-0.5617606196433889,-0.7533388144101132,0.8796293205348167,1.1056828820121587,1.1153644649580188,0.782101355691288,-0.2838250784447933,-1.3357283838344698,0.03868540000321517,1.5014993980370195,0.09954815190759478,0.9803889940503884,-0.7198309948386936,0.24550317973685712,0.19298046512617983,-1.7543860146177972,1.3508771583945047,-0.42105247035073134,0.3859650296854276,-0.5263157894736842,-0.2982456140350877,-1.5964912280701755,1.3157894736842106,-1.5087043149637513,1.1228231163043791,-0.3333332967986511,-0.6648921338195724,-0.3653617708062495,-1.2563301992365126,-0.07257646403251745,-0.34867033167682676,0.4926937178141559,-1.4940084264442646,0.9749923837343694,0.6509646852839324,-1.4440116483422771,-1.7216966049606237,0.8294379351677916,0.431521948718336,-1.2904379275862667,0.6732776461704334,1.3844243321897947,-1.1610027473006876,1.7360344092854634,0.385334142548112,1.0350687043125513,-0.9298244573399873,-0.35087719228644637,-1.4035087719298245,-1.5087719298245614,1.684210526315585,-1.4734523883331814,0.36843439159719177,-0.07013765134552012,1.7043293692643695,0.4927562014139312,1.470885363568497,-1.2308341214506802,0.9043648082318362,-1.414371110450213,1.5145024252644708,1.4863926676177783,0.104377683925693,0.8746025568411195,0.9429622841120356,-1.192996188781281,-1.3236177207958555,-0.8904847899983769,-1.643763488153749,-0.9509152619614922,-1.4539913623203358,0.8632217592355234,-0.6689842498466957,0.18109152032514117,1.0301236870759112,-1.3191260037137353,0.36834326651034544,-0.2631578947368421,-0.6491228070175439,-0.5262835743239161,0.31577566817668806,0.8067929503083477,-0.08577811399600634,-1.1214046250008252,1.0566206604574653,0.9115157306940084,-0.1444014369334673,0.9500782116713012,1.3435672539592414,0.9047736892185801,0.5112468231690507,0.8242083490207067,-0.9417466864131424,1.6541804098982626,0.27492125123612565,0.12607341831570457,0.6565971736799764,0.05578976981146016,1.7494568223049056,1.071915823132056,-0.6430269497751434,-0.7498893018904728,0.9272836872245183,1.087908133556943,-0.6140344589219184,1.3508771929824561,1.1929824561150424,1.5426860941657257,-1.6155526029270915,-1.0184805257435054,1.6472214368872438,-1.610852350074216,-0.4056778408097557,0.7485328379524732,-0.6782875452734064,0.40402583710166046,1.4506872255382681,-0.026412228799639358,0.20325972082632227,-1.3330995043996872,-0.06459849827502359,-1.5465004374291322,1.3599896316803781,1.2594975164992657,-0.33988380406801355,0.015935711950241817,0.4557623038750688,-0.40746716730107324,0.0991756031396699,0.9004392504337294,1.2873315739596192,0.35309125778456024,1.0703009977309466,0.6666666666674795,0.052631579200649634,0.9466207523299864,-0.1414937438589023,-1.2452990407866475,0.48395402794310044,1.1368398003920117,1.0191772792929776,0.9699500254931678,-1.5938946807725423,-1.6483271421809136,-1.5484315030170879,-0.10134590498777053,1.0827875847715658,0.5350258607872969,-0.34384026727794936,0.19467915263470276,-1.6883246512125483,0.008915816980496316,-0.35093631952804233,0.14107842480519955,-1.4059951247664322,-0.6071454672670503,0.8003318978586026,0.1939632943260116,-0.5042568156030515,0.12403612483120545,-0.9821612159658107,-0.789473684207224,0.298245619238353,0.8068409605914004,0.4911668698971326,0.6342064505444214,-0.4226047806451502,-1.7436888101985766,-1.6360166673171586,-1.782877340422909,0.17894062533705873,-0.5624909542584696,0.5670860618983331,1.5081048672760118,0.323076656398577,0.10945011561265357,-1.1681671635042103,-1.6323742388763363,0.48248805293124336,-0.009100636524197703,-1.2614253061888971,1.334620677586385,-1.431172103744411,1.3709212954227685,-0.11064742165904229,-0.9438726576583888,-0.9096790758753587,1.6330959483206715,1.737253784339452,1.017543797636436,0.15789455130487393,1.2282883921766203,-0.613707293326468,-0.40075335391644956,0.9832755983057959,0.36932651921800175,-1.1355745244604776,-0.5764455166858196,-0.4615185192863237,1.1242597652402946,0.9161977034010937,-1.4433704323781535,-0.5225017981233834,0.46608746817687097,1.1695566999562452,0.6938821958568677,-1.339203978752496,-1.109907771898678,-1.3939026659538085,-1.0640822624827024,-1.496290302884092,-1.4519663000493983,-1.4398804289879545,-0.07064177501602377,0.33489249980724617,0.5794796966753606,-0.2280620081023523,1.1929823840133222,1.4561417878597935,0.5967813545027626,0.6689550174625082,-1.2966361664383688,-0.8562508856987344,-1.4192610707212645,0.0038010464854589627,-1.182407758722688,0.2135928543647449,-0.47483483294742507,-0.3194361058933058,-0.6898460439491235,0.8985887162892963,-0.5610864527246291,1.0490152357948617,0.3617983407739235,-0.5531551299572233,-1.0273789396018396,1.2230366736121618,-1.4694239147997534,-0.1856859376887332,-1.7331656333948742,-0.6019904414822445,-0.08995711456615404,1.4043816140487753,0.9653080939197193,-1.3859606657481471,-0.3508772004256922,-1.0526219065112001,1.701790274106871,1.334980864960101,-0.17487920733760717,1.301946029754851,0.5640259449530071,0.6822844681674618,1.6670021210354622,-0.22326674374479052,1.3180205499341173,-0.3593771413717575,-0.30823353444596874,-0.1277988627353665,-0.7793571954175279,0.9480790028757348,0.43083627810087927,0.7105044264504882,-1.3045958513174558,-1.00196367257597,0.26502379378340624,0.58587070910685,-0.041064054888237354,1.3077600328162622,0.5413136079242539,-1.7075994976341968,-1.298463460810215,-0.000250291262659808,-0.9298245589990666,0.4561485184928619,0.26327894519448936,0.8774099537500036,-1.5295634303777654,1.4083630420404565,-1.7846510448067523,0.23155218854514611,-1.3938744037942816,-1.187416833780445,0.11716415989235901,0.8600068335182963,-1.5283732119251707,1.2723061939567057,0.07243123627227373,1.2952072529875278,-0.8861664872199321,-1.666630716474313,0.6906331392007885,-1.3763205976899353,1.329471823285964,-1.2432404328893056,-0.10135353355020854,-0.812621739335162,-1.23628679454814,1.0787775295441802,0.6972752126731562,0.7893585904470014,-1.4385736743451187,1.5789483415970385,-0.6841618650281205,-1.035197056215457,-1.322550843345263,0.31707813011161,1.2938307869708792,-0.5651431021874698,0.1772370556990485,-1.6980950700059219,-0.9988485053234989,-0.8561810208827723,-0.17265825958168435,-0.0766886660126065,-0.5360308621262271,0.6628619076820352,0.00021613069715890044,0.1898649149081542,-1.8005172484524439,-1.2458034624996281,-1.2305336034607546,-1.5508007152490022,0.9805582792372367,-0.6985066097906429,0.5828131171161528,0.6597287443534208,-0.7757748968117008,-0.0515417395320861,0.8421053937754663,-0.38596455656183953,1.6315062702202383,-0.001120279694440624,0.6827479421644099,-1.4970261630756654,0.4301971642872991,-1.4617099185688416,0.5173536686743547,0.31440122075355414,-1.8009796236949374,-1.3429143096798293,-0.7223977759420158,0.4458281125217352,-0.6069285589897329,1.8029612428185011,-0.7215626950136388,0.07862492482185979,-1.222067118659457,1.2710609604518748,1.2642053571223655,-0.4441811908819194,1.0681788620083355,-1.3923344126200972,1.4387809458583605,1.5811085093764026,-0.05484914793773343,0.08773438611003803,-1.245613969134722,-1.5964912967853149,0.9813991899411308,0.5787267271889291,0.8591179135636553,-0.579388904152445,-0.7349018983347304,-0.9087519856458354,-0.46870838145841276,0.24141953825168422,-0.21517267356352213,0.6018578600873687,1.6941700130696709,1.492887570896821,0.9888758579868907,-1.3845397303468552,-0.19511262730326973,-0.9304097159942799,-1.3905853073489536,-0.5186623371626958,-1.1570529143580839,-0.12562665225359598,1.1943174282862414,1.6900083200032054,1.5795825684187836,0.07105489580425157,0.21062727543440118,1.0526031915457066,-1.7192981131316867,-0.6842079045484915,0.7526354475589793,0.27928329506383204,0.4207149843557462,-0.13659951521426536,-0.7237726000664904,-1.0209916391663825,0.6456852334729342,-0.8122706464121779,-0.16138674224073557,0.5746259082632484,-0.5373509656181759,-0.797981346080894,0.8343993356377066,-0.9320233773452032,-0.755985349327692,0.039425593354460366,0.6915179824690256,-0.9838471449091633,1.1158061711342875,0.39131011120960896,0.011838513942280292,-0.8142567491829419,-0.9509268327866891,-1.1994431076421552,0.7945945519082733,0.6317201104391974,1.5087719298245614,0.14035277842723698,-0.38870704660220873,1.2954000828110699,0.017510560673454714,0.4442610547633949,-0.2792012858699504,-1.7380039784730232,0.6560012975259821,-0.5619251176801339,1.2366736085788428,-0.4319642428169164,-1.3647778381617879,0.5836307703253413,0.5297871658079958,0.9442750843243631,-1.3228673491651284,-1.6988262406122097,-0.8862311549343252,-0.45994144376890983,1.5627677461705325,0.38773398355450817,0.16708847252751954,0.9196701875209018,1.4939850611885606,1.200875453040455,1.5518845878386807,0.4753528258392076,1.368421052706555,0.4912280948420289,-0.6514475144090796,-0.8635962901477718,1.401016434954527,-0.7191458096608173,0.06357930811940446,-0.46013394705751354,-1.3874328659400403,-1.2013391115403227,-0.38889157107422645,0.33082871513524054,-1.2267357117451922,0.32380941257934703,-0.509753586552089,-0.8826459525002787,-0.1780865205630258,0.20658566696107356,-0.27868262077519984,-0.6172839801738406,-1.220049587353044,-1.0376396541541422,-1.7068586999867308,-1.154128763757619,-1.0251217275200595,-0.41556598134265943,0.40610628491457823,1.0182855609976496,-1.3684210469749674,0.7193055371244951,-1.3696563643593953,0.6463812087339422,1.1548594994787604,-0.9686681630451067,1.6793619417797732,-0.1945483912005133,-1.427619715533228,1.461803112098071,0.990008301079031,-1.035562688786346,-1.030762445884577,-0.24016430414631537,-0.46041391296628065,1.0470545423068782,0.11541112524055132,0.3701866791504366,0.4902179680199861,-0.17495255228662152,-0.32445233715354577,0.9225369189400643,0.6863669766349619,0.03981586477135545,-0.6768910904750769,1.3396702194912522,1.6542658429561787,0.19304203302182413,0.7017543859649122,-0.807016207696505,-0.15793364122685027,-1.2111982318671555,-1.4923843617363295,-0.1996844434213456,-0.0337937006846568,1.0381037840697955,-0.09906714587819011,-0.3062139945808228,-1.27240190907852,-0.2903099110780372,-1.2202846347155962,1.3494781237482758,0.25776156571275877,0.8723987300220222,1.1414214278472234,-1.0478861447860477,-1.5393546801617415,-0.03039257598799355,-1.0965828764074768,-0.5867562600948084,-1.5046106061131654,-1.4287705101289625,1.141966368865741,1.586628088502408,-0.6966298696125932,0.7017549512135746,1.0701756829891282,0.01754388217960009,0.21045213801939086,0.15776948568239957,-0.7036477394105675,-1.162032167613533,-0.1401206568748491,0.2828479132252351,-1.0667079947391176,-0.1013017301405455,-1.4430521784106505,-1.139911953894505,-0.5707177265626445,-0.4589466835000613,-1.1238104867593588,1.3402481397684876,1.6284649156328928,-1.1026457950971076,-1.4353795360808699,0.45419180406087356,-0.49280344739829635,1.5120666850394817,0.8594627687841633,-0.9889607804665317,1.032158963515132,-0.3635968219499821,1.0547445486468403,-1.5263157894106893,1.1403511139483498,-1.4385964289588815,0.5610661094723873,1.262903341533998,-1.5960153683470448,-1.0908256984982594,0.6036385220616586,-0.09679159863522686,-1.7249174471251345,-1.1176815050645077,-1.9015980300544715,0.20401171233617746,-0.8029262086137259,-0.36781858486382635,1.109887478680047,0.7205508128383611,0.41024485277931116,0.49445020056853045,0.6746254519448471,-1.25117685344534,-1.3303031151290596,-0.8992495857754829,1.4906569690331386,-0.7400903369163554,-1.4151630541574616,0.7200675929427068,-1.368403231029442,1.1228070176601577,1.5964912280701755,-0.03508771929824561,1.5785152950862993,-1.5790906474705517,1.6157692384051836,-0.7887822669963395,0.2781828104940413,-1.2819601009597357,-1.6757689463634338,-0.34246773596346514,0.948726898308232,0.764951399594115,0.3268891155027674,-0.42272824302171014,0.9434541337343347,-0.38530424885708736,-0.826887905609746,0.13896912921383922,1.545179307099063,-1.4049348345404546,0.14242715227930425,1.6525203063244305,0.3429847007322548,1.010015413453537,-0.6085192872318776,1.5266973356531528,-1.157621309198527,1.2982456140350878,1.3859649122807018,0.5964912280701754,1.0175380643490375,0.3859729690938003,1.0565884261460285,-0.40953916080883307,1.4439257852558791,-0.2746127257273883,1.202320607203233,1.5849671685272997,-1.7218957736344755,-1.6621239058034414,-1.3329869143178552,0.6218524328259418,-0.7340889229930779,-0.7438187825943104,-0.17525934471764537,0.039223519154712685,-1.3039264281079217,0.06797845087941443,-0.22237430695363872,-0.42255632716159575,0.6865151603923578,1.721651598444125,1.2317305411810866,-0.26037197387634814,1.246032859477316,1.105263157894737,0.7719298245614035,1.2280701754385965,0.9473682699725161,0.7368098768923476,-1.1769822712437323,0.7171003172322156,0.8056175817231075,1.7347417721756337,-0.42509887496920346,-0.6873774304847758,1.5392885149224076,0.49462768099286886,1.3047878157211192,-0.03504914248275474,-0.5588515587104012,-1.354059016448175,-0.19160686630887588,0.3194393115309609,0.8158228725726746,-1.2475352557428185,-0.6849533389819153,-0.10526967609520971,-1.6669326843080439,0.14022229083753054,1.5438677558282505,0.12284413652428296,1.543904021237668,1.736842105263158,-0.6666666666666666,-0.6666666666666666,-0.2982456140350877,-0.8771929824561701,1.421052631514928,1.315789425949837,-0.10526075112372131,-0.578906752472542,-0.5438426463237643,-1.5614074460281782,-1.7556763162522078,0.34743886177926747,-0.18154647953796021,-1.3926095710661786,0.10828085426686601,0.6552629180905988,0.33969350882449534,-1.3283715936968343,-0.7396907891444485,-1.4563518277673102,1.491225695935196,-0.8070081029237584,0.8947406224411427,-0.8421050841698798,1.3157894736889009,-0.9122807017543859,-1.7017543859649122,-1.2456140350877194,-1.1754385964912282,1.2105263157894737,-1.5614035087719298,0.9649122807017544,1.210526315789491,-1.2807017543855441,0.43859649171400594,1.2456140354976837,0.31578947335225027,0.8596491469007498,-0.07009370571769494,1.4212016031074715,-0.8420806611269585,1.1581179637228496,0.00003631967341476957,-1.5262772632399126,-0.5613432497130055,-0.7192944017828686,1.0175440950534902,1.4035087801014237,0.19298301976980536,-0.35086761651137427,-0.08771320816526651,-0.2807017555388364,-0.45614035087719296,-1.7543859649122806,1.1578947368421053,0.7192982456140351],[0.5263157894736842,1.0,-1.736842105263158,-0.12280701754385964,-0.08771929824561403,1.3333333333333333,-1.7017543859649122,-0.12280701754385964,0.45614035087719296,0.0,-1.7543859649122806,-0.6491228070175439,1.6315794246361854,-1.5263040801309118,-0.017531992333705296,-0.6140345932478226,-1.2456140350877194,1.2280701754385965,1.5614035087719298,-1.087719298245614,-0.9298245614035088,-0.14035087719298245,-1.263157894736842,0.543859649122807,-0.12280701754385964,-0.21052631578947367,1.087719298245614,-0.3684210526315789,0.47368421052631576,-1.6666666666666667,-1.5087719298245614,1.4385964912280702,-0.9649122807017544,-0.8070175438596958,1.08771929063211,-1.0525193454907735,-1.4501148975781557,0.8818568247391138,-0.22580074818610213,-0.8245622816321585,1.2982235149345294,-0.017564661706350012,-0.483113035365176,0.6527550571484759,0.43663168909177746,1.2279304614152693,-1.4386224477159526,0.21046060920763524,-0.7194104860921334,0.4384870471936615,1.2806941374833556,-0.6315789473686094,-0.2631578947368421,-0.7894736842105263,0.43859649122807015,0.3508771929824561,0.7192982456140351,1.2456140350877194,-1.052631578947371,0.3157894656142267,-0.3684210527292639,-1.4210526316553527,0.5614031498047076,0.24800388952299454,0.5527872107691634,0.6044111818096307,0.7123796342708786,-0.5893800022625404,-0.2508225859562978,0.37403794473147445,1.1194568293768645,-1.6285201539346736,0.4333146369478648,-1.3366177380543594,0.09668739030101356,1.5280864401068959,1.6194954140559055,-0.6654705715859386,-1.5973986645113818,0.754186399314392,-1.5438746418014402,-1.3508772788451364,-0.3508771929824561,1.2105263157894737,0.8421052631578947,-0.3684210526315789,-1.385965596851843,-1.6491230327391262,0.9473678962506596,0.08774368519644615,0.08859470635019955,0.9886715832030187,0.6697487696319618,-0.9395643737630992,0.27644672905713985,1.759964821243299,0.45809190601362204,-1.2362327579171883,1.8931528130662294,-0.3221577291795635,-1.1122262982862832,0.31815900397580826,0.2417612764321904,1.548586593092058,-0.047468795729494556,0.45308193345130093,0.633605124701009,-0.6327600193842141,-0.28076800400115776,0.9472435974814803,-1.6668951547374362,-0.14035087719298245,-1.1403508771929824,-0.8070127838263559,0.3333306103189389,-0.9648408592302341,-0.45575799722477106,-0.9426704984627655,-0.2088800239158282,0.5030240060368479,-0.42705599469456124,-1.414122281651444,-0.25828700290784035,-0.08173181649089335,-1.4458119097479605,0.2894378075336451,0.5923044608355691,-1.400009118373863,-0.4304754066505143,0.09592105928514653,0.7068219477684305,-1.454565505312174,0.27637104956507197,-0.20987034558944972,-0.5264115403555106,-0.1070034855157076,-1.572090339301848,-1.5190367903709818,0.9852189449180204,0.3893112232868846,1.6666666666666667,1.736842105263158,0.7014718353077425,-1.1262758366838117,0.5959181847336086,1.5015209144729003,0.7313866332668899,-1.018503205504999,-0.2931585658431937,1.8289389787534944,0.33414020845688,-0.5263674573669649,-0.983068528391886,1.0922777527773722,-0.3959643907606202,0.7984846769414492,-0.7148751910795459,0.1937854934901446,-0.46348020693420006,0.3371978153169118,-1.2315680434285685,1.0518122452098477,-1.7882656646955266,0.9063941469061784,0.3806143205036684,0.30662327785187204,-0.592330057387181,0.6715582905833166,0.7017543859649122,0.21052700316270254,-1.6307018907891537,-0.09522458641907998,-0.14242696731946206,0.17230755673629053,-1.5749597103465351,-0.38465646288887084,-0.09802384132194059,1.2883671179966953,0.8720889152556298,1.8059272312737187,-1.1682798519880568,1.1213936797718147,0.32183714769949806,1.8943137370354906,-0.43979587488558225,0.3255055444985881,-0.2960487182209368,-0.5230696139390272,-1.335971232594929,0.7810053646308174,-1.7792752922093578,-0.7307143313907144,-0.05124171483205516,1.38618101716527,-0.8358490637476345,0.29824548748235413,-1.7017459052504387,-0.6661108516764649,-0.6832879606018455,-0.6090627850575815,-1.4145182112268424,-0.39853919215055483,-1.2890167177962715,0.2661448282034552,0.9855889088922338,2.090776365047125,0.19343312449336125,0.25109904633252506,1.0305286179149504,-0.8099588923168376,-0.9376226616405935,1.0551106189144766,1.4853348095761973,1.765758064192425,-0.20499717973514128,1.1549836963447335,0.2279457522652722,0.24377421473224042,-1.517713294067406,-0.04137809603795528,1.5387182543153841,0.007944641639660166,-0.07717047956896014,-1.0502538360841738,-1.7543515007314163,-1.664669189951044,-0.4879458194080667,1.624406027635925,-0.6934654759930265,-1.171604589282246,0.05109887642104231,1.7715473150022727,0.7219801045236623,-0.1371002372153758,0.28444995252291866,1.891258657233039,2.0383163320017585,1.477639242544959,-0.5952467169320989,-0.1899179566585291,-1.1111641611515053,1.2830886672253707,-0.8528993788904965,1.5898311102519067,0.5014834067684961,-0.7368855745763215,1.839862148577989,0.7049003157554455,0.033069015519254834,-0.42926132048039384,-0.31216417407694264,-0.12095696255710224,0.7195489229787492,-0.2791907096205365,0.09417312837291267,1.3289250683453913,0.5701985179308797,-0.9858752433341984,-1.4953095188209657,-0.30995638547652193,1.8050060597993551,0.6210189007487725,1.9902726916872704,-0.16903914842608228,-0.8106068537542934,-0.8065462679298168,0.452420790709823,1.0745291409398063,0.26970835316497105,-0.39102982331661845,1.4509928039093156,0.0548642473578984,1.4781577409868938,1.6626726381554386,1.4164144744284795,-1.0759668680559944,1.24161129662858,-0.4717361137608694,0.5071854871167111,-1.7182517595108282,1.5967780329342742,1.49126577057005,-1.345181572045441,-1.1416618937901954,-0.702677869112653,-0.9553328488464531,-1.271165283821416,0.7322205311107439,1.1351933633063127,0.41440937424209384,1.0888795489585672,-1.288168508199794,1.3693925236775957,-0.879780338502497,-0.8485255742164037,-1.8827546715670518,0.6471740792694621,-0.8710097615731962,-0.6992342421105218,1.7360089305819546,1.2988112643545626,-0.5871526920585646,-0.32562246284484453,-0.6134046366104985,-0.21997221937143496,0.09748778238286233,0.29908637554344947,1.262967496087909,-1.3330554330155653,-0.9222155284279898,-0.8305565218883879,-0.8967325237415495,1.151486153156336,1.435172981123696,-0.41686953637230123,1.3824308476006475,1.1675104231118434,0.5901828992782971,1.460376906109045,0.3684074610386555,-0.8502121834247595,0.7710644419511079,-1.8972134127544813,-0.9694430026818941,-1.5394723776328882,0.3728045826396196,-0.6147999454445476,-0.7223868032804733,0.7617893355112467,1.3414043452770148,1.2461696568921883,-1.246597895602799,1.5970624699631055,1.7570482933563791,1.547001507537543,-0.22800098717002634,-1.649043689134663,-0.2613161526761193,1.1500425654876187,-0.9650771296868206,0.6609085805077255,1.0908412512619003,-0.5453802190694933,-0.8339963795835804,-1.0918672677488899,0.7553346796037236,-0.1201997954327117,-0.08520815618308519,-0.6037992785034165,-1.202815204322634,-1.2412184885948194,-1.422098141525844,-0.16296165998276468,-1.1071714236352759,-0.772727652636756,1.7359435089117614,-1.0820383276232746,1.1912363342646255,-1.2691921531134096,-0.9429637908222358,0.7581399840503114,-1.0594735074866397,0.7543290352852389,0.17583642780799552,0.07013357413245164,1.526391487498624,1.6499496005566594,0.30083994554002835,-1.3240202734102928,-0.326259324107936,-1.5196304578887765,-1.1306271817428435,0.9650515513067361,1.6143341670659268,0.4175727687545529,0.7721732812205268,-1.4114809609589436,-1.1922923439468422,-1.3875774007354487,-0.25505285638815933,-0.35208735142057,-0.4456976995878451,0.19747573283945405,1.5846098914547266,-0.5328869880717876,0.1282514522453106,-1.2827132292870695,-1.4747196316782116,-1.5108715561785437,-0.4712981574563861,0.9085066887903869,-1.0701873184312043,-1.0701754413807638,1.4912353199403385,0.4207126498125825,-0.5136842340288352,-0.8823455512155141,0.9294770370947407,-1.2842125880042818,0.5642804818319839,1.7380412026007501,-1.1474412131193603,0.8521571267430005,0.04681595032664993,1.2172521986961378,-0.8761037481860474,-1.2083031444855383,-0.9395572148373232,0.6942850344100232,0.44207431284669146,0.44479131008997824,1.779043540896176,1.714723512743661,1.236339246622666,-1.2774416548361232,-1.0749173696039762,1.6812108973152393,1.5477941432920395,-1.4383684614444834,1.3684208595879692,0.9649124684754731,1.1754386201030813,-0.6345959569072308,1.017248530945761,-1.679452588090664,0.5767068542885851,1.762286797388796,1.1688312973630435,-1.555574956949383,0.19351855736096993,1.2442803950722812,1.1557990779430316,-0.25136637124258837,0.5129772424345187,-1.6001801777336913,-1.559694131914851,1.2660371616800405,-0.6494944381879616,0.7738426360821898,-0.536397791772917,0.0026963666100306835,1.5701392025740348,-0.4882358970874933,0.5450876669059495,-1.0238133647988013,1.0213238195522254,-1.595714794924618,-1.6491203761034012,-1.596490149867988,-1.350943729915654,1.3487251850636737,-1.2975383813076202,1.7232156028354764,-0.5840443907983172,-0.8847238287555659,0.32011994094975965,1.3908848086997756,1.368483051954662,0.7812188015315056,0.5794519987462993,-1.0492160372021584,0.12261489204555595,0.5101519124503253,0.9847322650219998,-0.026635366515529352,1.8336477978819992,1.664231997914838,-0.6451667614645945,-0.4770259911914868,0.3820586284729861,-0.035981126836331555,1.0789276717892164,1.4028653949372942,1.553654021375396,-0.39459127131205046,0.6145450334078896,-0.14035087719298245,0.8420926176610602,-0.5964724211264821,0.9134601586697741,-1.4047636864442392,-0.0556276199309608,0.919856724621473,1.6918971393279272,1.0704962399241142,-0.22495391118882027,0.42090934820996534,-1.0952877686156428,-0.8418265118930266,-0.33401498055564904,-1.2391233557884074,-0.8775275231458534,1.854774246427938,-0.0995751410147073,1.0900462979540544,1.3592527228549143,-0.2927057325193876,1.7781522884505194,1.6892390225664655,-0.2499746423612886,1.1937309142469426,-1.3139927547275891,-0.8693344707196493,1.667472016394163,0.6876910682232542,0.1754509964458478,0.43926589783217135,-0.6828669265050247,1.738233977672378,-0.925154116349441,0.6823525630251064,1.8791599257910259,-0.01566576533697532,1.4500030744689134,0.8885455067662046,0.23771883346145797,-0.6519594380837437,-0.15327476151234629,0.16804871571782948,-0.4203340854808153,0.4944712090127923,-0.538563793058926,0.655905737914612,-0.8399666868960964,1.2025521478608243,1.5721068043569266,-1.2418434210337914,-0.35559438498800544,1.2754906105104864,-1.5166366936660514,-0.9239045642898662,1.1029484156006497,1.385964825446981,1.579111614659981,0.49313120262819576,1.6525878700756018,0.7123188375983812,0.05195709200380877,0.5785627888478116,0.3099140955134016,1.0898050218110849,-0.3026904685492197,-0.1453638828480801,0.8926806312718436,-1.2961417475760393,-1.3702946110417868,0.8157945870438646,-0.030736448281618433,-0.7922219323145221,1.383417025602072,0.5111352202713726,1.7970336212917133,1.3099643003428556,1.4371275512114037,0.5205172273025434,1.3719562774835048,-0.3782275293867113,-1.3371793234180018,1.4848342702019708,0.6831461062584036,0.3333333333333333,-1.736722268511015,1.4435596678898615,0.838165854873468,0.6714351060676849,-1.0650698430345074,0.16675253702200762,1.0306209078843434,0.584802283570517,0.0871117263129875,0.03642047705736817,1.4820194920214236,1.1460546157531353,0.7551729077242482,0.6622669157301329,0.5743611880867556,0.04409306101256308,0.531433298128525,0.23144110777450297,1.1137966153629595,1.757223280105233,0.04116195433009784,1.0055434829772454,-1.050605716999456,-1.3196975485157194,0.18618584837039467,0.9502192311143731,0.12282090443299314,-1.5438614630659397,-0.17536397786890562,-1.4975223068273529,0.6048235520764058,-1.438856990364281,-0.8341578012313101,0.5930709467673513,-0.7702251191733958,-0.6801278494231154,-0.853064627484542,1.016424756436009,1.642827732164025,-0.12190302092910518,1.1778982920437249,1.0019589201685728,1.4535005973690294,1.8290278520956347,0.4421307386810549,0.942333921653355,-0.1551464132153047,-0.18695656547002262,-1.3147502335506662,1.615635049609781,1.274439396468733,-1.4199740320769219,-1.7334391149911363,-1.3488966448065838,0.6666666666666666,-0.43859824848548035,0.3684369919033734,-1.6211934546750035,-1.093682397322512,1.0010798848240425,-0.3691175671578832,-1.5476236946617428,-0.2803590458964336,0.34306868532930757,0.46257781242048573,1.5548818735711787,-0.42857389223604614,-0.6596692413778513,0.8907428779841994,0.15054045263122234,-1.5284173127691656,-0.24682114688716245,0.23797696335741442,0.4356725814841887,0.9916256307353802,1.2309257564622407,-0.6445885373570185,-0.6501718489536005,1.6939133317784523,-0.23780651552393736,-0.6135231254597873,-0.5468356323663492,-1.2456140350877194,-1.6666666666666667,0.3684210526315789,0.4591996486839237,-0.980902468711954,-1.2863101766277685,-0.15961652952244781,1.3007365796685506,0.16458066619251652,1.3148350081428908,1.2990861481429523,0.0739888013374796,0.8163762940481771,1.544998887603475,1.6278307289700864,-0.3599133758248112,0.905520106650842,-1.383860432733496,-1.8234485052833793,0.8092473217003159,0.5698906633501627,-0.7238252995749058,0.6447550122477868,0.15275273578489632,-0.02971562162306961,0.6165591766624181,1.4545913116618756,1.50954034644382,0.08771929824561403,-0.8245614035087719,-0.43859649122807015,1.7017950340920434,1.4464927045866773,-1.1510409268583812,-1.3099791327606707,-0.05183619248111732,-1.1218598371198965,-0.2567411348115513,-1.1104609772431986,-0.5903188590302404,0.03993926058967902,-0.0960286496961022,0.3807762213915793,0.6921914856312729,0.6026730673203606,0.6428979756552163,-0.3981062468562984,-0.35387276728943984,-0.18131266940693727,-0.19614381712215884,-1.551081933200707,0.7960105460142161,-0.8407556442720523,-1.1043278736373885,-1.4912442419954384,-0.824567567437105,-0.6842105263157895,-1.4385964912280702,0.2631578947368421,-0.8070167916289095,1.2118426961217452,-1.6709891229722662,0.5781962469471248,-0.4479546552160613,0.008564254809668414,0.35744431818018757,1.4442846718743563,0.7548516456977964,0.17480050772413364,-0.5311378271306442,-0.08368360660979347,0.9511753738463342,0.2581972369420845,-0.37135776694810985,-0.7884080666394059,-0.44723383749130424,-0.5219529555946935,-1.7287146015363648,-0.73478591866742,1.3700540352999915,0.20387203754119082,0.6832280598227571,-0.6842105335756891,1.1929824560578655,-0.43859649122807015,-0.19298245614035087,-1.3333333333333333,1.736842105263158,-1.6315804913420808,-0.3157997940113813,-0.43702452364649025,-1.522298785741816,0.2492599977162699,1.2653899095301717,1.2589329147338828,1.0779072762946398,-1.1472121964668456,1.480391532935949,0.013967364573606792,-0.25745626123777027,0.5406956500460988,1.4269265824410944,0.23287446592622274,1.2103608996640018,-1.4697210156592493,-0.2260644242260712,1.2824602340297069,-0.43696349991446204,-1.3326480433707633,0.8596491228071381,0.2807017543883522,-1.4736842105263157,1.456140350877193,1.5087719298245614,1.3333333333333333,1.2105263157894737,-1.0701754385964912,-0.8421052150856488,0.10535210959931675,0.42121108921794503,-0.5261155979247013,-1.4558462745603211,0.07038557225041069,-0.9989258962228461,-0.5769250304369299,-0.8025790423773885,-0.5717575942222043,0.9347566493416501,1.3726950356421301,1.4066152854564709,0.968452816081284,-0.7867691374121499,1.1767437360254727,0.35153012024203223,-0.4205870991292052,1.3687026196022465,-1.385964864460934,1.4385964912280702,-1.0350877192982457,1.5087719298245614,-0.6842105263157895],[-1.4736842105263157,1.368421052631579,-0.17543859649122806,-0.12280701754385964,0.7368421052631579,-0.9824561403508771,0.8421052631578947,0.9649122807017544,0.8245614035087719,0.9122807017543859,-0.9298245614035088,1.0,-0.22574286738046825,0.8162616958144886,0.38687837919430423,-1.1754005353698276,0.22807017543859648,-1.1228070175438596,0.7017543859649122,0.2982456140350877,0.15789473684210525,-1.719298245614035,-0.19298245614035087,-0.5789473684210527,0.22807017543859648,-1.5087719298245614,-0.8596491228070176,1.456140350877193,0.14035087719298245,-0.8245614035087719,0.9473684210526315,-0.10526315789473684,0.6316027382901405,1.1579997442035164,-1.4900803789071018,1.6870697356988635,0.5696960278058996,0.8669008176146868,1.6252604894899274,-1.365632535823284,0.37077070140733503,-0.34323626717032524,-1.3607900953188983,0.8173905724736942,-0.02244632497707885,-1.5532316883935722,-0.2986358718998464,-1.0911696547706438,-1.0196102002654093,0.6224154810341597,-0.7925639043933196,-1.227485751301272,-1.5964912280701755,0.40350877192982454,-0.3333333333333333,1.1403508771929824,0.8947368421052632,-1.1578947368421053,0.17545787878209093,0.07023684879138131,-0.5261258605276647,1.1583961627956367,1.0102067193720843,0.2687702791127624,-1.3399790811362078,-0.43510458712053673,1.301110378745578,-0.5916745581304106,1.11252787433023,-0.1874921990212698,-0.6185953521968979,-0.23129291995025644,1.6680601652161386,-1.2629259219295972,-1.1317897051850303,-0.9552340795716615,-0.3710392238082862,-0.27814625924258585,-0.6953995426246428,-0.6366168598535575,1.0931905143442548,0.9336549474032262,-1.719298245614035,1.368421052631579,-1.631578947368421,0.3333333333333333,0.718841575129837,-1.348708815840254,1.5263158764795561,0.36643203398525925,-0.8164811391700821,1.2743427697042395,-0.4769422777824267,0.08459264804256911,0.12740026131113447,1.0234756847972375,0.41957237494993954,0.43449321094941185,1.9244832387007758,-0.0793304475730479,1.4527304146548206,-0.9397999518516773,-0.12263202064556972,1.3426207877934255,1.4302373133121666,-0.036171037528264526,0.6753726706558695,-0.4301287266533255,0.7987600370803171,-0.07257989156055618,-0.2463947550344189,0.9122807017543859,1.2280701754385965,1.2280701654715138,0.365844679728311,-1.5825858577308258,1.2167912231727123,0.3873175966319775,-1.6083353353385934,-0.35448526349663073,1.7015184936091392,-1.0557636947029867,0.491855820409952,-1.424774598740535,0.538883379431098,-1.2775905070200495,1.6905458325940343,-0.1467550049112505,1.124668017903536,0.169173888963,0.8592971813662055,0.7658419404689571,-0.3140321036101079,1.2040806005755231,-1.790752077245273,1.227834106068844,-0.4847542952641099,-0.9035024007706232,0.05065299116216478,-0.8949076883044786,-0.3157894736842105,0.5263157894736842,-1.666887859972858,-1.547639224886634,0.16931464110425629,1.1800901795960406,-1.5035571151188596,0.6521283291905964,1.255212914268838,1.321390302900311,1.0368489054073857,1.3535188656446717,1.1028799766740205,1.5936412709014558,-0.7958362088771562,0.24924597921915914,0.22777208428949056,-1.2064215379956835,1.3235207768777026,-0.1482930108624345,0.4798944917813206,0.6634914465658905,-0.3726408923703141,-0.5046235171586203,0.1067981206392994,1.0632191462165812,-0.3288449540168303,0.6488644260986399,-0.017543859649122806,1.0701754384488806,1.2799909695014844,0.42827050653617715,-0.4086495561904631,-0.5274748287368423,-1.435643457768519,-0.5471078556160762,0.045928414738436014,-1.6777789685381144,-0.9146838194426288,0.4029895449790669,-1.2370950205875806,0.08500027592731865,-0.18792398916360042,-0.5074209011756614,1.0907710759722413,0.276233016213305,-0.3135402906328929,-0.13355954645781468,-0.6928132850609567,0.17065603184062716,-0.2104396397860253,-1.8791808290496408,-0.5115446547191237,-0.9221903314245478,-0.13652525697242487,0.9815873197407279,1.2280701750866263,-0.2982497085547878,0.0889584897712711,-1.0512504108766605,1.0640080041795346,-1.6390040969886972,0.37363009360603616,-1.0871730000533175,0.894917270358119,1.1118194573070863,-0.018242378686023433,0.3303617607840804,-0.761324024929426,-0.7330450515358652,1.2211439686272383,-0.44984681098803675,-0.36753787727173226,-0.6327760952714678,-0.015740414389455438,0.3589098731292241,-1.4821943428377609,-0.06811174281826017,0.39635434829845717,-0.18882747588320223,-0.6162302535335205,0.7100347764272676,0.10298645977303297,0.9993971431122971,-1.543826420944008,-0.24492631127360665,1.185560997694267,-1.5864197451431825,0.5036184184853041,0.9582760109794692,-0.520693046570411,0.45640825766746973,1.3432262889650997,-0.38113856805290225,-0.2492636905333369,-0.20067065053023286,-0.547000417695332,1.2422986972915286,0.5732462407096565,1.3371098026563113,-0.8103121537542868,-0.028015626160437415,-1.9593138486020556,-0.27501675926207114,-1.148020027924237,-0.9687633102253884,-0.5244097343629041,0.3528939142894668,-1.6224726976786834,-0.410369613489061,-0.751496704461261,-1.3738770950757515,0.42104678520116073,-0.10563567939542923,0.2950510987203442,-0.8357942024435244,-0.8716864744616243,-1.3380872965382118,-0.5819481205206007,-0.5143984677786958,-0.2103249719960381,0.2847728021589004,-0.7584874600597376,0.44102314207575083,-0.7265013226904339,-0.2225633634836482,-1.2356939973912637,-1.5062944437950478,-0.5771399639446885,0.9095661266742505,-0.057715214022925516,-0.404717703384013,-0.6420883788248709,0.02838109286252608,0.7831988069272339,-1.8658978869139373,-0.9827792206047983,-0.2851870702384268,1.250466555046268,-0.6495263136385961,1.5613967079336768,0.28049194124867544,-0.6055501543042183,-0.23575075090045375,-0.6665367077239656,-1.2320043879659415,-1.331966773080993,-1.1775401416989009,-0.9142759547120034,0.8268665411729742,0.722090973687275,0.2486039887499978,-1.5458275521471283,0.9389246392076523,0.3113545584694626,0.05169724821423065,-0.2859362417474665,-1.1287977258614792,-1.2615879506267371,1.0828713813594875,-1.6034487674530449,-0.28913202037852415,-0.6780473662887294,-1.283156081531075,-0.17364295069531036,0.4812188043179208,-1.0281007761366765,-1.000924472804877,0.3859640975861617,1.0357131386060736,1.523391762924946,-1.6077409095027868,0.5151472750826541,1.5263710787518885,-0.8129513606268018,-0.6368524482994161,-1.895565597460656,-1.2398402024402544,0.20247341589720572,0.2565343070699248,-1.0805098400317419,-2.026616022331372,-0.8619291872706432,-1.0185365698158015,-1.0325568913870333,-1.0795738165412234,0.07993598178937888,-0.36608892478673444,-0.22829129995029118,-1.2264852858402415,1.6454752731269708,-0.4874056107272642,-0.5711029679624277,-1.6287044170528617,1.2694392712823364,-0.7549372196885605,0.14035085346762363,1.0683173703500222,-0.916639731537169,0.36094187573239495,1.2238720055786623,-0.14282827414604155,0.037420313379961566,0.9956227951800456,-2.1635011229348877,-0.7601645607647689,-1.3997650795432444,-2.5080036233614798,0.11316768662632562,-2.450905755330495,-2.431837199985697,-1.9171981403816682,0.06164855511154919,-0.5189307401565499,-0.922914419491806,0.3815413382991115,1.4140808019036784,-1.1601567506867911,1.0881741385373755,-0.07373161856362145,0.6171820936229815,-0.21854474603079205,-0.2866169132420756,1.6303427984029066,1.473683927665395,-0.0025543666052869163,0.6983155904577444,1.497393679071741,0.31426475157760125,-0.5696844529941819,-2.0640789598414084,-1.2517123260571108,-1.6026808788511318,-1.6115328752296476,-0.45451055285355857,-0.8025681451737086,-0.7502442527447394,-1.0590282506248014,-1.4106531659319037,0.38343259917933076,-0.1493777350587709,-0.12694100855116935,-0.8851547846208917,-0.44081976840693665,0.01863569118962391,-0.1499984530173841,-0.9836523907025344,0.4880162927988603,0.30409202226937715,0.14065909683007438,0.3284253881789407,-1.232727317233128,1.6842367115791503,0.7169169225043223,0.8569485365682911,0.949105228421455,-1.5626832407490538,-0.8351963833334587,1.2571647389607854,0.578864872885911,-0.015586008720396251,-0.688126270911444,-0.24121511083542438,-0.4799966558895308,1.4581521860571236,