{"layers":[{"layerWeights":[[-0.8596491228070176,1.2456140350877194,0.5789473684210527,1.0701754385964912,-0.9649122807017544,-1.7543859649122806,0.7192982456140351,0.17543859649122806,-0.9122807017543859,-0.07017543859649122,-0.42105263157894735,-1.6140350877192982,1.6666666666666667,-1.0175438596491229,-0.14035087719298245,1.2280701754385965,0.8771929824561403,0.08771929824561403,-0.6842105263157895,-0.21052631578947367,-0.24561403508771928,-0.017543859649122806,-1.5087719298245614,1.6666666666666667,0.8596491228070176,-0.9298245614035088,0.5087719298245614,-1.6666666666666667,-0.03508771929824561,-0.8070175438596491,-1.263157894736842,1.5789473684210527,-0.543859649122807,1.5789473684210527,-1.1754385964912282,-0.43859649122807015,-0.2807017543859649,0.5614035087719298,-0.7192982456140351,-0.10526315789473684,-1.3859649122807018,1.6842105263157894,1.5789473684210527,-0.631578947368421,0.10526315789473684,1.4385964912280702,1.4385964912280702,-0.15789473684210525,-0.6140350877192983,-0.3508771929824561,1.736842105263158,0.8771929824561403,0.14035087719298245,-1.1403508771929824,1.6491228070175439,1.4385964912280702,0.5087719298245614,0.7543859649122807,-0.22807017543859648,0.017543859649122806,0.2631578947368421,-0.3333333333333333,1.6666666666666667,1.1403508771929824,-1.4912280701754386,1.280701754385965,-0.8771929824561403,-1.4912280701754386,0.8070175438596491,-0.3157894736842105,-1.543859649122807,1.736842105263158,0.6491228070175439,-0.6666666666666666,0.6491228070175439,-1.4736842105263157,0.2807017543859649,-0.3333333333333333,-1.2280701754385965,-1.6842105263157894,-0.2631578947368421,-0.21052631578947367,0.42105263157894735,-0.017543859649122806,0.9473684210526315,1.2280701754385965,0.6140350877192983,-1.0526315789473684,1.5614035087719298,1.543859649122807,-0.45614035087719296,0.08771929824561403,-1.368421052631579,-1.2105263157894737,-1.087719298245614,0.8245614035087719,-1.087719298245614,-0.7894736842105263,1.4912280701754386,1.105263157894737,0.5087719298245614,-1.631578947368421,-0.47368421052631576,1.5087719298245614,-0.8596491228070176,1.4912280701754386,-0.05263157894736842,1.736842105263158,-0.5964912280701754,1.719298245614035,-0.3684210526315789,0.38596491228070173,-1.4912280701754386,-0.7192982456140351,-1.0,-0.47368421052631576,0.3333333333333333,0.6140350877192983,0.10526315789473684,1.4385964912280702,-1.7017543859649122,1.4210526315789473,-1.6140350877192982,0.3157894736842105,-0.2631578947368421,1.4385964912280702,-0.8771929824561403,-1.719298245614035,-0.543859649122807,0.6666666666666666,-1.3333333333333333,0.7543859649122807,0.07017543859649122,-0.43859649122807015,0.42105263157894735,0.8596491228070176,0.10526315789473684,-0.017543859649122806,1.2105263157894737,0.08771929824561403,0.6666666666666666,1.1578947368421053,-0.7017543859649122,0.8771929824561403,-1.719298245614035,-1.0701754385964912,0.3333333333333333,0.5614035087719298,-0.3684210526315789,-1.4210526315789473,-0.5087719298245614,1.719298245614035,0.9298245614035088,-0.15789473684210525,0.45614035087719296,0.8245614035087719,0.22807017543859648,1.5789473684210527,-0.7368421052631579,0.07017543859649122,-1.0701754385964912,-0.40350877192982454,-0.3684210526315789,-1.719298245614035,0.7719298245614035,-0.8947368421052632,0.05263157894736842,-0.2631578947368421,-1.5087719298245614,-1.5263157894736843,-1.6140350877192982,1.5964912280701755,0.5789473684210527,-1.2456140350877194,-1.4385964912280702,-1.3157894736842106,1.5614035087719298,0.47368421052631576,-0.9298245614035088,-0.45614035087719296,0.7192982456140351,1.105263157894737,-0.5789473684210527,1.5263157894736843,-0.24561403508771928,0.543859649122807,-1.4385964912280702,-0.8421052631578947,-1.5614035087719298,-1.0701754385964912,1.5614035087719298,-1.1929824561403508,-0.17543859649122806,-0.543859649122807,0.17543859649122806,-0.15789473684210525,-1.087719298245614,1.3333333333333333,1.0526315789473684,0.7017543859649122,-0.2807017543859649,0.9649122807017544,1.456140350877193,0.6491228070175439,-1.1754385964912282,-0.17543859649122806,-1.6491228070175439,-0.6491228070175439,1.0175438596491229,-1.4210526315789473,1.5964912280701755,1.7017543859649122,-0.3508771929824561,1.1754385964912282,1.6140350877192982,1.5789473684210527,-0.14035087719298245,0.3508771929824561,0.017543859649122806,0.6842105263157895,-0.543859649122807,-0.03508771929824561,-0.9824561403508771,0.9122807017543859,-0.21052631578947367,0.6491228070175439,-1.087719298245614,0.9649122807017544,0.8421052631578947,-0.03508771929824561,-0.5263157894736842,0.017543859649122806,0.7192982456140351,0.21052631578947367,-0.8771929824561403,-0.7192982456140351,-0.5263157894736842,-1.4035087719298245,-1.1403508771929824,-0.3508771929824561,1.1578947368421053,-0.7192982456140351,-1.543859649122807,-0.9473684210526315,-1.0175438596491229,-0.2807017543859649,0.17543859649122806,1.4035087719298245,0.2982456140350877,1.105263157894737,-0.19298245614035087,-0.47368421052631576,-1.4736842105263157,0.49122807017543857,-0.5263157894736842,-0.3508771929824561,0.19298245614035087,-0.22807017543859648,-0.49122807017543857,0.7017543859649122,1.1754385964912282,-1.368421052631579,1.087719298245614,-1.280701754385965,1.0,0.3157894736842105,0.6140350877192983,1.2982456140350878,-1.4736842105263157,-0.5263157894736842,1.368421052631579,0.3508771929824561,-0.03508771929824561,-1.719298245614035,-1.2280701754385965,-0.7017543859649122,-1.6491228070175439,0.05263157894736842,-1.4385964912280702,-0.5964912280701754,0.9298245614035088,-0.14035087719298245,1.4912280701754386,-0.543859649122807,0.17543859649122806,0.7368421052631579,0.8245614035087719,-0.7543859649122807,-0.3333333333333333,0.8245614035087719,0.7543859649122807,-0.5789473684210527,-1.0175438596491229,1.4736842105263157,1.6842105263157894,0.3157894736842105,1.456140350877193,1.6842105263157894,1.2105263157894737,-0.3157894736842105,-1.3333333333333333,0.38596491228070173,-0.12280701754385964,-0.08771929824561403,1.087719298245614,-0.6491228070175439,1.3508771929824561,0.6140350877192983,1.1929824561403508,1.6140350877192982,-0.45614035087719296,0.8070175438596491,0.3684210526315789,1.5263157894736843,0.14035087719298245,-0.17543859649122806,-1.263157894736842,0.5263157894736842,-1.4210526315789473,1.719298245614035,0.6140350877192983,0.6666666666666666,-0.14035087719298245,1.4912280701754386,0.9473684210526315,-0.14035087719298245,-0.15789473684210525,0.6666666666666666,-1.0526315789473684,-0.07017543859649122,-1.105263157894737,1.2105263157894737,-1.2456140350877194,0.5087719298245614,-0.2807017543859649,0.17543859649122806,0.2982456140350877,0.3508771929824561,-0.21052631578947367,-1.5263157894736843,-1.368421052631579,1.4210526315789473,-0.6140350877192983,-0.22807017543859648,-1.3859649122807018,-1.105263157894737,1.7017543859649122,-1.2280701754385965,1.6666666666666667,-0.5263157894736842,0.9649122807017544,0.9473684210526315,1.368421052631579,-1.736842105263158,-1.1228070175438596,1.0701754385964912,-0.7543859649122807,-0.9824561403508771,-0.7368421052631579,0.49122807017543857,-1.4912280701754386,1.1754385964912282,-1.3859649122807018,0.7894736842105263,1.5263157894736843,-0.8596491228070176,-1.0175438596491229,0.21052631578947367,-0.5087719298245614,0.2807017543859649,0.3508771929824561,-0.8245614035087719,0.03508771929824561,0.22807017543859648,-1.3157894736842106,-0.9473684210526315,0.6140350877192983,-1.263157894736842,0.08771929824561403,-1.0175438596491229,0.21052631578947367,-0.3333333333333333,0.49122807017543857,1.456140350877193,0.9649122807017544,-0.40350877192982454,-1.4210526315789473,1.3157894736842106,0.5789473684210527,1.6140350877192982,1.5263157894736843,0.8245614035087719,0.49122807017543857,1.2456140350877194,0.05263157894736842,1.4385964912280702,1.543859649122807,-1.456140350877193,0.43859649122807015,-0.8245614035087719,-0.7368421052631579,1.7017543859649122,-1.368421052631579,-0.08771929824561403,-0.017543859649122806,-0.631578947368421,-0.543859649122807,1.456140350877193,0.8070175438596491,1.1578947368421053,-1.4736842105263157,-1.543859649122807,0.47368421052631576,1.4210526315789473,-0.3157894736842105,1.4035087719298245,-1.0350877192982457,0.43859649122807015,1.263157894736842,0.05263157894736842,-0.8771929824561403,0.543859649122807,0.9298245614035088,-0.6140350877192983,0.5964912280701754,1.5263157894736843,0.9473684210526315,1.6842105263157894,-1.280701754385965,0.5087719298245614,1.280701754385965,1.456140350877193,0.9824561403508771,0.9649122807017544,-1.105263157894737,0.543859649122807,-0.2807017543859649,-0.8245614035087719,-0.5789473684210527,-1.6140350877192982,-0.8947368421052632,1.3333333333333333,-0.14035087719298245,1.6842105263157894,1.4035087719298245,-1.4385964912280702,1.105263157894737,-0.543859649122807,-1.3508771929824561,-0.9122807017543859,0.22807017543859648,0.8947368421052632,-1.456140350877193,0.8421052631578947,-0.15789473684210525,1.5964912280701755,0.017543859649122806,-1.3859649122807018,-0.017543859649122806,-1.5789473684210527,1.0350877192982457,-0.8596491228070176,1.0526315789473684,0.03508771929824561,0.5087719298245614,-0.17543859649122806,0.8596491228070176,-1.4912280701754386,-0.2982456140350877,-1.5964912280701755,0.5964912280701754,-0.05263157894736842,0.9298245614035088,1.3859649122807018,1.456140350877193,1.5087719298245614,-0.017543859649122806,1.0350877192982457,-1.0701754385964912,-1.543859649122807,-0.38596491228070173,-1.5263157894736843,-0.3684210526315789,-0.7719298245614035,-0.6140350877192983,-0.5614035087719298,1.0175438596491229,-1.719298245614035,1.6842105263157894,-1.736842105263158,-0.7368421052631579,-1.087719298245614,-1.1403508771929824,0.19298245614035087,0.7543859649122807,0.0,0.3684210526315789,0.5087719298245614,-1.2280701754385965,0.49122807017543857,-1.2105263157894737,0.19298245614035087,0.7192982456140351,-0.8771929824561403,-1.263157894736842,-0.631578947368421,-0.3684210526315789,0.7192982456140351,-1.263157894736842,-0.05263157894736842,0.6842105263157895,0.7192982456140351,-1.5087719298245614,0.38596491228070173,-1.6140350877192982,1.7017543859649122,-0.9473684210526315,-1.6140350877192982,-0.3684210526315789,0.5087719298245614,-0.8771929824561403,-1.0701754385964912,-1.087719298245614,1.719298245614035,1.5263157894736843,1.736842105263158,0.9473684210526315,1.0175438596491229,1.2982456140350878,1.719298245614035,1.6842105263157894,0.8070175438596491,1.1578947368421053,0.47368421052631576,0.5789473684210527,-0.10526315789473684,-1.736842105263158,0.21052631578947367,-0.49122807017543857,1.5087719298245614,-0.05263157894736842,1.2456140350877194,-1.4035087719298245,-1.0,1.3508771929824561,-1.4035087719298245,-0.07017543859649122,-0.47368421052631576,-1.0701754385964912,0.49122807017543857,-0.21052631578947367,0.7368421052631579,1.719298245614035,-0.8771929824561403,-0.8771929824561403,1.0,1.0701754385964912,-1.3859649122807018,0.2807017543859649,-0.3157894736842105,-1.2280701754385965,0.5263157894736842,-1.1754385964912282,0.8245614035087719,0.8596491228070176,-1.2280701754385965,0.9298245614035088,1.087719298245614,-1.4210526315789473,1.1578947368421053,0.6666666666666666,0.22807017543859648,1.368421052631579,0.40350877192982454,-1.2105263157894737,-0.07017543859649122,0.7017543859649122,-1.6666666666666667,0.2807017543859649,0.7543859649122807,1.1578947368421053,1.631578947368421,0.5789473684210527,0.9824561403508771,1.2280701754385965,-0.12280701754385964,-0.40350877192982454,-1.1228070175438596,-0.2631578947368421,0.7894736842105263,0.43859649122807015,-0.7368421052631579,0.9824561403508771,0.5789473684210527,-1.2280701754385965,0.40350877192982454,1.2105263157894737,-0.07017543859649122,0.8596491228070176,-0.2982456140350877,-1.631578947368421,0.9473684210526315,-1.368421052631579,-1.5263157894736843,0.631578947368421,1.263157894736842,0.5614035087719298,-0.8771929824561403,-1.3508771929824561,-0.8947368421052632,0.14035087719298245,1.631578947368421,1.0,-0.7017543859649122,0.07017543859649122,-0.7719298245614035,-0.12280701754385964,-0.2631578947368421,-1.719298245614035,1.0175438596491229,-0.2807017543859649,1.5263157894736843,-1.4736842105263157,-1.3333333333333333,0.9824561403508771,-0.22807017543859648,0.5964912280701754,0.43859649122807015,0.47368421052631576,-0.8771929824561403,-1.3508771929824561,1.4912280701754386,-0.3157894736842105,-0.19298245614035087,-1.1228070175438596,1.280701754385965,-0.5789473684210527,-0.7543859649122807,0.7192982456140351,-1.1228070175438596,-1.0526315789473684,-1.0701754385964912,0.7192982456140351,0.3157894736842105,-0.6666666666666666,-0.5263157894736842,1.087719298245614,-1.2105263157894737,-0.10526315789473684,-0.5789473684210527,-0.3508771929824561,1.1228070175438596,1.3157894736842106,1.0350877192982457,-1.2456140350877194,-1.3333333333333333,-1.1929824561403508,1.5087719298245614,-1.6666666666666667,1.4210526315789473,1.368421052631579,0.9122807017543859,-0.631578947368421,-0.03508771929824561,-0.9473684210526315,-0.017543859649122806,-0.9122807017543859,0.7368421052631579,-0.8947368421052632,0.8771929824561403,-0.45614035087719296,-0.8947368421052632,1.280701754385965,1.6140350877192982,-1.2982456140350878,-0.42105263157894735,-1.368421052631579,-0.3157894736842105,-0.8421052631578947,0.14035087719298245,-0.631578947368421,1.1228070175438596,-0.5964912280701754,-0.9122807017543859,1.6140350877192982,0.6666666666666666,-0.38596491228070173,-1.5964912280701755,1.1929824561403508,-0.3684210526315789,-1.5789473684210527,0.8245614035087719,-1.2982456140350878,1.719298245614035,-1.3508771929824561,1.543859649122807,-0.7192982456140351,-1.368421052631579,-0.5789473684210527,0.017543859649122806,1.263157894736842,0.24561403508771928,0.05263157894736842,1.2280701754385965,0.5614035087719298,0.8245614035087719,1.4035087719298245,0.22807017543859648,0.21052631578947367,-1.4035087719298245,1.6140350877192982,-1.105263157894737,-1.5789473684210527,1.0350877192982457,-0.10526315789473684,0.14035087719298245,1.5087719298245614,-0.5964912280701754,-1.368421052631579,-0.631578947368421,-0.3508771929824561,-0.7368421052631579,-0.10526315789473684,-0.7543859649122807,0.7368421052631579,0.5614035087719298,1.1754385964912282,-0.17543859649122806,-1.5789473684210527,-1.5087719298245614,-0.9824561403508771,-0.03508771929824561,-0.2631578947368421,1.2105263157894737,-1.736842105263158,1.0175438596491229,1.3859649122807018,0.38596491228070173,-0.03508771929824561,0.6842105263157895,-1.280701754385965,0.45614035087719296,0.7017543859649122,1.1929824561403508,0.38596491228070173,-1.736842105263158,0.40350877192982454,-1.0350877192982457,1.3157894736842106,-0.3508771929824561,-0.12280701754385964,0.24561403508771928,-0.543859649122807,-1.0,-0.21052631578947367,-0.6666666666666666,1.3157894736842106,-1.2280701754385965,-1.631578947368421,-0.8771929824561403,0.5614035087719298,0.9473684210526315,-1.543859649122807,1.105263157894737,-1.5614035087719298,0.3333333333333333,1.087719298245614,0.6491228070175439,0.12280701754385964,-0.7017543859649122,1.2456140350877194,-1.368421052631579,-0.3333333333333333,0.7894736842105263,-1.456140350877193,-0.14035087719298245,-1.6666666666666667,-1.5087719298245614,1.0701754385964912,0.38596491228070173,-0.49122807017543857,-1.280701754385965,0.631578947368421,-0.6842105263157895],[-0.5263157894736842,0.9298245614035088,1.5789473684210527,-1.631578947368421,0.9298245614035088,0.45614035087719296,0.8421052631578947,-0.9122807017543859,-0.07017543859649122,-0.8421052631578947,-0.9649122807017544,-1.087719298245614,-0.17543859649122806,0.7894736842105263,0.12280701754385964,0.8245614035087719,-1.0,0.15789473684210525,-1.7017543859649122,0.15789473684210525,-1.0526315789473684,1.1754385964912282,-1.6666666666666667,0.21052631578947367,0.07017543859649122,-1.1228070175438596,-1.3859649122807018,0.19298245614035087,-0.7368421052631579,-0.12280701754385964,1.4736842105263157,0.9649122807017544,1.4210526315789473,0.3508771929824561,-1.631578947368421,0.08771929824561403,-1.2105263157894737,-1.0701754385964912,1.5964912280701755,-0.22807017543859648,1.4210526315789473,1.6842105263157894,1.0175438596491229,0.05263157894736842,-0.5087719298245614,1.2982456140350878,-1.263157894736842,0.03508771929824561,-1.7543859649122806,0.6842105263157895,-1.280701754385965,-0.5087719298245614,-0.19298245614035087,0.5087719298245614,1.3508771929824561,-0.22807017543859648,-0.6491228070175439,1.6140350877192982,-1.631578947368421,1.631578947368421,1.7017543859649122,-0.45614035087719296,0.21052631578947367,0.05263157894736842,1.0,1.0350877192982457,0.6140350877192983,0.38596491228070173,-0.7719298245614035,0.40350877192982454,0.7192982456140351,-0.6842105263157895,1.2982456140350878,1.0701754385964912,-0.14035087719298245,-1.0,0.19298245614035087,-0.03508771929824561,0.7543859649122807,0.8947368421052632,0.7894736842105263,1.263157894736842,-0.2982456140350877,-1.2982456140350878,1.280701754385965,1.631578947368421,-1.5087719298245614,-1.1228070175438596,-0.17543859649122806,-1.263157894736842,-1.3333333333333333,0.6842105263157895,-0.47368421052631576,1.631578947368421,-1.456140350877193,0.40350877192982454,1.2105263157894737,0.38596491228070173,-1.1929824561403508,-0.5789473684210527,-1.456140350877193,0.2807017543859649,-0.6666666666666666,1.0,1.1403508771929824,-0.38596491228070173,0.5087719298245614,0.8771929824561403,1.5263157894736843,1.368421052631579,-0.19298245614035087,0.5789473684210527,0.12280701754385964,0.15789473684210525,-1.4035087719298245,-0.7543859649122807,-0.47368421052631576,-0.17543859649122806,-0.5087719298245614,0.5789473684210527,-0.631578947368421,-0.7543859649122807,1.1929824561403508,0.8596491228070176,-0.2982456140350877,0.24561403508771928,1.5087719298245614,0.2982456140350877,1.1403508771929824,1.631578947368421,1.6140350877192982,-0.38596491228070173,-1.4912280701754386,-0.3508771929824561,-0.08771929824561403,-0.5964912280701754,0.9473684210526315,-0.45614035087719296,-0.40350877192982454,-0.2982456140350877,1.4736842105263157,0.15789473684210525,0.3333333333333333,1.6666666666666667,-0.12280701754385964,0.2631578947368421,-1.2456140350877194,-1.4736842105263157,0.9298245614035088,-0.5263157894736842,0.42105263157894735,-1.0526315789473684,0.07017543859649122,1.087719298245614,-1.0526315789473684,-0.9122807017543859,-1.3157894736842106,0.42105263157894735,0.8070175438596491,-1.3508771929824561,0.7017543859649122,1.5789473684210527,-1.1754385964912282,-0.17543859649122806,0.7192982456140351,-0.2807017543859649,0.9122807017543859,-0.543859649122807,1.263157894736842,-0.7368421052631579,-1.4210526315789473,0.8421052631578947,1.719298245614035,1.719298245614035,0.5087719298245614,-0.631578947368421,0.0,-0.5964912280701754,0.2631578947368421,0.3508771929824561,0.3157894736842105,-1.4035087719298245,0.5614035087719298,0.8771929824561403,-1.6666666666666667,-0.42105263157894735,-1.1754385964912282,1.263157894736842,0.03508771929824561,0.10526315789473684,-0.8596491228070176,1.3333333333333333,-1.0350877192982457,0.5789473684210527,1.263157894736842,-0.07017543859649122,-0.5964912280701754,-1.6842105263157894,-1.3859649122807018,-0.631578947368421,-0.8596491228070176,-0.3684210526315789,0.8947368421052632,1.1578947368421053,0.12280701754385964,0.45614035087719296,-1.105263157894737,0.543859649122807,-0.12280701754385964,-0.6491228070175439,1.1228070175438596,1.2105263157894737,-1.3333333333333333,-1.368421052631579,1.736842105263158,-0.7894736842105263,-1.4385964912280702,-0.15789473684210525,1.6666666666666667,-0.3333333333333333,-1.4385964912280702,-0.15789473684210525,0.631578947368421,1.6491228070175439,-1.5789473684210527,-0.3333333333333333,1.543859649122807,-0.5789473684210527,0.8947368421052632,0.3333333333333333,-0.43859649122807015,1.087719298245614,0.17543859649122806,0.9473684210526315,-1.6491228070175439,1.1754385964912282,-1.0175438596491229,-1.7543859649122806,-0.543859649122807,-0.15789473684210525,0.6491228070175439,-0.8421052631578947,-0.8245614035087719,0.21052631578947367,-1.2456140350877194,-1.263157894736842,-1.0175438596491229,0.24561403508771928,0.45614035087719296,-0.2631578947368421,1.5964912280701755,-0.07017543859649122,-0.7719298245614035,1.4912280701754386,-0.6666666666666666,0.7017543859649122,1.4210526315789473,1.4385964912280702,0.15789473684210525,-1.0,-0.12280701754385964,-0.2982456140350877,-0.07017543859649122,-1.456140350877193,0.7719298245614035,0.40350877192982454,0.8596491228070176,-1.6666666666666667,1.280701754385965,1.7017543859649122,0.3684210526315789,0.543859649122807,1.5087719298245614,1.105263157894737,-0.38596491228070173,-0.45614035087719296,1.2456140350877194,1.2982456140350878,1.368421052631579,0.7368421052631579,0.9824561403508771,1.1228070175438596,0.5263157894736842,-1.719298245614035,-1.5614035087719298,-1.1929824561403508,-0.5964912280701754,1.4912280701754386,-0.7017543859649122,1.456140350877193,1.4736842105263157,1.5087719298245614,1.0701754385964912,-0.7543859649122807,-0.7543859649122807,-1.5614035087719298,0.03508771929824561,-0.7192982456140351,1.2105263157894737,-0.03508771929824561,-1.6666666666666667,-0.6842105263157895,0.7017543859649122,-0.8245614035087719,0.7192982456140351,-0.8596491228070176,-0.7543859649122807,1.5087719298245614,1.2105263157894737,-1.4035087719298245,-0.8771929824561403,-0.7719298245614035,0.017543859649122806,0.38596491228070173,-0.47368421052631576,0.7368421052631579,-0.17543859649122806,1.6666666666666667,-1.6140350877192982,-0.03508771929824561,1.631578947368421,-1.4736842105263157,-1.719298245614035,-1.5087719298245614,1.4912280701754386,1.1929824561403508,1.4035087719298245,0.7017543859649122,0.9649122807017544,1.1403508771929824,-1.3508771929824561,0.6666666666666666,0.9122807017543859,-0.22807017543859648,1.6140350877192982,-1.087719298245614,0.6140350877192983,0.9473684210526315,1.5614035087719298,-1.7017543859649122,0.2982456140350877,0.7894736842105263,-1.368421052631579,1.1578947368421053,0.2631578947368421,-0.24561403508771928,-0.7017543859649122,0.8596491228070176,-1.1578947368421053,-0.9298245614035088,-0.8421052631578947,1.5789473684210527,-1.105263157894737,-1.2105263157894737,-0.5087719298245614,-0.3684210526315789,-0.9298245614035088,-0.7894736842105263,-1.719298245614035,0.9473684210526315,-0.10526315789473684,-0.7543859649122807,-1.1929824561403508,-1.1754385964912282,0.07017543859649122,-0.24561403508771928,-0.7192982456140351,0.17543859649122806,1.368421052631579,0.9649122807017544,-1.5964912280701755,1.3508771929824561,-1.3859649122807018,-1.368421052631579,0.05263157894736842,-0.9824561403508771,0.07017543859649122,1.1403508771929824,0.9298245614035088,0.6666666666666666,0.5964912280701754,-0.9298245614035088,-0.2631578947368421,-1.0175438596491229,1.6491228070175439,-1.6842105263157894,-0.17543859649122806,-0.7017543859649122,-1.5263157894736843,-1.5964912280701755,-1.0701754385964912,-0.43859649122807015,1.1403508771929824,0.21052631578947367,-0.7894736842105263,0.42105263157894735,-1.4385964912280702,0.22807017543859648,-1.631578947368421,0.6140350877192983,-0.05263157894736842,0.21052631578947367,0.38596491228070173,1.6491228070175439,0.7017543859649122,0.42105263157894735,-0.6491228070175439,1.5614035087719298,0.9298245614035088,-1.5087719298245614,1.1228070175438596,1.0350877192982457,1.263157894736842,0.2631578947368421,0.7543859649122807,-0.40350877192982454,-1.631578947368421,-0.9824561403508771,-1.280701754385965,1.5087719298245614,-1.1754385964912282,0.7894736842105263,-0.08771929824561403,1.5789473684210527,0.03508771929824561,-1.631578947368421,1.736842105263158,-1.4210526315789473,-1.0,-1.368421052631579,1.280701754385965,-1.2456140350877194,1.456140350877193,-1.4035087719298245,-0.03508771929824561,0.7719298245614035,-0.24561403508771928,-0.10526315789473684,0.7894736842105263,1.1929824561403508,1.5964912280701755,-1.719298245614035,-1.4035087719298245,0.49122807017543857,-1.368421052631579,-1.4385964912280702,1.1403508771929824,-0.9298245614035088,0.3157894736842105,1.631578947368421,0.0,-0.543859649122807,-0.43859649122807015,-0.03508771929824561,1.280701754385965,-0.5614035087719298,1.0,0.6842105263157895,-1.6842105263157894,1.2105263157894737,0.2631578947368421,1.1578947368421053,1.719298245614035,0.07017543859649122,0.543859649122807,-1.1403508771929824,-0.9473684210526315,0.2982456140350877,-0.5087719298245614,-1.5789473684210527,1.456140350877193,-0.8245614035087719,1.3859649122807018,1.280701754385965,-0.2982456140350877,0.24561403508771928,0.2631578947368421,1.2280701754385965,-1.1929824561403508,0.47368421052631576,-0.3157894736842105,-1.105263157894737,-0.7368421052631579,-1.7543859649122806,-1.2456140350877194,-0.6666666666666666,-1.5964912280701755,1.3508771929824561,-1.456140350877193,0.3333333333333333,1.4035087719298245,-0.6842105263157895,-1.543859649122807,-1.1578947368421053,0.15789473684210525,-1.4385964912280702,-1.5087719298245614,1.4912280701754386,-0.5614035087719298,-0.3508771929824561,-0.49122807017543857,1.0526315789473684,1.4912280701754386,0.2982456140350877,0.9298245614035088,-1.263157894736842,1.4912280701754386,-1.0350877192982457,0.8596491228070176,1.2280701754385965,-0.07017543859649122,-0.24561403508771928,-1.5789473684210527,1.105263157894737,-0.14035087719298245,-0.3684210526315789,-0.12280701754385964,-0.017543859649122806,0.40350877192982454,0.0,1.1578947368421053,1.719298245614035,1.5789473684210527,-0.543859649122807,0.3333333333333333,1.5263157894736843,0.38596491228070173,-0.5789473684210527,1.1228070175438596,-1.5263157894736843,-1.456140350877193,0.7719298245614035,-1.5087719298245614,-0.03508771929824561,0.22807017543859648,-1.6140350877192982,-0.42105263157894735,-0.3684210526315789,1.1578947368421053,1.280701754385965,0.8245614035087719,0.017543859649122806,-1.368421052631579,-1.1578947368421053,1.3157894736842106,1.5789473684210527,-0.631578947368421,-0.3508771929824561,-1.4736842105263157,1.456140350877193,1.1228070175438596,1.6140350877192982,1.719298245614035,-0.2807017543859649,-0.8070175438596491,-1.5789473684210527,0.12280701754385964,0.49122807017543857,0.5789473684210527,-1.0526315789473684,1.105263157894737,0.6491228070175439,0.3333333333333333,1.1228070175438596,0.5263157894736842,1.7017543859649122,0.14035087719298245,1.3333333333333333,1.2456140350877194,0.9824561403508771,-0.5263157894736842,-0.49122807017543857,1.736842105263158,0.42105263157894735,1.1754385964912282,-1.736842105263158,-0.05263157894736842,-1.5087719298245614,0.8596491228070176,-1.4736842105263157,-0.5789473684210527,0.7017543859649122,-1.5263157894736843,-1.6666666666666667,-0.6842105263157895,-0.08771929824561403,-0.38596491228070173,1.4912280701754386,1.6140350877192982,-1.0701754385964912,-0.6842105263157895,0.22807017543859648,-0.2631578947368421,1.4385964912280702,-1.4912280701754386,-0.5263157894736842,-1.1578947368421053,1.6666666666666667,0.5964912280701754,-0.9122807017543859,-0.3157894736842105,-1.6140350877192982,-0.7368421052631579,-0.21052631578947367,1.5087719298245614,-0.8070175438596491,1.2280701754385965,1.6491228070175439,-1.6666666666666667,0.38596491228070173,-1.6666666666666667,0.7017543859649122,1.5263157894736843,-0.38596491228070173,1.1403508771929824,0.9298245614035088,1.4912280701754386,-0.5789473684210527,1.280701754385965,-1.5087719298245614,-0.5964912280701754,-1.719298245614035,-0.8596491228070176,1.1754385964912282,0.5263157894736842,-0.2807017543859649,1.6491228070175439,-1.1754385964912282,1.087719298245614,0.42105263157894735,0.2982456140350877,1.3333333333333333,-1.5964912280701755,1.6491228070175439,1.1403508771929824,-1.1929824561403508,-0.543859649122807,-1.2105263157894737,-0.6666666666666666,1.0175438596491229,0.5964912280701754,-1.3333333333333333,-0.7894736842105263,0.017543859649122806,-0.9649122807017544,-0.05263157894736842,-0.8421052631578947,-1.4912280701754386,-0.7543859649122807,-0.8947368421052632,-1.2280701754385965,0.631578947368421,1.6842105263157894,0.47368421052631576,0.7017543859649122,-1.7017543859649122,1.7017543859649122,0.3157894736842105,1.368421052631579,1.543859649122807,0.3508771929824561,0.07017543859649122,0.42105263157894735,-0.8771929824561403,-0.543859649122807,-0.2631578947368421,-0.5614035087719298,-0.5263157894736842,-0.07017543859649122,-1.0701754385964912,-0.7192982456140351,0.5964912280701754,-0.9122807017543859,-1.368421052631579,1.4736842105263157,-0.543859649122807,1.2105263157894737,-0.9649122807017544,0.2807017543859649,-0.7719298245614035,-0.08771929824561403,-1.5789473684210527,0.07017543859649122,0.9298245614035088,-1.3333333333333333,1.3859649122807018,-1.4210526315789473,0.2631578947368421,1.1228070175438596,0.42105263157894735,-0.6140350877192983,0.10526315789473684,-0.10526315789473684,1.1754385964912282,-0.7543859649122807,-0.5789473684210527,-1.1754385964912282,-0.9473684210526315,0.3333333333333333,-0.7192982456140351,1.105263157894737,-0.9122807017543859,1.456140350877193,0.9122807017543859,0.7192982456140351,-0.7719298245614035,-0.543859649122807,-0.7017543859649122,1.3333333333333333,1.4210526315789473,1.3157894736842106,-0.7017543859649122,1.3157894736842106,-1.7017543859649122,0.9824561403508771,1.3333333333333333,1.2105263157894737,-1.6140350877192982,-0.22807017543859648,0.6140350877192983,-1.1754385964912282,-0.7017543859649122,0.10526315789473684,-0.9122807017543859,-1.2456140350877194,-1.2982456140350878,-0.9122807017543859,-0.5087719298245614,-0.7543859649122807,1.0350877192982457,-0.47368421052631576,0.8421052631578947,1.6140350877192982,-0.7543859649122807,-0.8947368421052632,-0.5964912280701754,0.9824561403508771,1.5964912280701755,1.1929824561403508,1.1578947368421053,1.736842105263158,-0.9649122807017544,-0.6666666666666666,-0.6666666666666666,-1.6140350877192982,-0.7894736842105263,1.1754385964912282,0.22807017543859648,-0.7368421052631579,-1.280701754385965,1.2280701754385965,1.280701754385965,-1.280701754385965,1.6842105263157894,-1.6140350877192982,-1.543859649122807,1.0,-0.8947368421052632,0.05263157894736842,-0.40350877192982454,-0.9298245614035088,-1.3859649122807018,-0.3684210526315789,0.08771929824561403,0.14035087719298245,0.8245614035087719,0.631578947368421,-1.3333333333333333,1.0175438596491229,0.21052631578947367,-1.1403508771929824,1.3157894736842106,-0.17543859649122806,-1.631578947368421,0.21052631578947367,-0.3508771929824561,1.0701754385964912,-0.5964912280701754,-0.9122807017543859,0.9824561403508771,1.4736842105263157,0.3333333333333333,0.17543859649122806,-1.6842105263157894],[1.736842105263158,1.5087719298245614,-1.368421052631579,-1.2105263157894737,0.24561403508771928,0.45614035087719296,1.263157894736842,-0.07017543859649122,0.3508771929824561,-1.1403508771929824,-0.6491228070175439,0.8771929824561403,-0.3508771929824561,-1.087719298245614,1.087719298245614,-0.07017543859649122,0.7368421052631579,1.5964912280701755,-0.08771929824561403,-1.2982456140350878,1.2982456140350878,0.7017543859649122,-0.3333333333333333,-1.4736842105263157,-0.7368421052631579,0.15789473684210525,-1.719298245614035,-1.368421052631579,-0.8421052631578947,-0.10526315789473684,1.2456140350877194,1.5614035087719298,-1.0,-1.0526315789473684,-0.6842105263157895,-0.7017543859649122,0.9473684210526315,-0.631578947368421,-0.8070175438596491,-0.6140350877192983,1.4736842105263157,-1.0,-1.3333333333333333,0.2631578947368421,0.5789473684210527,1.368421052631579,0.7368421052631579,-0.7719298245614035,0.6666666666666666,0.5789473684210527,-1.6666666666666667,-0.3157894736842105,-0.3333333333333333,-0.03508771929824561,1.4385964912280702,0.05263157894736842,1.7017543859649122,-0.7543859649122807,-0.47368421052631576,0.22807017543859648,0.38596491228070173,-1.2982456140350878,1.719298245614035,-0.5789473684210527,-0.8596491228070176,1.0701754385964912,0.05263157894736842,0.08771929824561403,1.1754385964912282,-0.21052631578947367,-1.6140350877192982,0.45614035087719296,1.3333333333333333,-0.6491228070175439,1.4035087719298245,0.017543859649122806,1.7017543859649122,0.2631578947368421,-0.9122807017543859,0.8070175438596491,-0.8245614035087719,-1.1929824561403508,-1.1578947368421053,-0.22807017543859648,-0.05263157894736842,0.0,1.1578947368421053,-0.9649122807017544,-1.105263157894737,-0.5087719298245614,-0.2631578947368421,0.3684210526315789,-0.45614035087719296,0.6842105263157895,-1.6842105263157894,1.0,0.10526315789473684,-1.736842105263158,0.03508771929824561,-1.5789473684210527,-0.3157894736842105,0.9298245614035088,-1.4035087719298245,0.0,0.8947368421052632,0.10526315789473684,-0.5964912280701754,1.543859649122807,-0.9298245614035088,-1.631578947368421,-1.1754385964912282,-0.7368421052631579,0.45614035087719296,-1.1403508771929824,-0.12280701754385964,-0.19298245614035087,-1.4035087719298245,1.6842105263157894,-1.3333333333333333,-0.7192982456140351,1.1578947368421053,-0.3508771929824561,-0.8947368421052632,-0.05263157894736842,-0.7368421052631579,-0.7719298245614035,0.2631578947368421,0.9473684210526315,-0.8947368421052632,0.9649122807017544,-0.9122807017543859,0.10526315789473684,0.22807017543859648,-1.4736842105263157,-1.6140350877192982,-0.45614035087719296,0.07017543859649122,-1.3859649122807018,1.0526315789473684,-0.40350877192982454,-0.38596491228070173,-1.4385964912280702,-1.631578947368421,-0.14035087719298245,-0.40350877192982454,1.456140350877193,-1.263157894736842,-1.3859649122807018,0.631578947368421,-0.3333333333333333,-0.12280701754385964,-1.1578947368421053,-1.3859649122807018,-1.631578947368421,1.0701754385964912,-1.3333333333333333,1.719298245614035,-0.24561403508771928,1.5263157894736843,0.6140350877192983,1.5964912280701755,1.3859649122807018,0.3333333333333333,-1.6842105263157894,1.6842105263157894,-0.40350877192982454,1.3859649122807018,1.1754385964912282,-0.05263157894736842,-1.105263157894737,-0.2982456140350877,1.3157894736842106,-0.24561403508771928,0.24561403508771928,0.5964912280701754,-1.6842105263157894,-1.1228070175438596,-0.05263157894736842,0.9298245614035088,-0.19298245614035087,1.3333333333333333,-0.6491228070175439,-1.7017543859649122,1.719298245614035,-0.49122807017543857,-1.1403508771929824,1.0,-0.8947368421052632,-1.1403508771929824,-0.7192982456140351,-0.2807017543859649,0.9122807017543859,0.9122807017543859,-0.8947368421052632,0.5789473684210527,-0.15789473684210525,-0.8771929824561403,-0.2982456140350877,-0.22807017543859648,1.2280701754385965,-1.1578947368421053,-0.07017543859649122,-1.5964912280701755,-0.8245614035087719,-1.280701754385965,-1.0,0.9473684210526315,-0.5263157894736842,0.3333333333333333,0.22807017543859648,1.2280701754385965,0.38596491228070173,-1.4385964912280702,-0.15789473684210525,0.10526315789473684,-0.05263157894736842,1.5789473684210527,-0.6140350877192983,-1.4035087719298245,0.6666666666666666,0.3684210526315789,-0.543859649122807,0.3508771929824561,-0.6491228070175439,1.1578947368421053,0.42105263157894735,-1.2982456140350878,0.40350877192982454,0.6140350877192983,-0.3508771929824561,0.9122807017543859,-1.6666666666666667,-1.736842105263158,-1.280701754385965,-0.08771929824561403,-0.7368421052631579,-1.2982456140350878,0.8421052631578947,-0.6666666666666666,1.456140350877193,1.3157894736842106,1.2280701754385965,1.4210526315789473,-1.1403508771929824,-1.6140350877192982,-1.1228070175438596,-0.7894736842105263,0.5263157894736842,1.087719298245614,1.105263157894737,-0.2807017543859649,-0.10526315789473684,1.3859649122807018,0.47368421052631576,-0.7192982456140351,0.47368421052631576,1.3333333333333333,0.6140350877192983,-1.4736842105263157,0.40350877192982454,-0.49122807017543857,-0.9298245614035088,1.368421052631579,0.3157894736842105,-1.4736842105263157,-0.6842105263157895,-1.6140350877192982,1.5263157894736843,0.8421052631578947,-0.42105263157894735,0.6140350877192983,0.42105263157894735,-1.3508771929824561,-0.47368421052631576,1.6666666666666667,0.05263157894736842,-1.4035087719298245,-1.6666666666666667,0.6140350877192983,0.42105263157894735,0.47368421052631576,-0.14035087719298245,-0.40350877192982454,1.736842105263158,-1.1929824561403508,-0.40350877192982454,0.5964912280701754,1.736842105263158,0.7894736842105263,0.0,-1.3508771929824561,-0.05263157894736842,0.9473684210526315,0.07017543859649122,-0.2807017543859649,0.7543859649122807,0.3333333333333333,1.5087719298245614,-1.1228070175438596,-1.1403508771929824,1.5614035087719298,-1.3508771929824561,0.17543859649122806,-1.0175438596491229,0.6666666666666666,1.1754385964912282,-0.17543859649122806,-0.7017543859649122,0.8245614035087719,0.3684210526315789,0.017543859649122806,1.6842105263157894,-0.631578947368421,-0.5087719298245614,1.105263157894737,1.1754385964912282,-1.2105263157894737,-1.2456140350877194,-0.631578947368421,1.2456140350877194,0.10526315789473684,0.6491228070175439,-0.5614035087719298,0.0,0.9649122807017544,-0.7719298245614035,0.2982456140350877,-0.22807017543859648,-0.7192982456140351,1.6842105263157894,1.2105263157894737,-0.5263157894736842,-0.38596491228070173,-1.368421052631579,-0.03508771929824561,-1.0350877192982457,0.6491228070175439,1.6140350877192982,-0.3157894736842105,-1.2280701754385965,0.631578947368421,0.3157894736842105,1.5614035087719298,-0.3508771929824561,0.42105263157894735,-0.9473684210526315,-0.6666666666666666,1.1228070175438596,1.0526315789473684,1.4736842105263157,-1.5614035087719298,0.47368421052631576,1.1929824561403508,1.2280701754385965,1.087719298245614,0.543859649122807,1.263157894736842,-1.2280701754385965,0.5087719298245614,0.17543859649122806,-0.42105263157894735,-0.631578947368421,-1.543859649122807,1.4210526315789473,-1.0526315789473684,-0.9824561403508771,-1.1228070175438596,-0.3333333333333333,-1.0350877192982457,1.1228070175438596,-0.9298245614035088,-0.22807017543859648,-0.22807017543859648,-1.3508771929824561,0.9298245614035088,-0.9649122807017544,0.9298245614035088,0.631578947368421,-0.5964912280701754,0.2631578947368421,1.368421052631579,1.5263157894736843,-0.40350877192982454,-1.3333333333333333,0.21052631578947367,0.17543859649122806,-0.12280701754385964,0.14035087719298245,-1.7543859649122806,-0.5964912280701754,-1.6666666666666667,1.263157894736842,-1.7543859649122806,-1.4912280701754386,0.7543859649122807,1.4912280701754386,0.6666666666666666,0.24561403508771928,-0.21052631578947367,1.6140350877192982,1.456140350877193,-0.24561403508771928,1.5263157894736843,-0.12280701754385964,1.5087719298245614,-0.47368421052631576,-1.0701754385964912,1.1403508771929824,-0.7192982456140351,0.6842105263157895,1.5263157894736843,0.08771929824561403,0.6491228070175439,-0.3508771929824561,0.631578947368421,1.3508771929824561,1.543859649122807,-0.5789473684210527,-0.2807017543859649,1.1929824561403508,1.0526315789473684,1.1578947368421053,1.1403508771929824,-1.5263157894736843,1.4912280701754386,-0.8421052631578947,0.631578947368421,0.22807017543859648,0.07017543859649122,1.1929824561403508,-1.105263157894737,1.456140350877193,0.03508771929824561,-1.5614035087719298,1.1403508771929824,-0.2631578947368421,0.19298245614035087,0.0,1.280701754385965,1.1403508771929824,0.14035087719298245,1.719298245614035,0.08771929824561403,1.4912280701754386,-0.5087719298245614,-0.9473684210526315,-0.12280701754385964,-0.8596491228070176,-0.10526315789473684,-1.1578947368421053,-0.7543859649122807,1.456140350877193,-1.0701754385964912,-0.5263157894736842,-1.1929824561403508,-0.9298245614035088,0.40350877192982454,1.2982456140350878,0.7192982456140351,1.543859649122807,0.3508771929824561,-1.1228070175438596,-0.38596491228070173,1.6842105263157894,-0.03508771929824561,0.6842105263157895,-1.4210526315789473,-0.7192982456140351,-0.631578947368421,0.10526315789473684,1.0526315789473684,1.105263157894737,-0.03508771929824561,0.43859649122807015,1.4736842105263157,0.42105263157894735,-0.5263157894736842,-1.5789473684210527,-0.45614035087719296,-1.456140350877193,1.6140350877192982,-0.05263157894736842,1.5964912280701755,-1.3508771929824561,1.4210526315789473,-0.9649122807017544,0.0,1.368421052631579,0.9473684210526315,-1.1228070175438596,-0.6491228070175439,-0.17543859649122806,1.5263157894736843,0.9649122807017544,1.2982456140350878,-0.10526315789473684,0.8070175438596491,-0.8421052631578947,-0.543859649122807,0.8596491228070176,-1.5789473684210527,0.6140350877192983,-0.12280701754385964,-1.456140350877193,1.280701754385965,-1.7017543859649122,1.719298245614035,1.6491228070175439,0.03508771929824561,-1.105263157894737,-1.5964912280701755,-1.3157894736842106,-0.9473684210526315,0.7894736842105263,0.3508771929824561,-1.6842105263157894,-1.543859649122807,0.7192982456140351,-0.15789473684210525,1.456140350877193,0.7543859649122807,1.263157894736842,1.4736842105263157,-1.5789473684210527,1.368421052631579,1.6842105263157894,-1.4912280701754386,0.8596491228070176,1.0350877192982457,-0.6140350877192983,1.1228070175438596,0.40350877192982454,-0.17543859649122806,0.017543859649122806,-0.8947368421052632,0.2982456140350877,0.2982456140350877,0.5263157894736842,0.7192982456140351,-0.6491228070175439,1.5964912280701755,-0.7368421052631579,-1.2280701754385965,0.6491228070175439,1.1228070175438596,0.7894736842105263,-1.1228070175438596,-0.9824561403508771,-1.0,-1.4035087719298245,1.631578947368421,0.03508771929824561,-0.5964912280701754,0.0,1.2280701754385965,-0.12280701754385964,0.08771929824561403,1.6491228070175439,-0.05263157894736842,0.7017543859649122,-0.17543859649122806,0.08771929824561403,0.7368421052631579,-1.736842105263158,-1.5263157894736843,1.3157894736842106,-0.8421052631578947,1.3157894736842106,-0.42105263157894735,0.017543859649122806,-1.263157894736842,1.456140350877193,0.10526315789473684,-0.9649122807017544,1.280701754385965,-0.5263157894736842,-0.6491228070175439,1.2280701754385965,-1.2105263157894737,-0.08771929824561403,0.3508771929824561,-1.7017543859649122,-1.5087719298245614,-1.631578947368421,0.40350877192982454,-0.40350877192982454,-0.017543859649122806,-0.7719298245614035,1.4736842105263157,1.2105263157894737,0.543859649122807,1.2105263157894737,1.0,-1.736842105263158,-1.1403508771929824,0.6491228070175439,-1.7543859649122806,0.7894736842105263,1.0701754385964912,0.7543859649122807,1.1403508771929824,1.3508771929824561,-0.5789473684210527,-0.7894736842105263,1.368421052631579,-1.2456140350877194,-1.1228070175438596,0.49122807017543857,-1.280701754385965,1.5614035087719298,-0.8070175438596491,-0.08771929824561403,-0.9649122807017544,-1.7543859649122806,0.6140350877192983,1.105263157894737,-1.4385964912280702,1.1228070175438596,1.7017543859649122,0.5087719298245614,-1.0701754385964912,-1.4736842105263157,0.6491228070175439,-0.9122807017543859,0.03508771929824561,0.03508771929824561,-1.280701754385965,-1.5263157894736843,-0.5614035087719298,-1.3508771929824561,-0.07017543859649122,-0.7017543859649122,1.6666666666666667,-1.719298245614035,-0.12280701754385964,-0.017543859649122806,1.0175438596491229,-0.9649122807017544,0.7894736842105263,1.7017543859649122,0.3508771929824561,0.2982456140350877,1.631578947368421,1.1929824561403508,0.15789473684210525,1.3157894736842106,-0.6842105263157895,-1.543859649122807,0.14035087719298245,-1.2280701754385965,0.21052631578947367,-0.15789473684210525,0.45614035087719296,-0.8947368421052632,1.6491228070175439,-1.1228070175438596,-0.8421052631578947,-0.45614035087719296,-1.2982456140350878,-1.4035087719298245,0.49122807017543857,1.6491228070175439,-1.105263157894737,-0.6842105263157895,-1.4210526315789473,0.42105263157894735,0.12280701754385964,-0.5964912280701754,-1.3508771929824561,1.0526315789473684,0.6140350877192983,-1.6666666666666667,1.456140350877193,0.0,-1.6140350877192982,1.3333333333333333,-0.12280701754385964,-0.8947368421052632,1.087719298245614,-0.17543859649122806,1.3508771929824561,-1.736842105263158,-1.368421052631579,1.2105263157894737,1.2982456140350878,0.7543859649122807,-0.21052631578947367,-1.5964912280701755,0.49122807017543857,-0.15789473684210525,0.0,0.0,-1.1929824561403508,-0.9298245614035088,1.543859649122807,-0.7719298245614035,-0.8596491228070176,0.03508771929824561,0.0,0.03508771929824561,-0.3157894736842105,0.17543859649122806,0.5087719298245614,-0.22807017543859648,0.7192982456140351,1.4385964912280702,-1.2456140350877194,-0.10526315789473684,1.0526315789473684,0.9122807017543859,0.8947368421052632,0.8245614035087719,0.47368421052631576,1.719298245614035,-1.1754385964912282,0.8070175438596491,-1.736842105263158,-1.543859649122807,1.719298245614035,-0.7543859649122807,0.9122807017543859,-0.43859649122807015,-0.631578947368421,-0.8771929824561403,-0.6666666666666666,1.5087719298245614,-0.5087719298245614,0.05263157894736842,0.38596491228070173,1.6842105263157894,-0.08771929824561403,1.6842105263157894,1.368421052631579,-0.38596491228070173,-0.6666666666666666,0.017543859649122806,-1.4912280701754386,-0.9824561403508771,1.719298245614035,-0.8070175438596491,-0.12280701754385964,-0.9122807017543859,1.6842105263157894,1.6140350877192982,-0.49122807017543857,-0.03508771929824561,-1.0175438596491229,-0.12280701754385964,0.42105263157894735,-0.24561403508771928,0.9122807017543859,-0.5789473684210527,-0.7719298245614035,-0.40350877192982454,0.6140350877192983,-0.42105263157894735,-1.3508771929824561,0.8421052631578947,-0.22807017543859648,-0.6140350877192983,-0.9649122807017544,-0.5614035087719298,-1.1403508771929824,1.5087719298245614,1.6140350877192982,-0.45614035087719296,1.105263157894737,1.2456140350877194,0.03508771929824561,0.2807017543859649,0.7368421052631579,-1.6140350877192982,1.4035087719298245,-0.49122807017543857,1.2456140350877194,0.5087719298245614,0.0,1.456140350877193,0.017543859649122806,0.0,-1.631578947368421,-0.5614035087719298,-0.9298245614035088,0.3684210526315789],[0.8947368421052632,1.5614035087719298,0.9824561403508771,0.3333333333333333,-0.7017543859649122,1.2105263157894737,-1.4385964912280702,1.631578947368421,-0.8070175438596491,0.21052631578947367,-0.21052631578947367,-0.6842105263157895,-1.2456140350877194,-1.0175438596491229,1.0701754385964912,-1.1929824561403508,-0.24561403508771928,-1.1228070175438596,1.1929824561403508,0.7192982456140351,1.4736842105263157,-1.5263157894736843,-1.0701754385964912,0.3684210526315789,1.368421052631579,-1.631578947368421,0.7368421052631579,1.1403508771929824,0.6666666666666666,1.6140350877192982,-0.17543859649122806,0.017543859649122806,-1.1228070175438596,1.263157894736842,0.45614035087719296,1.2982456140350878,-1.3333333333333333,0.14035087719298245,-0.8596491228070176,0.14035087719298245,-0.543859649122807,1.1754385964912282,-0.5614035087719298,1.1578947368421053,1.0,-0.3333333333333333,-0.8245614035087719,1.4385964912280702,0.42105263157894735,-0.7894736842105263,-0.6842105263157895,0.8771929824561403,0.9473684210526315,0.3508771929824561,0.6666666666666666,-1.1754385964912282,0.14035087719298245,-0.42105263157894735,-1.736842105263158,1.3333333333333333,0.5964912280701754,1.5789473684210527,-0.15789473684210525,0.3684210526315789,-0.5263157894736842,1.631578947368421,-0.9298245614035088,-1.1929824561403508,-0.07017543859649122,-1.2280701754385965,0.14035087719298245,-1.6140350877192982,-0.3333333333333333,-1.1403508771929824,1.0,0.543859649122807,1.3333333333333333,1.280701754385965,-1.0350877192982457,-0.10526315789473684,0.9298245614035088,1.1228070175438596,-0.49122807017543857,1.5614035087719298,-0.5789473684210527,1.6491228070175439,-0.07017543859649122,-1.719298245614035,-0.47368421052631576,0.6491228070175439,1.1754385964912282,1.3859649122807018,1.280701754385965,0.8070175438596491,-0.5263157894736842,1.456140350877193,-1.2456140350877194,1.1228070175438596,-0.2807017543859649,-0.8947368421052632,-0.14035087719298245,-0.2982456140350877,0.9298245614035088,0.8947368421052632,-0.8947368421052632,-0.2807017543859649,1.3508771929824561,0.43859649122807015,0.9298245614035088,-0.38596491228070173,-1.7543859649122806,1.3508771929824561,1.719298245614035,0.14035087719298245,1.368421052631579,-1.1228070175438596,0.7192982456140351,-1.1578947368421053,0.38596491228070173,-0.5263157894736842,-0.49122807017543857,0.19298245614035087,-1.1929824561403508,1.2982456140350878,-0.8421052631578947,-0.9298245614035088,0.8421052631578947,0.3333333333333333,0.15789473684210525,0.017543859649122806,1.4035087719298245,-0.7894736842105263,1.6666666666666667,-0.42105263157894735,-0.8771929824561403,1.4210526315789473,-1.368421052631579,0.017543859649122806,0.8421052631578947,-0.3333333333333333,0.17543859649122806,1.105263157894737,-1.2456140350877194,-0.2982456140350877,-1.0526315789473684,1.0175438596491229,-1.6842105263157894,0.9122807017543859,0.8596491228070176,-0.21052631578947367,-1.4912280701754386,0.07017543859649122,0.05263157894736842,0.3508771929824561,-0.8596491228070176,0.2631578947368421,1.5087719298245614,-0.22807017543859648,-1.4035087719298245,-0.6491228070175439,-1.263157894736842,-0.45614035087719296,-0.5263157894736842,-1.2456140350877194,-0.2982456140350877,1.3859649122807018,0.543859649122807,-1.5614035087719298,-1.087719298245614,-0.42105263157894735,-0.8070175438596491,-0.7192982456140351,0.9824561403508771,1.3859649122807018,0.24561403508771928,-0.03508771929824561,-1.087719298245614,0.08771929824561403,-0.3157894736842105,0.8596491228070176,-1.3333333333333333,-1.4385964912280702,-0.9649122807017544,1.3508771929824561,0.9649122807017544,-1.5789473684210527,-1.6140350877192982,-1.1929824561403508,1.3333333333333333,-1.1403508771929824,0.07017543859649122,1.543859649122807,1.2982456140350878,-0.8596491228070176,-1.4736842105263157,0.8421052631578947,0.24561403508771928,-0.3333333333333333,1.0526315789473684,-0.8596491228070176,1.3333333333333333,1.719298245614035,1.631578947368421,0.9473684210526315,-1.4035087719298245,-0.49122807017543857,1.736842105263158,0.47368421052631576,0.14035087719298245,0.49122807017543857,-1.2105263157894737,0.47368421052631576,0.08771929824561403,-1.4736842105263157,0.7368421052631579,-0.8070175438596491,0.9649122807017544,1.280701754385965,0.17543859649122806,0.8947368421052632,0.6666666666666666,-1.0701754385964912,-0.21052631578947367,-0.15789473684210525,-0.8421052631578947,1.719298245614035,-1.0,0.7192982456140351,-1.2982456140350878,0.7017543859649122,-0.5789473684210527,-0.3684210526315789,0.5964912280701754,0.543859649122807,0.15789473684210525,0.05263157894736842,0.7192982456140351,0.19298245614035087,0.12280701754385964,-1.1228070175438596,-0.5087719298245614,-1.736842105263158,0.631578947368421,-0.19298245614035087,-0.2631578947368421,-0.631578947368421,0.17543859649122806,1.631578947368421,-0.5614035087719298,-0.43859649122807015,-0.2982456140350877,0.08771929824561403,-0.43859649122807015,-0.543859649122807,1.736842105263158,-1.1754385964912282,1.1403508771929824,0.3157894736842105,-1.6842105263157894,-1.2105263157894737,0.22807017543859648,0.5087719298245614,-1.280701754385965,-0.9473684210526315,0.8245614035087719,0.15789473684210525,-0.7719298245614035,1.0,1.2280701754385965,0.6491228070175439,0.03508771929824561,-0.2982456140350877,-0.07017543859649122,1.4912280701754386,0.0,-0.2631578947368421,0.5263157894736842,0.22807017543859648,-1.6842105263157894,-1.087719298245614,0.7017543859649122,-0.5614035087719298,-1.0350877192982457,-0.6666666666666666,-0.22807017543859648,-0.8421052631578947,-1.7543859649122806,-1.6140350877192982,1.4210526315789473,-0.19298245614035087,-1.2280701754385965,0.42105263157894735,-0.3333333333333333,0.45614035087719296,0.8771929824561403,-1.087719298245614,-0.42105263157894735,1.5964912280701755,-1.3859649122807018,-0.47368421052631576,-0.2982456140350877,0.19298245614035087,0.543859649122807,0.9824561403508771,-1.368421052631579,0.21052631578947367,0.5964912280701754,-0.017543859649122806,0.43859649122807015,0.38596491228070173,1.6666666666666667,0.8421052631578947,-1.631578947368421,-0.7192982456140351,-0.7894736842105263,0.19298245614035087,-0.8070175438596491,-0.49122807017543857,0.5964912280701754,-1.6842105263157894,0.8596491228070176,-0.7894736842105263,0.3333333333333333,-0.24561403508771928,0.2982456140350877,0.2982456140350877,0.9649122807017544,0.631578947368421,-0.5263157894736842,0.9824561403508771,-0.3333333333333333,0.15789473684210525,-1.7543859649122806,1.263157894736842,-0.9298245614035088,-0.3333333333333333,1.4035087719298245,-1.1578947368421053,-0.6666666666666666,-0.7017543859649122,-1.456140350877193,1.3157894736842106,0.8070175438596491,0.38596491228070173,-1.1578947368421053,-1.4736842105263157,-0.38596491228070173,0.8421052631578947,0.22807017543859648,-1.1754385964912282,-1.3157894736842106,-1.1929824561403508,1.368421052631579,-0.7368421052631579,0.3508771929824561,-0.3157894736842105,0.6491228070175439,-0.2631578947368421,-0.7192982456140351,-1.3157894736842106,0.8421052631578947,0.6140350877192983,0.38596491228070173,-0.12280701754385964,1.5263157894736843,0.9298245614035088,-0.08771929824561403,-1.5263157894736843,-1.3333333333333333,0.5614035087719298,0.05263157894736842,1.631578947368421,-1.5789473684210527,0.8421052631578947,-0.2631578947368421,0.6140350877192983,-0.07017543859649122,-1.6140350877192982,0.9473684210526315,-1.2105263157894737,-0.8245614035087719,-0.03508771929824561,-1.087719298245614,-1.1578947368421053,1.368421052631579,0.45614035087719296,0.8070175438596491,1.1754385964912282,1.0,1.631578947368421,-1.456140350877193,-0.05263157894736842,0.8771929824561403,-0.8070175438596491,-0.631578947368421,0.6842105263157895,-0.3157894736842105,0.6842105263157895,1.2456140350877194,0.7368421052631579,-1.1578947368421053,0.45614035087719296,-0.8771929824561403,-0.17543859649122806,0.0,0.631578947368421,1.6491228070175439,-1.4385964912280702,0.15789473684210525,0.8771929824561403,-1.3157894736842106,0.8421052631578947,1.4035087719298245,-0.17543859649122806,1.5614035087719298,0.3157894736842105,0.43859649122807015,-0.05263157894736842,0.6491228070175439,0.05263157894736842,-1.631578947368421,0.12280701754385964,1.3333333333333333,-1.6842105263157894,0.14035087719298245,0.3684210526315789,0.543859649122807,-1.087719298245614,0.8421052631578947,-0.5614035087719298,0.631578947368421,1.719298245614035,0.24561403508771928,0.8596491228070176,-0.40350877192982454,-0.9122807017543859,1.2280701754385965,-0.10526315789473684,1.543859649122807,0.5789473684210527,1.5789473684210527,0.7719298245614035,0.3684210526315789,1.4210526315789473,1.087719298245614,-0.03508771929824561,-1.2982456140350878,-1.7017543859649122,0.5263157894736842,0.8771929824561403,-0.2807017543859649,1.1228070175438596,0.3684210526315789,-0.08771929824561403,1.1754385964912282,-0.6491228070175439,1.2280701754385965,0.17543859649122806,0.7192982456140351,0.10526315789473684,-1.736842105263158,0.0,1.1929824561403508,-1.1929824561403508,-0.8771929824561403,1.105263157894737,1.2982456140350878,0.5087719298245614,0.45614035087719296,1.6140350877192982,0.9649122807017544,-1.2456140350877194,-0.017543859649122806,1.0701754385964912,-0.8947368421052632,-0.6140350877192983,0.8070175438596491,0.5789473684210527,0.19298245614035087,0.14035087719298245,-0.03508771929824561,-0.7368421052631579,0.22807017543859648,0.12280701754385964,1.0175438596491229,-1.5263157894736843,1.1929824561403508,0.8245614035087719,-0.9122807017543859,0.24561403508771928,-1.1578947368421053,1.3508771929824561,0.543859649122807,-1.0350877192982457,-0.19298245614035087,-0.9649122807017544,-1.0175438596491229,1.4912280701754386,-0.03508771929824561,1.456140350877193,1.1578947368421053,-0.3333333333333333,0.7543859649122807,1.456140350877193,0.9298245614035088,-0.2631578947368421,1.280701754385965,1.5964912280701755,0.7368421052631579,0.42105263157894735,0.3508771929824561,1.263157894736842,0.9473684210526315,0.8596491228070176,-1.3157894736842106,-0.3157894736842105,-0.631578947368421,-0.8421052631578947,-1.7017543859649122,-1.1754385964912282,-0.017543859649122806,1.3508771929824561,-1.0350877192982457,0.5087719298245614,0.47368421052631576,-0.7543859649122807,-0.3333333333333333,1.5964912280701755,0.45614035087719296,1.4385964912280702,-0.15789473684210525,0.6666666666666666,-1.1929824561403508,0.0,-0.2982456140350877,-1.5087719298245614,-0.8070175438596491,0.7543859649122807,0.15789473684210525,1.5614035087719298,1.4210526315789473,1.1228070175438596,-0.9473684210526315,-1.263157894736842,-1.105263157894737,-1.1754385964912282,1.543859649122807,1.6666666666666667,1.4385964912280702,1.4035087719298245,-1.2105263157894737,-1.4210526315789473,0.7719298245614035,0.9298245614035088,1.2456140350877194,1.4912280701754386,-0.3333333333333333,-0.5964912280701754,0.2631578947368421,-0.7017543859649122,-0.9298245614035088,1.4912280701754386,-0.5087719298245614,0.10526315789473684,1.4736842105263157,-0.6140350877192983,-1.0175438596491229,0.6140350877192983,-0.7719298245614035,0.24561403508771928,0.43859649122807015,1.3157894736842106,-0.017543859649122806,-1.2280701754385965,0.8070175438596491,0.2982456140350877,-1.4035087719298245,0.5614035087719298,0.5087719298245614,1.0175438596491229,-1.4912280701754386,-0.8245614035087719,-0.43859649122807015,1.368421052631579,0.03508771929824561,1.087719298245614,0.3157894736842105,1.2105263157894737,0.22807017543859648,0.08771929824561403,0.14035087719298245,-1.6666666666666667,-1.2280701754385965,0.17543859649122806,-1.2105263157894737,1.2280701754385965,1.543859649122807,0.5964912280701754,0.9122807017543859,0.43859649122807015,-0.7719298245614035,-1.1403508771929824,-0.40350877192982454,1.4912280701754386,-0.22807017543859648,-1.543859649122807,-1.719298245614035,0.08771929824561403,1.1754385964912282,0.12280701754385964,1.4385964912280702,1.4736842105263157,-0.8947368421052632,-1.7017543859649122,-1.1403508771929824,-0.9473684210526315,1.105263157894737,0.9473684210526315,-1.719298245614035,-0.9473684210526315,0.8421052631578947,0.49122807017543857,-0.7543859649122807,0.24561403508771928,1.7017543859649122,-1.263157894736842,-0.7543859649122807,0.8771929824561403,1.3859649122807018,1.6842105263157894,-0.3508771929824561,0.9473684210526315,-0.5789473684210527,1.2456140350877194,-0.5263157894736842,0.03508771929824561,1.1754385964912282,-1.0,0.3333333333333333,-1.7017543859649122,1.7017543859649122,-0.9122807017543859,-0.9473684210526315,-1.1578947368421053,1.0,-0.43859649122807015,-0.7894736842105263,-1.4385964912280702,-0.9122807017543859,-0.2807017543859649,-1.736842105263158,-0.5614035087719298,1.5789473684210527,1.2280701754385965,-0.40350877192982454,-0.5789473684210527,-0.19298245614035087,0.8947368421052632,-1.3859649122807018,-1.5964912280701755,-1.7017543859649122,1.456140350877193,0.8421052631578947,0.7192982456140351,0.7894736842105263,-1.6666666666666667,-1.6491228070175439,0.9122807017543859,0.017543859649122806,-0.38596491228070173,0.7017543859649122,0.5263157894736842,-0.3157894736842105,0.19298245614035087,0.40350877192982454,1.0701754385964912,0.8771929824561403,-1.5087719298245614,-1.5789473684210527,-1.4210526315789473,-0.38596491228070173,-0.10526315789473684,-0.08771929824561403,-1.3859649122807018,1.2456140350877194,0.15789473684210525,-0.40350877192982454,-0.45614035087719296,1.105263157894737,-0.22807017543859648,1.1929824561403508,-0.8596491228070176,1.5087719298245614,-0.03508771929824561,-0.45614035087719296,0.5087719298245614,1.5789473684210527,-1.6491228070175439,1.2105263157894737,0.9649122807017544,0.19298245614035087,0.6666666666666666,-0.07017543859649122,-0.03508771929824561,0.5087719298245614,0.9824561403508771,1.1403508771929824,-0.6842105263157895,-0.2982456140350877,-0.17543859649122806,-0.2807017543859649,0.22807017543859648,1.3157894736842106,0.2807017543859649,0.45614035087719296,-1.0350877192982457,1.7017543859649122,1.2105263157894737,1.5964912280701755,-0.17543859649122806,1.1403508771929824,-1.2105263157894737,-0.3157894736842105,0.9122807017543859,-0.49122807017543857,0.5087719298245614,0.5614035087719298,0.3684210526315789,0.7894736842105263,-0.43859649122807015,-1.1754385964912282,0.8070175438596491,-1.5964912280701755,-0.05263157894736842,0.24561403508771928,-1.1578947368421053,0.40350877192982454,-0.10526315789473684,-0.8771929824561403,0.47368421052631576,-1.2280701754385965,-1.4035087719298245,-1.6140350877192982,0.05263157894736842,-1.2456140350877194,1.719298245614035,0.3333333333333333,-1.4210526315789473,0.7543859649122807,0.21052631578947367,1.1929824561403508,-1.0701754385964912,-0.6842105263157895,-0.10526315789473684,1.5614035087719298,1.4385964912280702,1.2280701754385965,1.5087719298245614,-0.9298245614035088,0.3508771929824561,0.3684210526315789,-1.2280701754385965,0.9824561403508771,-1.1403508771929824,1.3508771929824561,0.6842105263157895,0.6666666666666666,-0.42105263157894735,1.1929824561403508,1.6491228070175439,-0.07017543859649122,-0.631578947368421,-1.4210526315789473,1.6140350877192982,1.5789473684210527,0.017543859649122806,1.5789473684210527,1.3859649122807018,1.0,-0.6666666666666666,0.03508771929824561,0.543859649122807,0.19298245614035087,-0.9824561403508771],[0.43859649122807015,-1.2982456140350878,1.0,-0.2807017543859649,-0.8596491228070176,-0.7719298245614035,0.47368421052631576,-1.6666666666666667,0.7368421052631579,1.2280701754385965,-1.3859649122807018,-0.38596491228070173,0.631578947368421,-0.8771929824561403,0.3684210526315789,1.2105263157894737,0.43859649122807015,-0.15789473684210525,-1.6491228070175439,-1.2105263157894737,-0.7719298245614035,-0.9824561403508771,1.4210526315789473,1.543859649122807,0.12280701754385964,-1.456140350877193,-0.5964912280701754,0.2631578947368421,0.38596491228070173,0.6491228070175439,-0.07017543859649122,1.5964912280701755,0.8947368421052632,-0.6842105263157895,-0.9473684210526315,0.9824561403508771,1.5614035087719298,-0.38596491228070173,-1.6140350877192982,-0.8947368421052632,-1.4912280701754386,-1.6666666666666667,-0.9649122807017544,1.263157894736842,-1.4385964912280702,1.280701754385965,-0.3157894736842105,-0.6842105263157895,1.5087719298245614,-0.7017543859649122,-1.4736842105263157,-0.3333333333333333,1.368421052631579,-1.3508771929824561,-0.8596491228070176,-1.6842105263157894,-1.3333333333333333,0.8771929824561403,-0.7017543859649122,-1.7543859649122806,-0.017543859649122806,-1.736842105263158,0.6491228070175439,-0.5614035087719298,-0.7543859649122807,0.8771929824561403,1.1228070175438596,1.1403508771929824,0.8596491228070176,-0.21052631578947367,-1.2982456140350878,0.05263157894736842,1.5087719298245614,0.10526315789473684,0.9824561403508771,-0.7192982456140351,0.24561403508771928,0.19298245614035087,-1.7543859649122806,1.3508771929824561,-0.42105263157894735,0.38596491228070173,-0.5263157894736842,-0.2982456140350877,-1.5964912280701755,1.3157894736842106,-1.5087719298245614,1.1228070175438596,-0.3333333333333333,-0.6666666666666666,-0.3684210526315789,-1.263157894736842,-0.08771929824561403,-0.3684210526315789,0.49122807017543857,-1.456140350877193,1.0701754385964912,0.7192982456140351,-1.4210526315789473,-1.719298245614035,0.8245614035087719,0.42105263157894735,-1.2982456140350878,0.6666666666666666,1.3859649122807018,-1.1578947368421053,1.736842105263158,0.38596491228070173,1.0350877192982457,-0.9298245614035088,-0.3508771929824561,-1.4035087719298245,-1.5087719298245614,1.6842105263157894,-1.4736842105263157,0.3684210526315789,-0.07017543859649122,1.7017543859649122,0.49122807017543857,1.456140350877193,-1.263157894736842,0.8596491228070176,-1.4912280701754386,1.5263157894736843,1.5789473684210527,0.10526315789473684,0.7894736842105263,0.8947368421052632,-1.1929824561403508,-1.2982456140350878,-0.8771929824561403,-1.6491228070175439,-0.9473684210526315,-1.4736842105263157,0.8421052631578947,-0.6842105263157895,0.17543859649122806,1.0350877192982457,-1.3157894736842106,0.3684210526315789,-0.2631578947368421,-0.6491228070175439,-0.5263157894736842,0.3157894736842105,0.8070175438596491,-0.08771929824561403,-1.1228070175438596,1.0526315789473684,0.8947368421052632,-0.17543859649122806,0.9298245614035088,1.3859649122807018,1.0175438596491229,0.43859649122807015,0.6140350877192983,-1.1403508771929824,1.6666666666666667,0.45614035087719296,0.24561403508771928,0.7017543859649122,0.017543859649122806,1.6666666666666667,1.0175438596491229,-0.6666666666666666,-0.7543859649122807,0.9298245614035088,1.087719298245614,-0.6140350877192983,1.3508771929824561,1.1929824561403508,1.543859649122807,-1.6140350877192982,-1.0175438596491229,1.6491228070175439,-1.5964912280701755,-0.38596491228070173,0.7894736842105263,-0.6491228070175439,0.42105263157894735,1.5087719298245614,0.03508771929824561,0.10526315789473684,-1.5087719298245614,-0.3157894736842105,-1.631578947368421,1.5087719298245614,1.4736842105263157,-0.21052631578947367,0.0,0.38596491228070173,-0.45614035087719296,0.08771929824561403,0.8947368421052632,1.280701754385965,0.3508771929824561,1.0701754385964912,0.6666666666666666,0.05263157894736842,0.9473684210526315,-0.14035087719298245,-1.2456140350877194,0.49122807017543857,1.1578947368421053,1.0526315789473684,1.0175438596491229,-1.5614035087719298,-1.6140350877192982,-1.4912280701754386,-0.07017543859649122,0.9824561403508771,0.3333333333333333,-0.6491228070175439,0.017543859649122806,-1.5789473684210527,0.2631578947368421,-0.19298245614035087,0.19298245614035087,-1.4210526315789473,-0.6140350877192983,0.8070175438596491,0.19298245614035087,-0.5087719298245614,0.12280701754385964,-0.9824561403508771,-0.7894736842105263,0.2982456140350877,0.8070175438596491,0.49122807017543857,0.631578947368421,-0.42105263157894735,-1.736842105263158,-1.6140350877192982,-1.7543859649122806,0.21052631578947367,-0.47368421052631576,0.6842105263157895,1.5263157894736843,0.03508771929824561,-0.3157894736842105,-1.5614035087719298,-1.719298245614035,0.7017543859649122,0.24561403508771928,-1.1228070175438596,1.4385964912280702,-1.4035087719298245,1.3859649122807018,-0.10526315789473684,-0.9473684210526315,-0.9122807017543859,1.631578947368421,1.736842105263158,1.0175438596491229,0.15789473684210525,1.2280701754385965,-0.6140350877192983,-0.40350877192982454,0.9824561403508771,0.3684210526315789,-1.1403508771929824,-0.5614035087719298,-0.40350877192982454,1.263157894736842,1.0701754385964912,-1.5263157894736843,-0.9298245614035088,-0.08771929824561403,0.8421052631578947,0.7368421052631579,-1.0,-0.8947368421052632,-1.2456140350877194,-0.9649122807017544,-1.456140350877193,-1.4385964912280702,-1.4385964912280702,-0.07017543859649122,0.3333333333333333,0.5789473684210527,-0.22807017543859648,1.1929824561403508,1.456140350877193,0.5964912280701754,0.6666666666666666,-1.2982456140350878,-0.8596491228070176,-1.4210526315789473,0.0,-1.1578947368421053,0.3157894736842105,-0.3333333333333333,-0.14035087719298245,-0.8421052631578947,0.47368421052631576,-1.0526315789473684,0.8421052631578947,0.543859649122807,-0.17543859649122806,-0.7719298245614035,1.3859649122807018,-1.368421052631579,-0.14035087719298245,-1.719298245614035,-0.5964912280701754,-0.08771929824561403,1.4035087719298245,0.9649122807017544,-1.3859649122807018,-0.3508771929824561,-1.0526315789473684,1.7017543859649122,1.3333333333333333,-0.17543859649122806,1.2982456140350878,0.5789473684210527,0.7017543859649122,1.7017543859649122,-0.12280701754385964,1.4736842105263157,-0.19298245614035087,-0.43859649122807015,-0.45614035087719296,-1.1228070175438596,0.8947368421052632,0.7017543859649122,1.105263157894737,-1.0350877192982457,-0.8596491228070176,0.3508771929824561,0.631578947368421,-0.017543859649122806,1.3157894736842106,0.543859649122807,-1.7017543859649122,-1.2982456140350878,0.0,-0.9298245614035088,0.45614035087719296,0.2631578947368421,0.8771929824561403,-1.5263157894736843,1.4210526315789473,-1.7543859649122806,0.2631578947368421,-1.368421052631579,-1.1403508771929824,0.24561403508771928,1.0350877192982457,-1.6140350877192982,1.0526315789473684,-0.12280701754385964,1.368421052631579,-0.631578947368421,-1.3333333333333333,0.9122807017543859,-1.2280701754385965,1.4210526315789473,-1.1929824561403508,-0.08771929824561403,-0.8070175438596491,-1.2280701754385965,1.087719298245614,0.7017543859649122,0.7894736842105263,-1.4385964912280702,1.5789473684210527,-0.6842105263157895,-1.0350877192982457,-1.3157894736842106,0.3333333333333333,1.3157894736842106,-0.543859649122807,0.19298245614035087,-1.6842105263157894,-0.9122807017543859,-0.7017543859649122,-0.17543859649122806,-0.21052631578947367,-0.6842105263157895,0.6491228070175439,0.14035087719298245,0.42105263157894735,-1.631578947368421,-1.105263157894737,-1.1403508771929824,-1.5087719298245614,1.0,-0.6842105263157895,0.5964912280701754,0.6666666666666666,-0.7719298245614035,-0.05263157894736842,0.8421052631578947,-0.38596491228070173,1.631578947368421,0.0,0.6842105263157895,-1.4912280701754386,0.43859649122807015,-1.456140350877193,0.5263157894736842,0.3333333333333333,-1.719298245614035,-1.1929824561403508,-0.7543859649122807,0.3157894736842105,-0.7894736842105263,1.719298245614035,-0.7017543859649122,0.15789473684210525,-1.1403508771929824,1.4035087719298245,1.3859649122807018,-0.38596491228070173,1.087719298245614,-1.3859649122807018,1.4385964912280702,1.5789473684210527,-0.05263157894736842,0.08771929824561403,-1.2456140350877194,-1.5964912280701755,0.9824561403508771,0.5789473684210527,0.8596491228070176,-0.5789473684210527,-0.7368421052631579,-0.9122807017543859,-0.47368421052631576,0.2631578947368421,-0.08771929824561403,0.7894736842105263,1.736842105263158,1.280701754385965,0.7192982456140351,-1.543859649122807,-0.2982456140350877,-0.9122807017543859,-1.368421052631579,-0.42105263157894735,-1.0350877192982457,-0.07017543859649122,1.1929824561403508,1.6842105263157894,1.5789473684210527,0.07017543859649122,0.21052631578947367,1.0526315789473684,-1.719298245614035,-0.6842105263157895,0.7543859649122807,0.2807017543859649,0.42105263157894735,-0.14035087719298245,-0.7368421052631579,-1.0350877192982457,0.631578947368421,-0.7894736842105263,-0.017543859649122806,0.8245614035087719,-0.43859649122807015,-1.087719298245614,0.49122807017543857,-1.1228070175438596,-0.8771929824561403,0.05263157894736842,0.7368421052631579,-0.8771929824561403,1.2456140350877194,0.45614035087719296,0.017543859649122806,-0.8245614035087719,-0.9649122807017544,-1.2105263157894737,0.7894736842105263,0.631578947368421,1.5087719298245614,0.14035087719298245,-0.38596491228070173,1.2982456140350878,0.017543859649122806,0.43859649122807015,-0.2982456140350877,-1.7543859649122806,0.6491228070175439,-0.5263157894736842,1.4385964912280702,-0.10526315789473684,-1.280701754385965,0.22807017543859648,0.08771929824561403,0.8070175438596491,-1.4035087719298245,-1.6666666666666667,-0.7894736842105263,-0.3157894736842105,1.6842105263157894,0.43859649122807015,0.15789473684210525,0.8947368421052632,1.4736842105263157,1.1929824561403508,1.543859649122807,0.47368421052631576,1.368421052631579,0.49122807017543857,-0.6491228070175439,-0.8596491228070176,1.4035087719298245,-0.7192982456140351,0.05263157894736842,-0.47368421052631576,-1.4035087719298245,-1.1403508771929824,-0.14035087719298245,0.631578947368421,-1.1578947368421053,-0.07017543859649122,-1.0,-1.0175438596491229,-0.17543859649122806,0.2807017543859649,-0.12280701754385964,-0.45614035087719296,-1.1228070175438596,-1.0,-1.7017543859649122,-1.1578947368421053,-1.0350877192982457,-0.42105263157894735,0.40350877192982454,1.0175438596491229,-1.368421052631579,0.7192982456140351,-1.368421052631579,0.6491228070175439,1.1578947368421053,-0.9649122807017544,1.6842105263157894,-0.21052631578947367,-1.456140350877193,1.543859649122807,1.2105263157894737,-0.7894736842105263,-1.0,-0.6491228070175439,-0.9649122807017544,0.9122807017543859,0.21052631578947367,0.45614035087719296,0.6140350877192983,-0.07017543859649122,-0.2982456140350877,0.9122807017543859,0.6842105263157895,0.03508771929824561,-0.6842105263157895,1.3333333333333333,1.6491228070175439,0.19298245614035087,0.7017543859649122,-0.8070175438596491,-0.15789473684210525,-1.2105263157894737,-1.4912280701754386,-0.19298245614035087,-0.03508771929824561,1.0,-0.12280701754385964,-0.21052631578947367,-1.087719298245614,-0.15789473684210525,-1.2982456140350878,0.9824561403508771,-0.17543859649122806,0.8070175438596491,1.2982456140350878,-1.0350877192982457,-1.5614035087719298,-0.03508771929824561,-1.1228070175438596,-0.6140350877192983,-1.5263157894736843,-1.456140350877193,1.1228070175438596,1.5789473684210527,-0.7017543859649122,0.7017543859649122,1.0701754385964912,0.017543859649122806,0.21052631578947367,0.15789473684210525,-0.7017543859649122,-1.1578947368421053,-0.15789473684210525,0.24561403508771928,-1.087719298245614,0.017543859649122806,-1.280701754385965,-1.0701754385964912,-0.7017543859649122,-0.7719298245614035,-1.456140350877193,1.263157894736842,1.6842105263157894,-1.2456140350877194,-1.6140350877192982,0.3684210526315789,-0.543859649122807,1.4736842105263157,0.8245614035087719,-1.0175438596491229,1.0175438596491229,-0.3684210526315789,1.0526315789473684,-1.5263157894736843,1.1403508771929824,-1.4385964912280702,0.5614035087719298,1.263157894736842,-1.5964912280701755,-1.105263157894737,0.5789473684210527,-0.10526315789473684,-1.7017543859649122,-1.0,-1.7017543859649122,0.40350877192982454,-0.7719298245614035,-0.45614035087719296,0.9649122807017544,0.5964912280701754,0.2807017543859649,0.24561403508771928,0.47368421052631576,-1.3333333333333333,-1.368421052631579,-0.9298245614035088,1.4736842105263157,-0.7543859649122807,-1.4210526315789473,0.7192982456140351,-1.368421052631579,1.1228070175438596,1.5964912280701755,-0.03508771929824561,1.5789473684210527,-1.5789473684210527,1.6140350877192982,-0.8070175438596491,0.24561403508771928,-1.280701754385965,-1.631578947368421,-0.2807017543859649,1.105263157894737,1.0175438596491229,0.5263157894736842,-0.2982456140350877,1.0,-0.49122807017543857,-0.9824561403508771,-0.05263157894736842,1.4385964912280702,-1.4385964912280702,0.14035087719298245,1.6491228070175439,0.3333333333333333,1.0,-0.6140350877192983,1.5263157894736843,-1.1578947368421053,1.2982456140350878,1.3859649122807018,0.5964912280701754,1.0175438596491229,0.38596491228070173,1.0526315789473684,-0.42105263157894735,1.4385964912280702,-0.2631578947368421,1.2280701754385965,1.6140350877192982,-1.6666666666666667,-1.5263157894736843,-1.1578947368421053,0.7543859649122807,-0.6491228070175439,-0.7192982456140351,-0.15789473684210525,0.0,-1.3157894736842106,0.07017543859649122,-0.21052631578947367,-0.42105263157894735,0.6842105263157895,1.719298245614035,1.2280701754385965,-0.2631578947368421,1.2456140350877194,1.105263157894737,0.7719298245614035,1.2280701754385965,0.9473684210526315,0.7368421052631579,-1.1754385964912282,0.7192982456140351,0.8070175438596491,1.736842105263158,-0.42105263157894735,-0.6842105263157895,1.543859649122807,0.5087719298245614,1.3508771929824561,0.03508771929824561,-0.47368421052631576,-1.2456140350877194,-0.12280701754385964,0.3508771929824561,0.8245614035087719,-1.2456140350877194,-0.6842105263157895,-0.10526315789473684,-1.6666666666666667,0.14035087719298245,1.543859649122807,0.12280701754385964,1.543859649122807,1.736842105263158,-0.6666666666666666,-0.6666666666666666,-0.2982456140350877,-0.8771929824561403,1.4210526315789473,1.3157894736842106,-0.10526315789473684,-0.5789473684210527,-0.543859649122807,-1.5614035087719298,-1.7543859649122806,0.3508771929824561,-0.17543859649122806,-1.368421052631579,0.14035087719298245,0.7017543859649122,0.3684210526315789,-1.3157894736842106,-0.7368421052631579,-1.456140350877193,1.4912280701754386,-0.8070175438596491,0.8947368421052632,-0.8421052631578947,1.3157894736842106,-0.9122807017543859,-1.7017543859649122,-1.2456140350877194,-1.1754385964912282,1.2105263157894737,-1.5614035087719298,0.9649122807017544,1.2105263157894737,-1.280701754385965,0.43859649122807015,1.2456140350877194,0.3157894736842105,0.8596491228070176,-0.07017543859649122,1.4210526315789473,-0.8421052631578947,1.1578947368421053,0.0,-1.5263157894736843,-0.5614035087719298,-0.7192982456140351,1.0175438596491229,1.4035087719298245,0.19298245614035087,-0.3508771929824561,-0.08771929824561403,-0.2807017543859649,-0.45614035087719296,-1.7543859649122806,1.1578947368421053,0.7192982456140351],[0.5263157894736842,1.0,-1.736842105263158,-0.12280701754385964,-0.08771929824561403,1.3333333333333333,-1.7017543859649122,-0.12280701754385964,0.45614035087719296,0.0,-1.7543859649122806,-0.6491228070175439,1.631578947368421,-1.5263157894736843,-0.017543859649122806,-0.6140350877192983,-1.2456140350877194,1.2280701754385965,1.5614035087719298,-1.087719298245614,-0.9298245614035088,-0.14035087719298245,-1.263157894736842,0.543859649122807,-0.12280701754385964,-0.21052631578947367,1.087719298245614,-0.3684210526315789,0.47368421052631576,-1.6666666666666667,-1.5087719298245614,1.4385964912280702,-0.9649122807017544,-0.8070175438596491,1.087719298245614,-1.0526315789473684,-1.456140350877193,0.8771929824561403,-0.22807017543859648,-0.8245614035087719,1.2982456140350878,-0.017543859649122806,-0.47368421052631576,0.6666666666666666,0.43859649122807015,1.2280701754385965,-1.4385964912280702,0.21052631578947367,-0.7192982456140351,0.43859649122807015,1.280701754385965,-0.631578947368421,-0.2631578947368421,-0.7894736842105263,0.43859649122807015,0.3508771929824561,0.7192982456140351,1.2456140350877194,-1.0526315789473684,0.3157894736842105,-0.3684210526315789,-1.4210526315789473,0.5614035087719298,0.24561403508771928,0.543859649122807,0.5964912280701754,0.7017543859649122,-0.5964912280701754,-0.2631578947368421,0.3508771929824561,1.105263157894737,-1.6140350877192982,0.43859649122807015,-1.3508771929824561,0.08771929824561403,1.5263157894736843,1.6140350877192982,-0.6666666666666666,-1.5964912280701755,0.7543859649122807,-1.543859649122807,-1.3508771929824561,-0.3508771929824561,1.2105263157894737,0.8421052631578947,-0.3684210526315789,-1.3859649122807018,-1.6491228070175439,0.9473684210526315,0.08771929824561403,0.08771929824561403,0.9824561403508771,0.6491228070175439,-0.9824561403508771,0.19298245614035087,1.6491228070175439,0.3333333333333333,-1.3859649122807018,1.719298245614035,-0.47368421052631576,-1.2456140350877194,0.21052631578947367,0.19298245614035087,1.5614035087719298,-0.03508771929824561,0.43859649122807015,0.631578947368421,-0.631578947368421,-0.2807017543859649,0.9473684210526315,-1.6666666666666667,-0.14035087719298245,-1.1403508771929824,-0.8070175438596491,0.3333333333333333,-0.9649122807017544,-0.45614035087719296,-0.9473684210526315,-0.22807017543859648,0.43859649122807015,-0.543859649122807,-1.543859649122807,-0.3157894736842105,-0.2631578947368421,-1.736842105263158,0.24561403508771928,0.6842105263157895,-1.4912280701754386,-0.7017543859649122,-0.22807017543859648,0.6140350877192983,-1.280701754385965,0.7368421052631579,0.24561403508771928,-0.2807017543859649,-0.017543859649122806,-1.5789473684210527,-1.5263157894736843,0.9824561403508771,0.38596491228070173,1.6666666666666667,1.736842105263158,0.7017543859649122,-1.1228070175438596,0.5964912280701754,1.4912280701754386,0.6666666666666666,-1.1754385964912282,-0.5789473684210527,1.5263157894736843,0.17543859649122806,-0.7017543859649122,-1.4210526315789473,0.7894736842105263,-0.47368421052631576,0.7543859649122807,-1.3333333333333333,-0.7192982456140351,-0.9122807017543859,0.5263157894736842,-0.7192982456140351,1.6842105263157894,-1.4736842105263157,1.0175438596491229,0.38596491228070173,0.2631578947368421,-0.6140350877192983,0.6666666666666666,0.7017543859649122,0.21052631578947367,-1.631578947368421,-0.08771929824561403,-0.14035087719298245,0.10526315789473684,-1.7543859649122806,-0.6491228070175439,-0.49122807017543857,0.8596491228070176,0.5789473684210527,1.4912280701754386,-1.736842105263158,0.43859649122807015,-0.21052631578947367,1.5263157894736843,-1.2456140350877194,-0.8596491228070176,-1.1403508771929824,-0.7543859649122807,-1.1929824561403508,1.1228070175438596,-1.719298245614035,-0.8245614035087719,-0.15789473684210525,1.3333333333333333,-0.8421052631578947,0.2982456140350877,-1.7017543859649122,-0.6666666666666666,-0.6842105263157895,-0.6140350877192983,-1.4385964912280702,-0.5263157894736842,-1.5087719298245614,0.017543859649122806,0.6842105263157895,1.6666666666666667,-0.24561403508771928,-0.14035087719298245,0.40350877192982454,-1.6140350877192982,-1.7017543859649122,0.5964912280701754,0.9824561403508771,1.0,-1.0,0.8771929824561403,0.24561403508771928,0.3684210526315789,-1.5964912280701755,-0.15789473684210525,1.4385964912280702,-0.03508771929824561,-0.08771929824561403,-1.0526315789473684,-1.7543859649122806,-1.6666666666666667,-0.49122807017543857,1.6140350877192982,-0.7368421052631579,-1.280701754385965,-0.12280701754385964,1.5789473684210527,0.47368421052631576,-0.543859649122807,-0.10526315789473684,1.6491228070175439,1.5789473684210527,1.0175438596491229,-1.0526315789473684,-0.10526315789473684,-1.0701754385964912,1.0175438596491229,-1.4210526315789473,1.456140350877193,0.5263157894736842,-0.7894736842105263,1.7017543859649122,0.543859649122807,-0.07017543859649122,-0.49122807017543857,-0.3333333333333333,-0.12280701754385964,0.7192982456140351,-0.2807017543859649,0.08771929824561403,1.3157894736842106,0.5087719298245614,-1.105263157894737,-1.6666666666666667,-0.47368421052631576,1.6140350877192982,0.3333333333333333,1.6491228070175439,-0.43859649122807015,-1.2280701754385965,-1.263157894736842,0.40350877192982454,1.5964912280701755,0.7017543859649122,-0.7543859649122807,1.0701754385964912,-0.08771929824561403,1.543859649122807,1.543859649122807,1.1578947368421053,-1.3333333333333333,1.087719298245614,-0.5614035087719298,0.49122807017543857,-1.719298245614035,1.5964912280701755,1.4912280701754386,-1.3508771929824561,-1.1578947368421053,-0.7543859649122807,-1.0701754385964912,-1.4210526315789473,0.5614035087719298,0.9122807017543859,0.12280701754385964,0.8070175438596491,-1.6491228070175439,1.0,-1.2456140350877194,-0.5789473684210527,-1.1578947368421053,1.0526315789473684,-1.3333333333333333,-1.0526315789473684,1.719298245614035,1.1578947368421053,-0.8245614035087719,-0.6140350877192983,-0.8421052631578947,-0.3333333333333333,0.05263157894736842,0.2807017543859649,1.263157894736842,-1.3333333333333333,-0.9298245614035088,-0.8421052631578947,-0.9122807017543859,1.1228070175438596,1.368421052631579,-0.543859649122807,1.1578947368421053,0.9122807017543859,0.3157894736842105,1.1754385964912282,-0.10526315789473684,-1.3859649122807018,0.5614035087719298,-1.5263157894736843,-0.3333333333333333,-1.3508771929824561,-0.017543859649122806,-0.8070175438596491,-0.8421052631578947,0.5263157894736842,1.1228070175438596,1.0701754385964912,-1.3859649122807018,1.543859649122807,1.719298245614035,1.5263157894736843,-0.22807017543859648,-1.6491228070175439,-0.2631578947368421,1.1403508771929824,-0.9824561403508771,0.631578947368421,1.0175438596491229,-0.6842105263157895,-1.0350877192982457,-1.3157894736842106,0.5263157894736842,-0.45614035087719296,-0.7017543859649122,-1.1403508771929824,-1.3508771929824561,-0.5789473684210527,-0.9122807017543859,-0.05263157894736842,-1.4035087719298245,-1.0350877192982457,1.5614035087719298,-1.263157894736842,1.087719298245614,-1.3508771929824561,-1.0,0.7192982456140351,-1.087719298245614,0.7368421052631579,0.17543859649122806,0.07017543859649122,1.5263157894736843,1.6491228070175439,0.2982456140350877,-1.3508771929824561,-0.40350877192982454,-1.6491228070175439,-1.263157894736842,0.8596491228070176,1.4035087719298245,-0.017543859649122806,0.2807017543859649,-1.5964912280701755,-0.9122807017543859,-0.7017543859649122,0.17543859649122806,-0.14035087719298245,-0.7894736842105263,-0.21052631578947367,1.3859649122807018,-0.6491228070175439,0.05263157894736842,-1.368421052631579,-1.5789473684210527,-1.5964912280701755,-0.5087719298245614,0.8947368421052632,-1.0701754385964912,-1.0701754385964912,1.4912280701754386,0.42105263157894735,-0.5087719298245614,-0.8947368421052632,0.8596491228070176,-1.368421052631579,0.49122807017543857,1.6491228070175439,-1.3333333333333333,0.543859649122807,0.03508771929824561,1.6491228070175439,-0.3508771929824561,-0.5614035087719298,-0.6491228070175439,1.0,-0.22807017543859648,-0.07017543859649122,1.5614035087719298,1.5964912280701755,1.1403508771929824,-1.4035087719298245,-1.1754385964912282,1.6491228070175439,1.543859649122807,-1.4385964912280702,1.368421052631579,0.9649122807017544,1.1754385964912282,-0.631578947368421,1.0175438596491229,-1.6842105263157894,0.5087719298245614,1.6842105263157894,1.0526315789473684,-1.7543859649122806,-0.017543859649122806,1.2982456140350878,1.5263157894736843,0.05263157894736842,1.263157894736842,-0.8245614035087719,-1.3157894736842106,1.2982456140350878,-1.4385964912280702,0.12280701754385964,-0.9649122807017544,-0.2631578947368421,1.4035087719298245,-0.631578947368421,0.47368421052631576,-1.0526315789473684,1.0175438596491229,-1.5964912280701755,-1.6491228070175439,-1.5964912280701755,-1.3508771929824561,1.3508771929824561,-1.2982456140350878,1.719298245614035,-0.6491228070175439,-1.0175438596491229,0.10526315789473684,1.1754385964912282,1.368421052631579,1.0701754385964912,0.6666666666666666,-1.3333333333333333,0.8421052631578947,1.4736842105263157,1.0526315789473684,-0.42105263157894735,0.9649122807017544,0.9298245614035088,-1.1228070175438596,-0.8245614035087719,0.17543859649122806,-0.15789473684210525,1.0175438596491229,1.368421052631579,1.543859649122807,-0.40350877192982454,0.6140350877192983,-0.14035087719298245,0.8421052631578947,-0.5964912280701754,0.9122807017543859,-1.4210526315789473,-0.15789473684210525,0.7017543859649122,1.4736842105263157,1.0175438596491229,-0.07017543859649122,0.7017543859649122,-1.368421052631579,-1.1228070175438596,0.42105263157894735,-0.38596491228070173,-1.087719298245614,1.087719298245614,-1.0350877192982457,0.38596491228070173,0.9298245614035088,-0.5789473684210527,1.6140350877192982,1.5614035087719298,-0.3508771929824561,1.1228070175438596,-1.3508771929824561,-0.8771929824561403,1.6666666666666667,0.6842105263157895,0.17543859649122806,0.43859649122807015,-0.6842105263157895,1.6842105263157894,-1.087719298245614,0.43859649122807015,1.736842105263158,0.08771929824561403,1.736842105263158,1.0175438596491229,0.10526315789473684,-0.7192982456140351,0.543859649122807,0.8421052631578947,-0.8947368421052632,-0.38596491228070173,-1.368421052631579,0.05263157894736842,-1.2456140350877194,0.9122807017543859,1.368421052631579,-1.4385964912280702,-0.5087719298245614,1.1929824561403508,-1.543859649122807,-0.9298245614035088,1.105263157894737,1.3859649122807018,1.5789473684210527,0.49122807017543857,1.6491228070175439,0.5964912280701754,-0.22807017543859648,0.2982456140350877,0.22807017543859648,1.1754385964912282,-0.19298245614035087,-0.07017543859649122,0.8245614035087719,-1.4210526315789473,-0.8245614035087719,1.4385964912280702,-0.2982456140350877,-1.4210526315789473,0.8245614035087719,0.14035087719298245,1.543859649122807,1.087719298245614,1.2456140350877194,0.3508771929824561,1.2456140350877194,-0.45614035087719296,-1.368421052631579,1.4736842105263157,0.6842105263157895,0.3333333333333333,-1.736842105263158,1.4385964912280702,0.8245614035087719,0.5614035087719298,-1.3508771929824561,-0.03508771929824561,1.0,0.5614035087719298,-0.07017543859649122,-0.03508771929824561,1.4035087719298245,1.105263157894737,1.280701754385965,1.4035087719298245,0.631578947368421,-0.24561403508771928,0.3157894736842105,0.05263157894736842,0.9473684210526315,1.5789473684210527,-0.12280701754385964,0.8771929824561403,-1.1228070175438596,-1.3508771929824561,0.17543859649122806,0.9473684210526315,0.12280701754385964,-1.543859649122807,-0.17543859649122806,-1.5087719298245614,0.5789473684210527,-1.5087719298245614,-0.9122807017543859,0.5964912280701754,-0.7543859649122807,-0.7719298245614035,-1.1228070175438596,0.9122807017543859,1.368421052631579,-0.5263157894736842,1.4210526315789473,1.4210526315789473,1.5087719298245614,1.719298245614035,0.47368421052631576,0.9473684210526315,-0.24561403508771928,-0.38596491228070173,-1.5087719298245614,1.4912280701754386,1.1929824561403508,-1.456140350877193,-1.736842105263158,-1.3508771929824561,0.6666666666666666,-0.43859649122807015,0.3684210526315789,-1.631578947368421,-1.1228070175438596,0.9824561403508771,-0.2807017543859649,-1.4210526315789473,-0.15789473684210525,0.47368421052631576,0.43859649122807015,1.1754385964912282,-1.543859649122807,-1.6842105263157894,0.6491228070175439,0.14035087719298245,-1.719298245614035,-0.14035087719298245,0.5789473684210527,0.7192982456140351,1.0175438596491229,1.105263157894737,-0.7719298245614035,-0.7368421052631579,1.6491228070175439,-0.24561403508771928,-0.6140350877192983,-0.543859649122807,-1.2456140350877194,-1.6666666666666667,0.3684210526315789,0.45614035087719296,-1.0,-1.2982456140350878,-0.05263157894736842,1.456140350877193,0.2807017543859649,1.5964912280701755,1.3859649122807018,-0.49122807017543857,-0.38596491228070173,0.631578947368421,1.263157894736842,-0.6140350877192983,0.8421052631578947,-1.1754385964912282,-1.3859649122807018,1.105263157894737,0.6140350877192983,-0.7719298245614035,0.5614035087719298,0.10526315789473684,-0.05263157894736842,0.6140350877192983,1.456140350877193,1.5263157894736843,0.08771929824561403,-0.8245614035087719,-0.43859649122807015,1.7017543859649122,1.4385964912280702,-1.1754385964912282,-1.3333333333333333,-0.08771929824561403,-1.263157894736842,-0.42105263157894735,-1.5789473684210527,-1.5263157894736843,-1.0701754385964912,-0.9824561403508771,-0.12280701754385964,0.3333333333333333,0.38596491228070173,0.5964912280701754,-0.38596491228070173,-0.3333333333333333,-0.19298245614035087,-0.22807017543859648,-1.5789473684210527,0.7894736842105263,-0.8421052631578947,-1.105263157894737,-1.4912280701754386,-0.8245614035087719,-0.6842105263157895,-1.4385964912280702,0.2631578947368421,-0.8070175438596491,1.2105263157894737,-1.6842105263157894,0.5263157894736842,-0.543859649122807,-0.08771929824561403,0.2807017543859649,1.2456140350877194,0.3684210526315789,-0.21052631578947367,-0.9122807017543859,-0.40350877192982454,0.7719298245614035,0.03508771929824561,-0.5263157894736842,-0.8771929824561403,-0.5087719298245614,-0.543859649122807,-1.736842105263158,-0.7368421052631579,1.368421052631579,0.21052631578947367,0.6842105263157895,-0.6842105263157895,1.1929824561403508,-0.43859649122807015,-0.19298245614035087,-1.3333333333333333,1.736842105263158,-1.631578947368421,-0.3157894736842105,-0.43859649122807015,-1.5263157894736843,0.24561403508771928,1.263157894736842,1.2456140350877194,1.0350877192982457,-1.1929824561403508,1.4210526315789473,-0.10526315789473684,-0.3333333333333333,0.49122807017543857,1.3859649122807018,0.19298245614035087,1.1929824561403508,-1.4736842105263157,-0.22807017543859648,1.280701754385965,-0.43859649122807015,-1.3333333333333333,0.8596491228070176,0.2807017543859649,-1.4736842105263157,1.456140350877193,1.5087719298245614,1.3333333333333333,1.2105263157894737,-1.0701754385964912,-0.8421052631578947,0.10526315789473684,0.42105263157894735,-0.5263157894736842,-1.456140350877193,0.07017543859649122,-1.0,-0.5789473684210527,-0.8070175438596491,-0.5789473684210527,0.9298245614035088,1.368421052631579,1.4035087719298245,0.9649122807017544,-0.7894736842105263,1.1754385964912282,0.3508771929824561,-0.42105263157894735,1.368421052631579,-1.3859649122807018,1.4385964912280702,-1.0350877192982457,1.5087719298245614,-0.6842105263157895],[-1.4736842105263157,1.368421052631579,-0.17543859649122806,-0.12280701754385964,0.7368421052631579,-0.9824561403508771,0.8421052631578947,0.9649122807017544,0.8245614035087719,0.9122807017543859,-0.9298245614035088,1.0,-0.24561403508771928,0.7719298245614035,0.38596491228070173,-1.1754385964912282,0.22807017543859648,-1.1228070175438596,0.7017543859649122,0.2982456140350877,0.15789473684210525,-1.719298245614035,-0.19298245614035087,-0.5789473684210527,0.22807017543859648,-1.5087719298245614,-0.8596491228070176,1.456140350877193,0.14035087719298245,-0.8245614035087719,0.9473684210526315,-0.10526315789473684,0.631578947368421,1.1578947368421053,-1.4912280701754386,1.6842105263157894,0.5614035087719298,0.8596491228070176,1.6140350877192982,-1.3859649122807018,0.3333333333333333,-0.40350877192982454,-1.3859649122807018,0.8070175438596491,-0.03508771929824561,-1.5789473684210527,-0.3508771929824561,-1.1228070175438596,-1.0350877192982457,0.5964912280701754,-0.8070175438596491,-1.2280701754385965,-1.5964912280701755,0.40350877192982454,-0.3333333333333333,1.1403508771929824,0.8947368421052632,-1.1578947368421053,0.17543859649122806,0.07017543859649122,-0.5263157894736842,1.1578947368421053,1.0,0.22807017543859648,-1.4035087719298245,-0.543859649122807,1.1403508771929824,-0.7543859649122807,0.8421052631578947,-0.543859649122807,-0.9824561403508771,-0.49122807017543857,1.456140350877193,-1.543859649122807,-1.4736842105263157,-1.1754385964912282,-0.45614035087719296,-0.3333333333333333,-0.7368421052631579,-0.6491228070175439,1.087719298245614,0.9298245614035088,-1.719298245614035,1.368421052631579,-1.631578947368421,0.3333333333333333,0.7192982456140351,-1.3508771929824561,1.5263157894736843,0.3684210526315789,-0.8421052631578947,1.1929824561403508,-0.7017543859649122,-0.22807017543859648,-0.22807017543859648,0.7017543859649122,-0.12280701754385964,-0.21052631578947367,1.456140350877193,-0.45614035087719296,0.9824561403508771,-1.543859649122807,-0.631578947368421,1.0350877192982457,1.263157894736842,-0.21052631578947367,0.5087719298245614,-0.49122807017543857,0.7894736842105263,-0.07017543859649122,-0.24561403508771928,0.9122807017543859,1.2280701754385965,1.2280701754385965,0.3684210526315789,-1.5789473684210527,1.2456140350877194,0.38596491228070173,-1.6666666666666667,-0.49122807017543857,1.5614035087719298,-1.263157894736842,0.17543859649122806,-1.4912280701754386,0.3684210526315789,-1.6140350877192982,1.7017543859649122,-0.10526315789473684,0.9298245614035088,-0.14035087719298245,0.8070175438596491,0.9298245614035088,-0.15789473684210525,1.3157894736842106,-1.719298245614035,1.3157894736842106,-0.40350877192982454,-0.8771929824561403,0.05263157894736842,-0.8947368421052632,-0.3157894736842105,0.5263157894736842,-1.6666666666666667,-1.5614035087719298,0.17543859649122806,1.1929824561403508,-1.5087719298245614,0.5964912280701754,1.1929824561403508,1.368421052631579,1.1228070175438596,1.6842105263157894,1.263157894736842,1.2982456140350878,-0.8771929824561403,0.21052631578947367,0.05263157894736842,-1.5964912280701755,1.2456140350877194,0.05263157894736842,0.8070175438596491,1.105263157894737,0.05263157894736842,-0.14035087719298245,0.3333333333333333,1.1403508771929824,-0.3157894736842105,0.6491228070175439,-0.017543859649122806,1.0701754385964912,1.280701754385965,0.42105263157894735,-0.3333333333333333,-0.47368421052631576,-1.5087719298245614,-0.7543859649122807,0.12280701754385964,-1.4736842105263157,-0.8070175438596491,0.6140350877192983,-1.6140350877192982,-0.2631578947368421,-0.2631578947368421,-0.7017543859649122,1.0,-0.07017543859649122,-0.5614035087719298,-0.12280701754385964,-0.40350877192982454,0.9298245614035088,0.5964912280701754,-1.1754385964912282,-0.15789473684210525,-0.8070175438596491,-0.12280701754385964,0.9824561403508771,1.2280701754385965,-0.2982456140350877,0.08771929824561403,-1.0350877192982457,1.1929824561403508,-1.5964912280701755,0.08771929824561403,-1.2982456140350878,1.087719298245614,1.3157894736842106,-0.12280701754385964,-0.19298245614035087,-1.4736842105263157,-1.2456140350877194,1.0175438596491229,-0.7368421052631579,-0.38596491228070173,-0.8245614035087719,-0.19298245614035087,0.3508771929824561,-1.105263157894737,0.8596491228070176,1.5614035087719298,0.7543859649122807,-0.19298245614035087,0.8596491228070176,0.12280701754385964,1.0,-1.543859649122807,-0.24561403508771928,1.1754385964912282,-1.5614035087719298,0.5789473684210527,0.8070175438596491,-1.0526315789473684,0.05263157894736842,1.2982456140350878,-0.5614035087719298,-0.8421052631578947,-1.0,-1.2982456140350878,0.8596491228070176,-0.07017543859649122,0.9824561403508771,-0.7368421052631579,0.24561403508771928,-1.736842105263158,-0.07017543859649122,-0.7719298245614035,-0.08771929824561403,0.5614035087719298,1.2456140350877194,-1.1929824561403508,-0.2631578947368421,-0.7368421052631579,-1.368421052631579,0.42105263157894735,-0.10526315789473684,0.2982456140350877,-0.8421052631578947,-0.9298245614035088,-1.631578947368421,-1.1578947368421053,-0.9298245614035088,-0.2982456140350877,0.3333333333333333,-0.9649122807017544,-0.03508771929824561,-1.2105263157894737,-0.43859649122807015,-1.6140350877192982,-1.456140350877193,0.15789473684210525,1.6491228070175439,0.47368421052631576,-0.05263157894736842,-0.24561403508771928,0.7368421052631579,1.543859649122807,-1.263157894736842,-0.6842105263157895,-0.19298245614035087,1.263157894736842,-0.6491228070175439,1.5614035087719298,0.2807017543859649,-0.6140350877192983,-0.2807017543859649,-0.6666666666666666,-1.3508771929824561,-1.7017543859649122,-1.3859649122807018,-0.9649122807017544,1.1929824561403508,1.4912280701754386,0.7719298245614035,-1.3333333333333333,1.368421052631579,0.9473684210526315,1.105263157894737,0.7543859649122807,-0.6140350877192983,-1.0175438596491229,1.3333333333333333,-1.5789473684210527,-0.10526315789473684,-0.49122807017543857,-1.0350877192982457,0.017543859649122806,0.543859649122807,-0.9824561403508771,-1.0,0.38596491228070173,1.0350877192982457,1.5263157894736843,-1.6140350877192982,0.5964912280701754,1.6666666666666667,-0.7719298245614035,-0.47368421052631576,-1.6842105263157894,-0.3684210526315789,1.6491228070175439,1.543859649122807,-0.07017543859649122,-0.8596491228070176,0.5087719298245614,0.19298245614035087,-0.5614035087719298,-1.0175438596491229,-0.05263157894736842,-0.43859649122807015,-0.38596491228070173,-1.5263157894736843,1.5614035087719298,-0.5614035087719298,-0.5087719298245614,-1.543859649122807,1.3157894736842106,-0.7543859649122807,0.14035087719298245,1.0701754385964912,-0.9122807017543859,0.3684210526315789,1.3333333333333333,0.14035087719298245,0.3508771929824561,1.5789473684210527,-1.7017543859649122,0.45614035087719296,0.17543859649122806,-1.4210526315789473,1.456140350877193,-1.2982456140350878,-1.6140350877192982,-1.6842105263157894,0.38596491228070173,-0.42105263157894735,-1.2280701754385965,0.17543859649122806,1.105263157894737,-1.6842105263157894,0.8771929824561403,-0.2631578947368421,0.49122807017543857,-0.17543859649122806,-0.2631578947368421,1.631578947368421,1.4736842105263157,0.0,0.7017543859649122,1.5087719298245614,0.45614035087719296,-0.24561403508771928,-1.543859649122807,-0.6140350877192983,-0.8771929824561403,-0.5614035087719298,0.45614035087719296,-0.5087719298245614,0.05263157894736842,-0.47368421052631576,-1.4736842105263157,0.5087719298245614,0.3508771929824561,0.14035087719298245,-1.0,-0.7719298245614035,-0.3508771929824561,-0.5964912280701754,-1.3859649122807018,0.017543859649122806,0.0,0.07017543859649122,0.3333333333333333,-1.2280701754385965,1.6842105263157894,0.7192982456140351,0.8596491228070176,0.9649122807017544,-1.456140350877193,-0.5789473684210527,1.736842105263158,1.1578947368421053,0.7192982456140351,0.017543859649122806,-0.3157894736842105,-1.1228070175438596,1.5789473684210527,0.14035087719298245,-1.1228070175438596,0.3157894736842105,0.8070175438596491,-0.8771929824561403,0.6666666666666666,-1.1929824561403508,-0.5789473684210527,1.4912280701754386,-0.43859649122807015,-0.6842105263157895,1.7017543859649122,-1.6666666666666667,0.0,0.8947368421052632,0.15789473684210525,-1.1578947368421053,0.543859649122807,1.6842105263157894,-0.8245614035087719,-0.7192982456140351,-0.5789473684210527,0.017543859649122806,1.263157894736842,1.5964912280701755,0.19298245614035087,1.3157894736842106,-0.7192982456140351,-1.1403508771929824,1.0526315789473684,-0.15789473684210525,-1.087719298245614,-0.8596491228070176,-1.280701754385965,1.719298245614035,-1.263157894736842,0.22807017543859648,0.5964912280701754,-0.9298245614035088,1.105263157894737,-1.5263157894736843,-0.3684210526315789,-0.8245614035087719,-1.280701754385965,-1.456140350877193,0.8947368421052632,-1.280701754385965,-0.7894736842105263,-0.543859649122807,-0.9649122807017544,-0.08771929824561403,1.2105263157894737,1.6491228070175439,-1.4385964912280702,0.0,