{"layers":[{"layerWeights":[[-0.8596491228070176,1.2456140350877194,0.5789473684210527,1.0701754385964912,-0.9649122807017544,-1.7543859649122806,0.7192982456140351,0.17543859649122806,-0.9122807017543859,-0.07017543859649122,-0.42105263157894735,-1.6140350877192982,1.666661696723483,-1.017555997911218,-0.1403522746584368,1.228070117210869,0.8771929824561403,0.08771929824561403,-0.6842105263157895,-0.21052631578947367,-0.24561403508771928,-0.017543859649122806,-1.5087719298245614,1.6666666666666667,0.8596491228070176,-0.9298245614035088,0.5087719298245614,-1.6666666666666667,-0.03508771929824561,-0.8070175438596491,-1.263157894736842,1.5789473684210527,-0.5438919620875245,1.578852446534488,-1.1754475937525075,-0.43938384000715,-0.2988306486189219,0.5113141447017792,-0.734609938163657,-0.10525101621051594,-1.4129016010175395,1.6798379662179552,1.580103470539194,-0.6585990786118406,0.05246548944678867,1.4683664780926478,1.447634505843577,-0.16069661598200874,-0.6174432985587758,-0.35159575624921136,1.7367055755729748,0.8771929483271281,0.14035087719298245,-1.1403508771929824,1.6491228070175439,1.4385964912280702,0.5087719298245614,0.7543859649122807,-0.22807017820268166,0.016358213918906832,0.2629781132614306,-0.3337008221477986,1.6627334578311947,1.0468595556473663,-1.657735854877366,1.1442420845721337,-0.9695359230817946,-1.5963996980740012,0.6173833909112125,-0.36121411882136206,-1.6863150560585187,1.3236261012830302,0.3209767138025924,-0.5688940552472234,0.746304152039278,-1.6302238504876714,0.10808425979110452,-0.4814420605401539,-1.3532607835861914,-1.7424713324295213,-0.27189003463863987,-0.20363399679388727,0.42105263157894735,-0.017543859649122806,0.9473684210526315,1.2280701754385965,0.6144221301370363,-1.0614153034508518,1.5562467745505797,1.537203241269132,-0.5130786157296345,-0.018671495271334503,-1.4327713752990485,-1.091605370016969,-0.6860656178434129,1.4808402390744397,-0.4265351758142948,-0.452578200029329,1.3240707964932152,0.830165470586005,0.8323685729759062,-1.1833849409302408,-0.4703932003751216,0.7569627979296084,-1.701553555273729,0.7569139970895292,-0.5977808102599947,1.4435842283945293,-0.733135069637066,1.7086712982066667,-0.36969365637329227,0.38596491228070173,-1.4912280701754386,-0.7192692997029262,-0.9983669248721753,-0.47006281493868063,0.3152810218503874,0.5818605798162464,0.24792451789272654,1.7747381766840586,-1.0271028257125316,2.5250111721293056,-0.2678642267972997,1.073877242680755,0.026791858087897802,1.8293822019216817,0.29181143340667137,-0.25880216959970836,0.09582087565874037,0.8420266317847586,-0.7788658172460414,0.503291145293047,-0.5064534966400919,-1.0215185363133856,0.012627727006710393,0.5208682958144782,-0.14211588242253595,-0.03571601642524564,1.204280428781483,0.08291299653204753,0.6666666666666666,1.1578947368421053,-0.7009049503892776,0.9005296671371665,-1.561301967961279,-0.6065254310308128,1.1251180517093986,1.5110791200837863,0.23502292630897836,-0.7677242856899164,0.015535089614321302,1.2358525942388137,0.34583676075245007,-0.12162406050239659,0.8301103430835594,1.309006548296893,0.04511806500808803,0.8649901783280093,-0.006056841295050719,0.7712808716526707,-0.6483352034690943,-0.2746257978645021,-0.4700138370346229,-1.9617441321961073,0.42171305810965715,-0.9835082168423862,0.02019726514856984,-0.27026045230903784,-1.5087719298245614,-1.5263126783814256,-1.6229819524781353,1.7072407328368508,1.1091003656157141,-0.2793257463637981,-0.212933096219148,-0.17007232023574503,2.2793224624007244,1.0970261597780204,-0.044420446915307533,-0.5498213877204342,0.8961772595587634,1.275537558935709,-0.43387425285283476,1.2464471679105888,0.2894144351239532,0.42145929413787564,-0.3785616642502859,-0.5707791267973031,-0.6525552837409405,-0.43981101466297007,0.9616177346982878,-2.220343983071958,-1.019959611242946,-0.7816341145173032,0.13304640929436534,-0.1591302611126798,-1.0877255897859806,1.3316683085626784,1.03148271071798,0.865321880167638,0.41793812384589424,1.8281267870621474,2.408297151594541,1.092661753116421,-0.9417075993776786,0.377937989155601,-0.5009031069279598,0.24754274308757754,1.7539052262920731,-0.7194213784277439,1.1750441734143675,0.3513164738874707,-0.9143828915362664,0.3014173114640443,1.2252086469023398,0.9332324608755237,0.10546922194442711,0.4992541981692685,-0.7339118700096207,-0.9121840638225652,-1.8847493831609126,-0.5760427942606164,-1.0561550375382651,0.9097696726044503,-0.20421588458225567,0.6560884488055956,-1.1476086247218436,1.0519678482665566,1.3416598918903246,0.4607209932318375,-0.10899255529108041,0.3119225128027777,0.5761036726456669,0.13812834407093622,-0.09330460979664365,0.12274815374699705,0.5587296333908428,-0.03947405053246995,0.32052940004829406,0.14140271974168728,1.4593183569939803,0.27066528849448457,-0.2468540732636504,-0.43975407736195005,-0.5231503304444595,0.4718567929457705,0.33705612025973647,-0.1924171324317933,-1.307521825951274,0.45996820539115496,-0.24388981078787111,-0.4712172614743694,-1.4738550788993539,0.48113239932030577,-0.5971701130573888,-0.32040805273050627,0.3534715361943426,-0.18394754413916717,-0.7169413454578745,0.24213394633492974,0.5140265474702197,-1.4184711748083174,0.9982337774330623,-1.6568400307816928,0.387186029318249,0.5921638725766273,1.1872718329273766,2.115961093169934,-0.2757265458469887,0.6400563551781455,1.7960492504208003,0.9901590461752825,1.1698901982347083,-0.6762100733341628,-0.6213481625914885,-1.4264715028981059,-2.6727121539088605,-0.4080790929689667,-1.471943219422299,-0.5956001160126906,0.9295004127334483,-0.1594629934920253,1.400691350832863,-0.6269380340942086,-0.04947320862515154,0.09015645127640053,-0.2759232491090349,-1.7801543023206106,-1.1133563442026932,-1.0250505254361229,-0.8406424474638826,-2.0045699658578715,-2.3723632226581204,-0.4446746630139638,1.0917300853800211,0.9776214345671164,1.425752223738536,1.648066057361194,0.9260089866856848,0.7388090456689116,0.37364641737526716,1.6803751527738657,0.49368056509316677,-0.10163671931844075,0.6853674744175495,-0.9045268075361975,1.3354706807775663,0.6152919809144627,1.192712343630505,1.5985243477768216,-0.5404661849075006,0.7026255971314889,-0.17468327253054014,0.045559939407184814,-1.8327230889647603,-2.0910809311553655,-2.2807363700311742,-1.341168267345345,-2.971210002835268,-0.12424314072936038,-1.9470874579405997,-1.7674694231670776,-0.5513041465010803,1.380335855057022,0.43042807867050586,-0.4334494650930365,0.32588316251003896,1.2973604045299456,0.22751167269673864,1.238281837426681,-0.5103951350646387,1.3532635001884878,-1.1666211896425154,0.47127257688910734,-0.3022116264136934,0.17544995679215936,0.29824202911503156,0.34429170090209615,-0.26798921784552815,-1.6086647712273399,-2.015164894185187,-0.14871526253860845,-2.7965778182346277,-2.1671430837112573,-1.8965703339782911,-1.7919734803102072,1.206452581878692,-2.012926120387764,-0.29386811919086003,-2.397885335659741,0.2856776705768778,0.5377373141662476,0.5677079915017447,-1.430005390873411,-0.8493242527439505,0.25576236078260994,-0.7398435472012445,-0.14808396789155923,-0.5827063258293717,0.2575795730578954,-1.427140040135997,1.2647208486039396,-1.3879424295441127,0.7873973605701959,1.5263146095313647,-0.8620726787536294,-1.0264817047039354,0.09686818673898887,-1.182167418528555,-1.0625603624956508,-1.3022718537059572,-1.628729749249068,-0.11531927948291082,-0.27636304336826606,-0.9103854489252472,-0.25295771347972035,0.26888373528476944,-1.1766740650234877,0.05711458701314687,-1.349443518701038,0.06825992204342812,0.04506451614361227,0.47260420703658057,0.12219735397683819,0.0688779449971683,-0.4914717697225555,-1.5529520096492362,0.700617975506191,0.31281982658999496,1.6049135689865994,1.5708670955103579,0.8060832533724919,0.4912039449739599,1.2443628361934251,0.0486992871427937,1.330751042271655,1.1650027421562619,-2.047881728682662,-0.6533396978391848,-0.8938846129925954,-0.37381376928197896,0.7822878667624816,-1.098311407770844,0.15192236228093364,-0.09569797074858143,-0.931597214153706,-0.694362146955387,0.6367134679510706,-0.1536365068868624,0.6212644709081517,-0.18210135870631752,-0.6216505755332382,0.2611253927597797,0.5807542906902934,-0.7589969301241505,0.6900039564793908,-1.4888876875387014,0.5250943292145399,1.3349749355686213,0.05243759062456335,-0.8772018003092664,0.5439543608971306,0.9371972943274753,-0.6105368011934442,0.6166963105913653,1.6420006591898795,0.49096288625975054,0.7582266830752564,-1.1993433188810216,0.13044749387584917,0.5576469331653003,0.14172727486237094,-0.23891031041681796,0.10323105759224156,-1.35104187848331,0.28373950755446464,-0.8463944950884784,-1.393958064879215,0.5960790137672158,0.5691398213285376,-0.08401732415072717,0.9215248180209504,-0.5859805647515288,1.1224195839270306,1.1481885500370257,-1.0875562966983878,1.2130177550176955,-0.5155676357607547,-1.3508824412731535,-0.9109951307797823,0.29521978757701384,1.1761529913453022,-1.043419106926298,1.574317566309277,0.1339011498163354,1.15396564818288,0.5992842717692209,-0.298105251911112,0.000732978943643166,-1.396929536120405,0.4684400226470527,-1.2791031876530046,0.2875928248165484,-0.41761988994496885,0.7834757207350134,-0.15526921701733518,1.0504230741240697,-0.36701939761160385,0.6321741208610244,-0.768451047017987,0.9766633160368222,-0.18778043327742458,0.9097179537644777,1.7581170555927115,1.5892879195822294,1.571956139944508,-0.017543859649122806,1.0353429271957497,-0.9289961368501346,-1.050885865085143,0.2692806156179531,-0.6090409429595266,0.1316246418013181,-0.6275642694644774,0.1743077564813127,0.023741858951841423,1.1245303560327524,-1.2779344119390077,0.7458968871004156,-1.578223902707768,-0.7309188898364227,-0.8305262328422346,0.1604143221669735,0.3794842154370751,0.7685995840420701,-0.14860315243807995,-0.26394432726768413,0.6956221680766866,-0.7709006348135639,0.6462518290782707,-1.0773314149594797,0.4348218543863461,0.8157140988373814,-0.8455312006386273,-1.2618414849038584,-0.6313196112176698,-0.225204063633486,1.4227171516924721,-0.1787844247680867,0.694701693242911,0.7215640488708528,0.3649702570843456,-1.0833342098707177,0.6208222475648659,-0.8935029184892136,1.7901857285576632,-0.9315897139349698,-0.2711933414697762,-0.12820578293014748,0.2863676635482257,0.4014188744827411,-0.37426314983309006,-0.33848645840772185,0.9918679652194897,-0.01924994311332422,1.3551233839193368,1.1751034192940466,1.1048633814343995,1.2570603441386572,1.7971963499291475,1.697057138887337,0.8095929091922927,1.157893960610833,0.47404687659740347,0.7706296352514227,0.6294832347897764,-0.6128397419216409,0.6262873948043293,-0.5109144120735706,0.6658446779903257,-0.22871361270168852,1.1140758139333877,-0.4299319725172337,-0.4115962001281644,1.512240325437478,-0.8129971407974134,0.0064832376044286644,-0.5193937552349328,-0.35824552170202445,1.337680750444105,0.2732241792127249,-0.012105737081916961,0.6385673282831316,-0.9882307783970802,-0.6519381736381828,0.9298998109976252,1.0390560965752413,-1.303271819810412,0.30930450216985644,-0.315481535866694,-1.2280701754385965,0.5265236425507746,-1.0282905145441965,1.4222442800213382,1.5099047529914185,-0.7017749223560743,1.0852289733535903,0.7492726633264241,-1.3722859633475324,0.7759304642722124,0.2538503979387095,-0.3885847589434588,0.5857175860548521,-0.3560854264910815,-1.2347404200159733,-0.3094798073502016,0.31055073761049395,-1.4637442294545664,0.286085598885015,0.19518557961797559,0.7975149439759062,2.084219657088102,0.5613939830813828,0.849735271270571,1.283665264411164,-0.05291059165358927,-0.3916855794935809,-1.1228110975837193,-0.26316016538780945,0.7896919775032303,0.5036084964773622,-0.40091368142282974,1.0919968950090604,0.6937466259261226,-0.2290816670452457,0.4373387563602666,0.8862589199573374,-0.6798159162462915,0.12717407697729158,0.0412941886522642,-1.0493057740704572,0.8073658920338611,-0.6499869629259537,-1.2335988776636164,-0.1274164428519459,0.38651914206912147,0.4854347729014604,-0.29400078740518654,-0.9468541226675393,-0.5902486409178707,0.07338032950601983,1.657183766031056,1.1795156426379856,-0.5773285927051887,0.08995071827920774,-0.7719134931286485,-0.12280921723698407,-0.26317193505456815,-1.6674136025221644,1.1559177091971906,-0.32961035001484856,1.8204441789844494,-0.07196071365793995,-0.3849264672527282,0.4288283801143052,-0.47828231527843,0.05758330573702489,0.5634021045024343,0.49949618112484484,-0.5351368431870266,-0.4657141603397289,1.2347097433239116,-1.1926999936846174,-0.7896728725427029,-0.6544286358641243,1.6415727706720502,-0.39046644325975977,-0.8669742899883223,0.611492425024663,-1.0863709046661147,-0.9569340691867254,-1.025960092899065,0.7267279083613529,0.31581962402160346,-0.6666666666666666,-0.5263157894736842,1.1045883106525958,-1.1106458831100336,0.17754893895916354,-0.03721668195627958,0.6789535035595999,1.6924490477084313,0.6114428824886916,1.066043775489758,-0.4845759422054338,-0.4797881763679995,-0.39361827680944034,1.490096860955461,-1.545070015628933,0.6686975483220005,0.11997686781454163,0.21175208575804555,-0.14640889294459983,-0.01457721388653039,-1.428977089141407,-0.4415066387029204,-1.2170272461079923,0.5435327118453624,-0.8800163412684978,0.8781526740875535,-0.45139872374444917,-0.8947368421052632,1.280701754385965,1.6140350877192982,-1.291951211564518,-0.27461150413599483,-0.9877620689302852,0.085849615887376,-0.28472441700725787,0.31191851547749627,-0.9512315141493657,0.6704547422360007,-0.36808277796015354,-0.8366365682854541,1.4413249901317395,0.6564436719221446,0.28067233718994217,-1.3740042184309518,0.7134039581119288,-0.5217640571593982,-1.8015760204480793,0.048694267005476306,-2.19684763998135,1.0239069865428736,-1.681762268524423,1.3365268421122234,-0.7455632191856965,-1.366695605864311,-0.5786010357618955,0.017543859649122806,1.263157894736842,0.24561403508771928,0.05300205238881572,1.2396458186944195,0.6642339861521397,0.8882323216218428,1.3554793443551765,0.00939339009583659,0.17344757007844366,-1.153586096734518,1.9378110723423814,-0.34226050355649135,-0.5868455242153059,1.6403784730783355,0.21373867696090343,-0.30448762796484136,0.5099119975368986,-1.128077385246216,-1.5951571028976028,-0.9694850536841069,-0.8171076524164971,-1.2022278055717464,-0.26361053548418095,-0.8291403154889299,0.7194860773365476,0.561448754408837,1.1754926840419513,-0.17543859649122806,-1.5789473684210527,-1.5087719298245614,-0.9824561403508771,-0.03603398592536428,-0.2689150404373477,1.1911205162460348,-1.7811361385213227,0.9280941210444561,1.2178249767814908,0.11183338626412533,-0.2585638654180363,0.5321880981003538,-1.496508894425945,-0.018368147046300166,0.15874739756132095,0.6034502627515411,-0.016119102678124553,-1.902503278774406,0.3432260217210343,-1.1750567631509765,1.1182383388527721,-0.4148321697587965,-0.13881744254327597,0.24567373379407312,-0.5436533696906294,-1.0000445986299478,-0.21052631578947367,-0.6666666666666666,1.3157894736842106,-1.2280701754385965,-1.631578947368421,-0.8771929824561403,0.5669762432087034,0.9612575215203648,-1.5323661700978464,1.1040755375494244,-1.5639062590995103,0.3297332359874849,1.086738087826726,0.6448622514729939,0.10420054998739442,-0.7466311164244358,1.1560082925292026,-1.4564228238544104,-0.3999327538906368,0.7560066074024747,-1.47009925915566,-0.14859764615845594,-1.6809643554006712,-1.5233721218112601,1.0381719458340446,0.38474909799224266,-0.49122807017543857,-1.280701754385965,0.631578947368421,-0.6842105263157895],[-0.5263157894736842,0.9298245614035088,1.5789473684210527,-1.631578947368421,0.9298245614035088,0.45614035087719296,0.8421052631578947,-0.9122807017543859,-0.07017543859649122,-0.8421052631578947,-0.9649122807017544,-1.087719298245614,-0.1754568256916934,0.7894591646908427,0.12283527859240814,0.8245625810524614,-1.0,0.15789473684210525,-1.7017543859649122,0.15789473684210525,-1.0526315789473684,1.1754385964912282,-1.6666666666666667,0.21052631578947367,0.07017543859649122,-1.1228070175438596,-1.3859649122807018,0.19298245614035087,-0.7368421052631579,-0.12280701754385964,1.4736842105263157,0.9649122807017544,1.421039507193961,0.3508368551970051,-1.6398468717922605,0.06617741941064091,-1.2367079647776982,-1.1118901281964442,1.5247402363840177,-0.3275040264109857,1.3146277958393735,1.5628926766827944,0.9692276344486239,0.02821284117165744,-0.5496134419005876,1.2660896259601229,-1.2833602867744145,0.020965841186344186,-1.7683866270709518,0.677268189726591,-1.2823102519222593,-0.5089108753510772,-0.19298245614035087,0.5087719298245614,1.3508771929824561,-0.22807017543859648,-0.6491228070175439,1.6140350877192982,-1.6315942532701495,1.6284157096938872,1.7004110512428623,-0.45621034269404337,0.20108599474340955,-0.01888420334978417,0.8723736273029904,0.7936028132220709,0.33161112236787704,0.027794911654214906,-1.4001431735299295,-0.33372400404818964,0.19255802302827676,-0.9357275877349588,1.1322590952365856,0.8558562416992989,-0.26592709327878006,-1.1029627327550156,0.09357157371577281,-0.1265825696616565,0.680355018286483,0.8280014175728385,0.7660441783060454,1.2596897725016736,-0.2982456140350877,-1.2982456140350878,1.280701754385965,1.631578947368421,-1.5087926037387633,-1.131988473083633,-0.1841569972585828,-1.2654986168892963,-1.3421782403106102,0.6337270151751768,-0.6798060101982447,1.4771229948208473,-1.7045000048949932,-0.15996620015253088,0.3937070966248418,-0.36560127384627866,-1.8640790337304778,-1.2914313030607119,-2.233650340914426,-0.5419893350561704,-1.224341454803248,0.34294835110133354,0.41862646212086835,-0.7175047460575689,0.31718004432223557,0.7355079763340207,1.4494619341665478,1.3817172355595544,-0.19299006159054374,0.5789473684210527,0.12280701754385964,0.15789461318342599,-1.403559184711189,-0.754416901276245,-0.48779666038096897,-0.19835275724140544,-0.5999898583132175,0.47204227147341915,-0.886971406498335,-0.7989462376301111,1.0235427506693275,0.6378802361600356,-0.47453820276215336,-0.37113855202290386,0.8670604359867777,-0.39738569658138495,0.5072020469007529,0.748513033001859,1.064416387294839,-0.49306334869635404,-1.6964698876610849,-0.459908818881013,0.03207941287384308,-0.3281876860842104,1.1276137956576187,-0.39407184548579866,-0.3909328216055243,-0.29824560022123076,1.4736842105263157,0.15789473684210525,0.3340548977861553,1.651166446984233,-0.17647260873249113,0.18050115296261665,-1.3745900151980288,-1.7142213994775295,0.7887909355306519,-0.7372007500253455,0.13141845575737846,-0.6295174941119834,0.35875835914787835,0.5413807168174906,-1.2167601979956246,-0.555248833349695,-0.61057465189577,0.6603646469936286,1.037738363521792,-1.0568065300087577,0.8981969917366511,1.7425346928443266,-0.6971556604515029,0.38408667600420165,1.1071974816344556,-0.11777258696063714,0.9518103284020965,-0.5427158596584309,1.263157894736842,-0.736861856595878,-1.422285562238487,0.7513975614273296,1.5334907393257116,1.4778950476436572,0.2543163060760529,-1.0128178298830202,-0.3597747293220925,-0.8571085524432015,0.20483239574658788,0.5031484408014543,0.026141899936391523,-1.6307933534171823,0.2830006553185652,0.8694342850676609,-0.7788686605045637,0.609427472879619,-0.7019333645212802,1.6164417388340644,0.5308045412992809,0.6157991984434352,-0.20669097610386386,2.3441206717172935,-0.12927856972729568,0.9900224369495472,1.372202593010253,-0.06598496815739303,-0.5964892751963574,-1.6856077889457661,-1.3978598491056062,-0.762177576203376,-1.18090454558772,-0.5419606367250348,0.8168983388705192,0.9638137212666825,-0.027788403103774346,0.4453302572318708,-0.6699904678839729,0.7108263519000183,0.0004905140197612081,-0.4298866218943427,0.975047388301812,0.9535090006824042,-0.974562384650777,-0.8988665381114975,2.158356319101278,0.03668971513391554,-0.1997046606786189,1.2580484403484198,2.7737349006287677,0.9289977088318712,-0.29457570808230354,0.42394837430202437,0.7361220022680616,1.659326250495231,-1.5787914363001805,-0.33295309758098907,1.5443833330596555,-0.6425719135639946,0.7051441443074602,0.3979127000586454,-0.22565206709656982,1.3317539558025175,0.4857655791838474,1.5128362903386947,-0.7699100480532964,1.8134126205172048,-0.22937155348935384,-1.216844621567999,-0.6879339069052416,-0.6053096826846043,0.28114994469712334,-0.8203927714979733,-0.07369617748299304,1.072781586518634,-0.2790617053397562,0.10510469201843216,0.1821168609707578,1.2359750537070404,1.2887517343666735,0.17696412306012935,1.6800709134067848,-0.06828040540172685,-0.7716840249488207,1.4916739216848052,-0.645277908685231,0.6967341582581349,1.4460102976133844,1.7141098904875685,0.6325811553902866,-0.38208958913420576,0.6157961412410592,0.47679298386918917,0.6811024255355674,-0.7072948004524993,0.8350781423557854,0.0026425180257491515,-0.171336245464607,-2.329859535366347,0.9338775773064922,1.8950543156437896,0.8905609004124255,0.9654754987740881,1.9198660561822467,1.7521307673096351,0.2992827524275061,-0.12225248180450664,1.6594282026958669,1.6009416663326104,1.4559497117644358,0.7297968747449594,0.9827413706289435,1.123889229562942,0.5650563528952544,-1.6773729584538941,-1.3366360583431063,-0.7169010047206176,0.14287918871181382,2.073317320882559,-0.19774706842005066,1.706762243577522,1.8377595250883565,1.5094903299385671,0.19598800001100042,-1.4487296337499003,-1.2202730798659724,-1.1684688146709734,0.6867709808015104,-0.013183023003902653,1.393920327921592,-0.19622825218563017,-1.5585396316034785,-0.37130402068769014,0.9702710428324904,-1.1010476244656755,0.7985383172290281,-0.5270613227586148,-0.6518052943440771,1.5070961675470163,1.2106278424883425,-1.3861649309230786,-0.841239454418286,-0.6766995783493883,0.38150712774352336,0.9390392049762454,0.17413831760490472,0.894167577912535,-0.35827389887551253,1.258634989686753,-1.3550331654930747,-0.5402385152038842,0.8480846109602038,-1.6534571653472425,-1.0469661949061506,-0.5261169471415665,2.144631331309178,1.8035466803786468,1.4385375368382571,0.15446462167748667,0.6616841733122243,0.9311429598201018,-1.4956925006239035,-0.1311544891051115,0.7776677587210393,-0.0018383027600500266,1.6759546245030774,-1.0873353657929017,0.6141111877114633,0.9574892798283658,1.5783843193225362,-1.60244082227956,0.6428653958741675,1.0657971432142628,-1.089576888690099,0.7751804886090735,-0.22895096599464435,-0.3433185432165127,-0.6044302546448258,0.45636663984909226,-1.1266894802532637,-0.6990408112769904,-0.23435515492193065,1.8011571988318604,-0.745013463092475,-0.29520154357285383,0.2733518438725712,0.008124039967151253,-0.6899532722279053,-0.7592403559505664,-2.162452941839805,-0.01810238940058369,-0.4662758291463557,-0.6208885773950478,-1.1308240197049395,-1.1674516813470872,0.07015647965504915,-0.24260878417225817,-0.7047744848127805,0.258396744636356,1.6694864202492896,1.004032166382224,-1.9242679934402707,0.6375940084100361,-1.2609538594361736,-0.7624545720208679,0.07894682025889586,-1.331270397532045,0.21941000309335834,1.3058090129304079,0.5860977416394766,-0.09652596018891428,0.530602858378785,0.06647617761576995,0.8030050608360283,-0.3747600614592045,1.9746813539880117,-1.7728991241107803,-0.7755594936367892,-1.788934841272246,-1.9835004814299761,-1.529429348907682,-1.0045059673817964,-0.4231047235875965,1.141040070666793,0.21171038917213142,-0.770871133571097,0.4446699928593608,-1.2071598693485504,0.11089994479762234,-2.250494727035218,0.16058951640710933,0.48380551212416545,0.5118542774672246,-0.39271753156639644,0.8691889347431891,0.8108514603054995,0.8231533462959009,-1.12175901033693,0.4469374699374657,0.7650527367835314,-0.6509864586487343,1.0999140009854569,0.7635785134451473,0.9218216055081708,-0.06472852074331487,0.18178023918209865,-1.2631872685524186,-1.8980267892889868,-0.8173819657501942,-1.197018256496234,1.5103468348764657,-1.1752128056123086,0.7894625635378768,-0.09974916770995812,1.5918017882468294,0.12661066868708176,-1.8634115258806234,1.103024240166942,-1.3938651588528563,-0.41856921420718923,-1.1222893424824363,0.6052344118838926,-1.1147429916766414,2.1758125676955995,-0.4375039352831672,0.03279026769775574,0.6709051779930292,0.41762570498656126,0.6309256788830458,0.6544572667745848,0.47537657524192345,0.711881938164292,-2.0036155801975206,-1.899400060462555,0.08267161957266422,-1.463195210009905,-1.2982985677186494,1.1931904401302087,-0.9258944936695305,0.3157901923080766,1.631471158979593,-0.04120238008698489,-0.5618661204557236,-0.4132247562218575,-0.09472119033490684,1.108752588478292,-0.22531931757523316,1.481647171991118,0.5505540553860052,-1.8966560677105635,1.1702373667497519,1.2203244600126089,1.740579490586123,1.4734964911769393,0.8506211246806095,1.8826509896007408,0.33746341192040946,-0.5338089515671142,-0.012420234784210823,-0.9865939310557099,-1.9372018651948477,1.0014808865307339,-0.846900022770143,1.5236061884324428,1.468693652365548,-0.22821851497408865,0.26174644790142404,0.2631578947368421,1.2278275241344392,-1.2565319023210262,0.4061765982768233,-0.3322863060489561,-1.0203007983110277,-0.3702425078606332,-1.0368223565183299,-0.8232898299182849,-0.8664677410746442,-1.951821770232905,1.318569628715513,-0.8371654508361864,0.5312223694285674,1.2014703412471912,0.3919697533088811,-0.4988235247325225,-0.34726869968344215,0.6150379568967659,-1.3221997106777468,-1.5596732712650807,0.9152249703120254,-0.9958130913127939,-0.0019117967460959401,0.09849693577029847,1.3370112986498608,1.5491981706990423,0.30555366453821403,0.9378283942346077,-1.2633184122507592,1.4355187282344857,-1.1159491352434892,0.8373034864429737,1.244396369382928,0.3397938551805646,0.008729835688184901,-1.4240916858387167,0.776494943931554,-0.45999954637947893,-0.9014188572569987,-0.6742595921031908,-0.48636240500917494,0.27378640920619546,0.32651313689050043,1.3799129826173793,1.1089330312064887,0.7545400308927454,-0.8392317445838927,-0.2898149930743685,0.5347057399016032,0.39943594227826357,0.40510448231488344,1.9165322834503766,-1.192537204092249,-1.4248781423480943,0.7725818274844408,-1.508772187814679,-0.044499641739092606,0.1811985463287286,-1.6743549290549988,-0.37425017072363215,-0.28221414482662605,1.376427427955797,1.103539760867976,0.26542084461494914,-0.30760991364963214,-1.7353698860823137,-2.1337288190089687,-0.6564996169442597,0.19517463124698187,-1.0923554910333044,-0.33238395464417664,-1.3380118150194942,0.681320260053291,0.10361732797743219,0.5364414589909544,0.8671856258508837,-0.8868177553481686,-0.3403524621999606,-0.5825687974332704,0.7569579219845568,0.6844713725042133,0.6158763616301449,-1.0528457946784988,1.105263157894737,0.6493289155167695,0.2927489290283752,1.1803023177125243,0.8104876494787472,1.8357188342871977,0.32967973428225783,1.175744908620391,0.5985518625199988,0.16779449839639843,-0.729771441884468,-0.9525722315028601,0.107369056252399,-1.09969454427688,0.23868514571230548,-1.8088749228783494,-0.18368105628720247,-2.11964699497537,0.07228405440583181,-2.180176640949746,-0.7895989271117148,1.0261943392915422,-0.6788347800767998,-0.8202962208229622,-0.34134276960677745,0.0007782696627812297,-0.37076378508735947,1.491188557309684,1.6140339548545426,-1.060360772105739,-0.7081078847929875,0.3312946815550841,0.08306555380562428,1.7530114455332801,-0.962924771227435,0.0325825031379583,-0.7163920278289322,1.2723791599481702,0.5112145202717802,-0.8015770356998925,-0.7834789711026672,-2.090599849467623,-0.8541639432024766,-0.689713075425372,0.9522288418617953,-1.4618802064350447,0.2695708517895549,1.2855293833580825,-1.081861391451529,1.4364991803189056,-0.7025112433435938,1.2584698905112974,1.6739014096575353,-0.3530718210448753,1.1409903083130708,0.9297804115930814,1.4912269727127037,-0.5789936563444099,1.2656865458900883,-1.4405194901580398,-0.24286678406862966,-1.1384835684203694,-0.2921403437313721,1.6496340185698315,1.1035226142655752,-0.21692343832174898,1.5237441439946686,-1.0392765773158068,0.9230697064275483,-0.025575087225537127,-0.17686136856792453,0.6721335685867628,-2.0222738247188325,1.0223815716277804,0.7007644432562115,-0.9829834659051593,0.32208110783242333,-0.27593885392139106,0.0021217779806594157,1.3475585424001,0.7082709326309524,-1.3096704216284625,-0.7939435143563378,0.0174623523067955,-0.9649122807017544,-0.05263157894736842,-0.8460680484207483,-1.4757492898985234,-0.5898696214434639,-0.6243631420018319,-0.8684784385782591,0.9534054446956354,1.9312026698026885,0.43181649870676053,0.7105324309490154,-1.7608382505106304,1.2727904262780612,-0.3448915166552565,0.5873097800678722,0.6362843765373482,-0.07403445534247888,-0.0595435637743126,0.45242446168382605,-0.516743219716257,0.06312151362031948,0.3365314982892521,-0.17525646818084156,-0.3101307203053389,-0.031346939167380974,-1.0603946747841981,-0.7313268294045867,0.5964912280701754,-0.9122807017543859,-1.368421052631579,1.4708383205219144,-0.5548353386371325,1.2152438372461327,-0.9523446194258104,0.30680214206990525,-0.7053321616302147,-0.03295642981086671,-1.5478521083525476,-0.08180634769060156,0.7984200655223762,-1.406844644758653,1.232966189916334,-1.8392177469256625,-0.26177204710131374,1.0546326687264378,0.6703977458970132,-0.23993556965717971,0.5721837174868256,0.2940011089337998,1.4960660736664466,-0.5548515483260771,-0.45071048958665105,-1.1229839513045723,-0.9450223515649645,0.3332392618877039,-0.7192982456140351,1.105263157894737,-0.9122807017543859,1.4559827753071426,0.9116048133156741,0.7184562923278969,-0.76478933749582,-0.48507604082972255,-0.6287931704254288,1.388716752146431,1.5637918196238165,1.579195296080054,-0.3159833852683329,1.744495199209556,-1.2718022319098232,1.4199106058003141,1.7318325686025766,1.5893113869235493,-1.2889166639444545,0.02967649119316542,0.824980316228492,-1.0105222833524323,-0.5958720281464628,0.17348235734936218,-0.8515761570821642,-1.2227499019332226,-1.2982457853596918,-0.9122813409315484,-0.5087719298245614,-0.7543859649122807,1.0350877192982457,-0.47368421052631576,0.8421049335921896,1.6150944775594858,-0.7442956425894791,-0.8652247262831126,-0.5534320502830832,1.0509662171918581,1.7188072607706177,1.3078053657141864,1.274724112286823,1.8804257859647349,-0.7583865415839807,-0.3905914068110932,-0.5046026727049849,-1.4813530729878284,-0.6610957250800525,1.2804906990843548,0.32593154289957504,-0.6871648404539498,-1.244085548633436,1.242464969507349,1.2851177765196473,-1.281041243315727,1.6842159178082654,-1.6140350877192982,-1.543859649122807,1.0,-0.8947368421052632,0.05263157894736842,-0.40350877192982454,-0.9298152585600709,-1.3858975499448762,-0.36828595949801246,0.08794916707571271,0.14490654062944136,0.8327421285051698,0.6341959808854075,-1.3312788821581771,1.0259183475242433,0.24474995196317653,-1.0885243854013265,1.3522476480167267,-0.13130262844941337,-1.6134224951294276,0.21657368680931813,-0.34954857787459037,1.0729824547572366,-0.5933050914065595,-0.8950943139657949,0.9867246525896511,1.4736842105263157,0.3333333333333333,0.17543859649122806,-1.6842105263157894],[1.736842105263158,1.5087719298245614,-1.368421052631579,-1.2105263157894737,0.24561403508771928,0.45614035087719296,1.263157894736842,-0.07017543859649122,0.3508771929824561,-1.1403508771929824,-0.6491228070175439,0.8771929824561403,-0.3509376509692983,-1.0890249464714927,1.0864136775777564,-0.07022983945765193,0.7368421052631579,1.5964912280701755,-0.08771929824561403,-1.2982456140350878,1.2982456140350878,0.7017543859649122,-0.3333333333333333,-1.4736842105263157,-0.7368421052631579,0.15789473684210525,-1.719298245614035,-1.368421052631579,-0.8421052631578947,-0.10526315789473684,1.2456140350877194,1.5614035087719298,-0.9999840421582467,-1.052584696858132,-0.6840483705855014,-0.7002875001358385,0.9504232016164714,-0.6269410717296044,-0.8070625291626037,-0.6223280915567556,1.4744892429930476,-0.9714609866803294,-1.2917296275358034,0.3002423078052478,0.5900641320323121,1.37162047105294,0.7397072719761321,-0.7680892344425844,0.6704152634713783,0.5798372235255962,-1.6666063365693713,-0.31579646574671794,-0.3333333333333333,-0.03508771929824561,1.4385964912280702,0.05263157894736842,1.7017543859649122,-0.7543859649122807,-0.4736841182321504,0.22741718207811654,0.3857976388832443,-1.2982026008464218,1.7222925315339386,-0.5598379787600247,-0.8222047499157008,1.109798934416834,0.0710583629374155,0.07172728409827464,1.2864788357971073,0.009568119413166664,-1.3043265156326727,0.7359451639299815,1.4800815941364691,-0.5907928988764188,1.4585000584856551,0.03795244180643605,1.6886615513457424,0.27704783788549686,-0.8633703204869232,0.8612355371483202,-0.8053795498889198,-1.1920489357976658,-1.1578947368421053,-0.22807017543859648,-0.05263157894736842,0.0,1.1594649994152242,-0.9660817093700085,-1.0942931616267997,-0.5015092810685005,-0.24495109316023475,0.3773503055739842,-0.5183786908328286,0.6362924676444981,-1.7731565303276677,1.0108961713566638,0.2518123727502762,-1.349623327009866,0.5769340781308437,-1.0836613666876862,0.0071840528946929575,1.4600165107585934,-0.46703973611798627,1.1547428201410592,1.7114776407874945,0.7711127948117359,-0.09226047817610265,1.8170607769309532,-0.8133409164418309,-1.6286791222437704,-1.174778027299549,-0.7368421052631579,0.45614035087719296,-1.1403428238692264,-0.11713419565750297,-0.18744961929966972,-1.3812407339063635,1.7063561115615418,-1.3054409202482258,-0.7035419603583701,1.2040186266597077,-0.3147619251098084,-0.808276071124698,0.24429948551117503,-0.11294348786213572,0.007368858280457031,0.4120644289391582,0.45773864008790305,-1.2867742283254153,0.9786348673488691,-0.5710844700889295,0.8557835316257537,0.9046793478451198,-0.7680010845627017,-1.0041028777268686,-0.09103939616602844,0.1473141327431736,-1.5111093579814021,1.027152712652843,-0.40371050768969213,-0.38596491228070173,-1.4385964912280702,-1.6305320059050585,-0.13971597353898757,-0.3675730772779409,1.5868901781374298,-1.0309266173632325,-1.063351805737466,1.1169788557749674,0.25902253182358415,0.09213701488493678,-1.1268735219508985,-0.9097079575056207,-1.2735161431199264,0.625187958196404,-1.850856270707819,0.5747182601343704,-1.51046471409863,0.29333866037156375,0.009919893863841782,1.1037843127887452,1.2631997601278484,0.635921907833382,-1.3598518316010972,1.6176314633743234,-0.5108689490039819,1.3655748275088606,1.1751117149614372,-0.05263157894736842,-1.1052720393467839,-0.29541816678116384,1.3037034033739539,-0.11488744792049634,0.5502282610471102,0.9743686313451708,-0.8748660634876415,-0.0552886229760102,0.25948498530498515,0.267266350923531,-0.8291968756887899,0.7989614752191982,-0.8404463116499159,-2.0073058100417205,1.2855738921197493,-0.38852122219608753,-0.945207453594038,0.292616873067328,-1.5979083594666854,-1.4509190011820428,-0.3206724028036122,-0.2273821448715894,0.4277315941097264,0.3251769019853089,-1.1421405498049682,0.46735111991281575,-0.1604766600948183,-0.8771932805496012,-0.2990882226539461,-0.2435715720776651,1.2494208902027732,-1.0041788675132581,0.15199336610754974,-1.0606250572130718,0.3466081356184909,-0.10411243973483954,-0.5641082167844177,0.6189762106257519,-0.8450502630707524,0.08935825580570855,-0.3949571932012806,0.36509113696943213,0.06238612041512011,-1.1430710807373061,0.3150038936706971,-0.07427877489589459,-0.42385689193911175,1.4016223000354204,-0.26992932280107185,-1.4434158909718264,-0.16963675055188449,-0.5445227619100513,-1.0035097844318879,0.13352201854310547,-0.6570611970281887,1.1575814091459447,0.42278228588688344,-1.311338636565663,0.42658134089691546,0.7067691786787493,-0.14126812467785418,1.6993676304876744,-0.5589274168343237,-0.622237053901999,-0.7728582393717466,0.17171495012090654,-0.04751793137407383,-0.5406884527306479,0.8499875945291505,-0.6424655004990927,0.40570896193900224,0.22114405410686513,0.369297218187228,0.2888359768243212,-1.482725599183531,-0.8558971443500937,-0.62578101605796,-1.3589495016682664,-0.5689800914296619,0.09345780891521131,0.3868637813668377,-0.576997813757293,-0.14592378789497162,1.3859647999842641,0.47451864072522476,-0.7373582840807854,0.5102601520361876,1.3421122247344985,0.7281079370271034,-1.241685648986527,0.36997049738106097,-0.3597123714358421,-0.5933993789389448,1.6536505666734007,0.5128321092628857,-0.4162521468829639,0.36723905234703424,-1.052100168474798,0.7690494479415749,-0.09095679385389348,-0.9446960017149031,0.3781277725819754,0.7576786246481302,-0.5730389940906788,-0.12751424481898208,0.7019404576356864,-1.1293898889344371,-2.451093076800593,-2.3626603983211614,0.34569720312528435,0.4368290652478922,0.4736843859900139,-0.14022263627246614,-0.40800608975520136,1.8072626134268397,-1.1038268361955332,-0.32788207252953105,0.07337733122814132,0.5595838444162885,0.28702296464724797,0.4997115965327004,-0.7527953728453181,-0.2337269630444579,0.514181547586261,0.39392573126997366,-0.2164690211669289,0.6923136396368074,-0.06513312012835869,1.3542282589390948,-0.49928112437120353,-0.25800226788407726,1.5430957706180701,-0.9233864327050693,-0.5565361041752003,-2.149843521106507,-0.35905574315359023,0.6396085800754194,-0.34690041663376453,-0.7084932074733623,0.8245614890586818,0.36858355942474624,0.035528749897409506,1.7884656551952367,-0.5472781821874452,-0.6413150472249822,0.2360922808879286,0.08334631057611826,-1.063831464720809,-0.41391591110674814,-0.06812142434189648,0.6116305859645489,-0.8519098833682821,-0.3087645294977906,-0.6362876888555663,1.0565576265539882,1.1237342843297444,-0.0951070119755549,0.9117956941590393,0.4051947218618653,-0.445687584972856,1.879411597195595,1.020523167855207,-1.1050574803796351,-1.2231626156146358,-1.7408489141295886,-0.15479842058669477,-1.034614847457917,0.6491227795648116,1.6140598825706218,-0.2944380657262299,-1.1849216898283657,0.7654293483434091,0.07721459369128257,0.9095056908849329,-0.89463661583438,0.9045679355380599,-0.07386740141397903,-0.07112011322089189,0.46378329088929743,-0.7439157357724052,-0.12205991808741856,-1.5538332600047335,1.2763424387898186,1.1976033743382668,1.0242233700523278,1.5646306859229075,1.196421407095894,1.5537340376557323,-1.2546647075536048,0.42244235864844953,-0.4495818486306642,-0.9538772501681028,-0.9053829413966252,-1.606455915600928,1.4230071411735834,-1.052647652640874,-0.9832189122990278,-1.0998843096328959,-0.3047559818208891,-0.9052809692864262,1.1527404257573384,-0.9289122837025261,-0.4144757317206691,0.26405516504223764,-0.6369229880177527,0.8239508125739706,-1.4570992864062378,-0.7634804536598273,-0.5254808315195096,-0.09752434202150297,0.7346670151821354,0.8704816306999251,0.8964451337668303,-0.3565811849739386,-0.3091765900583014,0.9161038233498976,0.48645480895944504,-0.1381556846768049,-0.1588529478051048,-1.7856209445037123,-0.7047439624327066,-1.7094688236614417,1.2532370348450166,-1.7548841419992578,-1.4907548937431978,0.754481774896141,1.5359047359188294,0.6260800727716203,0.32779826055580297,0.3297661210369705,1.4745821386311277,1.1735887068754518,-0.10937774374316833,1.140191571871289,-0.25951930054029176,0.7446275902670507,-0.8709906549875235,-0.8286578830281535,1.7440144598105702,-0.3498467844198559,0.9526472372244479,1.3129776428131048,0.8616001473632282,1.7821240917628212,0.2803915944036831,1.0323429624445113,1.3541454574367497,1.566044229431941,-0.7158199467071532,-0.3582247076884338,1.1923233945683964,1.05249880074805,1.1580248324959146,1.140856571437784,-1.455069385981635,1.3868645571413944,-0.7530325357395632,1.0432827868833592,0.3651404249945356,-0.5888757316536567,-0.046642775937833,-1.26213838281975,0.969077399214045,-0.14067834939205542,-1.5711568981452717,0.7824622721894328,0.44300832632058246,0.9259625433631693,1.1083875505635596,1.841901646265439,1.655582310391638,0.998615934697947,2.263627638924656,0.2112718576756857,1.4372593671071514,-0.5433014305260575,-1.1756679968191355,-0.23017402665366443,-0.8677540779837865,-0.1050897765700831,-1.1581684634265899,-0.741731044947862,1.440849441338653,-1.1479025413838584,-0.4454343798066481,-0.7333115034599088,-0.2118896838324056,-0.028722286080890478,0.18338374893854226,-0.14034239583197317,0.6445778537040426,-0.18555680727203652,-1.1279332461003508,0.3697601726183184,2.2475941082871542,0.47478139858653634,1.072992231664459,-1.0812093911145615,-0.3626161054674448,-0.17975303815006133,0.3519855969435499,1.028508144035453,0.7642662478927937,-0.3977571755955211,0.1798485834133378,1.393636036295791,0.40499657835162317,-0.5263157894736842,-1.5788425124687337,-0.4308141863510966,-1.5294264779459663,1.3106938057766204,-0.30060120730568063,2.024722084858425,-0.488635984265889,1.4800527416173692,-1.0781267435225828,-0.1772447129727511,1.2882471757204972,1.092687427647747,-0.706062823000506,0.16981807311445687,0.3313913346672808,0.5763697485792346,0.07957086809251732,0.5955986964148045,0.07840493159600191,0.8584153425840869,-0.8746698558429011,-0.8496354018818317,0.31825168376323515,-2.1921036802688896,0.3288621435014005,-0.15755573964240877,-1.4649471387519641,1.2806331893303966,-1.701711536477583,1.7662256383244912,1.65276836909333,-0.5168856243063132,-1.6954276906595083,-1.8256516517494763,-1.001787577398528,-1.116926760934596,0.27965523207850657,0.8316344163524908,-0.4709569629512399,-0.5326331909721314,0.487272443681007,-0.12419664359312683,1.07886962793015,0.15584747360838958,0.11961419396648391,0.11904144916223917,-1.5377986797624932,1.1545424552609576,1.3940122928150533,-2.145593065137685,0.11274827397986921,0.4555960349934831,-0.8509472695720506,1.1089303798526495,0.4026223755671806,-0.1754062000814578,0.01788694393673448,-0.8407207506786745,0.37856529515201587,-0.2759569772205478,-0.5404227283137578,-0.22469268104383666,-1.4412232696149883,0.5324135076567814,-1.432356869087055,-1.0898658726652548,0.40671797508853197,0.4726055185332826,0.08629603167274315,-1.39669054572028,-0.9303594285480674,-0.7804631134116207,-1.802591939337592,0.9323052339591184,0.18709108441538913,-0.7697201555225927,-0.48017528122724135,0.3935811079638693,-0.9419832797108593,-0.3141533421286682,1.5083135422795797,-0.0651907075711688,0.7013909434502874,-0.17543859649122806,0.08855495975839597,0.7567555707367112,-1.621018130188557,-1.7224977311511638,0.32525429008238144,-2.1507981658572826,-0.13481555468163237,-1.7240648820140891,-0.7812237417883046,-1.8087574111632643,0.04089995396664791,-0.5832234919449408,-1.2001397715447177,1.5526747799213052,0.29472069535276635,-0.36614553265339833,1.0282997951218322,-1.2355381393711118,-0.38141616406513174,-0.5330237974795274,-2.5210058333769227,-2.3833569376111208,-2.240373220559437,0.1987442187907513,-0.44972087956391776,-0.026260554766311527,-0.771824043177796,1.473688813443145,1.2100927945470408,0.5210934357294198,1.1981078899698518,0.9109830406936998,-2.033906526382983,-2.0717741277501873,-0.4784668148059313,-2.4684662363181165,0.0016884275677351832,0.1534275703072452,-0.6123685224684106,0.6137834135424771,0.6837149594379874,-0.44929376450633124,-0.08636623692671803,0.9506636174741648,-1.1987000615404195,-0.8865884268269864,-0.3130772553163494,-2.170924255514853,0.7430060751846751,-1.47351696100304,-0.4450867991387166,-1.063520711190564,-1.7718342184804476,0.5707028448367623,1.1052061041969568,-1.4385920321523924,1.122766277176588,1.6951828912861135,0.5094890109478755,-1.0702770858625419,-1.5441951382801176,0.18178389107742554,-1.3405963735040076,0.05273135922916245,-0.2867719295412492,-1.423853360856452,-1.6886533285592398,-0.7520481327361583,-1.9745971287331094,-0.42758599086781773,-0.8908913809664033,0.34164118236061747,-2.262282922549306,-0.21706259148022464,-0.5160826231485937,0.564135981663404,-1.4815807195368687,0.35086861914257705,1.43840371660923,0.28614804036557506,0.2827061177104408,1.6309786285359322,1.1928771262367583,0.15789473684210525,1.3157894736842106,-0.6837853978758234,-1.5113720262501678,0.20718997081688942,-0.9918746558633474,0.27584658589591,-0.11239044362239348,0.4101433493492306,-1.0560679777259312,1.2529424418011323,-1.5945491343233935,-1.2590170839053472,-1.2152805154920823,-1.4650858009872232,-1.898839522357515,-1.1108596203605356,0.736242248748578,-1.1733834980823978,-0.6268277173018815,-1.4396530871710653,0.2987633920902636,-0.016855043987403263,-0.7343418319028107,-1.389498078526467,1.0425397523227107,0.6146557718128082,-1.6666666666666667,1.456140350877193,0.0,-1.58970998183002,1.4062849602678837,-0.038485291340633006,-0.35557589699461734,1.6839377987516522,0.12116471497345659,1.222484939441563,-1.394924881117524,-0.919527526137622,0.49223303998890816,0.11486637680549336,0.10349698103157541,-0.26173051943133097,-1.538651023505439,-0.060875766104050925,-0.248655440758071,0.18688938398957392,0.3526321566487905,-0.8924111724463762,-0.5959561582294518,1.6427292480022717,-0.7685573478199985,-0.86740912234315,0.022640552044210047,-0.004469951330016349,0.03508771929824561,-0.3157894736842105,0.17543859649122806,0.50906003551321,-0.2043677383351042,0.7930787557519579,1.7865934317489278,-0.6291411008372376,0.7231719644252976,1.5888366237161387,1.0050374315283575,1.0164946421148113,0.6902831484354643,0.12496229286493744,1.3828738977076656,-0.8981247024735731,1.3599226680850267,-1.0530383761406805,-0.834502162169251,2.1744575765551972,-0.36876412149309734,1.2994438307334946,-0.07058872187545157,-0.5620114869966658,-0.901599735628649,-0.6787729009532346,1.504803777040883,-0.5135155713196661,0.05263157894736842,0.38596491228070173,1.6842105263157894,-0.08771929824561403,1.6842307397034546,1.3810427099430267,-0.33501078398543965,-0.4598552424893735,0.40731742962096434,-0.9427859821771072,-0.6054809902785954,1.7727233085330092,-0.7261320262802862,0.20259158965906748,-0.5609125402822265,1.952694467553888,1.7441695505361585,-0.346337776498137,0.22949876187234297,-0.6904728152483578,0.06007295544450634,0.4913319537130854,-0.2071046678718058,0.9312650574361906,-0.578878919441182,-0.7719355375353179,-0.40350923955897683,0.6140350877192983,-0.42105263157894735,-1.3508771929824561,0.8421052631578947,-0.22807017543859648,-0.6140350877192983,-0.964842393675928,-0.5612232622308078,-1.139894528020249,1.5095426408919934,1.6166564147741627,-0.44784180355617187,1.1084906826278553,1.2522612199116416,0.1152696218237533,0.34008592806656623,0.7487915925969804,-1.5987281551926324,1.4212861356576048,-0.4694119307725032,1.2689926767379351,0.5319242040337752,0.050989863869241335,1.4729726703766413,0.033857187884489826,0.002877121117475451,-1.631578947368421,-0.5614035087719298,-0.9298245614035088,0.3684210526315789],[0.8947368421052632,1.5614035087719298,0.9824561403508771,0.3333333333333333,-0.7017543859649122,1.2105263157894737,-1.4385964912280702,1.631578947368421,-0.8070175438596491,0.21052631578947367,-0.21052631578947367,-0.6842105263157895,-1.2463013333968573,-1.0197429217894391,1.0694030204691498,-1.1930146402289905,-0.24561403508771928,-1.1228070175438596,1.1929824561403508,0.7192982456140351,1.4736842105263157,-1.5263157894736843,-1.0701754385964912,0.3684210526315789,1.368421052631579,-1.631578947368421,0.7368421052631579,1.1403508771929824,0.6666666666666666,1.6140350877192982,-0.17543859649122806,0.017543859649122806,-1.1228100755667945,1.2631489129781035,0.4561474693167543,1.2983954021578155,-1.331748614427686,0.14212353883418138,-0.8558914915906777,0.14157313011745767,-0.541623268109126,1.1869749246473478,-0.5595558789378575,1.1506758937305936,0.9883176386039585,-0.33622546672199477,-0.8430107050541646,1.4307459423394036,0.4197986965303887,-0.7896578107363642,-0.6841254706989911,0.8773031682940426,0.9473684210526315,0.3508771929824561,0.6666666666666666,-1.1754385964912282,0.14035087719298245,-0.42105263157894735,-1.73681411574672,1.333333351531904,0.596625221914273,1.5791216643894386,-0.1562918178130818,0.3718782479217759,-0.5288982821907987,1.6282773043226686,-0.8962952377318205,-1.0970417458337867,0.06546380177114809,-1.0844933885999126,0.21474732025174814,-1.5149534429554858,-0.2475442076104869,-1.1080653059935235,0.980142796211826,0.5367991754754592,1.3477621502213235,1.3011441249664464,-1.017923873700512,-0.09962859201442621,0.9304501164856015,1.1227941503281476,-0.49122807017543857,1.5614035087719298,-0.5789473684210527,1.6491228070175439,-0.07010295347173608,-1.7195133097879287,-0.47359447669411375,0.6272344291643029,1.154872628037226,1.3558160648493223,1.2340821178915646,0.689269821903937,-0.6691414337359815,1.3653645370286527,-1.377426234407613,0.8646979187822024,-0.5459860693235538,-1.175682876045854,-0.42827222218952066,-0.6446977021226191,0.6007811023932116,0.8466661018629127,-0.8717261095574373,-0.2561552989014966,1.358077457080821,0.44405287460798576,0.9380630444911285,-0.38878387375557344,-1.7544265439322562,1.3508771929824561,1.719298245614035,0.1403313311341526,1.3681708055473023,-1.1264853169188183,0.7056061762109427,-1.2199617898426545,0.230829149211282,-0.7372674739111963,-0.7053450190424079,-0.24646941143190468,-1.8338060180556393,0.45190097589582734,-1.61233359965604,-1.5741912167419625,-0.24903994039587665,-0.6664889160092633,-0.605930733106584,-0.7322279494906534,0.6242880292552442,-1.0935987811029293,1.7179307530390557,-0.16921171012951997,-0.7045515867051341,1.6059255082940058,-1.3375741614588594,0.010180834019787272,0.8216789671347122,-0.3333243852451135,0.17543859649122806,1.105263157894737,-1.2456857772060936,-0.32057752171866527,-1.1334764921143416,0.673075371842938,-2.0828079446902534,0.6826868454392065,0.8169777469854353,-0.1128682326075033,-1.4856056352973117,-0.3435836180045841,-0.14740567340923932,-0.15119918104337754,-1.1751773216943664,-0.6039302756217887,0.7575469471279368,0.05642295905590409,-0.4370549947878674,0.03494843249972875,-0.8176432161626186,0.08829376787677101,0.23938682248799653,-0.7536715337008112,-0.24283303050998983,1.3105015985517767,0.49899838509125755,-1.5641370495351845,-1.087719298245614,-0.4210574658957848,-0.8112785658304092,-0.8281694421957442,0.712162802397214,0.9223803484898789,-0.09774362832282561,0.014263512674130866,-0.4776525857154807,0.5422755039712669,-0.6755498130750714,-0.15352251313632959,-1.3563415808926353,-0.999298152832717,-1.2189650132236087,-1.0575192752782536,-1.026963494303198,-1.1928342175373843,-0.9469676157983564,-0.6456139683817467,0.823306366184528,-0.9476841623384786,1.0676472070793406,2.037843592020226,1.313618531850393,-0.896539175609259,-1.4530925819550276,0.8345253850338356,0.24564919929477366,-0.33343541461285353,1.0274475881331808,-0.9607907133022094,0.9283566102056564,0.9837500572310592,1.0940439934610007,1.1806691384299175,-0.7348009748308917,-0.4380894016628672,0.2131300240347105,-0.36964946636356716,-0.8817970526529205,-0.8630279432997353,-1.863950060030581,-0.9200895480769348,-0.699204399152242,-1.019941980207478,0.4126381315739881,-0.926547478579889,-0.09725498194551278,0.25450511306896506,0.11907815531536242,1.0707974051675346,0.7404980316088975,-0.9318877792790905,-0.1812034789709216,-0.16027841401562895,-0.8553503775677312,1.6943435780608114,-1.0114608940701408,0.6067254236266058,-1.7149036896661574,0.17031235065632114,-0.5115873059854501,0.37050535009656055,0.6655649086992612,-0.2661602486973831,-0.18868198004184636,-0.3960060212500851,-0.6461545663173693,-1.445352858497431,-1.4380575119548558,-1.378556689647531,-0.95174318979054,-1.4786253146409472,-0.20395078505281974,-0.5076106372997594,-0.21373042472962064,-0.9365390625231079,-0.35136357725481104,1.693988459392491,-0.7168568423120384,-0.24400659961390175,-0.3261741102534312,0.08639739109272206,-0.43870001575066436,-0.5521486042872074,1.7448499587337871,-1.1555594437379328,0.943037737516999,0.265242815845067,-0.9818522214170737,-0.2126938680864286,0.10420410689253069,-0.09519232972280647,-0.5837995758819827,-1.043995306692138,-0.06377239920464801,-0.991900418948903,-2.584828651177985,-0.26868394340432783,0.6490629921889953,-0.20859002677929311,-0.12206546835738297,0.23951789574141308,-0.12472203544121367,1.0849001340222617,-0.4015776280099059,-0.30424588608176695,0.5097037441142093,0.2841183558673551,-1.6870472651485333,-1.0846518843308968,0.701613623095456,-0.5683583628000408,-1.0299214784579394,-0.6026495687212955,-0.10379689981065034,-0.42049357937486165,-1.0770093520774509,-1.1137815841851786,0.6147480374737697,-0.11973949942498383,0.1401559349566748,0.6726986812029361,-0.09754877511693137,-1.010826720844282,-1.722949621262096,-0.4208718500625546,-0.33551368110186697,0.8495869560409484,-0.9166073351083398,-0.19900646803098576,-0.7707604994036875,-0.6120709564452491,0.1978557173919801,0.9492822728445817,-1.3667111556940679,0.134873399484468,0.5491501018873958,-0.015579053729954986,0.43838893483371366,0.35047130182314545,1.5677848837604267,0.8838367408158941,-1.3766143818859322,-0.5601227664324638,-0.46452296172527174,-0.4728737885769552,-0.8709420540766706,0.7280233967494588,1.331737189894874,-0.7078721017516754,1.032860929289574,-2.751020356066274,-1.6709031731968458,0.46055719490477437,0.49240790101202675,-0.8586652311643524,0.4545314430271079,0.15486127305480682,-1.684980134684725,-0.1611806206433243,-0.9343213510523583,-0.1812025467588968,-2.0516108876326773,1.0066820970050716,-1.053943634035652,-0.3333251693503303,1.4035469948942543,-1.164156683425785,-0.7420169858184948,-0.6118182129525517,-1.5361852433498207,0.9705013556236818,0.7741615659644702,-0.034042576724615144,0.23075874438664132,-0.3943616989646813,0.48961145935100203,1.9026340024330939,2.0499961824318076,-1.028746673250906,-2.2228178922860526,-0.4716743147322908,0.9149224851801463,-1.6708980686039574,-0.5740293099061734,-0.741351038937315,-0.9853759870481051,-1.2688080236836328,-0.8755722048603068,-1.175500856827189,0.8302377202624874,0.48363532854044317,0.3682416074715473,-0.11855370955494833,1.5263158444714815,0.9271051953345748,-0.11703409368886337,-1.4922451519921625,-1.3711810033437912,0.3432325045540467,-0.18789367604721124,1.5205126440781973,0.26959791782227543,1.5445778704232878,0.8063065511195966,2.8063811226820197,2.340469931743091,-1.7287668858365528,-0.18830754185406426,-0.7770994210909166,-0.8311428479052235,0.17846594870534907,-0.3935399009394253,-0.8123185551202311,0.20071585560963268,0.05297546991129646,0.9436685571487452,1.6469484724038348,1.3203437984902688,1.5679772012096083,-1.494863481610509,-0.02555876994093496,0.8772013704602846,-0.809782137920249,-0.6618517451819061,0.6812216381098167,-0.20941959482176778,0.8231981992513596,1.0961508118100436,1.6785678560133124,0.06919381488457094,1.8243585295534386,1.0794216820536409,1.950658418393265,0.9272189390539208,-1.2177596223889096,0.1750389043735486,-0.6374119854533591,-0.10075785630505492,0.8531192057863711,-0.37766386101068306,0.4199199510697426,0.5526891272811943,-0.4603119279120536,1.5860511848369425,0.7488757582029556,0.5814775873362361,-0.16830916613945363,0.640143667313296,0.05294991627241548,-1.6315725157577852,0.1226503644408266,1.3731545087390604,-1.6165253812254436,0.2618171528451636,0.38431948262246474,0.22424210863916053,-0.2979320196544714,1.2157326058112987,0.764534905926821,1.0713554127695382,1.6563089657188583,-0.4259898645504483,0.1573435433233344,-0.07276548969398264,0.11036706136683648,0.6137022632036595,-0.5645085176515979,0.3465178467326926,-0.24917097555111592,0.6999615531691529,0.4353077633559544,0.23032154234907284,1.5622534267458374,0.9867122206523281,-0.14442689092109387,-1.3305450227292874,-1.7209316621346917,0.5263368471651271,0.877046179528915,-0.33198261295830417,0.9421929001520429,0.4510351986913926,0.25209341940875807,1.4529081529664527,-0.23570632782560763,1.246188098153585,0.7278094653415402,0.9391358867476175,0.06566512365962882,-1.5003602086233334,-0.17104723348720083,1.6920884677024888,0.11936344247150946,-0.32538791023273966,1.0179939139406977,0.7184015129283732,0.5848217085495543,0.700916099408996,1.494016287495963,0.45722004890743567,-1.2919181449974086,-0.06962846533847046,0.9124668362185611,-0.9465691050729363,-0.6238943779738039,0.8070175438596491,0.5788031269983729,0.13681620393264404,-0.19459112863125894,0.07610254953706788,-0.16461197025259733,0.9063790823582755,0.07710457697206818,0.9461575653055523,-0.318540865495321,1.5048168289016923,0.20432335941554128,-1.6344856797390532,0.16754933802967178,0.18417567099409904,1.6781018943570691,0.9618526107698231,-0.3675189487688505,1.189000458299855,-0.5001956051341194,-0.2765606391246732,1.3500947200973694,-0.7661389952128073,0.9698467392243838,1.1320826103493418,-0.45411397327603975,0.7269099287576304,1.4538763030132054,0.9291785279083314,-0.26320611942557764,1.2233749501589344,1.1439974932452677,0.6323235993100841,0.7244041557300636,0.7443114896857018,1.1283223958204485,0.40365544698424427,0.8044354881424619,-1.0146504813228674,-0.06712780883343662,-0.23171750102661168,-0.14826640523722706,-0.1228154951263828,-0.9959848937577347,-0.13094540507772257,0.8616347832243163,-0.09485156119666122,1.0113787876241225,0.5931602896620384,-1.0228648757225143,-1.3328066049482699,0.9295850293125355,0.557792959190192,1.3880003391996159,-0.17409221147687964,0.6649967268999571,-1.192982454502289,0.00328462838007484,-0.3371737824333976,-1.8623566953881354,-1.001288799912038,0.9509342660778096,0.3247255411213423,0.9834030137006537,0.7248542233823569,0.7476703323029648,-0.5259647840205129,-0.46105463678314496,-0.1342833329567124,0.02659355424817955,1.973588492927152,1.0742069530556415,0.8880143118808075,0.5706372377046293,-0.7483981888048052,-1.0245543296343624,0.45493100306844203,0.4038173094024827,0.204746143716597,0.6911390267189711,-0.3945929152736783,-0.6581218537430237,0.2567830688969243,-0.7018941342601457,-0.9298245614035088,1.4919991502189502,-0.5329126966861029,-0.26125622877777627,1.138617557171341,-0.5358304980767495,-0.9033718449388631,-0.062427220277316925,-1.2699898126727716,-0.16841869208606144,0.7905136282527763,1.649602309234073,0.7188831416190145,-0.48070207289227784,0.3346584046108053,-0.30206070844042454,-1.2366420893981067,0.2390823905190844,1.1523110761842967,0.6426278988880619,-1.9737053836463048,-1.2810593795249867,-1.384428199479274,0.7774760057509252,-0.24780694891662872,0.9390578590587583,0.3173389594710506,1.210531628789099,0.22807017956078057,0.08767306932162544,0.12803874999282722,-1.7954508223766477,-1.5554574561766783,-0.10296979169296278,-1.4998849439747255,0.4367380272675471,0.8818407103354683,0.17805772094106836,0.7286456424383108,0.9517521346271901,-0.04211893781070143,-0.9849181313052416,-0.3579202142229505,1.0528671800040432,-0.017447448747034286,-1.364960642646929,-1.0624757752958889,-0.5660588646763445,0.5346451139693023,-0.062135434807296205,1.0140170171150291,1.120129719021419,-1.1557742329045833,-1.812624871465748,-1.14505712253006,-0.9473682038207313,1.105263161888103,0.9473677836120146,-1.7222361474437755,-0.9735406586266756,0.7170337443156468,0.16637557830808647,-1.043644676101413,-0.3362184604944199,1.0524924980400276,-1.5153492879506874,-1.0545597730389316,0.8764485611827338,0.9536732177688814,0.7939415470603283,-0.6164353602474881,0.8613760513086015,0.02730153878063926,1.160206361262631,0.05680257673585699,-0.16251849924775263,0.8386897026340403,-0.7346091037344769,0.36024178743971913,-1.9739324631705881,1.5009428977361157,-0.8905636132394833,-0.9478435835463552,-1.1578943357985958,1.0,-0.43859649122807015,-0.7896378145953151,-1.45701923319708,-0.9069940567178961,-0.3016335422270694,-1.6505700052954997,-0.7138755474022215,1.1188816042570704,0.986670741642164,-0.7688319634119588,-0.4495023404526935,-0.4724003277383874,0.1876578384974704,-0.3326728783352036,-0.8065289369653263,-0.6502846962836192,1.1510952042289897,0.5982784430099967,0.3906886540953894,0.7918226631170118,-1.3621968764453383,-1.668129627908208,0.5501103637563524,-0.19144077825185135,-0.3810598183352657,0.6981681916962775,0.5263157894736842,-0.3157894736842105,0.19298245614035087,0.40346051694635354,1.0687892797050413,0.8781303780727465,-1.4511999303142487,-1.5127112154093585,-1.5559794890101686,-0.9742041487066422,-0.6617028806256866,-0.4556463514456102,-1.369106128530847,0.22544395605909667,-0.4668160626121765,-0.48099021031115147,-0.3128789478266894,0.23247612270318427,-1.6011671215012173,0.13808969377533203,-1.5129742016259384,0.6053966387982642,-0.4192392629351762,-0.5802142627421008,0.237847960406617,1.4455066723975127,-1.6434224244938933,1.2102061515963936,0.9649122807017544,0.19298245614035087,0.6666666666666666,-0.07017796914976196,-0.03502280203655689,0.4901314640881833,0.8734049102628404,0.8888279180903732,-1.1169629624662223,-1.0840172257054235,-1.0787559162795728,-1.2822567065558566,-0.9926079300965291,-0.8867863435037925,-1.0842202005629513,-0.1748557242281681,-1.191183099569474,-0.33764282692099107,-1.404442568147594,-0.610583122612885,-1.5210917441405896,-0.05049091341207187,-1.7567904339909026,-0.5714507215259924,0.6913473542250546,-0.5167396083966169,0.5084876846791222,0.5610637493578712,0.3684210526315789,0.7894736842105263,-0.43859649122807015,-1.1754385964912282,0.8070174157474135,-1.643715040253467,-0.13524433417483997,0.046950525660766476,-1.3632322919706321,0.07103061224438685,-0.6191344373399944,-1.6041428323671285,-0.1983045946536225,-1.9889472383119327,-1.9877955445750006,-2.5330445426281476,-0.7483300432480205,-2.376463503228892,0.12923023325719593,-0.8127860451166787,-2.1677185120312217,0.15331102057928062,-0.03323935215520368,1.0776219180047841,-1.1112731294933553,-0.6842074173130839,-0.10526244919896736,1.5614035087719298,1.4385964912280702,1.2280701754385965,1.5087719298245614,-0.9298245614035088,0.3508771929824561,0.3684571309966771,-1.2276103711335804,0.9831290880008275,-1.1403430377261652,1.347211504511447,0.6741518690109597,0.526283197359084,-0.5065516054987123,1.1323901319433007,1.5842834898563236,-0.29342820143368387,-0.7340444276433489,-1.5367545913597318,1.4938122794619746,1.488531484953935,-0.16501916079926363,1.505390710031669,1.3794913670905156,0.9907888877015754,-0.6684341991082049,0.03508771929824561,0.543859649122807,0.19298245614035087,-0.9824561403508771],[0.43859649122807015,-1.2982456140350878,1.0,-0.2807017543859649,-0.8596491228070176,-0.7719298245614035,0.47368421052631576,-1.6666666666666667,0.7368421052631579,1.2280701754385965,-1.3859649122807018,-0.38596491228070173,0.6315636538866071,-0.8772264699079656,0.3684210526312838,1.2105263157894617,0.43859649122807015,-0.15789473684210525,-1.6491228070175439,-1.2105263157894737,-0.7719298245614035,-0.9824561403508771,1.4210526315789473,1.543859649122807,0.12280701754385964,-1.456140350877193,-0.5964912280701754,0.2631578947368421,0.38596491228070173,0.6491228070175439,-0.07017543859649122,1.5964912280701755,0.8947368419179326,-0.6842105268661113,-0.9473684260294667,0.9824610750254373,1.5593092018910528,-0.3874089608209899,-1.614399423635434,-0.8946204003172745,-1.5035798232676807,-1.686183298481772,-0.9700963670170966,1.2657486051768487,-1.4381627724839527,1.2799278742462565,-0.31578696709817194,-0.6842131491712611,1.508771538423395,-0.7017543956833664,-1.47368421086149,-0.33333333368463747,1.368421052631579,-1.3508771929824561,-0.8596491228070176,-1.6842105263157894,-1.3333333333333333,0.8771929824561403,-0.7017543859653493,-1.7543859650373714,-0.017543862790598976,-1.7368420712651214,0.6491599977081294,-0.5613493784946172,-0.7451977756678428,0.8980640403434054,1.090733855045419,1.1145228329684438,0.7172977832776102,-0.31051998880701664,-1.3342042618129877,0.041914500372119586,1.4985128058273918,0.08554576066231687,0.9780431621835874,-0.7200690179187983,0.24549003094792152,0.1929796029817982,-1.7543857430491576,1.3508780585532638,-0.42104359455766277,0.3859710202630431,-0.5263157894736842,-0.2982456140350877,-1.5964912280701755,1.3157894736842106,-1.5036118597078798,1.1240356046951427,-0.3333332814562356,-0.6605946907118098,-0.3547918590053291,-1.2287594942995839,-0.020871363966438013,-0.2553373690797818,0.5713211913547047,-1.4661998046403766,0.9497250881769927,0.6632425000151368,-1.4337742217135736,-1.7019415487131258,0.8238113219585913,0.4576371671461689,-1.2654527442918087,0.6612521286908007,1.3749663175870452,-1.1677638664252186,1.729550346198164,0.3814413268095703,1.0349693583529076,-0.9298221509605731,-0.3508771906370736,-1.4035087719298245,-1.5087719298245614,1.6842105263155884,-1.4559925411235637,0.372525615534327,-0.06990469598923776,1.7130044286535653,0.5251926589692968,1.5288508157318181,-1.086121444679019,1.1454822897107733,-1.0591989390500691,1.7998767667371323,1.6272111826705407,0.23326184529862065,1.057931120211812,1.073075141682127,-1.1501562090955944,-1.416308782255958,-0.9920277056468036,-1.6931084093406894,-1.0274346378382804,-1.4922693711838577,0.8526929776288422,-0.6668054634905549,0.18903105506707324,1.0301908787324672,-1.3194368610345153,0.3683395181307288,-0.2631578947368421,-0.6491228070175439,-0.5238585855042375,0.31528564456787433,0.8113064786986646,-0.06718014033270334,-1.072316399531478,1.152692655448382,1.0635865846092651,0.10085777586596387,1.2633526595731437,1.5273018834001377,0.8882377048536781,0.4998007176432789,0.9471118884607664,-0.7132003753559601,1.7427279428716551,0.09963993686536975,-0.0812858306438697,0.4967211276395855,-0.09618849051524607,1.7175910253003492,1.0653212974781288,-0.6496044643027742,-0.7511513676536249,0.926018150054201,1.087256365718663,-0.6140756606560841,1.3508771929824561,1.1929824561434699,1.5408495564863118,-1.6190206832125953,-1.013888637544431,1.6620860499001124,-1.5837571507882935,-0.372609594866584,0.7806494938051175,-0.5747696558492281,0.5499838197602821,1.4692944105170027,-0.19710867494971204,0.04067075322754613,-1.3454639730203422,0.14787409743148372,-1.1616280569370863,1.3864619328922672,1.0977041897225992,-0.5094056863217715,-0.054970005769050014,0.4047908689486963,-0.42180026313741764,0.0946761287127077,0.8966823500496893,1.284419553453005,0.3525449113692905,1.0701664233568062,0.6666666666674798,0.05263157944442689,0.9457175306986717,-0.1428861013902473,-1.2489106245756978,0.47251327335800847,1.1139980207307891,0.9367838853656539,0.8781338298830694,-1.6002715332298372,-1.6720646003375776,-1.6268039018858802,-0.2825499362463268,0.9518384374597836,0.6308532624484857,-0.17051916911229203,0.49798099380250704,-1.6260666035864768,-0.12645386347565493,-0.4711039913321583,0.059031786551639334,-1.4827844007254547,-0.6405367257285258,0.7895504348843335,0.1922857761093132,-0.5045887810124002,0.12414820462117314,-0.9820746202641653,-0.789473684207222,0.2982456192668003,0.8070695687988254,0.49164734512959457,0.6360965358256636,-0.43737566011233,-1.768166279429864,-1.71498227875498,-1.8967113404248845,0.14407095713629225,-0.5846462776059217,0.36386825333550055,1.3523618607845544,0.49776824030483097,0.42419854784518196,-0.8637496304956103,-1.5022357954011907,0.48183851046967957,-0.15269735177703847,-1.3601690374445923,1.2245271758960048,-1.4717988913238989,1.379829871269039,-0.11341982587449508,-0.9433296552959627,-0.9091316664307602,1.633415718771088,1.737387101799432,1.0175438854711305,0.15789464095960476,1.2283284456189083,-0.6123511855259062,-0.387226068054141,0.9962114548054496,0.4015331039927918,-1.0986630190448325,-0.5993844373815621,-0.44873457514802145,1.0605440169000635,0.6612833697104783,-1.54176329026509,-0.24019396542453972,0.9848058940137986,1.4281483086325928,0.7976504701187891,-1.35236756187294,-1.2460299412878806,-1.5218341797407895,-1.1412491523759614,-1.5350513013510791,-1.4531630922450245,-1.4341646274850177,-0.06804482025810511,0.33502869378975575,0.5794616349193479,-0.22815484449029969,1.1929824861682095,1.4561478507977974,0.5968082358718052,0.6817677199991699,-1.2731435347027187,-0.8073651004749384,-1.3624997355848971,0.10034109303683028,-1.0933220049583863,0.24702019866020933,-0.5869708693813468,-0.6269210775653138,-0.6645788645660696,1.2745464341795159,-0.20285899924070877,1.1151821495179948,0.4219705117251041,-0.5374931386218726,-1.1707550746513096,1.0557904324982474,-1.5910882405420554,-0.230876445365148,-1.7339902636947855,-0.6059278733902301,-0.08966130974501751,1.4075509431522375,0.965281335450237,-1.385976800023908,-0.3508771895791401,-1.0526080827276971,1.7018161114216692,1.3468800350476478,-0.16242693445469855,1.3407316837905616,0.607550496117677,0.8256198645003653,1.8266719557973674,-0.1872517728117329,1.1087804243941057,-0.7382242243747318,-0.21657341909897795,0.17691497365149952,-0.5496507677813125,0.8585014065760826,0.4778213474994617,0.681799858865592,-1.4501369320421273,-1.0948980666493469,0.18497500087442342,0.5421671137179486,-0.061952933893496126,1.2989118984641206,0.5469991469854785,-1.7123325368095554,-1.2995255185668446,-0.0020439788476618328,-0.9298245589990249,0.45615799576033106,0.2632967096646068,0.8791129240535747,-1.5326535649793374,1.4024304347841143,-1.7791842520196866,0.28087662740573416,-1.291799816102003,-1.0994063493221247,-0.022248664433177766,0.553535498670144,-1.4372986820684828,1.5536443147905832,0.27053423244153973,1.1373369265584943,-0.8509663996832139,-1.6714077892232055,0.6145348544150181,-1.4299727827432325,1.2939503010936504,-1.2452095996235413,-0.12198250979685785,-0.8258834964462181,-1.232533003522373,1.0718683422112742,0.6880836447845963,0.787290362562776,-1.43856856904896,1.5789493092193658,-0.6841577598850079,-1.0356616560319571,-1.3279962786237574,0.28860901169263453,1.3110901210704686,-0.5267452342721747,0.20682616263883077,-1.611919450265976,-1.0333537843233702,-1.1688070989031387,-0.20863801309778743,-0.10387392659166131,-0.5169377418741813,0.46262248419563623,0.04358015472670958,0.2304206525346374,-1.8977334699410418,-1.3218886971951052,-1.2559035982069897,-1.5710817683013838,0.954015961393758,-0.7036945085790018,0.5902686165676748,0.6652662407188081,-0.7849700571166147,-0.04842023700393734,0.842105423613432,-0.38596447024432406,1.6315348845831354,-0.0006987151124647967,0.6855092752600906,-1.5117084414077537,0.4203919059654325,-1.4511258390461788,0.5132435807490451,0.34004465586141097,-1.7891830714686765,-1.56187406067877,-0.8343192022039868,0.2698058484559429,-0.6974321536240796,1.6260676693609084,-0.7648804749406024,0.15626905766068286,-1.18263644785882,1.301444189306473,1.2938053633697606,-0.3958742684153236,1.1013852937016833,-1.35506865922956,1.4963159496904253,1.6341064298216281,-0.03970801911424292,0.08778270763424713,-1.245613959313051,-1.5964911040463663,0.9817986301725902,0.5848867459945023,0.8744962462186536,-0.5806128160098826,-0.7328680565747827,-0.8860496602647634,-0.40319542265689245,0.3462302433792978,-0.19102063028059255,0.4568759427736769,1.6041564897917977,1.40668677427963,0.884502825123885,-1.5683806285302047,-0.1238223636654635,-0.9102617536770136,-1.294430586419904,-0.4582884326466492,-1.0780251931763092,0.0015970175238577409,1.3107307452053563,1.8071549959933955,1.6720736049334368,0.1285065796186442,0.23105416977880297,1.054358283932749,-1.7192981128361629,-0.684207813062598,0.7532728883841278,0.2881988121120303,0.4322374367345949,-0.13974242985733729,-0.6968802611538869,-0.9697215091997256,0.8022362419060423,-0.5896093364328896,-0.05878210267636217,0.4996723736603335,-0.6245809794276779,-0.7251692828335808,0.6229457005397344,-1.1706500463529654,-0.6937072359364903,0.03053677765458654,0.6814290213508459,-0.9060335497308748,1.2442560530357774,0.5675709339785621,0.17869273503208527,-0.6726784487679046,-0.83782538876037,-1.1224339825170782,0.8163050842382135,0.6331337593540632,1.5087719298245614,0.14035281139745998,-0.38793497476419997,1.301585793575415,0.020871843166170176,0.4391992163154042,-0.23542028536866064,-1.6242154771772597,0.8821116268824781,-0.27587475220840435,1.3070929221917635,-0.5856440503712674,-1.3686251388245654,0.6987171355114979,0.4340738249645201,0.7127492145009053,-1.3330824059746729,-1.6878702240888255,-0.974214806241631,-0.43300652096735276,1.6977162965484605,0.5853025498248805,0.36406897356522383,1.082946465825163,1.6414254425553885,1.3214322176416988,1.5775962073839955,0.47712148656640213,1.3684210545580853,0.4912280955002982,-0.650652502579896,-0.8631166322505937,1.4036115218006289,-0.7214181578880318,0.1080146042794097,-0.32346937077558957,-1.1720012717158745,-0.985140757940884,-0.4240435303897948,0.25015489620298104,-1.1515971766413895,0.5132824486385665,-0.43570316108676654,-1.0014086498159527,-0.203620535580545,0.2917608535403383,-0.2518095082558424,-0.5490964026521776,-1.076687066143964,-0.8453312760999344,-1.5243511929917721,-0.9939596211996251,-0.8926280884878695,-0.32880131972083393,0.4201967072085769,1.0206646742552112,-1.3684210463564042,0.7193059490457798,-1.3691654423234771,0.6464815942334463,1.1518070570160048,-0.9757265650666855,1.718095241276797,-0.06639582004913397,-1.2139236652808576,1.5984259685024877,0.9914606832913858,-0.96848795143531,-0.8053788966562748,-0.005208512735989114,-0.2842549989939098,1.0263243629579957,0.10776370402729414,0.45717116534760677,0.6233355079647611,-0.04527640777219859,-0.12980337732389363,1.1045020700911583,0.8125630434624597,0.12928635139425132,-0.6039355840776851,1.3871013222590796,1.6677688925698892,0.19484098653013612,0.7017543859649122,-0.8070161311446504,-0.15793142227821594,-1.2112759378298994,-1.4951610356136207,-0.213333840953527,0.04612440593910337,1.2002950965666677,0.09439997197873459,-0.18802590042284878,-1.2572711671815122,-0.10008424456893511,-0.8800669764298094,1.4909777067327554,0.4074181980576091,0.7363375140181032,0.9395227638980096,-0.976479909958889,-1.2808979118808825,0.14759476567801014,-0.905831674683849,-0.4193482638002169,-1.3911813225518768,-1.3440772017909375,1.1976580917815534,1.6142187124095688,-0.6819619135759403,0.701754954004402,1.0701765884549264,0.017544165786777213,0.2104593264818068,0.15775512009155215,-0.7052467045806795,-1.1752590495945991,-0.07330620209720615,0.4235711930414604,-0.9071328431205048,-0.07185329455954746,-1.319097229345082,-0.8715953604773292,-0.17503497949326355,-0.27567162125049016,-0.9723156714112996,1.1921371264411644,1.38586552967924,-0.9331043708753886,-1.1514178320680148,0.6481113868803821,-0.3548170549238045,1.6202616017148885,0.9391040101417458,-0.9085217649740616,1.0948360380558881,-0.33812522880791857,1.059966612738561,-1.5263157894106896,1.1403519911183417,-1.438596145834587,0.5610793549706932,1.2629034470809004,-1.596181858258054,-1.0815104333019954,0.6402665848584914,-0.04378735138772346,-1.6749755334583707,-1.0928369586774895,-1.810535068055301,0.39958912890165005,-0.4642413093886672,-0.210805587768474,1.053590462036962,0.4635259667263967,0.23603967873280635,0.5542772084649882,0.8086777976210072,-1.1567787129675402,-1.2573020015068603,-0.8327667672582135,1.5352943061131314,-0.7101588150311353,-1.3996327619690876,0.7232738314862429,-1.3684047141235312,1.1228070176601572,1.5964912280701755,-0.03508771929824561,1.5784983933109604,-1.5790385324646292,1.6191748898804599,-0.7652786615509942,0.32326444219825073,-1.2694920197889947,-1.6837282980208617,-0.32609657217647053,0.9584746263890265,0.8522545035588334,0.5376240602058846,-0.4433429806593556,0.6881915477656574,-0.6022740275572966,-1.0495170455504952,0.07203627802746389,1.523741014672314,-1.4234549452738454,0.11437251001093626,1.664183829064334,0.3674957030565798,1.0168961511557921,-0.6075623747579683,1.526647499792604,-1.1576163772250825,1.2982456140350878,1.3859649122807018,0.5964912280701754,1.0175358234640375,0.3858754746786962,1.0592774593851826,-0.39756789540994997,1.459907853338501,-0.2588602268984028,1.2060868391093993,1.5932900341196177,-1.7283028458554444,-1.6818978316926667,-1.2944185620693742,0.5498857099632842,-0.8943972714542778,-0.9653611223321781,-0.4014890222799775,-0.018505411441990846,-1.3947310042029084,0.0028407460339341696,-0.2650742111817476,-0.42521776195875044,0.6798937527626874,1.7128768152592533,1.2308249422171913,-0.26024569781942075,1.2460867364590125,1.105263157894737,0.7719298245614035,1.2280701754385965,0.9473683601738817,0.736767177734243,-1.1765570190485803,0.7192672351093337,0.8077274917218078,1.7415526996679036,-0.39986446965992645,-0.6606454013573879,1.5666857883552854,0.5092575344537823,1.3086969872064032,-0.0910220153446814,-0.6174400687851721,-1.4556830091392043,-0.25825187638389935,0.3032248547376521,0.8129678174357363,-1.2476157574536904,-0.6851837919433792,-0.10533925424593998,-1.6669728289869037,0.1401966143503214,1.5438736527805217,0.12287114156078964,1.5439363031203974,1.736842105263158,-0.6666666666666666,-0.6666666666666666,-0.2982456140350877,-0.8771929824565173,1.42105263149281,1.3157890243057568,-0.10526133866279029,-0.5789069543999197,-0.5438604801691215,-1.5614304072973457,-1.7575773461091933,0.33793888174761155,-0.19800813100038334,-1.4367883658622769,0.08512816243301148,0.6037983125919825,0.31400239587017437,-1.3346339204982927,-0.7403008007184804,-1.4563970043547803,1.4911940852646397,-0.8070600033169951,0.8947400158847324,-0.8421054198992703,1.315789473679699,-0.9122807017543859,-1.7017543859649122,-1.2456140350877194,-1.1754385964912282,1.2105263157894737,-1.5614035087719298,0.9649122807017544,1.210526315789491,-1.2807017543855974,0.4385964950587381,1.245614038271668,0.31578947505060795,0.8596491584028079,-0.07008928673161381,1.4212077313976423,-0.8420226098545571,1.1582202000453234,0.000007746503480215298,-1.5262728764073383,-0.5613353037451645,-0.7192932859727932,1.0175442511412196,1.4035087184006714,0.19298294328653878,-0.350868949915226,-0.08771405746560974,-0.28070175574246936,-0.45614035087719296,-1.7543859649122806,1.1578947368421053,0.7192982456140351],[0.5263157894736842,1.0,-1.736842105263158,-0.12280701754385964,-0.08771929824561403,1.3333333333333333,-1.7017543859649122,-0.12280701754385964,0.45614035087719296,0.0,-1.7543859649122806,-0.6491228070175439,1.6315794600866131,-1.526304002435244,-0.01753199225418355,-0.6140345932445085,-1.2456140350877194,1.2280701754385965,1.5614035087719298,-1.087719298245614,-0.9298245614035088,-0.14035087719298245,-1.263157894736842,0.543859649122807,-0.12280701754385964,-0.21052631578947367,1.087719298245614,-0.3684210526315789,0.47368421052631576,-1.6666666666666667,-1.5087719298245614,1.4385964912280702,-0.9649122807017544,-0.8070175438596958,1.0877192989024638,-1.052309542416903,-1.4399113586465748,0.8897537464822622,-0.2219565377142107,-0.8245606705468091,1.2982275389657418,-0.017561221797966178,-0.4970913106755076,0.62213053057205,0.4339573090379686,1.2287175159957782,-1.4384801166830006,0.2104613565888605,-0.7194079570034414,0.4384922500873667,1.2806945472208229,-0.631578947330625,-0.2631578947368421,-0.7894736842105263,0.43859649122807015,0.3508771929824561,0.7192982456140351,1.2456140350877194,-1.052631578947371,0.3157894656142252,-0.36842105272921394,-1.4210526316553527,0.5614035426575363,0.25205785501346106,0.5691762111169494,0.6206107479082414,0.7442478300416997,-0.5549921809148247,-0.23242057276767805,0.41747275873882017,1.14629701494121,-1.6722265954125521,0.4322918019322058,-1.2780630326170397,0.12681257757349162,1.5335602265929904,1.6256253331274637,-0.6644571598785561,-1.598636674595213,0.7532755340732531,-1.5441456943942555,-1.350877810251996,-0.3508771929824561,1.2105263157894737,0.8421052631578947,-0.3684210526315789,-1.3859678241507472,-1.6491235630483965,0.9473678956727767,0.08842409688796155,0.09052139874221933,0.9961122768497616,0.6860694456054021,-0.9057195761276702,0.358021341959727,1.8869688458574159,0.5761092022101879,-1.14363045019288,2.007870379538103,-0.36844515737480554,-1.1532817651747125,0.31103443600131314,0.23227231879612675,1.435017424400149,-0.11258773459778827,0.4589557454085432,0.6392840258338209,-0.6284885207577883,-0.28205020101038947,0.9502703119821219,-1.665127020773176,-0.14035087719298245,-1.1403508771929824,-0.8070127838727194,0.3333229036567519,-0.9647417465753267,-0.45538127969292425,-0.932198036154204,-0.17919108297112554,0.5884454762382629,-0.3148378244468198,-1.328375648194942,-0.3132650810552679,0.04802240707195663,-1.176779661925113,0.519720054018158,0.6910338205617709,-1.5172218580251904,-0.3808466370065734,0.17191508683168596,0.7441289078874342,-1.4423417481498924,0.14960221712704533,-0.1735555707300488,-0.5676351801303611,-0.16142168811078464,-1.5381910154541953,-1.4953839017167772,0.9918597073271449,0.3981338821544892,1.6666666666666667,1.736842105263158,0.7013523920692389,-1.126475607370354,0.5957763981625518,1.4918425052237039,0.7841454702551165,-0.8980400853272322,0.014698880467586857,2.111954876100257,0.5401271071009357,-0.23020764097640758,-0.45045996893265344,1.6799456641637232,-0.23965514109168193,0.549511014198521,-0.5859774485390892,0.5657930275123629,-0.21683253732759994,0.4786216891813165,-1.0375122286191498,1.061419623116848,-1.7799717103382782,0.9029845209162796,0.398992740029671,0.39728907539205766,-0.5525332943610403,0.6841395854093744,0.7017543859649122,0.21052700313239173,-1.6100025292186582,-0.07030823536939956,-0.09323962159432835,0.2550164236002473,-1.4229540845110455,-0.13073181669841852,0.29556131022805826,1.6651485334305036,0.9046359479677516,1.8881866439004553,-0.8982945564025223,1.5632288485644632,0.3556781763417154,1.6389055749403494,-0.6074919830297736,0.5083537346066114,-0.03294399094248244,-0.39895214190439504,-1.1797789464555528,0.8361284380509145,-1.6177647150769734,-0.5747443947155539,0.03735156615125192,1.4451110706951382,-0.8231304217593228,0.2982304550953024,-1.7017459053293744,-0.6578984014921264,-0.6728321713915794,-0.5948049924534031,-1.3457156369817016,-0.20009662611668744,-0.9984938640193793,0.584618098936062,1.305257956232097,2.3014407653682127,0.10220876463665783,-0.08451494894275523,0.859958012730813,-0.6088305510246046,-0.862351948851994,1.070126732932484,1.2162979065329078,1.6107876862099466,-0.10933361503208379,1.2156775416591452,0.3948680428620438,0.3404052288164692,-1.4131430574072086,-0.013296919796809113,1.5277859649787702,0.04503338343515694,-0.056028986306482634,-1.048159949598283,-1.7543515010518942,-1.653033738748376,-0.48957447179059305,1.6235670586282192,-0.64636968461659,-1.0079596742415773,0.2647424716604297,2.004056223537533,0.9422185837837107,0.029514339601920368,0.19159940170582987,1.5589870591863744,1.7913473978996524,1.2829394989694438,-0.5081919413970426,-0.19153424449351317,-1.263543330913544,0.99489752812417,-0.6939363285601594,1.7510447333124868,0.6158322588187609,-0.7396468547524417,1.8693445936846367,0.784753515035791,0.08817913450517129,-0.2918837499535838,-0.2666519639786392,-0.1193619750008744,0.719547384401424,-0.2692804734337943,0.09303094126481941,1.3404737507891902,0.6580198649593859,-0.8001969494673449,-1.2971434249134204,-0.16677270568940947,1.9223922932141368,0.7150711302768475,1.86518824131653,-0.42584863356301433,-1.052839666207654,-0.7008369086879799,0.7920403774919529,1.2631042653851101,0.38067777915060524,-0.23045442799817345,1.6649999976402292,0.4283741716757483,1.5498626160158835,1.6798410093040081,1.6204922194815432,-0.7582081551306723,1.473894454039684,-0.27895496640352635,0.5223883414569342,-1.728585735366339,1.596776243776864,1.4923456333844873,-1.344982986533981,-1.131039645219331,-0.6551204447488764,-0.8436162619230212,-1.1448949957662646,0.8273920645942412,1.215067886457377,0.471100525200072,0.9784020451076824,-1.4421591045170625,1.1484174713161763,-0.7266779353936633,-0.8419726953416845,-1.9491037061863774,0.8461821548923322,-0.46646486659273484,-0.4206121862114302,1.8081193912776905,1.2784747279106057,-0.6414689294434025,-0.08614226057678141,-0.4134597657782505,-0.1314827231623971,0.05509600357974081,0.2599866495388321,1.2593308732656565,-1.3330555979453136,-0.919371165786514,-0.827226759558662,-0.9126155736275051,1.1446329282070709,1.4496582795355262,-0.35632153903468666,1.5006268316087852,1.230452112853475,0.6853279276074273,1.3565601497530246,0.18090474202654877,-0.9691894083261287,0.591832710614003,-1.9155548743451576,-1.1268204648182238,-1.748996692133236,0.3948263942587026,-0.6403065654884119,-1.0419210895995514,0.624426430221638,1.3715141635443209,1.304715789069689,-1.1785720060940843,1.6073622014257891,1.7732623553181899,1.5355220348406446,-0.22778968296646893,-1.6490436891680829,-0.26063842165889534,1.1428291950008072,-1.0023774826412852,0.6582098511180059,1.1143572303851865,-0.48453619747364635,-0.7614353467729331,-1.0230171336054987,0.8949867717603437,-0.20581858527394348,0.06126427189987381,-0.5782559329390399,-1.391252605623858,-1.4401296319402317,-1.6475284341596677,-0.5924525748653716,-1.3455462198962878,-1.0199494019380835,1.4634991838018963,-1.1219381309413614,1.0593360673176448,-1.2603020232365043,-0.8935414441760874,0.770148830236627,-1.0372813039215938,0.765910495998024,0.17683879380933942,0.07013336303340405,1.526389882974924,1.6204989241987804,0.25722073334187256,-1.3449112152924705,-0.30541487286269675,-1.4934344904209829,-1.1398381427138138,0.8916116462715847,1.7010453747203038,0.4710452456102838,0.8407057228303814,-1.4554616624439265,-1.3243133150694701,-1.4566672396899025,-0.31773323259746594,-0.7839552539022371,-0.792319884919713,-0.11779621939624618,1.4314188369732281,-0.5955973742016053,0.03718451114305763,-1.2225783102118304,-1.3445578297372645,-1.4402364626228856,-0.4455858851447928,0.9173619199674863,-1.070219345537853,-1.0701754413807363,1.4912353200932558,0.4152006029013514,-0.5506474375857012,-0.9108453923667106,0.9477814078688314,-1.2768830466009626,0.546319071038496,1.7090938741411863,-0.9965145604600811,0.8141810361009588,-0.31561141248772107,1.0977310637326387,-0.6174859013688254,-1.046123072004303,-0.8295685825412057,0.01454282947885938,0.1382008049458033,0.33294593211640083,1.6879156603263068,1.6766051216046243,1.1780279915672713,-1.1431821647739049,-0.9353250440992175,1.742380621056833,1.5641238708782113,-1.4315985973940089,1.3684204936690894,0.9649124684754902,1.1754386201021227,-0.636435555966108,1.0085468897495369,-1.7183593867198292,0.6186499039806784,1.8807574317206845,1.3085951814639543,-1.4424318680078112,0.23384827741938763,0.7957367622454563,0.5014591561703532,-0.4418348213148183,0.35846142178098556,-1.621810099685726,-1.474835077618437,0.5820655550162067,-0.9189845208914704,0.9666607669859468,-0.3040675352416872,0.22505832823858662,1.6091344731447117,-0.38490404381816773,0.614166290463174,-0.9688168932064507,1.034070744902057,-1.5927439946856357,-1.6490462985000964,-1.596490149867916,-1.350943772046134,1.347529561915256,-1.2941291921475642,1.6955017174990905,-0.5518706726848536,-0.6632569418010418,0.602128174809314,1.4658606305268687,1.1461984195397634,0.4348405937709356,0.28009252616129576,-0.7531790542516036,-0.146849088963958,0.3252421268291639,1.134527079852903,-0.5773927273120829,1.71870895141874,1.9589712712804916,-0.3396350596457708,-0.1435992745871424,0.49123041996952066,-0.010189707960899498,1.0939313951884184,1.4126515282160064,1.5574677740330864,-0.38003670534959333,0.6155191859567972,-0.14035087719298245,0.8420920650757597,-0.5964748248749987,0.9171843268925246,-1.3910169612436731,-0.05917795978250705,1.149742241506992,1.8529679578288776,0.9187481305711583,-0.22751081555338973,0.25128977772110644,-0.8304970608640998,-0.4772900930460019,-0.46310191666401584,-1.3794416912146348,-0.7071194678549089,2.074677502901044,0.05076975129931359,1.419623461000557,1.5863064288067092,-0.03375179017491007,1.8486165228510476,1.6717491497861254,-0.1955613423119812,1.2418795664688584,-1.3255972258823603,-0.8590603600735073,1.6688777127554741,0.6963360536156761,0.1754508641242403,0.43937539551712623,-0.6789206842536843,1.8155003849700886,-0.8488712112330136,0.9067421353361053,1.834968551384981,-0.18308079425213544,1.2511426280237623,0.6413497514373174,0.19942798332978678,-0.6137909331360503,-0.15370453832999342,-0.07864442090200202,0.0960086505347316,1.002324125361185,-0.46320994407074967,0.84180572653267,-0.7160526226391462,1.3574393668458933,1.636281762484711,-1.2264144416054443,-0.29464625929976074,1.284907481182241,-1.5414769689337264,-0.9232460771746018,1.1020674774161243,1.3859647934881076,1.579230289912469,0.4942699481875176,1.6598945243880514,0.8333950647514351,0.30183099370948285,0.7165140959607609,0.21956434515587706,1.1392568986249707,-0.3468756450857557,-0.3480216652989413,0.6778610452297867,-1.2475218583753194,-1.3107982719220985,0.5678049458853389,0.17968676433313255,-0.6466307264285727,1.286280128584425,0.3610908245810779,1.7560286498407969,1.3558618099645683,1.4640295905566674,0.5480283017216482,1.3772576828315255,-0.4071527090183163,-1.359711275316351,1.4961860735965222,0.6827672353703769,0.3333333333333333,-1.7367223212309124,1.4453829117979193,0.8518995267281916,0.7578592522148411,-0.8367738960675148,0.2498945354449185,1.174725376189735,0.7501162347755483,0.2741961960518292,-0.08124923878537646,1.3713908988435248,1.2919988144592707,0.7205874801739374,0.2348938987008657,0.3778081043538595,-0.19950600758860695,0.3989726928576446,0.06838506002021648,1.0417008373413499,1.880849232274317,0.1429292715939523,1.0627752982873457,-1.0521407713892474,-1.3745069277928537,0.1664125020881284,0.9544372960817266,0.12282067948606422,-1.5438628084866726,-0.1753644422264154,-1.4950822664710117,0.6192636833686779,-1.4265658817270774,-0.8686793275649437,0.47948541711707376,-0.6134841418625808,-0.2654241693405255,-0.5298043060449847,0.7674671762123124,1.5119758134454346,0.2704254201244147,1.272127447728551,0.543941640577079,1.2509885364913311,1.7279002607974416,0.42807790397056766,0.8920498969851052,-0.18503736944986096,0.022617319825723476,-1.1119852116114795,1.734498044376302,1.3418977937870782,-1.4235660376119614,-1.736878867593299,-1.3483069120847078,0.6666666666666666,-0.43859955186181554,0.36843656150152787,-1.6185575265963963,-1.0810707067586598,0.9979385890354645,-0.5318292659605722,-1.7260527784073785,-0.36791667767166186,0.34524843818963247,0.33848362349752986,1.3615863040243605,-0.18467163555552601,-0.2742282478927177,0.969250575999481,-0.0947749198923528,-1.2639709138575772,-0.29682751254041034,0.029114430424161307,0.30198693187259645,1.0095828467659809,1.4127357482082297,-0.5200089641333762,-0.5864680874583729,1.72773914262655,-0.2369518233347586,-0.6129231953373633,-0.5513454569584764,-1.2456140350877194,-1.6666666666666667,0.3684210526315789,0.46129097789407175,-0.9633257707984394,-1.2698188179919938,-0.3242691088982251,1.2539362536407366,0.17995243510410405,1.0111874286682312,1.0014596009812464,-0.09495988251422492,0.8237063599185401,1.4641034408823965,1.6249448432414182,-0.127549693328438,1.2329427721870576,-1.283556975864334,-2.151485182538532,0.6346937549428039,0.6773755892840428,-0.5645856113560288,0.7809771982399413,0.18755741372157197,-0.00147625352767205,0.6205499134265694,1.454460048329412,1.4844669113316857,0.08771929824561403,-0.8245614035087719,-0.43859649122807015,1.701795033277954,1.4719108918165535,-1.1220475186994527,-1.2713295408312675,0.042234368755248594,-1.0589413720766367,-0.28002102959592995,-1.0597491231895912,-0.2519175700380632,0.338464952637032,0.18840282395466948,0.5464430211257629,0.9288598947278985,0.8890954038565093,0.8837367730316046,-0.5432938424239818,-0.42542678595830713,-0.12912713498268724,-0.06653308744523036,-1.4517045112192464,0.7931927990910813,-0.8417654553593322,-1.1042935946908707,-1.491255227817743,-0.8245694707390445,-0.6842105263157895,-1.4385964912280702,0.2631578947368421,-0.8070167916290374,1.2177178676785974,-1.6800166671313954,0.6551625218417348,-0.23368701222971786,0.10910682661778569,0.20701708783372122,1.2780247179737827,0.7868295621179692,0.30735079917586133,-0.11875727658663693,0.1860585944161455,0.9774074703582512,0.4125406791851533,-0.3017346167062321,-0.763911102205224,-0.40041197255503086,-0.4833081301393067,-1.7036172724512262,-0.7367972995970512,1.3517546364489845,0.2035196846270624,0.6835153790469831,-0.6842105330916737,1.19298245663646,-0.43859649122807015,-0.19298245614035087,-1.3333333333333333,1.736842105263158,-1.632014066134539,-0.31816811660713945,-0.3972920982966732,-1.437867710175288,0.26993773905350943,1.266743217827904,1.2583945098548275,1.1704480487957407,-0.9677303866420629,1.6194082433458854,0.08930374535850988,-0.24506051687092542,0.5694515740892695,1.429101946339146,0.24743982607053294,1.2075427002571335,-1.471844893057984,-0.22372585474936518,1.2803295028667092,-0.44303391852624824,-1.332638517014876,0.8596491228071381,0.2807017543883298,-1.4736842105263157,1.456140350877193,1.5087719298245614,1.3333333333333333,1.2105263157894737,-1.0701754385964912,-0.8421047926868894,0.1053531700877059,0.4212119942441827,-0.5261156365320934,-1.4558468319651763,0.07038273097127028,-0.9978497414706821,-0.5764580807230767,-0.7983871376098343,-0.5704351357497575,0.915691285315933,1.3760617088183202,1.4078149941325535,0.9665482980026334,-0.793748060152414,1.1768333914496218,0.35159037372759583,-0.4205885710002908,1.3687025949117766,-1.385964864294603,1.4385964912280702,-1.0350877192982457,1.5087719298245614,-0.6842105263157895],[-1.4736842105263157,1.368421052631579,-0.17543859649122806,-0.12280701754385964,0.7368421052631579,-0.9824561403508771,0.8421052631578947,0.9649122807017544,0.8245614035087719,0.9122807017543859,-0.9298245614035088,1.0,-0.20223459883151926,0.867736704599611,0.38687838694214877,-1.1754005350470007,0.22807017543859648,-1.1228070175438596,0.7017543859649122,0.2982456140350877,0.15789473684210525,-1.719298245614035,-0.19298245614035087,-0.5789473684210527,0.22807017543859648,-1.5087719298245614,-0.8596491228070176,1.456140350877193,0.14035087719298245,-0.8245614035087719,0.9473684210526315,-0.10526315789473684,0.631602810659019,1.1580000677431004,-1.490062664101655,1.687616536651443,0.5740718211170498,0.8679638055675993,1.6560128290928982,-1.3117280899991552,0.4049864349967007,-0.3056875226488846,-1.3589231006437845,0.8213799106141825,-0.01935826203078432,-1.5457593395377183,-0.2706400898783718,-1.076718782693247,-1.0046219929908975,0.6689459609528405,-0.7420257633623636,-1.223683087459629,-1.5964912280701755,0.40350877192982454,-0.3333333333333333,1.1403508771929824,0.8947368421052632,-1.1578947368421053,0.17545790409571768,0.07035340700469374,-0.5260852422826447,1.1583972492641361,1.0106815388517678,0.2740813316301062,-1.3078238744751822,-0.3219254294632302,1.510905499065984,-0.4301235340435666,1.2650729770555025,0.00007801861292902184,-0.4468400476807642,-0.11519231683927789,1.7587037125952913,-1.1108994173892586,-0.8777017725643509,-0.7838810903893969,-0.3186869372603329,-0.2193146271159432,-0.6115888866984557,-0.5697613523231038,1.110271680522463,0.9347400199671361,-1.719298245614035,1.368421052631579,-1.631578947368421,0.3333333333333333,0.7124149081288478,-1.3495608430597246,1.529938880566587,0.37937562344863773,-0.7315497477036217,1.346312757081917,-0.3063022200228137,0.345919819945749,0.5083133629109481,1.2619244462702894,0.8191393919289531,0.8304157638609565,1.8517893840425543,-0.3456523153195356,1.158644269858341,-1.0213518493898193,-0.13582671954278758,1.3622454212521582,1.4346965886161769,-0.004760230046794965,0.8622017843749333,-0.24081181103266278,0.881768877235362,-0.09477193379076497,-0.25376523912759763,0.9122807017543859,1.2280701754385965,1.228070165442679,0.34380372957716543,-1.5897294300375562,1.1996890644273783,0.41773822684245165,-1.4508165919052198,-0.2120980362814374,1.674443913596054,-1.04000123066924,0.6826753097927317,-1.434898371086803,0.5201109873761534,-1.1624614284833459,1.263367050372396,-0.48558673895672827,0.480439432504724,-0.19028604100987273,0.2569344495624434,0.26066345622429776,-0.6012831380204255,1.1107625583587293,-1.8248021392766152,1.1483928987496397,-0.6137311188449762,-0.974443103536449,0.046396957768368205,-0.8948843884609547,-0.3157894736842105,0.5263157894736842,-1.6699501995388961,-1.549378045260307,0.14451188294608408,1.1605238184149598,-1.4887964442684782,0.7810440780916322,1.085836980613051,1.0128122057874271,1.0878617106884731,0.9591041497594097,0.2928901949348659,1.5485117450884747,-0.7308347591501375,0.34617233818365845,0.1964397732207462,-0.8739113367458721,1.1820574701879087,-0.41614609208433556,0.16418011724139456,0.20634818534542743,-0.850157815112406,-0.7608383137146567,-0.10608445543293964,0.9267910683040365,-0.345446494667741,0.6488855969477271,-0.017543859649122806,1.0701754383208928,1.2800023652590284,0.4299739641426069,-0.5217382672750993,-0.684304588434437,-1.1640711090555882,-0.11609803111541425,-0.3254458567687973,-1.850013492637434,-0.6155611876251141,0.16802293673504765,-1.2683659429507754,0.14918615352088016,-0.22590430953600302,-0.4502977275354048,0.6493767711697592,0.12193664064440587,-0.592946991353632,-0.4324532742399707,-0.6045145715601609,-0.015526738711042584,-0.827459075098711,-2.391191429979917,-0.8635075733113248,-1.1119500005516338,-0.1737850331152918,0.9696420287711047,1.2280701750865077,-0.29824974876292193,0.08901068845635496,-1.0679110109164784,0.8649976948887375,-1.7039695959435448,0.7698511411885427,-1.2580045942232705,0.3953139710411447,0.8359820053108447,0.0028269471103901395,0.39701258705592035,-0.9914151697408895,-0.825426490988945,0.7828064546795089,-0.4686009871520314,-0.7055837364403317,-0.7088604213122494,-0.19316315123266456,0.37432597764653514,-1.330513077984114,-0.2547168623669159,-0.3043012461254458,-0.8684838848929277,-1.0126309516901741,0.4394773118253159,0.05099853759343571,0.9731070109718484,-1.5438009321929984,-0.2449233581288236,1.1891860105744745,-1.6176074153174096,0.31405312182981865,0.9445526587038359,-0.32100421082820685,0.3086242325318644,0.8465592374874726,-0.40517013862052637,0.04455006563675385,0.19249113928003678,-0.6467421726332233,0.6116947066580276,0.527103428388564,1.4534248528095153,-0.5241645088546633,-0.24575124871185358,-2.261028848553978,-0.546506005681468,-0.8987788832722542,-0.9959068380482626,-0.9418467362940743,-0.08113737508723136,-1.9275201895541763,-0.6086975354850992,-0.834118684968253,-1.4198425629928995,0.42104678554215363,-0.10563609524222523,0.2834477239979903,-0.8428350949937539,-0.8890832372805124,-1.022238056155203,-0.16267502117195148,-0.4587354054063187,-0.43434328759088425,0.25086971075742764,-0.622834615296404,0.8179461678221934,-0.37003655250344003,-0.1660079932528025,-0.8627539681792723,-1.0634030095717177,-0.5696572797838269,0.5231577988917965,-0.24438425429634572,-0.5569353788291643,-0.5655128081966856,-0.17033196087057811,0.327256259848763,-2.1119027920572524,-1.2938949301182778,-0.4024459543609211,1.2331082123076542,-0.6486785726299735,1.5613967085184044,0.2804918556033335,-0.6153977693579201,-0.206888222142759,-0.6791333031947296,-1.0658238849242079,-0.8781431727071018,-0.8228040294108949,-0.5435471898234503,0.5385240527257796,0.3220571921864046,0.2623982727647533,-1.0824062775358072,1.028829914809225,0.5357145668214713,-0.214136755550215,-0.42479879169085366,-1.2136679464590245,-0.8946674430855652,0.6616565154450081,-1.5276296507209557,-0.23604534653147657,-0.769264752699738,-1.335039487355398,-0.380683572891141,0.2649367954370476,-1.1336494759376525,-1.0021979013332187,0.38596409766536843,1.0392948482567455,1.522456220332406,-1.5919560900348007,0.40405733504386676,1.2956607434483747,-0.7608974214325424,-0.4655121911957117,-1.755774302582294,-1.6065842674094652,-0.3500656657034377,0.03878597760102071,-1.2616853552500837,-2.350848235353226,-1.2896557227940784,-1.3728076137277927,-1.070702901280531,-0.9626845911937513,0.4887352771420095,-0.4081517208779305,-0.18643912734483106,-0.862919129287199,1.5332138574279042,-0.4595291840849497,-0.764010724057761,-1.9303661224186408,1.100095942406965,-0.7561095977556406,0.14035085347380194,1.0679399632480904,-0.9177869400417842,0.3775989191973865,1.0587962501887151,-0.5554114059518472,-0.1778372872943259,0.7635455521408185,-2.0041263439282417,-0.9946239450143852,-1.967727007046023,-2.450985413879728,-0.1624283523646246,-2.394951933610183,-2.3071547408533215,-1.6142607968008407,-0.18074430582631612,-0.37529351135312844,-0.7122267562381706,0.1575966605818419,1.2742233551798676,-1.0782144166511813,0.9235791674753376,-0.11090123636638194,0.5993439622232702,-0.5116132816425016,-0.4139817303053399,1.632209561616202,1.4736839273334335,-0.002849908134262639,0.6972466487970331,1.5176771360934898,0.11257134279134456,-0.9564483719623317,-2.2599123243180004,-1.280298776874244,-1.6433742864716085,-1.4479849577087587,-0.3166188970760621,-0.29595294416464346,-0.8781581145196443,-0.5755964100831577,-0.779270433418156,0.4581420170669722,-0.5720186995234536,-0.2420150291631228,-0.8722652296303306,-0.610975853352653,-0.31139174074982306,-0.2243041639057289,-1.113204495021466,0.8138861335064906,0.5053014530123715,0.06057888894999557,0.27147802843736535,-1.2236938312202565,1.684236717078779,0.7139397302237934,0.8544605902596385,0.9068937808944653,-1.7903008297177738,-1.2937680745294593,1.1422239884743517,0.7979046715160066,0.4939299281129663,-0.23939314329917755,-0.07881289417451684,