{"layers":[{"layerWeights":[[-0.8596491228070176,1.2456140350877194,0.5789473684210527,1.0701754385964912,-0.9649122807017544,-1.7543859649122806,0.7192982456140351,0.17543859649122806,-0.9122807017543859,-0.07017543859649122,-0.42105263157894735,-1.6140350877192982,1.666696967486959,-1.0174787734036983,-0.14035228167153618,1.2280701169186563,0.8771929824561403,0.08771929824561403,-0.6842105263157895,-0.21052631578947367,-0.24561403508771928,-0.017543859649122806,-1.5087719298245614,1.6666666666666667,0.8596491228070176,-0.9298245614035088,0.5087719298245614,-1.6666666666666667,-0.03508771929824561,-0.8070175438596491,-1.263157894736842,1.5789473684210527,-0.543891962134227,1.5788524481174562,-1.1754485912427715,-0.4393793839819198,-0.298256804166598,0.5148629407055723,-0.7338974239334934,-0.10540318550507859,-1.395719634976871,1.6807644229624907,1.5779815490365827,-0.6483054099247223,0.07031699564780455,1.4669042002971824,1.446046601590595,-0.16061066564740503,-0.6174426071556961,-0.3515968734336135,1.7367055695787925,0.8771929523750767,0.14035087719298245,-1.1403508771929824,1.6491228070175439,1.4385964912280702,0.5087719298245614,0.7543859649122807,-0.2280701782206095,0.01639718830276309,0.2629790382516439,-0.3336998546423236,1.6638015403871276,1.0838040270041343,-1.5999522549275036,1.1791954719825883,-0.9482780268045728,-1.5792329300762824,0.6996464672344033,-0.35801915352674635,-1.7042663430345435,1.3970473176904503,0.36512954671883946,-0.6499919417502611,0.6629215321603827,-1.63481733381183,0.11701837472548576,-0.47152901926674273,-1.3439730557889122,-1.7430108925678,-0.2736017832766084,-0.2036431152312479,0.42105263157894735,-0.017543859649122806,0.9473684210526315,1.2280701754385965,0.6143730399924707,-1.0613362733629301,1.5536332176764935,1.54388068843475,-0.4800937070660647,0.0476516448379191,-1.3667207119973634,-1.0754944740950183,-0.7581377764955395,1.27739565206759,-0.5965269251080253,-0.5022274760392189,1.3054810379585038,0.7858222622379752,0.6216704278385446,-1.4708697581565535,-0.6617564561335711,0.842623618296728,-1.6053280645824548,0.8295014773055309,-0.5229102471180748,1.493787328733678,-0.7043397611630124,1.7114395129907531,-0.3697142338343926,0.38596491228070173,-1.4912280701754386,-0.7192692997040615,-0.9985831546984648,-0.47186632641294557,0.32619080748979323,0.6052191428537412,0.2626320387151214,1.7757533345880585,-1.0679212054919942,2.371719090542204,-0.470469350781722,0.9845176431766693,0.08049074212487989,1.905253657346521,0.05694971629225271,-0.5294772378672621,-0.009897296671106618,0.6440805708149805,-1.010015124881161,0.5255582218293522,-0.43499980198479365,-1.021052834375086,0.0003660854879217418,0.5600874403769334,-0.08878453334811783,-0.028799721755072005,1.2050538431340794,0.08368949108220401,0.6666666666666666,1.1578947368421053,-0.701082777373758,0.8872790817478647,-1.6154946934863987,-0.7269999629885723,1.033659188336237,1.5006707314556762,0.44805051453407646,-0.5599008502130356,0.050834605798044774,1.4991708573649274,0.4995782152671837,-0.20630892703213788,0.7490594264576274,1.3914944618915988,0.2861753413286446,1.0871324731666885,-0.2074439589144956,0.638948248751514,-0.7003917943835121,-0.2317799582915315,-0.5369862888434082,-2.0083864076210802,0.4640305670791679,-0.9794771911136387,0.022944229558019644,-0.26911233342044627,-1.5087719298245614,-1.5263128694711185,-1.6248175269012513,1.6661286029792057,0.9211825924540143,-0.5108109968387711,-0.39410708276777057,-0.06029452465738431,2.599781373584322,1.2388883696313249,-0.10181346969811181,-0.3705464048063667,0.8723988056232799,1.2370047099487376,-0.30442793402155566,1.3579062974738003,0.12604509956954998,0.47371894065356257,-0.6209296348230403,-0.45746623404132947,-0.65391090608383,-0.31652601923644424,1.2090329334492367,-2.035755806086691,-0.924996131393342,-0.7604355739995545,0.14734017165057678,-0.15899736868877434,-1.0877219324452667,1.3316781653212484,1.0227839917784143,0.8010380696781377,0.1502685804661992,1.6537377099374644,2.3568891351738945,1.3185230713731664,-0.6925313953210823,0.44163202925177214,-0.5914541475148252,0.29686840901648925,1.812807281450235,-0.6224160823933867,1.4569503991530197,0.6305055906157472,-1.0485229010001944,0.4149676468172907,1.3774665352707665,1.2076691934693897,0.06520958646667967,0.6207337584860646,-0.4813027754091156,-0.5800496074221979,-1.6577108529026472,-0.5071670595432776,-1.0241153171780648,0.9107511831228003,-0.20649236882589206,0.6500558130365891,-1.1508403118464636,1.0053222111029871,1.1192386685173603,0.3754103280558078,-0.1282043151691443,0.13273402428083425,0.602086578766646,0.21575080713749192,-0.16205949159004082,0.1931929945274496,0.5131680344540444,-0.2515174083268513,0.2340394982495217,0.400709008491984,1.4112626791440641,0.16106831019016474,-0.5014806657171497,-0.3884549682916735,-0.4672896986370974,0.4068794162590638,0.27234110664603134,0.2018252413657769,-0.9834103250828311,0.5785713951260889,-0.23458834883467752,-0.4712471010317529,-1.4738580847633107,0.48053143178254204,-0.5943776245328621,-0.36813684662695895,0.25246550980502996,-0.22109500348849823,-0.7343498075225147,0.040765401495817914,0.4868401446289987,-1.6315412849435666,0.8846813128964404,-1.508254265825219,0.5179665397031903,0.45687754178570245,1.3460977550686841,2.291508937138823,-0.33010816430327916,0.5827531084069759,1.7957685523793783,1.1011231314519354,1.3094951927067466,-0.580827494715501,-0.6141477736090915,-1.2372938887029137,-2.4774986217617445,-0.31537688839829564,-1.4731431442646865,-0.5955561451885659,0.9294938537256783,-0.1593847101499304,1.4058247366239844,-0.6424365484207928,-0.09321024766909088,0.09068548248067486,-0.23434446307375284,-1.8800416957198032,-1.3951633424994125,-0.931086150115819,-0.9200685946011309,-2.0103374902122164,-2.322376995818889,-0.24849941261520717,1.1954977453139088,0.7227579078048152,1.4728255702643194,1.7220104836198595,1.2144887537761901,0.8057172841178795,0.32294424303978636,1.7926637106831835,0.6580856243414641,-0.002639947767447605,0.8326255452392369,-0.8513023737115216,1.3303108996167656,0.6143902926123508,1.1927064515629042,1.598606517369149,-0.5338487686504504,0.6658984565256011,-0.20347039619502094,0.23082088740879664,-1.5760553212360402,-1.8442663509725135,-2.429743307591697,-1.2848174791653721,-2.934561965262017,0.04520897302729178,-2.015030804361363,-1.7208730428919579,-0.6594191169516741,1.3329239228206218,0.5462566375649394,-0.3530267801023408,0.3915009494027612,1.3270732033423698,0.16955606866662673,1.215496350441919,-0.3137844114495369,1.5061745203537462,-1.0926422472757091,0.5100268955891958,-0.2841403791664205,0.17522710475520387,0.2982364921725546,0.3443209048373056,-0.26207679308819787,-1.6553364067167058,-2.0628011166326425,0.012708538731434066,-2.494682875497507,-1.7876525062464304,-1.9641987925977595,-1.9030558485933917,0.9976412741009533,-2.224086279186909,-0.4937314269600587,-2.2498214826036427,0.3405940727268685,0.5713970241053431,0.7700327302588005,-1.6981906990712858,-1.1252674383387622,0.333795014995586,-0.841169737135806,-0.3414032829814281,-0.4908521934563895,0.48451564774329514,-1.3762726784895378,1.2437930585144412,-1.3863934714278252,0.7880395019531393,1.5263155820140786,-0.8620254400208489,-1.0263648871860724,0.10157458137820714,-1.202316954978795,-0.9167987336361991,-1.0816563242444117,-1.6332753220207366,-0.2478491798284631,-0.3505260448998764,-1.1492870838216092,-0.5575772251405574,0.1738779412015901,-1.3736335201992416,0.02717973793518448,-1.305548530872704,-0.06103231131421797,-0.32117639549831933,0.23986442047804069,0.3577658805021947,0.22425213554139323,-0.5611383169185935,-1.5180649818105767,0.9604693595367476,0.4395704858689529,1.6264910169766187,1.5599062954106664,0.8122010303730022,0.49120558632739797,1.244385352272174,0.04823635079685622,1.3508801626229796,1.1558333366136841,-1.9716166768654533,-0.5149057276409865,-1.0818690523740435,-0.5864036764431012,0.9282257692321091,-1.2392134350237392,-0.04700146742952926,-0.23002934654765309,-0.9503446728520712,-0.741207845493726,0.5314166821108303,-0.2441924390810277,0.8114610491790303,-0.3512384195334661,-0.8114398158952758,0.34603347296143505,0.7210527236096754,-0.7684148671026959,0.8366524792705338,-1.332713710995941,0.4874894129997741,1.307566431000965,0.052505102128202634,-0.8772012628891243,0.5439550934824051,0.9337560308157038,-0.6039599431814745,0.5997452119828546,1.589225201694495,0.563535422393385,1.0035975578187937,-1.2426267762148906,0.16799007013533113,0.5433404538308583,0.1958176358393186,-0.24630313838853357,0.06248635118065976,-1.601406068609994,-0.042345235879838475,-1.0785548556008022,-1.209026465141916,0.6947372312786365,0.43975447841085125,-0.08402179854744965,1.035479708250726,-0.5454221991934869,1.2007606964300128,1.1997886220326441,-1.2714587613861272,1.1790288857983162,-0.5319209899281951,-1.3508824413541183,-0.910995234380172,0.27427365632431494,1.0985093652435225,-1.0370710363988063,1.493744469798025,0.15808401520921508,1.3766974186347438,0.5584588096637153,-0.4281531962093304,0.11382212981594811,-1.5760032777202924,0.3217655564774403,-1.373788651143764,0.42623960381523995,-0.34156332872298384,0.602904400811821,-0.20077859446931273,1.2608431418504265,-0.37071800407825484,0.5294894193818792,-1.0723442470594502,0.7939667625116013,-0.177892336350856,0.8891139409566371,1.5858892591960299,1.5412870463659565,1.5421585754839275,-0.017543859649122806,1.035343719976003,-0.9725344856252436,-1.1744873486161267,0.3457746436678793,-0.5871315674475491,0.19807907884228212,-0.5302978922629491,0.07995702514208043,0.007387518933820421,1.2955985945481745,-1.5409145201007726,0.8140577859347109,-1.6642451717301852,-0.6307792044605179,-0.7694054463646406,0.021986048269553377,0.6495888307990798,0.8896211730289418,-0.06483816139935071,0.06269043712885826,0.728837427828026,-0.7866285429302275,0.613498255406162,-1.0890827397147433,0.3364091152096188,0.7954364706800058,-0.8561404958192937,-1.2630631349338135,-0.6313197079952368,-0.2595501175746771,1.2660974496448654,-0.2658065591803625,0.7351745819185552,0.7882644343063364,0.36717373179722346,-1.1693724598485256,0.7058977922976178,-0.9276144407136451,1.71723465844092,-0.9744329207292409,-0.5595553205829561,-0.12268509735297574,0.4640115090642337,0.20723745114811784,-0.15130118385762886,-0.6234251984881186,0.8751602166277466,0.39209809041853055,1.6233746818103922,1.2163074783954877,1.0668066575409756,1.290497852244711,1.7885737353505362,1.6987585014443725,0.8095263847115991,1.1578942361854563,0.4740549844005829,0.7197789697076122,0.4655200161185847,-0.8204145960403117,0.7055602907613703,-0.5002349305104099,0.8830099778038635,-0.06075172085752029,1.2734568461386937,-0.46288381219537816,-0.36916852624942903,1.506882205835674,-1.1276447594708745,-0.2127814672499353,-0.4541874684832984,-0.4891272843566452,1.2830954136046755,-0.05085920757406782,-0.14722357815947948,0.8133014451356485,-0.8410710765860046,-0.6336208133968971,0.9274086483549322,1.0542627714357322,-1.3262769517801882,0.29662249256383355,-0.3154868607017668,-1.2280701754385965,0.5265272242368148,-1.076446211201541,1.3093648680239696,1.4665060200427424,-0.6435986115584118,1.0125883722287092,0.6829310274126956,-1.3546192083951805,0.850369105161766,0.3823543791170673,-0.12408565616323834,0.7187382831860466,-0.41979140596201225,-1.3461852833464834,-0.06342315454327233,0.5506364033163622,-1.4134054993000373,0.2888268233589638,0.23433899417508305,0.8182703305206004,2.014211774744372,0.6340038647310461,0.8969338138666104,1.2982992763211991,-0.06612838570804432,-0.39692726899122754,-1.122807725904855,-0.26315876233046337,0.7896917852252533,0.4931959970527121,-0.44238301026284543,1.1902429947500885,0.9339746590868961,-0.3434623071526606,0.3547970790440258,0.8137354147674875,-0.5766117869783057,0.3342840354168153,-0.11579391628723738,-1.2153457332627537,0.8646706316272061,-0.6239223727293879,-1.098306033698835,-0.018320586255687228,0.656583876754967,0.6022282640241351,-0.49752322918890046,-1.1040829439430258,-0.6286028759566572,0.12942284570635318,1.6632960858194827,1.1465609169707243,-0.6034106038918272,0.07887905279560432,-0.7719134926648236,-0.1228078580251801,-0.26317149667590445,-1.6662244541212874,1.1991063443180026,-0.172459582392977,1.878598177819028,-0.29569649718412133,-0.6131518054541204,0.47943566365844703,-0.34662978098266334,0.2863813357312968,0.5802629480265572,0.6405701032604039,-0.44393261256409844,-0.5052619810745727,1.3202160153675013,-1.1865589317368035,-0.7608301662089226,-0.8232994337348769,1.6017093540562914,-0.41474641692015707,-0.8743307202915755,0.6058353018818493,-1.0644258166998635,-0.9647292678719509,-1.0219367687887904,0.7254670455967045,0.31581962487789667,-0.6666666666666666,-0.5263157894736842,1.1045010191146312,-1.1147655208580796,0.14043220157857797,-0.14500735892220937,0.4674285924849983,1.6193946673035085,0.6906424305790066,0.9842292239115635,-0.44970806143095043,-0.4217226563910178,-0.39333463394198726,1.612505295011413,-1.420033215778921,0.6942713138465667,0.10275580718507922,0.2435592103535354,-0.2770864022360868,-0.01717304307416616,-1.392715543347925,-0.44745949756213715,-1.2051892433423526,0.5814056025349624,-0.8652473479272453,0.8932932214280881,-0.45173032013266295,-0.8947368421052632,1.280701754385965,1.6140350877192982,-1.2920306884165802,-0.33561878991862903,-1.158879571507688,-0.10070829530926308,-0.4982615142431063,0.22644154941603392,-0.8766540676935388,0.7886374702633984,-0.46304441308395694,-0.8339000100312667,1.5273094129059426,0.7230575170353976,0.1526889634670866,-1.4388484785084816,0.6790624712364014,-0.516348734880554,-1.6896967101629332,0.2441645460509428,-1.9906193786536952,1.176948257019685,-1.6251179251003625,1.3873927363724083,-0.7329556720846739,-1.3667408181100111,-0.5786117997737968,0.017543859649122806,1.263157894736842,0.24561403508771928,0.05299612235229288,1.2331504150027044,0.5906864684181878,0.8333030804497457,1.3692997897834345,0.08184266234002444,0.15446424589755756,-1.2172494909192402,1.9231328144877478,-0.4589424905744915,-0.7857446517653178,1.4817036113852555,0.2214423929116764,-0.20980250655210606,0.6826186191668402,-1.0192471513014036,-1.5506970952259982,-0.9041580817377612,-0.7195283205118962,-1.0935956177209687,-0.2387644689344402,-0.8019601923666485,0.7309596537156985,0.5614392256133284,1.1754812932504877,-0.17543859649122806,-1.5789473684210527,-1.5087719298245614,-0.9824561403508771,-0.035545700692009664,-0.2659787301786883,1.1979695401244712,-1.768606812057116,0.957825895817399,1.2638289421418913,0.1772921400731957,-0.20760354382075702,0.5879237244037611,-1.4221452388968123,0.08008833678928165,0.24038693046861825,0.6637792537424934,0.029253968833774333,-1.875397366703577,0.35985435508933045,-1.1527115840454376,1.139686400471348,-0.4157987111064186,-0.13308177473185306,0.2459670489063416,-0.5436533698178974,-1.0000441221708805,-0.21052631578947367,-0.6666666666666666,1.3157894736842106,-1.2280701754385965,-1.631578947368421,-0.8771929824561403,0.5657636375970977,0.9582407277366796,-1.5348137946565532,1.1043470308713506,-1.5630178991221246,0.33099213688884643,1.086952865586697,0.6456984042365627,0.10688529815197911,-0.743433128702324,1.162468169378882,-1.453387442653511,-0.399137275183018,0.7562018576726978,-1.4701455709957423,-0.14861805212172013,-1.6810616208325615,-1.5223531009547788,1.0526000976502596,0.3847491335871808,-0.49122807017543857,-1.280701754385965,0.631578947368421,-0.6842105263157895],[-0.5263157894736842,0.9298245614035088,1.5789473684210527,-1.631578947368421,0.9298245614035088,0.45614035087719296,0.8421052631578947,-0.9122807017543859,-0.07017543859649122,-0.8421052631578947,-0.9649122807017544,-1.087719298245614,-0.17545542532093786,0.7894622254159691,0.12283527235629417,0.8245625807926233,-1.0,0.15789473684210525,-1.7017543859649122,0.15789473684210525,-1.0526315789473684,1.1754385964912282,-1.6666666666666667,0.21052631578947367,0.07017543859649122,-1.1228070175438596,-1.3859649122807018,0.19298245614035087,-0.7368421052631579,-0.12280701754385964,1.4736842105263157,0.9649122807017544,1.4210395126413569,0.3508368749893381,-1.6385029521228918,0.0692755781339804,-1.2334965164788636,-1.1078088839757738,1.540551581625036,-0.30469159951552477,1.3368179922419794,1.5837517934570586,0.9684118076204912,0.0373352076030807,-0.5442683895207395,1.271332352619881,-1.2762145349799123,0.025612637826507065,-1.7679011828748097,0.6773836739401783,-1.2822797628313987,-0.508894268186361,-0.19298245614035087,0.5087719298245614,1.3508771929824561,-0.22807017543859648,-0.6491228070175439,1.6140350877192982,-1.6315942532701495,1.629480430776482,1.7007799667998404,-0.4562104609047205,0.20252584746930724,-0.007667137246878626,0.8883021473302172,0.8255097726157026,0.37449181350991984,0.0807798248973177,-1.2747247066805156,-0.21288105024846857,0.2475771376726987,-0.9229420494321473,1.1208039401476535,0.8704215539070196,-0.25873920367890263,-1.0783510490070936,0.12498776331445755,-0.10173764624122662,0.7141874771828439,0.8585905665966725,0.7749513627856136,1.260098917843165,-0.2982456140350877,-1.2982456140350878,1.280701754385965,1.631578947368421,-1.5087934811918036,-1.1288935465914502,-0.1833419690857963,-1.2660183097547493,-1.3415498510320885,0.6344141804450438,-0.6595731879605506,1.4787610676575107,-1.659496677390935,0.037527796037950915,0.6101571937873885,-0.24147894940392733,-1.7437634994376412,-1.1057888400459275,-2.0961213607242084,-0.42500172222908755,-1.1287113440553405,0.48933565994758527,0.6392556364858405,-0.6311771502563195,0.3730474887738151,0.7879572302717693,1.483686763430517,1.3836010522612185,-0.19299006132909993,0.5789473684210527,0.12280701754385964,0.15789461318346876,-1.4035600239488113,-0.7543970900565464,-0.48875970430110544,-0.19650713447353557,-0.5612090099670362,0.49364411526570534,-0.8391571891325368,-0.827511255923351,1.0416538642377786,0.6542031314526039,-0.5020618290273119,-0.26220542747906966,1.0336027244456558,-0.24076512037538322,0.5090201694168113,0.8299466713347,1.064293209517549,-0.5367754184809859,-1.6439753021190266,-0.34442740212373063,0.10571213599774837,-0.35307928802089883,1.0899544526241947,-0.40271666247000915,-0.3913102852453903,-0.29824560035176206,1.4736842105263157,0.15789473684210525,0.3339261600168388,1.660141519611015,-0.14682371507705735,0.2225245221747258,-1.2657548178101705,-1.5616361319773477,0.8500726844566459,-0.5898449405113789,0.31421723301922383,-0.7949063014306473,0.1695177511959433,0.643296537289496,-1.2826949274218111,-0.9293815914801008,-1.094481331416052,0.37243626322540024,0.7982513377781505,-1.2228473179324273,0.8746039506164399,1.8025958096604586,-0.6278573820019955,0.4429539553835897,1.1020062380475373,-0.13791777938634237,0.939969572091117,-0.5428224588495735,1.263157894736842,-0.7368618238698867,-1.4218504716584854,0.7997826468042901,1.6288584729544349,1.595295028984469,0.41155209408771776,-0.8054000342708818,-0.11157214909159904,-0.6026106250111279,0.367486645105214,0.4652775877627908,0.05209383433333238,-1.6234523326577595,0.22837847259580102,0.6958527733202379,-1.1805329296931795,0.23314264420031966,-0.9685298690555992,1.510818427026129,0.5566556399902859,0.7201451085589047,-0.1281722451751181,2.3472161981710826,-0.2159474168720884,0.9262733424180571,1.337194107520667,-0.06710802603467203,-0.5964892751963574,-1.6856119982384419,-1.3962780393340706,-0.7129544480902057,-1.0297531394224382,-0.4185365453733622,0.9229821949585006,1.137710362735603,0.1924298089304956,0.6602693209889876,-0.6333011625592173,0.7220688502838811,-0.0608914500248804,-0.5251385901235641,0.8825472704698413,0.9611695884603453,-1.042140323387051,-1.012495448979689,2.0848480105908815,-0.055295628338306084,-0.2870033072174178,1.1447517620668721,2.711268970685504,0.8283748820025288,-0.4569119290562482,0.3174116902646854,0.7068639405774544,1.6547280937586089,-1.578866974965558,-0.33298507113129816,1.5451825256819107,-0.6347104105730224,0.8111472244677408,0.449680163584355,-0.1889718929925862,1.3734110103758768,0.5157619554363704,1.5214878055841472,-0.9056217604951574,1.6209830620901922,-0.49527015416379777,-1.427433843037819,-0.7907836843298139,-0.5223875575210648,0.3975138966317289,-0.7525900836846501,-0.2139374988595893,0.9672880358398163,-0.3025064216595126,-0.05199742859064508,0.02506559645676113,1.0959029774530682,1.1563604005252672,0.09917738289347514,1.663232449686835,-0.06845928998924113,-0.7716829530469684,1.491663496872426,-0.6460257604153903,0.7030524754909039,1.5016436235798667,1.7251944823774668,0.5767387296660037,-0.5180626630734666,0.3831856469760173,0.36085703139560854,0.582914512523873,-0.9050404202256719,0.767769383962167,-0.0012034230170966426,0.11497510505162764,-2.1377123798253796,1.1019966296352086,1.951200974968321,0.7965006794283443,0.9392507079482612,1.9419574219682976,1.7396223807423123,0.17561375168079277,-0.2042822094596642,1.5294436888324991,1.5117332172168219,1.4189950675164433,0.7373598263387268,0.9827426173770112,1.1238587521440935,0.5634527188439612,-1.6756622217376802,-1.3643543654550285,-0.7691024836996604,-0.02875826205036217,1.8589453163300396,-0.41898367090074895,1.8247537014676487,1.9595312321051366,1.5683458695787449,0.3549752613663101,-1.2862894261157616,-1.0227163690563086,-1.196532784403082,0.6430220898757832,-0.056153786039595435,1.3848439436164124,-0.17548396844174088,-1.5772807405689835,-0.49159042934899483,0.793721139278805,-1.0887136957445411,0.7279112924295833,-0.6590343596026869,-0.7023324746755774,1.5089767137238417,1.2106279763070749,-1.3874269285780674,-0.8407231883098645,-0.6840582282023426,0.3121096283198818,0.8741854373618093,-0.001567440397762813,0.7742017948846242,-0.3281328609855145,1.5951432416031193,-1.265186927505657,-0.41148414634341185,0.9664199995426331,-1.6631529284093673,-1.2117515527925051,-0.762929010055916,2.136010911764882,1.7925363957222047,1.451162999961582,0.28231078826798095,0.711854906408851,0.8575048491663304,-1.6078248380874873,-0.00018807287246366288,0.7867696162056922,-0.08482102403830002,1.6472395077586814,-1.0875216695389358,0.6141111877122127,0.9572665309629415,1.5783091263420945,-1.6164590689339433,0.5571857837127814,1.0809141934358146,-1.1997537116138175,0.7932783483903123,-0.11712309518425443,-0.19959039288928546,-0.6369517094825917,0.30295170578004516,-1.3571285573959873,-0.7819104058019914,-0.413907671524073,1.7619740614755741,-0.7179234401215902,-0.3309395571561776,0.2553744377179369,-0.006212647291794797,-0.8410196217487155,-0.9964325056995876,-2.1546388832080163,0.15484750699553088,-0.40728833209180965,-0.6476938500055757,-1.1458756161399652,-1.1687409961308386,0.07015752757250139,-0.24262750475197395,-0.7046223273134082,0.23809247935265757,1.5747954552338108,1.0614012628328175,-1.8365190919381027,0.754665335147923,-1.3950560072507763,-0.9410519725789355,-0.1542651366597656,-1.6447984314378832,0.01595024628134754,1.242823038256378,0.6671854782096794,0.06987163562933155,0.5978589801424999,0.011264913834851023,0.6990791087498516,-0.5232960023863985,1.743124583661553,-1.971562287107568,-0.7240304007237855,-1.552800426341692,-1.8660185917364933,-1.5584717123734242,-1.0192453466809577,-0.4219595861826493,1.1410304776417228,0.21169577252996868,-0.7738836021805005,0.4405369610491694,-1.2810198467681122,0.14920913022733642,-2.075573892341748,0.26241608399116256,0.27541624630037154,0.3376783793689774,-0.4284255004052407,0.9156521169530837,0.8025020749222204,0.8742653599175702,-0.819413125731432,0.9274669190369491,1.0574447926791082,-0.6907592004271306,1.2021346481331,0.6484246547005045,0.813358692432421,-0.1561497456053483,0.24338669080344838,-1.0651716602397505,-1.8504359567789719,-0.8985088742122619,-1.2213880181511587,1.5105070663373334,-1.1752158750661883,0.789462564301371,-0.0974269763760236,1.5784902028278456,0.09550109327566539,-1.8214696442151503,1.268400420410503,-1.3640312224880728,-0.5546502397994599,-1.344745508194216,0.7056308900194249,-1.0911971071936608,2.2026431174635146,-0.469856086393444,0.20308774610594024,0.9046184404556248,0.5851214974532957,0.6981971679824173,0.7358789469603388,0.43475765249855275,0.7235498450723868,-2.0571780552383663,-1.8978788092199088,0.15925231108716412,-1.4917654629072676,-1.4035043553038486,1.1727152383401087,-0.9297212921034681,0.3157906015945094,1.6314752335651066,-0.03240282374454808,-0.5769307567967952,-0.43144576815271923,-0.14573178497677525,1.0363506405609535,-0.21306145947552813,1.4327224928147695,0.597748216168036,-1.781180368574632,1.4055492548510207,1.2644788308128685,1.6831829287884439,1.6314004588079833,0.815123143109757,1.9170381236652694,0.27955838667565186,-0.6315937080339753,-0.1262115149657455,-1.0708160391631356,-1.967318030221667,1.0309731566424667,-0.9028334586981945,1.4380177743110865,1.3941267429291033,-0.25574790845766504,0.24801355762994018,0.2631578947368421,1.2278303211843415,-1.2442343776072706,0.4231753379607322,-0.335135069658949,-1.1204703190516725,-0.535882481846762,-1.1335832989335968,-0.8358172353436629,-0.7604527904422488,-1.7192468717667333,1.450795535130998,-0.8214793987227411,0.47763202738114263,1.2836817181634481,0.2541531949034394,-0.34240799927613835,-0.2188721734173265,0.48258494071105507,-1.5805650854942503,-1.72805479073454,0.9624056009949167,-0.8974811391700107,-0.1254539896428367,-0.09324963214979015,1.235399327429273,1.538550726894021,0.3017251013714813,0.9346215362858927,-1.2633182956404438,1.4464758111853078,-1.0945768557915783,0.8477447259655673,1.2335392234380453,0.2521924102779468,-0.0029418742695979357,-1.4279948432401801,0.8171397755112509,-0.4282186725736131,-0.8903793629799354,-0.669898802105857,-0.5274856311569363,0.16067676614302046,0.38868044526046497,1.5450023852092007,1.4250729056955302,0.8385663006816687,-0.9759167715725434,-0.19523580756507342,0.8011244109417869,0.40041578396154487,0.15450192034390764,1.6860437232779009,-1.3080881279695877,-1.4308952892920577,0.7726621886047284,-1.5087721417796651,-0.04071301133987822,0.19521501858828305,-1.6601006291510472,-0.33753920573980617,-0.23938672505923855,1.3607212660058825,1.1738381184446842,0.49468022840877574,-0.30792848340644086,-1.8023135789631757,-2.120518720430418,-0.5383169152032252,0.18435783370937403,-1.1523932357275648,-0.3204305969425279,-1.3549697438008639,0.7838012981954625,0.22417548931162218,0.7003608909230845,1.068686209928256,-0.6874126632876412,-0.3870606744391276,-0.8195130283048425,0.6076102917970438,0.6324256532049023,0.6061696256393376,-1.0527960302521049,1.105263157894737,0.6494290279117053,0.30475779839796024,1.1614124787700995,0.7518747712244763,1.8805012299535098,0.3707782016045744,1.2453352610004667,0.7170830284839516,0.3635960366960185,-0.7990681430557982,-0.9921827702593289,0.2585217173392716,-1.0285896854393601,0.28514169651635857,-1.989400945534561,-0.3455425602325106,-2.1280443232226833,0.12927350896851897,-2.132928856816846,-0.7210424064008649,0.9844418415395558,-0.807335693031508,-0.974233829690577,-0.41595048041397753,-0.018281164845234937,-0.3730542272136182,1.4911885721390419,1.6140343973820206,-1.0618910428792219,-0.7056836296579905,0.277852959154694,-0.06310797859103673,1.6616939774393236,-1.057904762187766,-0.10397955499041288,-0.93508938036851,1.2858047337402236,0.44847687810878195,-0.9344949668242947,-0.7200699778987545,-2.0496565816651873,-1.027413476185406,-0.8273626699573627,0.8839522732974561,-1.3999249273457453,0.48527454080265975,1.4308148967161611,-1.0923408442109297,1.2943110519977852,-0.8331342653828328,1.161014285912935,1.6292252255524806,-0.35884608746044017,1.1414560541304657,0.9297804491855132,1.4912274014112,-0.5789930599211215,1.267399157196061,-1.4775764815550645,-0.43325059662795495,-1.4012423865709493,-0.48700587573137755,1.5251010005137007,0.9299617014392932,-0.2929959458043646,1.509716778416436,-1.055054778980045,1.091743332217995,0.23822116172764207,-0.0786337674098464,0.6899109021395381,-1.980843990283777,1.2815548067081355,0.933076812415304,-0.855958385387503,0.3172271555966716,-0.35482145851293906,-0.08406975289227811,1.2756118393430287,0.6669443834578246,-1.3267426909181932,-0.7923399254274821,0.01746242170820778,-0.9649122807017544,-0.05263157894736842,-0.8456248059953188,-1.4766580595083785,-0.677014245199798,-0.7525917177163759,-0.9985481993631867,0.8354809441831775,1.8509925487524264,0.4276422692358572,0.6017639719698478,-1.8092938710681632,1.4216008673726648,-0.0953979263682884,0.8823938003398606,1.0582748232491515,0.19874279278634074,0.13066049798908205,0.5444203193592023,-0.49007377265407465,0.03157499403742394,0.24025643909025726,-0.2522754026758729,-0.3705068929513518,-0.04400724722808301,-1.0693212217852206,-0.7260720332505828,0.5964912280701754,-0.9122807017543859,-1.368421052631579,1.470974990456799,-0.5531940718144827,1.2059118937230577,-0.9608258971023713,0.3091534295877858,-0.6903164080982308,0.02243598073766548,-1.4568879928504699,0.09910502731036938,1.0407197401226338,-1.1497555883774444,1.502673585022094,-1.5063366727845704,0.027816904051052603,1.1240823466204728,0.6390934879625894,-0.3062516930215739,0.4815774332225672,0.22403305387462083,1.4265759222977563,-0.5922293829500824,-0.4797696251930481,-1.1397977883964878,-0.946993227549783,0.33323800049509184,-0.7192982456140351,1.105263157894737,-0.9122807017543859,1.4559827880429528,0.9116062158996878,0.7190883704104184,-0.7651915022673035,-0.4876710462589371,-0.6268646760085128,1.3946508346744353,1.5412248622913713,1.5753860572030574,-0.3164957787035424,1.771946870459555,-1.194053893663195,1.4474388567995549,1.6789519949270977,1.5272006716895095,-1.3357270319969163,-0.02317366814355135,0.7907853096144106,-1.0187198821998724,-0.6027318518111131,0.16745178791859455,-0.8707522851145765,-1.2279982880898321,-1.2982457853763845,-0.9122813409440332,-0.5087719298245614,-0.7543859649122807,1.0350877192982457,-0.47368421052631576,0.8421081082910914,1.6151144709575456,-0.7465563724128136,-0.8676134003659428,-0.555504664555999,1.044342779184833,1.6938369512399545,1.2943868060848853,1.2713762845480985,1.8778307775992258,-0.767430137607463,-0.43733361711531676,-0.5361476479871223,-1.491383292461865,-0.6705700754569901,1.2627436881357623,0.3101781091466636,-0.6813877269774916,-1.238878294326147,1.2483856950860273,1.2851725144402433,-1.2810433504070087,1.6842159178117826,-1.6140350877192982,-1.543859649122807,1.0,-0.8947368421052632,0.05263157894736842,-0.40350877192982454,-0.9298152608412992,-1.3858975653324324,-0.3682859741702024,0.08794748543733877,0.14490050037977353,0.8327366888431083,0.6341947753509919,-1.3312782663107978,1.025784792198919,0.2430794932213759,-1.0903212166077105,1.3511338160609045,-0.13345366162863895,-1.6143661620219907,0.21404329124207805,-0.3521650902840449,1.0728069839789056,-0.5933837652762965,-0.8951544836891647,0.9867213024163884,1.4736842105263157,0.3333333333333333,0.17543859649122806,-1.6842105263157894],[1.736842105263158,1.5087719298245614,-1.368421052631579,-1.2105263157894737,0.24561403508771928,0.45614035087719296,1.263157894736842,-0.07017543859649122,0.3508771929824561,-1.1403508771929824,-0.6491228070175439,0.8771929824561403,-0.3509336585765787,-1.0889387753979594,1.0864998413628102,-0.07022624929994137,0.7368421052631579,1.5964912280701755,-0.08771929824561403,-1.2982456140350878,1.2982456140350878,0.7017543859649122,-0.3333333333333333,-1.4736842105263157,-0.7368421052631579,0.15789473684210525,-1.719298245614035,-1.368421052631579,-0.8421052631578947,-0.10526315789473684,1.2456140350877194,1.5614035087719298,-0.9999840399958492,-1.0525846905060388,-0.6840482231053833,-0.7003544022653277,0.950243560946585,-0.6272294875131359,-0.8045136450991789,-0.6159528947884261,1.4758734181410167,-0.9716304998711264,-1.2936332533785082,0.29761354443383986,0.5904573576575703,1.37239428582629,0.7400149705119939,-0.76809646473715,0.6702712255480552,0.5798011333563359,-1.666611148233453,-0.3157964656932333,-0.3333333333333333,-0.03508771929824561,1.4385964912280702,0.05263157894736842,1.7017543859649122,-0.7543859649122807,-0.47368410955721263,0.22742300417261188,0.38579995745675355,-1.298237419063553,1.7198374984270255,-0.5685917580517397,-0.8385949663778134,1.083447275821107,0.059987174605496005,0.06888664540994995,1.2563286781780436,-0.0212636623889323,-1.327080141884801,0.697835327581139,1.4647558993501497,-0.5687616954787628,1.4865481635211242,0.06631085734547223,1.7157553748126928,0.29664013353925966,-0.8584347528812301,0.8482323146142302,-0.8108793297569895,-1.1924120364358541,-1.1578947368421053,-0.22807017543859648,-0.05263157894736842,0.0,1.1590719372510396,-0.9661894608029746,-1.1046915828255282,-0.5111676150798256,-0.252366097623251,0.3726125708530005,-0.5315996667345645,0.623310611705552,-1.7540097006590898,1.014145587205309,0.23735317726615085,-1.409404877887906,0.5217494455879366,-1.097902236177895,0.05692688807566326,1.4626416527048467,-0.5190885362585094,0.9432967558084268,1.549431074303459,0.6237797589445241,-0.2058452322221497,1.7434972278215437,-0.8538962434728377,-1.628839351412509,-1.1747775474169202,-0.7368421052631579,0.45614035087719296,-1.140342823893597,-0.11848189602287389,-0.1886768429183176,-1.3965126330112807,1.6866173987712172,-1.3014386991906395,-0.6953993957763842,1.2162246322361805,-0.2651892841530091,-0.7549467620222865,0.26783407961440636,-0.159386462243688,-0.11362272870062586,0.4207671760953691,0.6198211929552824,-1.208328469287347,0.946807748712654,-0.554168928123478,0.7342999941148369,0.7347678430587387,-0.9528566166218554,-1.2026686960977813,-0.21920723988455573,0.12577926581789498,-1.4531383328346181,1.0403825922891765,-0.4035436113317882,-0.38596491228070173,-1.4385964912280702,-1.6306712682917297,-0.1373350975947183,-0.37704940071004656,1.5670736778465364,-1.1069204907246373,-1.128778334966426,1.0743702245778477,0.15865398189903618,0.12653512469485648,-1.048740788939944,-1.0223617383205965,-1.4917611297025142,0.5698404358180917,-2.1283542097324264,0.4215021863940189,-1.500840426047081,0.3730741626086922,-0.10248257127514679,0.9798908670503546,1.1537629695536207,0.46324461862614175,-1.5279560278419755,1.626295483694716,-0.4748712415624061,1.366205138309523,1.1751256210931629,-0.05263157894736842,-1.1052720554443105,-0.2939140619824172,1.333683611683391,-0.11696785679972936,0.4826647548380409,0.8733498473463407,-1.0712426204039167,-0.28259197282231424,0.2606730882524135,0.34478164591605837,-0.7704925943122718,0.8710023029145074,-0.8284306129913597,-2.0796343970935585,1.1826128437662484,-0.580129368566576,-1.2022623765123515,0.2779689207046879,-1.620440988201959,-1.593474116610052,-0.5627397673522665,-0.3009257964270234,0.44421331677364645,0.42910936521819565,-1.110118093131038,0.48154554924554266,-0.16036447013845098,-0.8771932806839399,-0.2986277683987924,-0.24262519314129782,1.2802024214800352,-0.9181274923203064,0.21124899392083507,-1.0571028152922488,0.13297585814467855,-0.24953756646955833,-0.6597427799759549,0.56257621861951,-0.9121493213587609,0.1297541514210445,-0.23056071644413706,0.4970097992942805,0.023126391685077633,-1.244737838890128,0.13586835762127175,-0.1755947158010427,-0.37300943622562555,1.4335277502660073,-0.34061803333636015,-1.485892740736959,-0.1921798489430351,-0.4909018218170154,-0.9560779372964676,0.1658335854033299,-0.6550305400552109,1.157585541139016,0.42297607697970063,-1.3097057193802994,0.45789445890159675,0.7820926895988864,-0.10636297210792792,1.567602999529798,-0.7281561308802528,-0.7771693933311737,-0.7912947222152883,0.10211468204451316,-0.17266151007760192,-0.7018050932183887,1.0268593751939188,-0.7143868011052976,0.5357187518330423,0.20417422797203505,0.2562073357323092,0.44109172213457404,-1.3291177341887748,-1.0219494581960402,-0.7037745615242215,-1.36692378476384,-0.5945315584861952,0.061561095356542056,0.4584032355615554,-0.5178523845781321,-0.12950026902156891,1.3859648045970485,0.4745390366997722,-0.7285045040729007,0.5109311670986234,1.3477619244436037,0.752315501445415,-1.3536203604813264,0.3739322224574252,-0.3892711476076768,-0.6636999714040317,1.5022565154395182,0.5936298366151931,-0.5344151130704874,0.2229666542959788,-1.1725167718965455,0.8986733419789129,-0.11165192156931987,-1.0798057507156138,0.3255009355677136,0.7421734433428872,-0.689109091883289,-0.1700236174899244,0.6992705418718808,-1.156255699707208,-2.360310467337574,-2.2360871939960814,0.40232598869032954,0.4195077528954236,0.47368439581404886,-0.14019059042817988,-0.40232660732461945,1.7910894639037025,-1.1593161004413077,-0.38695748340468433,0.052356466923429,0.7126763295121323,0.32747140948981945,0.4394789453528245,-0.9243900150430107,-0.1953798673553006,0.602928003213584,0.23255114590289463,-0.2835598767680911,0.6273428351776735,-0.007230316979735984,1.4031320944365349,-0.5561772046624739,-0.3304326752617777,1.7382972442861493,-1.0797022096879614,-0.5809997710355748,-2.0402889131801345,-0.12833055656169204,0.7703435648037539,-0.3044191243908625,-0.7123461897004741,0.8245614500626909,0.36853503231286355,0.0326791626782983,1.7581694930604943,-0.6173481537798968,-0.6875145277336152,0.3209782363754114,0.14153793999781208,-1.1810388937702154,-0.5373546024926665,-0.18009776430148663,0.6082675941114183,-0.8549158884443118,-0.21513934177322447,-0.6916291493409139,0.7337349794061391,1.3171485067125226,-0.11123539071681435,0.969821990940927,0.4684417231341096,-0.3645833112229524,1.8231095618128903,0.9427162816753102,-1.0376309663211676,-0.9585295609196809,-1.6414113379932191,-0.10899914478931781,-1.0354778667661566,0.6491227873280963,1.6139094119331803,-0.30479390317014926,-1.2036951746290787,0.6999718759352217,0.06418900364684335,0.9938662723074673,-0.8164484685362027,0.8169543700917368,-0.04426723301705047,-0.17636380749400277,0.39950214965221265,-0.5234660988769109,0.034968127039943585,-1.6132704938233249,1.1136861600396286,1.4100848613960464,1.1004708603306432,1.4903028189012533,1.116471038945631,1.6290296839870289,-1.095448250246022,0.40993821906107214,-0.23856073022828125,-0.7613748376620111,-0.8291939529018402,-1.5980183431351367,1.4221388048571613,-1.0526509157805541,-0.9831698066570004,-1.1141589728725378,-0.3211858028737971,-0.9543361176476861,1.0908813479480197,-0.9037846609819262,-0.3394003754963435,0.18031346577648105,-0.6072242251675449,0.9837987843038211,-1.5885521680004684,-0.7388488931930975,-0.5332469559591769,-0.27969609146317487,0.8114072951608265,1.1147921285352294,0.9920611702127962,-0.31156467471633537,-0.41522162805144086,0.9574040449496701,0.5249527903030132,-0.09075680204613332,0.051216967002365006,-1.7522829469584875,-0.6892107762609921,-1.708576220497458,1.2530474688673565,-1.7548768194837994,-1.4907665930089944,0.7545157325337223,1.5248465865550878,0.6779909707002224,0.2896450791269861,0.23305448053398606,1.6366307047415334,1.27468594250168,-0.20083715871370947,1.1440404234140105,-0.4163658098165633,0.7618745018523342,-0.9659005778450672,-0.850179352748427,1.7570459406082561,-0.3422721405669941,0.8470293034547878,1.5436806488647123,0.9260995449889661,1.6144151818316426,0.2268659812197234,0.9703389769946218,1.4410023305982642,1.5955214089232153,-0.6746886188512838,-0.34169613429943785,1.192323702574668,1.0525014143513662,1.1580248293287498,1.1424760163022623,-1.4613999806261049,1.4551136653642647,-0.7637327114740553,1.0200848286536999,0.4599217440133789,-0.43309754757981206,0.11586398600067602,-1.3822579355072784,1.1331559370043438,-0.17199071223736434,-1.6972760109892442,1.0595951489792588,0.4267370280006839,0.8913672912774858,0.938619587348416,1.7923469085936057,1.8061194427618952,0.9924119161322338,2.213447774129771,0.2438412239905077,1.495060891392261,-0.5320232026805973,-1.105447738708585,-0.20601251519417663,-0.8653758678400324,-0.1050885424814421,-1.1581635036660891,-0.7429348524194346,1.465969770336568,-1.1097671121749786,-0.47333593499913884,-0.7999441396241909,-0.34202334561479936,0.09221263698566194,0.3157927128422388,-0.16526746280756505,0.782709955990979,-0.1575607610163241,-1.2229892141351122,0.40377632565599525,2.2088821099019937,0.31862601664820855,0.9404445752091086,-1.1253862096566525,-0.2547488586424826,-0.11722014200441647,0.4325075628544243,1.0677121964108998,0.8543106192605211,-0.3192668512515064,0.2309989640667503,1.396635777888788,0.41164641500529564,-0.5263157894736842,-1.5788526938444487,-0.43329581118277416,-1.5056707984200908,1.369474315108754,-0.3173654630936407,1.9085163157712521,-0.6576783657298028,1.5449279126977433,-1.1671751138574333,-0.21353880161834327,1.327775185956652,1.073167760383527,-0.7085833949318342,0.188719907143272,0.1167407647715169,0.6370161637215502,0.046506905900301584,0.5762256231976162,0.05606109381174338,0.9741486353179977,-0.7781123803433937,-0.7556832005859926,0.4459543114631904,-2.0235030271499914,0.40259642512934535,-0.15849122947438968,-1.4622367179636646,1.2806724539409624,-1.7017172818289181,1.7503658047036523,1.6447678254206202,-0.4223280816551258,-1.7463052625770865,-1.885071388393266,-1.1165225133160896,-1.0781419559127343,0.37836773116895606,0.7013721801990394,-0.6659626285231898,-0.8385518897559875,0.6075498534035401,-0.12719356387137043,1.0116101630161867,0.19632489715501492,0.2767245440766882,0.36029711214419335,-1.467064533914969,1.2992170813539727,1.4613889370769986,-1.9700831751328003,0.29642994853784693,0.6185111138548907,-0.7815357950189266,1.1100391262500302,0.4023618848141596,-0.1754118890794002,0.017527335660895805,-0.8678241249248478,0.35540776578870475,-0.15105407029288306,-0.4537730950607567,-0.21502551577450638,-1.405447580534649,0.5614054574477102,-1.5264115224036612,-1.2118156572094851,0.4206651454912457,0.5648501111230277,0.177087725205611,-1.3378534296744107,-0.8204008714854389,-0.7030668441872346,-1.645055242133813,1.1719396090022502,0.1632544347392519,-0.7378081921507685,-0.40516839381938907,0.5787971310667026,-0.7415185722355989,-0.22608017597620933,1.5303260774274254,-0.06280134383197401,0.7013645096936256,-0.17543859649122806,0.08771465003693463,0.7473391980635378,-1.6441831376156173,-1.7009620195330253,0.4665674244474239,-2.0007239899761577,-0.08934145701385672,-1.7144488028361546,-0.8333136455916617,-1.8841746112807718,0.19238580541025949,-0.6164955759804275,-1.2527235405573938,1.5237540962706724,0.3843485018435227,-0.28081571551574935,1.1017863481830663,-1.3030586142908673,-0.45383233404125045,-0.4400318418517685,-2.3618694475035555,-2.2092862639469386,-2.1318581618316768,0.2119843862458945,-0.4450366696498356,-0.02569168496082595,-0.7718356401045935,1.473683496722929,1.2101755946128794,0.5379697926597194,1.2356426972825936,0.9667056793735884,-1.9885474453407015,-1.8917502661102026,-0.38053248063310025,-2.523475281344739,0.08646750419556826,0.18228947286844752,-0.4220442832378159,0.5664583803493338,0.8477830995227379,-0.2924842124685726,-0.000747754546061727,0.9635991671539398,-1.38500315191847,-1.0755576063919239,-0.24421439499919634,-2.105228933322259,0.839762361012229,-1.3970227370731942,-0.39623351341081137,-1.0556058103866075,-1.7714675759782605,0.6007036493434317,1.1052061041901502,-1.4385971827251012,1.1227660891528832,1.7048469977749954,0.5401320060340739,-1.0193991105776037,-1.4921602628803252,0.3341064345041401,-1.3084066602881774,-0.07371645411498315,-0.24750175275484762,-1.5560454776760109,-1.8140956463297069,-0.8034392790077607,-1.8847805843084418,-0.22672162940887608,-0.8995990724036504,0.35998364912642394,-2.3247149891675343,-0.33382129746071454,-0.542938931882603,0.5154727421330416,-1.4604222153246642,0.3924343426670892,1.475139000128199,0.29926947828434575,0.2894513639104051,1.6314630502641285,1.1928771262241908,0.15789473684210525,1.3157894736842106,-0.6827593957020758,-1.5056534190397248,0.2517228273486508,-0.9754443197457643,0.40764981395468386,-0.03852422153210993,0.4979697977602746,-0.9789075443975515,1.2564980633195473,-1.653947779563455,-1.5041166956465652,-1.2746410518062359,-1.5782395805195268,-2.0073071402204494,-0.9088326942306058,0.9622756202545657,-1.1263922420362644,-0.7577002098912555,-1.5102864355105414,0.2862818123325416,-0.02601242652247393,-0.7083642819201512,-1.375138587843395,1.046281392574132,0.6146317530188383,-1.6666666666666667,1.456140350877193,0.0,-1.6086457178797666,1.3782500872178707,-0.02147125969288765,-0.44163268794023874,1.6521349890918107,0.19659241406948447,1.420854093187836,-1.3242198967876029,-1.079901665016391,0.5386590243515796,0.26643405261301867,0.2339725316407433,-0.15826070615225696,-1.5332057024878236,0.20127416491239472,-0.014726938317579142,0.250888602725107,0.2369826079831591,-0.943242500270332,-0.7073282416557298,1.5701677287393743,-0.7817372783495011,-0.8753933166624753,0.024425377633801756,-0.003990053834218676,0.03508771929824561,-0.3157894736842105,0.17543859649122806,0.5091512095789482,-0.2064412547653613,0.7840839877208624,1.7321070578627464,-0.6990406197293806,0.5576254268284119,1.5931841740869388,1.2503664071371228,1.1155281450530672,0.787645858250307,0.23498520192539038,1.6202950812341408,-0.6791492438364904,1.3931330833546494,-1.0243497227295106,-0.8206060638972448,2.214344607895067,-0.4181474446776411,1.1743891386967225,-0.22219492540365846,-0.5751929406000256,-0.8799652315902649,-0.6729880903330817,1.5052297806375368,-0.5130062923442494,0.05263157894736842,0.38596491228070173,1.6842105263157894,-0.08771929824561403,1.6842299946249693,1.380919404456478,-0.3392594664263264,-0.5109301322069455,0.30342468897483954,-1.1008496378414583,-0.6988259388416354,1.7718021084151063,-0.7212744357179548,0.11742005932857892,-0.6430719430268091,1.909653418398959,1.751267752160715,-0.33544773237638514,0.21637768895540743,-0.7643160938768973,-0.011222180359268722,0.46948206357027644,-0.2098387661965286,0.9277549602563523,-0.5789893823607664,-0.7719395277842216,-0.4035092399064448,0.6140350877192983,-0.42105263157894735,-1.3508771929824561,0.8421052631578947,-0.22807017543859648,-0.6140350877192983,-0.9648424448691354,-0.5612236773985778,-1.1399092968507305,1.5095196990076918,1.6166337168351654,-0.4478576746967811,1.108579909571337,1.2524160113553553,0.07066398064818703,0.30594856549267313,0.747767632303034,-1.5987597342603719,1.4212686206337086,-0.46944787061643695,1.2689887595752123,0.531833948255642,0.04952886455461468,1.471926301137709,0.03321676151417733,0.0027322517848180814,-1.631578947368421,-0.5614035087719298,-0.9298245614035088,0.3684210526315789],[0.8947368421052632,1.5614035087719298,0.9824561403508771,0.3333333333333333,-0.7017543859649122,1.2105263157894737,-1.4385964912280702,1.631578947368421,-0.8070175438596491,0.21052631578947367,-0.21052631578947367,-0.6842105263157895,-1.2462949961422984,-1.0197217925787085,1.0694110914573327,-1.1930143039378154,-0.24561403508771928,-1.1228070175438596,1.1929824561403508,0.7192982456140351,1.4736842105263157,-1.5263157894736843,-1.0701754385964912,0.3684210526315789,1.368421052631579,-1.631578947368421,0.7368421052631579,1.1403508771929824,0.6666666666666666,1.6140350877192982,-0.17543859649122806,0.017543859649122806,-1.122810074955209,1.2631489147747255,0.45614746941608486,1.2983863161831026,-1.331845316057461,0.14199985093099812,-0.8546733093123089,0.1445362271040096,-0.5414641396784174,1.187106074463626,-0.5594084352777332,1.1509946244941007,0.989309743446884,-0.33636261742459006,-0.842780646071882,1.4308365833872372,0.41980802697566444,-0.7896555981754324,-0.6841253479890511,0.877303172576325,0.9473684210526315,0.3508771929824561,0.6666666666666666,-1.1754385964912282,0.14035087719298245,-0.42105263157894735,-1.7368140850769722,1.3333333529349423,0.5966161356393768,1.5791200380294816,-0.15631111392551159,0.37171287712143125,-0.5285443843417691,1.6309593942786964,-0.8981075980681092,-1.1376435213289307,0.02201665381208433,-1.107798243746155,0.22319770518716245,-1.5550298116311632,-0.28422302831942126,-1.1135970104158341,0.9855822801722336,0.5393019383138166,1.338423519818725,1.2859437735941315,-1.023620096066021,-0.09962929575185146,0.9304595865140503,1.1227951161479148,-0.49122807017543857,1.5614035087719298,-0.5789473684210527,1.6491228070175439,-0.0701028857941574,-1.7194880630712976,-0.4735940811630648,0.6408640346224915,1.1678178862596642,1.3698666564180357,1.244172978925522,0.7049539125474061,-0.6701423592270869,1.3080876022025376,-1.4512060217075378,0.8846268801669687,-0.48990755011420023,-1.1491048903078116,-0.40564589863639566,-0.585145904158201,0.675912766415569,0.8525911401636127,-0.8738750097332105,-0.25885975888065293,1.3724879074938066,0.4586888084533266,0.9422501515446565,-0.387810858041909,-1.7542330722091333,1.3508771929824561,1.719298245614035,0.14033166807648723,1.3682383518631314,-1.1259377470957392,0.7084839880485524,-1.1963381485645348,0.27204457515161673,-0.7237017982762233,-0.6899690167383247,-0.16360313380534033,-1.7450421430461398,0.4754970872107744,-1.7084454011121877,-1.7721379741572776,-0.3197352128190334,-0.7169190006054154,-0.6120561216765253,-0.6946232134437289,0.8117011515663473,-0.99542527838918,1.6789175588242091,-0.25545478846803105,-0.7392687166496118,1.5521729763979948,-1.3350393756540975,0.023781091339967617,0.8344417248980538,-0.33320834930514764,0.17543859649122806,1.105263157894737,-1.2456866669643758,-0.3194253114824946,-1.1398293725084805,0.7460313132220603,-2.0041797377716994,0.6634081480772733,0.6982744195516509,-0.24177038130429837,-1.5536589818045137,-0.48667826071485765,-0.45514951552663396,-0.13433018769948563,-1.113675368539711,-0.4252864962846745,0.990486395894682,0.20108287227182622,-0.3961359994457625,-0.002974601683368957,-0.8857009043527662,-0.1020517508964883,0.08707064055512334,-0.8523282594654459,-0.24658997647957176,1.3548205386000287,0.5119211875712038,-1.5628694262595841,-1.087719298245614,-0.4210574639200043,-0.8094834279322655,-0.8067883454754236,0.6719410478931399,0.8922370546099383,-0.13617809470550934,-0.06896301513984317,-0.7428802573406175,0.3362809383835872,-0.6943368551546999,0.002082718003830412,-1.2859603854521677,-0.99944022826548,-1.494802385098155,-0.7295752838117946,-0.638881837963752,-1.1064284401509372,-0.7025673978628753,-0.6836050299060848,0.954637233960207,-0.9764599422182318,0.905675153425065,2.006375024363378,1.3347131155538705,-0.8550489951895576,-1.456342281855977,0.8393610501325057,0.24564919929481355,-0.33336308251268915,1.0351290650559293,-0.935501668228747,0.9137849259141009,1.0057692840406758,1.1406910620220592,1.078769732533712,-0.9573224381685174,-0.5630119719806066,0.33076139710283975,-0.34319980927579175,-0.6969040493844083,-0.6711668795903026,-2.3657879310795136,-0.984886178378387,-0.6417152830465667,-1.101901841132572,0.45677522134787707,-1.0722446352793855,0.030265428051299316,0.44013367885830473,0.17226488739611767,1.0356586876451028,0.7168318170839804,-0.9616051547378859,-0.197388625342027,-0.15817977050846793,-0.8482108692778456,1.700885389174334,-1.0078075953502996,0.6295035364875722,-1.6588758407718576,0.18463114581026205,-0.4821757791403204,0.34111040558718914,0.8011522947183481,-0.22161288149667463,-0.46514330678298216,-0.21517767554682735,-0.4469924568067594,-1.336607748217395,-1.5834002790007755,-1.7168907836579574,-0.8124486254985365,-1.4644583242515063,-0.30682227170126397,-0.4361062725340677,-0.2358193247713911,-1.0306159639984294,-0.3223603905314815,1.6632148193074494,-0.6183278512591291,-0.30521752305739097,-0.305896533515719,0.08740325390002743,-0.4387272577494302,-0.5514622826986872,1.7434310136552786,-1.1644000194510986,1.0007587309614436,0.22426762366278416,-1.0260649773575201,-0.2965791711398674,0.214027085351384,-0.07709671376196395,-0.7629690796678112,-0.8792137584965903,0.18978510370035132,-0.8086005001056533,-2.4980003494227083,-0.0985834164704255,0.8979032198053348,0.025092773021783667,-0.10197570572941281,0.24337282612943537,-0.07605852466295755,1.0411578969380773,-0.40783599442805973,-0.19178954503210752,0.5887612829433596,0.2641988321569858,-1.6783285035599698,-1.0852923494784137,0.7015819395045332,-0.5682342205768189,-1.030872450812397,-0.6108285076185032,-0.08911378233437309,-0.4363679121934986,-1.0690072178557635,-1.1581884260105613,1.0113465584337615,0.04176593283610429,0.06727162072583069,0.8975801569583775,0.095154766801665,-0.6762237137662906,-1.4898967253242752,-0.8138504928338869,-0.28193715540086256,0.8090878319275024,-0.9802979015616468,-0.20137909354353517,-0.587298611723688,-0.5156948264359544,0.16504944157754517,1.0030315353826318,-1.3441347656605924,0.1489453867969261,0.569863963635232,-0.01547446111653886,0.4383855346965705,0.3556077427324176,1.6156487635702745,0.9045094662564577,-1.3605044740752033,-0.4704856518287711,-0.43522752631461176,-0.2285061150428938,-0.6087007265819742,0.7904288856373243,1.5606748358131566,-0.6442232762411909,1.1793283700739308,-2.520958780058378,-1.6564611722039018,0.0765093451716685,0.3161836246403968,-0.7454574664300029,0.44778657905978697,0.13781132736722335,-1.4698517965956146,-0.003108513505201419,-0.8409162338663109,0.030104196463975216,-1.8990580601582898,1.1019164108850985,-1.002427950182262,-0.3333591466795252,1.4035469948894677,-1.1632487275947907,-0.7103569128719808,-0.6008097757377783,-1.333003878623903,1.2463982389484503,0.8153245707122854,0.10248289898265267,0.1520001984107835,-0.39390928297796635,0.5812821246188026,2.0625595361308964,1.6239680139557913,-1.3726949291772086,-2.3028985085431573,-0.7606902128867576,0.9937543067768048,-1.5787569847030958,-0.36147215388202725,-0.842215775923483,-0.863438237169325,-1.2987403253827334,-0.8688231063535355,-1.0234419585845889,0.9170604809216684,0.5330592941396057,0.36819358534792734,-0.11954129240449449,1.5263158444702587,0.9275278995977735,-0.1062575190961433,-1.4555949359817468,-1.1610076712622892,0.5294585546585666,-0.1257444082711208,1.6553955124356634,0.09315124606568762,1.4610329286952566,0.814367768916038,2.9540297442612955,2.18901805402313,-1.6185435918432933,-0.09347115197078823,-0.9861042885325918,-0.8222330189405199,-0.014602303199291242,-0.5499019859276665,-1.0272227643915277,0.23634430879184304,-0.06441098716021251,1.065632809857074,1.7530289032402664,1.2926258069788785,1.6225211190706403,-1.4616254224031515,-0.02970655068058565,0.8771988744999727,-0.8094437425909332,-0.6491380109175674,0.7223296814905416,-0.09158313683285733,0.8309170387466741,1.1606069201573777,1.357650925490312,-0.06175881867171768,1.656881921777158,1.0750983657647075,1.9391535276510392,0.7346052291235502,-1.0483681815463848,0.30782432374777874,-0.8017023127637758,-0.16043065214168017,0.5284306523029925,-0.7149907656784359,0.4604640559610853,0.6036731989225653,-0.4678734904241086,1.7836427373232766,0.8422964946433292,0.5993847905577604,-0.08586188372420198,0.6546913824816176,0.0529006679335759,-1.6315733693772267,0.12264936878256252,1.348196195920833,-1.6703268816578476,0.28256862514597103,0.3639429360756843,0.2183160472985461,-0.7518712835352738,1.174600361320819,0.7729083266636333,1.5088133363560374,1.8107574753980673,-0.4835453791979843,-0.1563391731229632,-0.0801715218579893,-0.0019609197645335886,0.7177925824220922,-0.7482402314449881,0.5336739371217561,-0.15339123837093604,0.8103177618202034,0.41378712776114174,0.3079589015420982,1.6126597743714022,1.001853341045397,-0.10653297671804182,-1.3207330440469764,-1.7145260322181646,0.5263366394045575,0.877046222804812,-0.3408353173401688,0.9368370405125923,0.4272023694579015,0.2175901160030237,1.2995931589984555,-0.5289745127841916,1.202211663710537,1.08779622891537,1.3490006692946657,0.08331322226806281,-2.029381437141179,-0.3784054703798499,1.7844305840970462,-0.11545318663666092,-0.419680646330413,0.956514828020613,0.8142340461932734,0.42252100051197566,0.6027661308808608,1.5006335133907613,0.6211370702664399,-1.3295906420566657,-0.1406608787237111,0.952082997504706,-0.9255891056731512,-0.6200919948433373,0.8070175438596491,0.5788032723099271,0.12898567554062113,-0.16998924575746985,-0.074058732598734,-0.3264161768834863,0.7656810191112663,0.05391410624876377,1.0616246739427633,-0.273839489380222,1.6648856294419612,0.2089096787916083,-1.762468819126646,0.08092707196322263,0.09687960178551143,1.6060702581594293,0.682647000080031,-0.5454259595516774,0.8855893113869067,-0.8066999481041158,-0.4734607199192481,1.3246362472936022,-0.5373534432921967,1.0633204966785537,1.0574165765763177,-0.42615153908974596,0.7348260964736921,1.4544311464786805,0.9292504355627963,-0.26320608628373365,1.2268170547564692,1.1928307454031974,0.5217732598380026,0.5989479017307118,0.6527298906407456,1.073206993180301,0.7053663655547691,1.1919506397048993,-0.8381551387538094,-0.10505297435761146,-0.3577188434975099,-0.13382778331200357,-0.1790086949048179,-1.1860968901938425,-0.15811980381377036,1.0750331292853044,-0.27529337536947873,0.8634617593624894,0.5757951139171888,-1.0823503260897611,-1.0669939692535304,1.0419072944919636,0.41928379069706784,1.3724025043017858,-0.16932386475720496,0.6659250924372173,-1.1929824545032492,0.0025206301462810986,-0.3307297545954783,-1.8394574211728674,-1.0432543954850348,0.8180394330101298,0.24487513690541532,1.0617346501618707,1.00118166280592,1.0945702202117302,-0.48325387643246126,-0.6189315843485036,-0.19618317537609975,-0.03647046348439452,1.9988866507819918,0.9761921738047188,0.9519018624723685,0.9145779452235432,-0.6191842094060507,-1.0807970367321365,0.52954159348048,0.48120533982681357,0.41228448423424147,0.8741431173500062,-0.46704984453033016,-0.6612511767014927,0.2567507304512026,-0.7018792364913338,-0.9298245614035088,1.492367962476339,-0.5283062335965989,-0.21557492362166863,1.155046071956203,-0.6320659530913384,-0.9870736429984767,-0.05685489960931154,-1.169810908607382,0.06703407742463863,0.8076644725925206,1.668466209425521,0.81231303610073,-0.6019580242006766,0.48395378366580966,-0.22917718199753576,-1.4741707758907026,0.4352102128333302,1.1239639418219576,0.7744419246324595,-1.9425514685289877,-1.2742431293599776,-1.1998977493354948,0.9359798814227164,-0.16446362790649713,0.9918248967962362,0.3128242067913386,1.210533178300816,0.22807017954313938,0.08767305123580219,0.12876613096987044,-1.7978390652302862,-1.5177650792346726,-0.051973478902168635,-1.4635995598473666,0.51734576759923,1.0074188604392742,0.3120424306031327,0.6979075749399449,0.9427327884713478,-0.15190577697512747,-1.1055946209285996,-0.4045935499264321,1.303487085164696,-0.15035069439257917,-1.543259593498933,-1.1069454616063126,-0.4120016189833878,0.5642395891338993,-0.14565475920552665,1.0126847319601613,1.2398436813866092,-1.0420980640745956,-1.7710425721500287,-1.1464462555730666,-0.9473680908444726,1.105263161871013,0.9473677836065088,-1.7221725023247814,-0.9766135774334721,0.7049137477092521,0.2112402259252188,-1.021571786383512,-0.30395376513962336,1.0815392513558648,-1.628961657255584,-1.0156735554658252,0.9009169543707659,0.9585175105950242,0.8963749126760012,-0.5973252913978356,1.2206657053619823,-0.0916493613791427,1.0365131945388337,-0.06335026632768788,-0.21051298600073984,0.8232694872456721,-0.8863523769737979,0.25489993680342815,-1.8607416564375454,1.634170685402222,-0.8919633585396805,-0.9477939352692558,-1.1578941272270424,1.0,-0.43859649122807015,-0.7896537608121785,-1.454651782336349,-0.9083070888472549,-0.30525251950268617,-1.696864832795432,-0.7150085330004116,1.110362950500613,0.9227562320018705,-0.5382792946191782,-0.23543441193036188,-0.3430673516434352,0.3306155083953695,-0.346671578060981,-0.5196158754469478,-0.7601501141858643,1.051582972832673,0.716220304188803,0.5211984965039916,0.7829244322603204,-1.4451776908379055,-1.6848622553309522,0.7137093786873802,-0.08440059896048026,-0.38144027014828963,0.697762707487064,0.5263157894736842,-0.3157894736842105,0.19298245614035087,0.4034606729310405,1.069838702175062,0.8806329994224683,-1.4674220263282434,-1.542663469927777,-1.5902880850074401,-0.9303395279010699,-0.6104334277851331,-0.21434929117531082,-1.2640483976819012,0.38080553818035345,-0.4863262366385524,-0.4105590415372463,-0.3221176906997425,0.38171541883296817,-1.6191129931955979,0.24159719720765652,-1.3976045294349264,0.8286531469498364,-0.32165153278602293,-0.5948595466623501,0.3251561763478499,1.5273650147127826,-1.6437450988064954,1.2102245607540105,0.9649122807017544,0.19298245614035087,0.6666666666666666,-0.07017796774425474,-0.035022802216793304,0.49276346235693,0.8955218202980705,0.9399279532917627,-1.038819685911633,-0.9813023320331453,-0.9750893948115984,-1.089425266896484,-1.040166433507306,-0.7793466676897154,-1.302970963716566,-0.41854529357373277,-1.4712564876664116,-0.29990207572643024,-1.2699238768807233,-0.3068671871373418,-1.3086388725899403,0.20585484924757536,-1.661638383637956,-0.5007715617771411,0.7740371862716785,-0.5091880914009083,0.5085040293832653,0.5610832856067708,0.3684210526315789,0.7894736842105263,-0.43859649122807015,-1.1754385964912282,0.8070174218260601,-1.6326975032335722,-0.1168440221238505,0.09736301192396905,-1.3212773668950686,0.12724353130783783,-0.533779415224719,-1.4284423406898015,-0.09799121277602905,-1.8827283674819746,-1.8852912142615201,-2.264893664786032,-0.5460532785452211,-2.237650127397439,0.2564662562140505,-0.6555062393540212,-2.0709325381266823,0.22975887138773884,0.01790445320956985,1.1075845738901773,-1.1013645118608038,-0.684206891960903,-0.10526244919871106,1.5614035087719298,1.4385964912280702,1.2280701754385965,1.5087719298245614,-0.9298245614035088,0.3508771929824561,0.3684571312254079,-1.2276103652867771,0.9832275181967889,-1.1398169715970874,1.3486532940462512,0.6757512657520774,0.5717334708649566,-0.47676333547917077,1.137293739059061,1.59298146133385,-0.23372987075955487,-0.716244829653638,-1.5213683879512445,1.5133165075840067,1.521382648389786,-0.10314639195267924,1.5090363270524998,1.380818538057151,0.9949802394669791,-0.6674801802439491,0.03508771929824561,0.543859649122807,0.19298245614035087,-0.9824561403508771],[0.43859649122807015,-1.2982456140350878,1.0,-0.2807017543859649,-0.8596491228070176,-0.7719298245614035,0.47368421052631576,-1.6666666666666667,0.7368421052631579,1.2280701754385965,-1.3859649122807018,-0.38596491228070173,0.6315679175619016,-0.8772171339293034,0.36842105263128266,1.2105263157894617,0.43859649122807015,-0.15789473684210525,-1.6491228070175439,-1.2105263157894737,-0.7719298245614035,-0.9824561403508771,1.4210526315789473,1.543859649122807,0.12280701754385964,-1.456140350877193,-0.5964912280701754,0.2631578947368421,0.38596491228070173,0.6491228070175439,-0.07017543859649122,1.5964912280701755,0.8947368419195447,-0.6842105268613784,-0.9473684212115349,0.9824544411008247,1.5592466952010025,-0.3875112110182855,-1.61452780656344,-0.8946548651587293,-1.5009816740752822,-1.6858629820494886,-0.9705028205577924,1.2637431260446212,-1.4385846278381458,1.2798898033348785,-0.31579874696194876,-0.6842131413805592,1.5087715419398562,-0.7017543952292261,-1.473684210856156,-0.33333333368392526,1.368421052631579,-1.3508771929824561,-0.8596491228070176,-1.6842105263157894,-1.3333333333333333,0.8771929824561403,-0.7017543859653115,-1.75438596491764,-0.01754386388411215,-1.7368420586162658,0.6491290794292294,-0.5615493186674951,-0.7484379254254845,0.8915632503327965,1.0967067973366198,1.1118651985305907,0.7570841175301934,-0.29374257377538193,-1.3296174796075704,0.045446836986235105,1.5058368353214295,0.09930046035657958,0.9802149025964808,-0.719863982706946,0.24549995952446702,0.1929800565382503,-1.7543861433297752,1.3508770969248263,-0.4210522119016231,0.38596522047849374,-0.5263157894736842,-0.2982456140350877,-1.5964912280701755,1.3157894736842106,-1.5074329731519736,1.1231258167101017,-0.3333332981869474,-0.6625196035539908,-0.3607523874492963,-1.2447344386921746,-0.04591861784402287,-0.30187389826803523,0.5302354072834119,-1.4869670096943572,0.9592707644452371,0.6583477811935714,-1.4272208500353836,-1.693747366205,0.8554321973711977,0.45312839031216295,-1.2783997059723378,0.6731781270401904,1.3828997860052252,-1.1617377357088945,1.7351559810926565,0.3845362904119691,1.0350451430704788,-0.9298242613864229,-0.350877192403027,-1.4035087719298245,-1.5087719298245614,1.6842105263155884,-1.4690935019568572,0.3694500782139719,-0.0700130127813998,1.7073675610810677,0.5031864060032524,1.4958480760618194,-1.1753033164043143,1.0028556487366238,-1.2487896391187545,1.6470867346119709,1.5381250200998111,0.1646991083868604,0.9898576286737417,1.0458010106261206,-1.1363591225608718,-1.3344573062447727,-0.9250038620719285,-1.657724272197609,-0.976402957590309,-1.4560806866641958,0.8720253173459994,-0.6569131750490326,0.1876932891758281,1.029940242768825,-1.3194614487399354,0.36833724644151766,-0.2631578947368421,-0.6491228070175439,-0.5256781695152299,0.3159677153335544,0.8068394735634299,-0.08509002665376106,-1.109529072869564,1.0855423329508083,0.9619628950421613,-0.04452224402441217,1.087211825786591,1.4305353000290977,0.8978961382140285,0.5572422900046995,0.9486641970122381,-0.7559497409641558,1.7296892963990087,0.19160599913118856,0.04242233998848223,0.6101368676656637,0.021101780349010488,1.7673505037458412,1.0877280300804897,-0.6401963404664492,-0.7500952999958234,0.9264513727161701,1.0874382262407296,-0.614036908407258,1.3508771929824561,1.1929824561174664,1.540446746675448,-1.618225809468928,-1.0204825135867568,1.6453156416724006,-1.6114283787197614,-0.4034140781702561,0.7516241298138624,-0.634854841702685,0.4847161749763068,1.4407838982699515,-0.11730877505568114,0.15720856619291818,-1.313116094584594,0.07314273826973974,-1.3684887607771536,1.3624695344236828,1.172667284009944,-0.39403816498833205,0.022717055587563522,0.4656239461363004,-0.3985648129812476,0.09829882477538315,0.8984937001043152,1.2863128246476492,0.3527762847438346,1.0702603353031916,0.6666666666674798,0.05263157922009474,0.9454551381676819,-0.14306820599973594,-1.2489184057917813,0.4731557364129191,1.1185736231902987,0.977238235330086,0.9350402112618065,-1.5833446786328564,-1.650233430634598,-1.6088686386244027,-0.18608154437172242,1.023276962470791,0.5636249357771019,-0.2358593711644684,0.34147492733987583,-1.6973508121236256,-0.08249754690855976,-0.4007918993103985,0.12474173995363061,-1.417965077804258,-0.6168596133907225,0.7964320441600777,0.19318115962795548,-0.5039992030907069,0.12416795682547453,-0.9820760162079823,-0.789473684207222,0.2982456192517588,0.8069312281898029,0.4913679690382822,0.6339918148273224,-0.4253863186052548,-1.7533787572432498,-1.6834391320316335,-1.8478289331131554,0.15422387405328633,-0.5999166012142111,0.4190155118788156,1.4151994127102094,0.39762042460701963,0.2308934443938946,-1.0172929148748604,-1.60288442797845,0.4156104321342321,-0.09154627353627355,-1.2965716757379944,1.287482433049764,-1.4401508964570715,1.3699449595082158,-0.11205539820794408,-0.94326377638708,-0.9091839626612348,1.6334049570597322,1.7373841636142453,1.0175437971910324,0.15789455050838416,1.2283203950629742,-0.6131786137878682,-0.3989695789316813,0.9862361181328878,0.37516921975091455,-1.1397720426276294,-0.6103153070314223,-0.48063870201662545,1.0586320542889696,0.7254610546002374,-1.543017867728144,-0.431037189138555,0.6677736401689337,1.251431911185037,0.6858787678656975,-1.4015937123326279,-1.1577723729142253,-1.4500368470033758,-1.1061998900874566,-1.5124209878125978,-1.4589730072132636,-1.4408505143771224,-0.07056236950879215,0.33500374382973214,0.5794785976714686,-0.22805261466457027,1.1929823834951536,1.4561420152719775,0.5967882506543776,0.6726242038879006,-1.2944415554589535,-0.845203294322179,-1.4164092618687243,0.010100567041505245,-1.175439850819714,0.1751330655778869,-0.596306694001345,-0.564713164640168,-0.7462555170920301,1.0467412942020546,-0.40725582982377345,1.0581288555399961,0.3434216685929023,-0.5916539024025752,-1.102224438062757,1.1386425804714213,-1.5281988142863077,-0.21117113279054528,-1.7404426702671758,-0.605526382291508,-0.09153741955727818,1.4034721146784812,0.9651548582966814,-1.3859578505237682,-0.35087720051049975,-1.0526217033271112,1.7017921428681766,1.3379204859748393,-0.17467575082935724,1.3110815303815424,0.5540747124819573,0.6941612174055165,1.6820680403932338,-0.2828016184106945,1.1500296985304321,-0.6088239991233361,-0.2994561514939496,0.018055633818731806,-0.6843915265030562,0.9052025679030814,0.4223252248741672,0.649116682154459,-1.393224860851098,-1.045560980125565,0.2343138833889325,0.567656764786372,-0.04941709270436945,1.3029452259940648,0.5399364554456232,-1.718133694093318,-1.2988412218855385,-0.00035791191541481517,-0.9298245590085004,0.4561495581834426,0.2632841444549144,0.8777560228706528,-1.5329123975780037,1.3992443504111085,-1.7992064721635448,0.22199411402540636,-1.3934175783725606,-1.2076738816582187,-0.003198643568632417,0.6814717713764821,-1.4784518798570279,1.430189416404011,0.15485707139222837,1.2127238066945798,-0.9220038772502112,-1.7336725249182527,0.6276351181796509,-1.4140345150117306,1.3123580263197396,-1.249020200767201,-0.10412945363671841,-0.8168858086803428,-1.246164564091618,1.0656334569163661,0.694360687704366,0.789375218828088,-1.4385687871430992,1.5789484696564344,-0.6841597333057562,-1.0353427375847901,-1.3234553399694142,0.3013842773056826,1.2921100205012626,-0.567848824393679,0.17229591553627777,-1.67729686254059,-1.0237914232847634,-0.9971172806968827,-0.15384341607993332,-0.04021298595677706,-0.5030491070420688,0.572852399340029,-0.013229188108743259,0.15418031330023813,-1.8737326882905527,-1.2948200569596073,-1.2449675804743272,-1.5588170730151059,0.971453306371107,-0.7108630000901469,0.571600712227548,0.654895248702549,-0.7771698143469352,-0.049097955555786506,0.8421054156801441,-0.3859644779600121,1.631521356853065,-0.0009179016637232039,0.6850446143340672,-1.5024755542147297,0.4233960720140377,-1.4671499050422787,0.5163887561632622,0.3326773437406681,-1.7949388833544033,-1.403590118633336,-0.7026201284541008,0.42369308346849505,-0.6205585963970044,1.7453368959451088,-0.7283250830318475,0.09485375203303312,-1.2389713343478779,1.2406647003037814,1.2523790989928218,-0.44113122650280434,1.0672263961925796,-1.3864366025651296,1.458898876927692,1.6006743900231986,-0.04944293489073755,0.08776458943338894,-1.245613961933032,-1.5964911203129228,0.9816097281852755,0.5818775269393829,0.8676343737719329,-0.5771308166916027,-0.7317801573372978,-0.9027504372286601,-0.4406075176034417,0.28205226035361153,-0.20054886721887752,0.5596016391654254,1.6924597573734435,1.475149354749752,0.9502006066854954,-1.481068541750159,-0.13283719366278515,-0.9079947696769999,-1.371494320709979,-0.5361268255861741,-1.1637625045566695,-0.09889783418703045,1.229206132047964,1.7229718294111662,1.6039421837714338,0.08619394266992605,0.2178001199511507,1.0533499200469272,-1.7192981129639038,-0.6842078208482812,0.7529737987057411,0.2837738520030895,0.42838736459054444,-0.13271455152628392,-0.7146346906240523,-1.0085765916785792,0.6948183469594891,-0.7368158043394165,-0.13933199507079255,0.527240256524349,-0.5923335873809352,-0.764040589870949,0.7382905526200142,-1.0711382202038773,-0.70512985128803,0.08750490843275542,0.7033929030334131,-0.9887656915540342,1.1187136506502755,0.4182579616174018,0.04505220647543915,-0.7811548449876168,-0.9239231857331107,-1.1826003107020802,0.8022855622415996,0.6318467913675081,1.5087719298245614,0.14035280780482454,-0.388276515900128,1.298578478491991,0.020641436518224657,0.44780670943199774,-0.2598447943904178,-1.70274379137085,0.7214433222866051,-0.47625078063961346,1.2219402131076655,-0.5476694965063263,-1.3985514248831548,0.6413223242887417,0.5079921901673708,0.7939142806825398,-1.316789037113048,-1.6541323938835886,-0.9170444878979028,-0.4861528069896203,1.571214825668567,0.4165364086850735,0.20163951179272346,0.9583830446990758,1.5396954983679207,1.2383029799932248,1.560023198755617,0.4761078191314728,1.3684210523122184,0.4912280950680549,-0.6510214832055865,-0.8629644684732141,1.4030523828521813,-0.7127988835814296,0.09218264840010196,-0.4019197001687829,-1.3124305714033329,-1.1310797931153596,-0.4475749033992097,0.24338951472744905,-1.206706087262336,0.43162184166137857,-0.44166108586622854,-0.9685750693893395,-0.20035391124265978,0.2670317460728773,-0.27904862595769026,-0.6260809759667185,-1.192905249707532,-1.0044495645299725,-1.6735761889395522,-1.1101432367293695,-0.9788739099388755,-0.3791934017319432,0.41051502616677626,1.0193586024630172,-1.3684210467598887,0.7193059941022991,-1.3694110579878076,0.6466857819272378,1.154372752407582,-0.9680480820583128,1.70213102483095,-0.12393778897215119,-1.319893111699394,1.5184228346274435,0.9583176171680278,-1.0513608260060077,-0.9131695367996824,-0.09738890999105787,-0.3166035543345956,1.0352560312052663,0.0962023935732984,0.4313172712588175,0.5444012954594383,-0.1379380125356881,-0.24947328124031473,0.9843406501158993,0.7188118274195603,0.06538220597129885,-0.650131332591902,1.3583942700009866,1.661422222323214,0.19382703846271357,0.7017543859649122,-0.8070161200357376,-0.15793357497756422,-1.2111199340849415,-1.4932583887049196,-0.20066579966183515,0.010553168537772526,1.1393829958689947,0.01980637034612076,-0.25940642477089954,-1.2896672689983768,-0.23751276879480923,-1.0398175844279796,1.4636321428618408,0.3912198027123165,0.8378960943571276,1.076114454724995,-0.9833301176049609,-1.4113009892474724,0.054154334351104685,-1.0098358375253305,-0.5185008600357592,-1.4641875958460289,-1.388644259113425,1.1701735065285765,1.5994885531695497,-0.6839616886985153,0.7017549525507587,1.0701759276428364,0.017543959097384997,0.21045405266132633,0.15778559242547666,-0.7038373589265389,-1.1653334834194333,-0.0983696367921644,0.37099175985320554,-0.9767096087830093,-0.08865306655672445,-1.4083214690183197,-1.0347192253980169,-0.38026755275578106,-0.33357570278368953,-0.9936765228102997,1.3174403221696436,1.559573091429592,-0.9866935659615428,-1.2798823408123614,0.5497598292044875,-0.42993208676692446,1.5639405228615262,0.9059809633539062,-0.9379657029717515,1.072092775251934,-0.347950164029615,1.0589696001567945,-1.5263157894106896,1.1403513509566299,-1.4385963523859457,0.5610530296318356,1.2628997866696712,-1.5956991407120569,-1.0817185858966758,0.63442516598708,-0.055602400162005385,-1.6935092430015302,-1.1121312198983446,-1.8804712098845149,0.2683514909353974,-0.6591262648759927,-0.3016774115118501,1.102025603069423,0.6287207067084871,0.3461346452070032,0.5530185329389019,0.7729002068475055,-1.1996645236846366,-1.299031289359431,-0.8677764211356971,1.5084990713862831,-0.7243998545152309,-1.4047715800723177,0.7227964900376922,-1.3684027477328742,1.1228070176601572,1.5964912280701755,-0.03508771929824561,1.5784886700375451,-1.5790780814164955,1.6179048879504043,-0.7710308624886842,0.3135855922004625,-1.2608684498241842,-1.6718983500527425,-0.31616134400366147,0.960712294001163,0.783771413690712,0.3768322947782345,-0.4730271056611497,0.7808965621544529,-0.522040133525027,-0.9394912337507,0.1447184441274688,1.5662439458755302,-1.4007854114938698,0.1244269880653829,1.6496816038703137,0.34491158784135684,1.0091950198996362,-0.608049416753408,1.5266950764640579,-1.1576170474920482,1.2982456140350878,1.3859649122807018,0.5964912280701754,1.0175380216424312,0.38595771537566775,1.0580337833928504,-0.40250552975799375,1.4547018655061692,-0.2611045991018692,1.2129785357287706,1.59849671812647,-1.7133237763178288,-1.671593504149386,-1.3346420475764056,0.557191536526643,-0.8471844899203917,-0.8724608910288306,-0.2974672012022599,0.011788758522638701,-1.3394555219607147,0.04132458006762426,-0.24355985127714194,-0.4249919259822602,0.6814499333491568,1.715921121608998,1.2313106392675197,-0.26022822893812847,1.2460641672372386,1.105263157894737,0.7719298245614035,1.2280701754385965,0.9473682829244994,0.7367783118306933,-1.177238204968015,0.7171158780349671,0.8063484001882302,1.7386516844709123,-0.4128724490618201,-0.6724765394155517,1.55329413475146,0.4996191794021467,1.2949485493255557,-0.08420193512175825,-0.6052659887979863,-1.4172706481458854,-0.227397602224391,0.30780882507006146,0.813290362847979,-1.2500698213389185,-0.6863299842897974,-0.10529905764749632,-1.6669395595399188,0.14021776596841257,1.5438695819768626,0.1228524985874482,1.543914017267206,1.736842105263158,-0.6666666666666666,-0.6666666666666666,-0.2982456140350877,-0.8771929824562,1.4210526315095224,1.3157893493007933,-0.10526083435659292,-0.5789063298540655,-0.5438435629951875,-1.5614087123524965,-1.7569047924548977,0.3427861971358369,-0.18998159377843615,-1.4166692194454578,0.09630432946331484,0.6305978248519795,0.32844001681980123,-1.330661767151663,-0.7399418972423009,-1.4563578319275867,1.491223862305297,-0.8070118076052636,0.8947402529505525,-0.84210521109297,1.3157894736895306,-0.9122807017543859,-1.7017543859649122,-1.2456140350877194,-1.1754385964912282,1.2105263157894737,-1.5614035087719298,0.9649122807017544,1.210526315789491,-1.2807017543855552,0.43859649221851005,1.2456140359176102,0.3157894736157008,0.8596491516251201,-0.07009044490605407,1.4212070695965462,-0.842066409528861,1.1581431249883452,0.00002167136453392069,-1.5262729012028062,-0.5613357161514868,-0.7192936704593125,1.0175442716636662,1.4035087707931662,0.19298297219387248,-0.3508684260320185,-0.08771372332850536,-0.2807017555414992,-0.45614035087719296,-1.7543859649122806,1.1578947368421053,0.7192982456140351],[0.5263157894736842,1.0,-1.736842105263158,-0.12280701754385964,-0.08771929824561403,1.3333333333333333,-1.7017543859649122,-0.12280701754385964,0.45614035087719296,0.0,-1.7543859649122806,-0.6491228070175439,1.631579437919933,-1.5263040510007158,-0.017531992285444487,-0.6140345932458117,-1.2456140350877194,1.2280701754385965,1.5614035087719298,-1.087719298245614,-0.9298245614035088,-0.14035087719298245,-1.263157894736842,0.543859649122807,-0.12280701754385964,-0.21052631578947367,1.087719298245614,-0.3684210526315789,0.47368421052631576,-1.6666666666666667,-1.5087719298245614,1.4385964912280702,-0.9649122807017544,-0.8070175438596958,1.0877192948879248,-1.0523193452479938,-1.4403852451716672,0.8893871351892744,-0.2221353325330762,-0.8245616325979566,1.2982250959506931,-0.01756327044938148,-0.48935114254228723,0.639774644657364,0.4352173897940394,1.228044638699654,-1.4386115633144918,0.2104607799242437,-0.7194095918272191,0.4384903435781893,1.2806944029023168,-0.6315789473593089,-0.2631578947368421,-0.7894736842105263,0.43859649122807015,0.3508771929824561,0.7192982456140351,1.2456140350877194,-1.052631578947371,0.3157894656142252,-0.36842105272924874,-1.4210526316553527,0.5614033519613478,0.2518691659039679,0.5675147430001609,0.6179780902677907,0.7337760144456108,-0.5722207962722864,-0.2411509687013571,0.3968422677087529,1.1374336827464415,-1.6505814804018253,0.4248548186799094,-1.3148250975608655,0.10785635459877678,1.5306024198835442,1.6242380723078882,-0.6624307015461004,-1.5977151380091317,0.7537962987388196,-1.5439950884513525,-1.3508784100610425,-0.3508771929824561,1.2105263157894737,0.8421052631578947,-0.3684210526315789,-1.3859672241429561,-1.6491234201893985,0.9473678956980975,0.08779624263976715,0.08970432410027043,0.9930025500933799,0.6796693238444871,-0.9186897817390397,0.31978757088129517,1.8238143750152243,0.5136205458036875,-1.1737631923456797,1.9744666831955517,-0.31325815890844905,-1.1217731188892517,0.302252070793973,0.2353357559937745,1.4935135641810633,-0.08021433259706359,0.4565735100027812,0.6339345066979764,-0.6345377094220505,-0.2845901335072617,0.948087307572926,-1.665674395831991,-0.14035087719298245,-1.1403508771929824,-0.807012783872569,0.33332497496698277,-0.9647499840669288,-0.4554023121080428,-0.9402450479997293,-0.1916917090331168,0.5568491306550831,-0.3632367646891978,-1.3726454051901733,-0.3066915029739692,0.004350553296408614,-1.2386564738113672,0.42779584684241956,0.6095041197101954,-1.4534849519523863,-0.3941331737517003,0.13683247553414765,0.7060418027111182,-1.4915412118951765,0.15527555959840056,-0.2447608724937605,-0.576685319738534,-0.1370532530743572,-1.5622524835183653,-1.5081215504976258,0.9903634389176487,0.3955932358067421,1.6666666666666667,1.736842105263158,0.7013806167830261,-1.1264329642452178,0.5958647838104887,1.4939970905338384,0.7675529070396547,-0.9326995356556418,-0.10020059261269525,1.9839311291754997,0.39200590878677627,-0.38231369092307693,-0.6274575556412266,1.43843995778446,-0.2902268351885358,0.7134220859684919,-0.5822354825940685,0.41457789032093123,-0.25418629256418024,0.41285299715147933,-1.1895429332300937,0.992881438468986,-1.8147541602274397,0.9031308286941249,0.3898469982970929,0.3605775645060397,-0.5630222466981119,0.6807844880480709,0.7017543859649122,0.21052700314121192,-1.6197410886736836,-0.08207645846027299,-0.12503437523277555,0.20942409943482215,-1.4708196565791858,-0.21239635098151355,0.15427729031913184,1.5120261588343251,0.8963552679871496,1.8888175771309674,-0.9601029408451409,1.3813351534669827,0.37087159545254433,1.846653972055834,-0.4318685615123044,0.479344711303651,-0.06891276578781015,-0.40618387498844394,-1.2406272118002046,0.8061386424777656,-1.720128308770258,-0.634543661565124,0.020620471515673987,1.4293670026751515,-0.8263521285246543,0.29824154232136474,-1.7017459052951132,-0.6658074901749109,-0.6778893098284827,-0.6016008264645953,-1.3833373009289323,-0.2698064964972638,-1.0881356904248447,0.46069645048831454,1.1641608934424441,2.1995084895039354,0.16078506241674947,0.10215756285367775,1.004836543366339,-0.7169226304371633,-0.8770655795079002,1.0938843031907832,1.3785996831334988,1.7072764356665815,-0.07460701001505973,1.2766300796342833,0.3766013033703074,0.2989678966458019,-1.4625572849823536,-0.013906770047615515,1.5531397022046112,0.030957597282447732,-0.06862662696681826,-1.04990667098715,-1.7543515009129027,-1.6618462833496774,-0.48860720457144763,1.623783147840323,-0.6678350975494031,-1.0572375821229945,0.1898752512061205,1.9149778680946206,0.8572274694530443,-0.019792568258897993,0.28696818748006325,1.76728591802547,1.9563069883647608,1.3858274535885522,-0.5173326733206902,-0.20853131473115769,-1.2402591168922228,1.1927108054034234,-0.6874462050547245,1.7429667360121248,0.6006753556062746,-0.7333131561498304,1.8598859550840583,0.7392673911289878,0.05179872774905912,-0.3539721249473848,-0.28865406332123666,-0.12068465372585711,0.7195482519904295,-0.2726271890100367,0.09418486575549051,1.3320668713806876,0.6086081590011377,-0.8848256727832111,-1.394917122496017,-0.2455744526375416,1.855748761152232,0.6756313951790045,1.968971425656947,-0.2961588560818385,-0.9740208570605846,-0.787922881639609,0.6280845513665158,1.1195596725346788,0.25102896995977136,-0.2576115360222042,1.6385116653542973,0.2739351934123535,1.5088567159237725,1.691439579902993,1.5330469141440906,-0.9354739884465518,1.3586373856241034,-0.3615958315257454,0.519078997333411,-1.7202245051045848,1.5967772526855017,1.4919833167998318,-1.3450628086612235,-1.1378427409205236,-0.6847842661673716,-0.8903542284712302,-1.2104723138000888,0.7773206243177516,1.177883409561445,0.4518403078366303,1.0417153840542983,-1.4074954764664476,1.1843120454980305,-0.8375409259965526,-0.8082206344913647,-1.9520028325483947,0.7066793753811644,-0.6524368675612645,-0.5437073833546956,1.7335119706727191,1.2659808945180853,-0.5947015930405825,-0.20154710666570677,-0.52465134177109,-0.1839855438829125,0.08971893943557784,0.2827465870615484,1.26206319267243,-1.3330555034021443,-0.9218708573187347,-0.8300856337778107,-0.9042721040386191,1.1514757904711452,1.4532590984746925,-0.378329151960909,1.4555463524393095,1.220755931149467,0.6545338682283895,1.4115855573753655,0.21812364210995197,-0.9721116293414798,0.6620032077438373,-1.8634406719695693,-1.0916530366442565,-1.647863694362744,0.3738046648523324,-0.6462416940039803,-0.9346847187383185,0.6732252358557667,1.3830826890313184,1.287123557585889,-1.2127163808970136,1.6012602501062063,1.7752730306452082,1.544003166252574,-0.22780742452537986,-1.6490436891553881,-0.26122865280927376,1.1457400358686458,-0.9813134345271942,0.6670666899063816,1.1175416066116024,-0.5043233476257936,-0.7925588675413825,-1.0556147791378145,0.8297912394711527,-0.16325895286811326,-0.06543812621268216,-0.6319329664205798,-1.2899011948883043,-1.320328080524601,-1.5397508344971826,-0.393791264349099,-1.2178255734772947,-0.895582831342259,1.5668456381714548,-1.0856846704855259,1.1491615793181649,-1.2611509529864047,-0.9180136405140776,0.7616193863409172,-1.0487604176723095,0.7618663956464439,0.17669336785112258,0.07013341488024978,1.526391121963966,1.6368990221702573,0.2824059767055704,-1.3214226621405325,-0.3007617250621867,-1.4967938505927119,-1.1300096658061227,0.9258282873244954,1.6526380708982846,0.43871630424334984,0.7824891260960319,-1.4629681031165855,-1.241766322732239,-1.4047686975437983,-0.32068049569667023,-0.6495794748256158,-0.6729096681065552,0.0003927270910708811,1.5075316059477644,-0.5611920515265008,0.08093590274743288,-1.2578466090247795,-1.4062370410191443,-1.4786973937686945,-0.46271239975300005,0.9113947178507815,-1.070210985728798,-1.0701754413807558,1.4912353200429584,0.4182408037651651,-0.5291544461960888,-0.8920942870682839,0.9543197355296008,-1.2655214250731104,0.5658064303943174,1.728388937752625,-1.0821144669856044,0.8478335505508129,-0.16794916648489802,1.110722150758695,-0.7543543230949173,-1.1352413302028825,-0.9557948052230837,0.23600063696464174,0.21721522970801968,0.3747327965448157,1.7349137258734144,1.7139069015472117,1.216217838385558,-1.2094864520230606,-1.0026639251289413,1.7102464101721926,1.5550606743956263,-1.432773414542042,1.3684205435992256,0.9649124684754838,1.1754386201024882,-0.6355812669965814,1.0130931838116148,-1.6945819376230369,0.5923756493341373,1.817244318510551,1.2604621433214966,-1.4594370033342876,0.23351430019472622,1.0275564003512987,0.7798376363275152,-0.3416751912840903,0.40875867484092,-1.657466682853457,-1.5970026042132273,0.832618682259736,-0.783325290112585,0.8959678330164552,-0.3997297501385519,0.13427030982303725,1.6075691391908096,-0.41927372008252656,0.5883520416752313,-0.993769686679241,1.029366653060514,-1.5933657599355007,-1.6491068447296153,-1.5964901498679405,-1.3509437501937542,1.3480828070757114,-1.2963185267729822,1.7111706159770732,-0.5913263332498278,-0.789674258711275,0.4755358463741284,1.4549432406336271,1.283303129773279,0.5977470846130923,0.404700756757038,-0.888214890345103,-0.03785825354025604,0.38326918962349804,1.014311106774274,-0.3530218354131109,1.7767945588437262,1.817728018538598,-0.4783203568013902,-0.29417127951446037,0.4561662651274935,-0.0059779451543702095,1.0984347240314112,1.412786382764391,1.5556317900916001,-0.38700767714851353,0.6153033078619764,-0.14035087719298245,0.8420923664144256,-0.5964749367287752,0.9117808279945904,-1.4049604989423095,-0.06378953375001159,1.0102165869531747,1.7638559015108721,0.9980486110409666,-0.2399086417383006,0.25351332969535034,-1.031472798556806,-0.6554425131469647,-0.455146501121102,-1.3699307441638306,-0.7570986419561665,1.9432466001022934,-0.01238965267124995,1.2773344159129785,1.50252821962196,-0.12961505400330198,1.838409248997631,1.7031672945307452,-0.21005559139500252,1.2344512689246327,-1.312652219364351,-0.8626532218870615,1.668570305541038,0.690744055606863,0.1754509092259081,0.4393158830859999,-0.6918234903593175,1.775623347415873,-0.8864652825309612,0.7926146023827192,1.8590068020886192,-0.1265552209297744,1.2944126075087374,0.6490719660311212,0.15661022945493489,-0.6288286881648634,-0.17759731581564167,0.005869470471695318,-0.11901304467374549,0.7510735914277286,-0.4550296245012077,0.7833778188221556,-0.7334770600897802,1.3212303225114999,1.639465333511479,-1.2061989013089636,-0.30450622814861855,1.2896078131214304,-1.5265774640575438,-0.9233948564502407,1.1022654578531632,1.3859648053362752,1.5791204021903553,0.4937413681628544,1.6394641666178127,0.787611762832443,0.20914097597700512,0.6839196511165402,0.2700310746591815,1.1163161326552558,-0.3262678738263559,-0.30466536089776347,0.8363873308616679,-1.1958263424637505,-1.321770043223742,0.6705344382019593,0.07679144449731472,-0.6929825382081329,1.347578237700051,0.44302257199028044,1.7986369466037215,1.3458153984805155,1.4603888507621745,0.5440258227021628,1.3812763620650061,-0.38192324347995976,-1.3385822449065612,1.4956929991731407,0.682852379380168,0.3333333333333333,-1.7367223139231647,1.444523906135457,0.8312174813068808,0.7235541676825903,-0.912582559871842,0.21958681219291815,1.114623377607964,0.7398736033542548,0.2609123185741686,0.02421955624256358,1.5398415575466702,1.2716540871194308,0.7452271026397934,0.47341635535604953,0.4690979960884966,-0.05034931187682542,0.46168961554183036,0.14404023025811352,1.0903492245379254,1.8325568528038598,0.10579496865565728,1.047662442126797,-1.042206538473119,-1.3373356817282516,0.18106954517839008,0.9542988590704923,0.12282080633328678,-1.543861968277494,-0.17536417696263984,-1.4962525160202798,0.6141050555197243,-1.4274491230972732,-0.8657659037033474,0.4842191941406061,-0.7080055430697307,-0.4479759627792156,-0.66931991339933,0.9243731700525296,1.6610747181234164,0.060853277831772995,1.2205395616330785,0.7939525471081514,1.3491128581027927,1.7974399008205173,0.4485151502753453,0.945831041953569,-0.13391266743531802,-0.05997932053126222,-1.1858259239589406,1.6894700190101304,1.3203282250496846,-1.4149714559494586,-1.7337783799036206,-1.3483004757276964,0.6666666666666666,-0.4385987379091736,0.3684368247184089,-1.619506927392469,-1.0836327076687324,1.0001717993173347,-0.4705415615142952,-1.6801881648283026,-0.3247363342010486,0.3558141979981306,0.39324494803094956,1.437787625682921,-0.2881103649698452,-0.4268057175226318,0.9826159272029794,0.0990234045289644,-1.3441589273945411,-0.2562524429459159,0.14649342325597514,0.40871412850888206,1.0216284341567694,1.3247114669347797,-0.5728454806368469,-0.6070198093929203,1.7195988213811684,-0.2358269390072433,-0.6131357125039512,-0.5496342171744946,-1.2456140350877194,-1.6666666666666667,0.3684210526315789,0.4608336352541056,-0.9702015072546936,-1.2734604630217148,-0.26145199522343215,1.24973265049161,0.14947577670149542,1.1378671055287517,1.085135837878968,-0.1122627116441588,0.7690140249855724,1.5458758133813508,1.6910837613895267,-0.16250783007737277,1.1683928720910561,-1.337089140019488,-2.0307203308174184,0.7145969472263022,0.6015712914843925,-0.6561839525212454,0.7220938156706139,0.17646926153165812,-0.011527707587755497,0.6188452111194696,1.4544796683541286,1.4939775991757847,0.08771929824561403,-0.8245614035087719,-0.43859649122807015,1.7017950334107685,1.4607794041364783,-1.1262249839206897,-1.2778709957662377,0.002175894326413846,-1.088440688329389,-0.26635649623819124,-1.0651200097772138,-0.4275224163445687,0.2050245625181285,0.09895874020279731,0.5481914722013144,0.8957345720185883,0.7658357064635402,0.7491233767315448,-0.4724780165616403,-0.3915981714759753,-0.15426421600910648,-0.13604541831767564,-1.5086783334613914,0.7917246052168297,-0.8419953855469985,-1.1042962132750664,-1.491249533245734,-0.8245684841615342,-0.6842105263157895,-1.4385964912280702,0.2631578947368421,-0.8070167916290687,1.215180706181177,-1.6685720625110902,0.6199931197522348,-0.35988179664907133,0.04054234319735381,0.2772287542438075,1.3661611958225137,0.7646996887277998,0.2320143096796334,-0.31980651836153673,0.06853991148820282,0.9747739151553553,0.3411366308816797,-0.3300667287037403,-0.7661073060113485,-0.415559707262489,-0.5011823829702593,-1.7155828684099956,-0.7353019002054765,1.3600269477876552,0.20271440210305747,0.6834023535580611,-0.6842105334760172,1.1929824561770157,-0.43859649122807015,-0.19298245614035087,-1.3333333333333333,1.736842105263158,-1.631622032690453,-0.3159054731467571,-0.4314759968656719,-1.5116902872564475,0.2543848431144231,1.2641641045744476,1.255163760146826,1.1321029266130103,-1.068649448089001,1.5351679956968527,0.055528107327979644,-0.25929918841002664,0.5449481707599806,1.4239036345897946,0.23575102957572186,1.2083157666498232,-1.469835997815372,-0.22379818333568843,1.282279963758245,-0.4400260283793989,-1.3326504012119753,0.8596491228071381,0.2807017543883391,-1.4736842105263157,1.456140350877193,1.5087719298245614,1.3333333333333333,1.2105263157894737,-1.0701754385964912,-0.8421050000536008,0.10535264946426685,0.42121155171941693,-0.526115596514641,-1.4558464252026866,0.07038446536983307,-0.9984714930415672,-0.5766464915856097,-0.800354032071008,-0.5706120093980945,0.9263859485292069,1.373864573735823,1.4064715168906137,0.967546812307037,-0.7895812523889227,1.1768248503865437,0.35157066609429827,-0.42058807193311326,1.368702650940076,-1.3859648643045177,1.4385964912280702,-1.0350877192982457,1.5087719298245614,-0.6842105263157895],[-1.4736842105263157,1.368421052631579,-0.17543859649122806,-0.12280701754385964,0.7368421052631579,-0.9824561403508771,0.8421052631578947,0.9649122807017544,0.8245614035087719,0.9122807017543859,-0.9298245614035088,1.0,-0.20861416466121355,0.8537676558357864,0.3868783875574434,-1.1754005350213632,0.22807017543859648,-1.1228070175438596,0.7017543859649122,0.2982456140350877,0.15789473684210525,-1.719298245614035,-0.19298245614035087,-0.5789473684210527,0.22807017543859648,-1.5087719298245614,-0.8596491228070176,1.456140350877193,0.14035087719298245,-0.8245614035087719,0.9473684210526315,-0.10526315789473684,0.6316027665019384,1.1579999051746368,-1.4900678540169838,1.6872568105837236,0.5710951508535287,0.8672406205198528,1.6395686694820697,-1.340052830197986,0.39552133861314887,-0.31595324306264766,-1.3601654741872582,0.8177886438589507,-0.02165887307451182,-1.5482932865490704,-0.2756067292977374,-1.0785089020444014,-1.0085958996644626,0.6595447442041575,-0.7533865845789466,-1.224605955464511,-1.5964912280701755,0.40350877192982454,-0.3333333333333333,1.1403508771929824,0.8947368421052632,-1.1578947368421053,0.17545788600053536,0.07032409756325886,-0.5260954773460644,1.158397011242229,1.010610374428989,0.2723652906966764,-1.3218056756929257,-0.37336818397316135,1.4158361806072959,-0.5149217099087161,1.1978677671245375,-0.09134498351364749,-0.5175420509613893,-0.1686752695939248,1.6964394972149837,-1.1886112100425716,-0.9805458738314566,-0.8308520794537153,-0.32957339455088375,-0.2573375766158073,-0.6553181199741251,-0.6113849692393725,1.095067954943816,0.9346614598949257,-1.719298245614035,1.368421052631579,-1.631578947368421,0.3333333333333333,0.71841730886401,-1.3484652488921653,1.5266743333822608,0.37068073986583583,-0.7897935849667012,1.311285319701846,-0.36089971566969525,0.22798963982975118,0.33262851674136806,1.145616889873698,0.633186476139183,0.6130012189643967,1.8813531927426874,-0.2092611980980076,1.3663052268156153,-0.9469820631675672,-0.0905028355623192,1.4096560259458772,1.4835390029229518,0.041950183203989154,0.794427240334774,-0.3152813188486567,0.8487258088887648,-0.08401209371397926,-0.249972182692439,0.9122807017543859,1.2280701754385965,1.228070165460555,0.36438807271944984,-1.5841912165831455,1.203531510988071,0.3962674236029833,-1.5444075262071426,-0.2753576519802317,1.683025333618534,-1.026067519102489,0.6526723806436491,-1.437440027100211,0.5481488042409138,-1.193407940090996,1.3704721530166535,-0.41001348956069905,0.8317868526623159,-0.07561604547362821,0.5024994760822984,0.4803040855875854,-0.41935538322413274,1.2005662021895396,-1.8281539744758752,1.1828787136851302,-0.5370480329403451,-0.9348741604283987,0.048905744814720827,-0.8948882305662466,-0.3157894736842105,0.5263157894736842,-1.6670904072826422,-1.5455697678614935,0.16276069835530452,1.179212769843972,-1.5175083522459791,0.677590139585646,1.1734345011016627,1.1980368629223883,1.1230985453600741,1.116098658062655,0.64538964228906,1.5653093825552697,-0.8138676179692945,0.27425996925528534,0.19981520579350026,-1.0373195840446878,1.1610465316344958,-0.3667460296174286,0.32255226289202177,0.4277742847351491,-0.6619130068927462,-0.6881295212311859,-0.0135332806989782,0.97676195662823,-0.3391422055672595,0.648884258749065,-0.017543859649122806,1.070175438421069,1.280047977795357,0.43707530357732133,-0.46325399252615335,-0.6226856417347815,-1.3990320546288106,-0.46159390906337117,-0.1884657255617515,-1.7861083859434015,-0.8106881590944289,0.20930083879966832,-1.3046178852690704,0.16777720114262662,-0.19977435261406454,-0.48961949977419944,0.8224459848575231,0.1990497269732487,-0.5063412210121835,-0.2870184844524482,-0.7265227779895732,-0.022165250098477498,-0.6219703545356989,-2.219993076068936,-0.7276827843318407,-1.0351417849279867,-0.1482968790683778,0.9816505115772715,1.2280701750865284,-0.2982497212268759,0.08900850943559331,-1.0571232510062776,0.9428174421086343,-1.715226579169941,0.4855905514651888,-1.178023237131286,0.605901918244735,0.9407299176530205,-0.06092544997010162,0.28016783114372956,-0.867968190662579,-0.688446528100164,1.0150626970631742,-0.4939812157967466,-0.41885017443743977,-0.6439265628512416,-0.12575497496668359,0.4028195393229542,-1.451667902608347,-0.25651975757782014,-0.0527957165879921,-0.5947549957739225,-0.8647807579911998,0.5697348656769932,0.08546306922427598,0.9933559878203911,-1.5438116712293535,-0.24492464463071484,1.1868593628067938,-1.6068257755210962,0.4038817793229527,0.9772373661836514,-0.4319618836232013,0.45784454421178183,1.1446481926840355,-0.3249325648037399,-0.07646886669573133,-0.0026643370191578274,-0.507838084268847,0.9544056780736001,0.5944850574206774,1.4398647015067205,-0.5939281679784767,-0.15570510346130387,-2.156973278810753,-0.42304210966356565,-1.0356630327153793,-1.0631166554805411,-0.8292424435819619,0.04936851414616264,-1.8000933849596015,-0.5078947093518779,-0.7840224197914969,-1.3916037172468485,0.42104678527927236,-0.10563601953323087,0.28568851088777997,-0.8460990849657056,-0.8731697666146282,-1.1698654798387838,-0.34905024139176005,-0.39348702815609843,-0.2649337665641199,0.3350542260002165,-0.6254912869400133,0.7173186495725906,-0.47226005444902686,-0.10986320509194927,-0.9269256696253617,-1.1687450514070008,-0.47844318863723134,0.7226588810687825,-0.1775712398868887,-0.4444261461330409,-0.5810746563848032,-0.13712443315952869,0.4674637065016216,-2.080178430312156,-1.1696799439891683,-0.3432803576739556,1.240141523647245,-0.6496708211798512,1.5613967080705542,0.28049195801222493,-0.6124079688070218,-0.22258036071211493,-0.6527231855231984,-1.164406683643768,-1.0350005588212194,-0.9439898856013104,-0.698145035996461,0.718618032862581,0.5571126674379234,0.24983255034735014,-1.307342303470932,1.0690375513427435,0.4946796684344314,-0.05387928181818199,-0.36183841147974516,-1.2483198757108265,-1.1643757216309956,0.8959584442996807,-1.4898865218647432,-0.31601117818417696,-0.7734387674042296,-1.4139930863088475,-0.33481793445183133,0.3579321203531488,-1.069679434819259,-1.0010345929208524,0.38596409760308686,1.0380697606678033,1.5226026236551278,-1.6089133929193893,0.48502110771184326,1.4052537335322643,-0.7386178848495043,-0.5822713852049692,-1.8825098665093651,-1.4081883133364241,-0.018240193056992638,0.1238442778617619,-1.284073282927025,-2.299833484611831,-1.1746994925863004,-1.3704372456869343,-1.1088831662949858,-1.0461734408173482,0.2873209623411936,-0.44259425220827775,-0.20140947502831197,-1.0678590239439192,1.5795512208337628,-0.530175307790293,-0.6993148747939292,-1.7880821982999457,1.213108763929372,-0.7549969654363272,0.14035085347174397,1.0679661202864805,-0.9176100923611493,0.3567511365688431,1.15815785645845,-0.38546890869052675,-0.08696998015374463,0.8152948870103006,-2.1479225078726807,-0.8697159025680263,-1.6235126914879514,-2.5067514262257276,-0.15641591290664836,-2.608825850564414,-2.5180624715154476,-1.7696677725250793,-0.025290206343403124,-0.43790114789923124,-0.8137708264784475,0.25445137541754104,1.3271993604786223,-1.06512537153025,1.0457605752362258,-0.08421816829753626,0.6515632838849091,-0.3530969387041421,-0.33138084310783344,1.62613149308293,1.473683933455284,-0.0029151531572951415,0.6974134568551564,1.4961009631254683,0.21706016884612353,-0.7998650176304448,-2.2278284834236275,-1.3291808674290042,-1.6192014537922454,-1.5174644058521902,-0.43374288347736684,-0.6302373405241902,-0.897033191491327,-0.8842146558087162,-1.050208602012894,0.44398513898402725,-0.402830617703118,-0.3238240303896972,-0.8923975298449192,-0.502940945004519,-0.1624923919078205,-0.11620861051558155,-0.9543550790139316,0.6753435007584309,0.42895102941819424,0.10992738443779042,0.29226397717021313,-1.2495485211920585,1.6842367081235707,0.7140240635517656,0.8556687614590142,0.9363385455539176,-1.6473130206202267,-1.0510612735951719,1.1654106258389902,0.6477043881635345,0.15936887011608922,-0.4019483027437501,-0.1269816284169026,-0.38643938605539874,