{"layers":[{"layerWeights":[[-0.8596491228070176,1.2456140350877194,0.5789473684210527,1.0701754385964912,-0.9649122807017544,-1.7543859649122806,0.7192982456140351,0.17543859649122806,-0.9122807017543859,-0.07017543859649122,-0.42105263157894735,-1.6140350877192982,1.6666677912952992,-1.0175176378084207,-0.14032443764708852,1.228071277086342,0.8771929824561403,0.08771929824561403,-0.6842105263157895,-0.21052631578947367,-0.24561403508771928,-0.017543859649122806,-1.5087719298245614,1.6666666666666667,0.8596491228070176,-0.9298245614035088,0.5087719298245614,-1.6666666666666667,-0.03508771929824561,-0.8070175438596491,-1.263157894736842,1.5789473684210527,-0.5438600697692574,1.578946132765414,-1.175438755458873,-0.43859830513257486,-0.2807130686831763,0.5613938899539949,-0.7193030706975988,-0.10526678107263446,-1.3860292419176776,1.6840246592887025,1.578829015047464,-0.6316867708419487,0.1050967989584846,1.4384892089677994,1.4385204484631333,-0.15803447990606087,-0.6143101611008266,-0.3510922532555925,1.7367252883223345,0.8771929787683459,0.14035087719298245,-1.1403508771929824,1.6491228070175439,1.4385964912280702,0.5087719298245614,0.7543859649122807,-0.22807017567174942,0.01754370345917886,0.2631551834952021,-0.3333360361293009,1.6666367422841315,1.1402578802803682,-1.4913070360734646,1.2805892458363406,-0.8773043182798514,-1.491392091164849,0.8063062890240756,-0.3173063106849985,-1.5467862868131375,1.7324464928037475,0.6445031686602035,-0.6699596943955405,0.6456740472151327,-1.4771341776542475,0.277972441003448,-0.33501732024643394,-1.2286060219425938,-1.68427203231724,-0.2631685409454013,-0.2105259467739137,0.42105263157894735,-0.017543859649122806,0.9473684210526315,1.2280701754385965,0.6140361978963,-1.0526325487579118,1.5613981445484884,1.5438308019019464,-0.4563024809421517,0.08757586261031149,-1.3684786875816097,-1.210690378758464,-1.0881187723838026,0.8239485729187593,-1.0892869360883473,-0.7929998268008521,1.484159683633696,1.095787423289416,0.49884632062682066,-1.64236642284295,-0.4851483759319078,1.4979350046839153,-0.866646074657064,1.4874831517818665,-0.054275617587047756,1.7362005660866842,-0.5967238763679212,1.7192733614219124,-0.3684287443241366,0.38596491228070173,-1.4912280701754386,-0.7192982630724541,-0.9999984979363729,-0.4736864352216966,0.3333392882588483,0.6139955633516824,0.10503241131909806,1.438169714689531,-1.7023926638394669,1.4199769219443794,-1.616297396064146,0.3109384476513024,-0.2720304553034303,1.4248110510934497,-0.8954270121118124,-1.740485269889883,-0.568034211890168,0.6402632678273139,-1.357173095048007,0.7353828952165965,0.05703453622352914,-0.4470886010212428,0.416475334983665,0.8574708553525254,0.10440761104367925,-0.017672776682477246,1.210512554551012,0.08771733472178617,0.6666666666666666,1.1578947368421053,-0.7017679380623026,0.8771903134357879,-1.719334549552925,-1.0703284754635225,0.33294625472110834,0.5600278518644234,-0.3709411671320035,-1.4246622124092019,-0.5162859231856736,1.704625476416719,0.9048050299491306,-0.1944508004420668,0.41276460123052267,0.7758978400716032,0.17341411211796776,1.5255117430591791,-0.7829367805723851,0.03615481904508559,-1.0936557114401544,-0.4188843106407385,-0.3776677502031767,-1.7249600661760893,0.7692588872415626,-0.8953760305624591,0.052482846874348295,-0.2631590249542929,-1.5087719298245614,-1.5263153443577173,-1.6140681284308922,1.5964473970093547,0.5786645268677887,-1.2462786502548382,-1.4399767011657774,-1.3190777775090337,1.556084802794895,0.4647768288443578,-0.9465012395321146,-0.4846793627321707,0.6754071786312513,1.0495638607073363,-0.6403974865519854,1.4619289057495917,-0.3104604362710231,0.482960320664591,-1.492300790250419,-0.8856885159629633,-1.5926229320349785,-1.0920815420228707,1.545973506598913,-1.2028656505637532,-0.18110052453936792,-0.545511320512259,0.17525571619531685,-0.15793370326640546,-1.0877227643758327,1.333326654548613,1.0524597519152168,0.7012734510746698,-0.2819872809331065,0.9624338239071647,1.451797509491597,0.6423100107272076,-1.185625447903243,-0.1912663441822378,-1.674091988426122,-0.6881877700512951,0.962839948469832,-1.4842829449535173,1.5319085919876525,1.6414067324175692,-0.4088490981112218,1.1210564324204,1.5603507327395094,1.5300638667988578,-0.1772387645028542,0.3258940414098141,0.0009200374337499886,0.6726160716739782,-0.5507108068814943,-0.03782938847943801,-0.9831218586439509,0.9122629555772654,-0.21054029226694368,0.6490259990630042,-1.0882124655365435,0.9637580197039111,0.839254709362894,-0.04010958464564217,-0.5337273335158064,0.006765899132144931,0.7038040181764018,0.1873621109863999,-0.9118181495103859,-0.7687518947345049,-0.5886844951065059,-1.4711876173922724,-1.203764114269379,-0.4057363415927906,1.1084822168152375,-0.7685117586102673,-1.5965043028889294,-0.9952043675861846,-1.0523508727038298,-0.30283926478500994,0.16146172443895895,1.3933837340717663,0.29189159570044304,1.102456698614769,-0.19328071512979614,-0.47368899758944133,-1.4736927612307822,0.4910570377148037,-0.5271666355138446,-0.3525780482416025,0.18888949872806338,-0.2351844310954218,-0.5014650365454394,0.6877708305949423,1.155845612169735,-1.3969246938495594,1.0452722368195821,-1.3383949549075587,0.9302628889561126,0.24565963941771504,0.5538189484876959,1.2520016612593912,-1.5181643102248872,-0.579650532085423,1.3108362042618356,0.3020635915840022,-0.06690706559021267,-1.7347856451421013,-1.236229512391486,-0.7074872155636632,-1.6535303286441048,0.05074486401828738,-1.438889807237989,-0.5965563558929409,0.929810244271909,-0.1405181505461309,1.4902987699485628,-0.5456397833686443,0.17104513035902755,0.730196751980998,0.8147857214598021,-0.7664575181908054,-0.35103645643380466,0.7944032828642525,0.7069985420813474,-0.6429498835693455,-1.0891225220744982,1.4053026220896012,1.6298661085772423,0.27219769765115376,1.4063273309999509,1.6206192976746727,1.1490402560478388,-0.3613087656358769,-1.3576306805304068,0.3773786397703924,-0.12432564391328363,-0.08841576514650473,1.0865807725145513,-0.6499908191486772,1.350795981608474,0.6140101555361903,1.1929704357190485,1.6139310695788953,-0.4568202723021795,0.8054627323220229,0.36510589121305803,1.521186610453587,0.1335905603713013,-0.18344133110613517,-1.2787123354858854,0.4932052203490128,-1.4741856936344608,1.6515160921932022,0.5396647972080155,0.5976594591074063,-0.19476276102776013,1.4408086382137668,0.8855683103945486,-0.2108814495819396,-0.21698021776567553,0.6282698517734769,-1.0697017421977506,-0.07312944399566208,-1.1022535451296802,1.212830164159463,-1.2452928692779532,0.5081076669913804,-0.28090325500016317,0.17543457307515703,0.2982458569267774,0.3508273765982941,-0.2107689453871758,-1.526995588542485,-1.3700355556435766,1.4179244067942973,-0.6178599789708492,-0.23426876584383846,-1.401809492212988,-1.1413437258183747,1.6447394948350305,-1.299470836285993,1.5876663597475302,-0.6008843205022664,0.8983137128788441,0.8767691459973913,1.290266255437622,-1.8110376462431512,-1.1773855155402497,1.0348786556651066,-0.7719841591562885,-0.9854327546349263,-0.73350686466763,0.49433002795508746,-1.4900885557352819,1.1751370713215221,-1.3861312693428431,0.7894623948257474,1.5263159248084972,-0.8596583984787896,-1.0176941037413165,0.2101682884813013,-0.5096762300611328,0.2794407870306868,0.3494924907121807,-0.8298975392189045,0.016738448724860036,0.1892060767340436,-1.3749755230211855,-1.02085342097748,0.531599956784181,-1.3474671751349778,0.0018873932170173449,-1.1083918813666207,0.12088756603127723,-0.40655700377883497,0.43814398766516705,1.4198426699801472,0.9439110016395741,-0.408434514622957,-1.4183063978102797,1.3191681674902649,0.580379580798748,1.6138489651499224,1.5263334049596025,0.8245786487059859,0.4912278773465393,1.2456135921023717,0.05262106195512391,1.4383178757322235,1.5434491937092172,-1.4559844021370278,0.43949505396237265,-0.8296561368858849,-0.7559132511066144,1.6606918331665894,-1.426735521712694,-0.16052533426789867,-0.10127023620381805,-0.7229108592123944,-0.6421277587768368,1.3552034666992676,0.7168297189085594,1.08638727854498,-1.526249096949765,-1.5805857768203506,0.45140770582562784,1.4142695857843497,-0.31424699209063317,1.4068127390798368,-1.0338917128122016,0.4384284000726152,1.2631956940680875,0.05263310529199915,-0.877193005812227,0.5438602611969436,0.9298382379553236,-0.6144744277155952,0.5963691491027828,1.5280168107830732,0.9493073409950687,1.679817675641786,-1.2991386172324095,0.4691969981314046,1.2235018116486855,1.3849452350609457,0.8986931493472613,0.874372273807857,-1.2004667076860187,0.4514863563842346,-0.36060357691679273,-0.8915912219320686,-0.6312593047233672,-1.65192119500751,-0.9177141519830343,1.3261434418874094,-0.14012561559661008,1.6860265098633533,1.4039871436224591,-1.4387991568639802,1.1052205794601095,-0.5438582044052883,-1.350876965653431,-0.9122793339887307,0.22803826988400624,0.8943053342785726,-1.4565376939631256,0.8436508434334632,-0.15617109056152306,1.5927362186717016,-0.0006275689581703585,-1.424372327269268,-0.0739436278843683,-1.6492580722926848,0.9580509837476895,-0.9361594809916703,0.9739914881425515,-0.03971705393633822,0.43943176482593327,-0.2380458120739365,0.8050608666722929,-1.5315013761610055,-0.3214665464541821,-1.603816571304202,0.5956112960849107,-0.05259748546100916,0.9293824266485798,1.3857386999081962,1.456120525560559,1.5087755540167724,-0.017543859649122806,1.0350884551655002,-1.070225647312056,-1.5442567371485088,-0.3862077076757512,-1.5255922484411006,-0.3686669805418085,-0.7778961332909556,-0.6337634861745649,-0.6014301047580313,0.9589686162030028,-1.7870284946407917,1.619372760114797,-1.7925416808019,-0.7933451026673441,-1.1480903084751488,-1.2030740914447895,0.1312387984652127,0.7014190950834601,-0.038806999294980334,0.347163818553052,0.5016536296109437,-1.22969689272092,0.4902605165254376,-1.2115142538660022,0.19254476734476492,0.7192221899660863,-0.8772086359873335,-1.2631526944700673,-0.6315791018851942,-0.36846285958073083,0.71892808833417,-1.2636951449736402,-0.05438181839545557,0.6798829368565208,0.7090202403319641,-1.5308513898223381,0.3431505582311877,-1.673640451788148,1.639530806830443,-1.0004162725698584,-1.6569442048276528,-0.41609371492016095,0.45244158753209585,-0.9402880422577208,-1.1333961311897491,-1.1398810082240396,1.6835650689231505,1.5080026134652564,1.7303893311674194,0.9460722331770524,1.0168137735658256,1.297811980463178,1.7190790659970514,1.684196468365884,0.8069868144655638,1.1578947403932198,0.4736848239011981,0.5788352901572015,-0.10588512712577676,-1.7388867610361773,0.20585149329286745,-0.5001844196873686,1.4919508290311059,-0.08085395061389203,1.1987817362650792,-1.463731049966248,-1.0591519017394282,1.2996837165164061,-1.4513040379407147,-0.12244726922739449,-0.5343067279329917,-1.1386511873092993,0.4268659700563243,-0.26037498552756466,0.7060802324739975,1.7055381511941008,-0.8812762724024032,-0.8777329365181371,0.9997435163817316,1.0701537463072,-1.3858309573882142,0.2807334681350616,-0.31580757710224217,-1.2280701754385965,0.5263170624681769,-1.1757213028473665,0.8235026966199863,0.8570376039625915,-1.2348401064371382,0.916818310109409,1.06524104664821,-1.4546488906045987,1.1099291836772207,0.6070382366551959,0.16948248897838525,1.3112632432262499,0.3454862891765746,-1.271961631815788,-0.13827805959896355,0.6309233950568159,-1.7266230306894237,0.23921352158815032,0.7318789696446183,1.1491428078152426,1.629211868888681,0.578480957968579,0.9824598575499051,1.228291092303419,-0.1226713798378258,-0.40349881360522577,-1.1228068889975389,-0.26315756232142523,0.7894740040060167,0.4382333073391217,-0.7378920897454598,0.9794828477259271,0.5715487960026353,-1.2425986530783661,0.3793614166082331,1.1751999259906145,-0.11601126416381094,0.804369555117779,-0.35751897502156754,-1.6920713090451946,0.8847190283424554,-1.4329123608619445,-1.594435983038841,0.566776350657257,1.2142107326993086,0.5324008540512304,-0.8914021883829987,-1.357825560433905,-0.8975783347033142,0.13983805443094866,1.631727363172956,1.000186454403608,-0.7017036520281456,0.07014995024250191,-0.7719290672252657,-0.12280669551642456,-0.2631582849893227,-1.7194312726401815,1.0167832036234217,-0.2829741601746789,1.5200253662207486,-1.4862999786702742,-1.3553974551242054,0.9505735266661273,-0.26819963679414444,0.5454690198879859,0.38111418240020895,0.4136213891418744,-0.9363407415734364,-1.4100875155366037,1.4326728463438947,-0.36593464430592343,-0.22586967826886176,-1.1426839679893115,1.2698395510739602,-0.5847676355554405,-0.7575224971811946,0.7185937357093771,-1.1226624544621584,-1.052559382951209,-1.0701375056973264,0.7192700108366008,0.3157908718432342,-0.6666666666666666,-0.5263157894736842,1.0877005368108021,-1.2108727453895671,-0.10677663479870385,-0.5823866678729065,-0.3588305833386959,1.1074144462282092,1.2921027099506013,1.002989745781343,-1.287163807554788,-1.382417334540855,-1.2448275812726879,1.4574615123586732,-1.7150945176937171,1.3779014241619807,1.3350862395254168,0.890421201555904,-0.6463005465164985,-0.04365584975059019,-0.9522895177701823,-0.020124486183033006,-0.913137824471427,0.7367049220121991,-0.8946483610111071,0.8772021526267921,-0.4561377420493713,-0.8947368421052632,1.280701754385965,1.6140350877192982,-1.2982425072984625,-0.42116631064405446,-1.3689620157405387,-0.3170910286293531,-0.8452877039727359,0.13431089526893175,-0.6416838159266348,1.1069558918981668,-0.6179038937635307,-0.939109320711365,1.5841509979904052,0.635362264334663,-0.41435347620905644,-1.6183023740000615,1.1774178045005637,-0.37826908596537195,-1.5862817609174125,0.8197527222729868,-1.3012581757306882,1.7175964204191785,-1.3516454972601233,1.5437350882172012,-0.7192410420903372,-1.368405939515667,-0.5789468087652804,0.017543859649122806,1.263157894736842,0.24561403508771928,0.052631993425099714,1.2280701057343528,0.5612902761199723,0.8241804316571226,1.4025816054387894,0.22643324374084078,0.2078634206294206,-1.4067772975937958,1.6102736422580564,-1.1092242058463686,-1.584309537419066,1.0272023971736717,-0.11390049700063914,0.13286123464487928,1.5043633255104625,-0.5996288556573496,-1.370705855873872,-0.6334711801622811,-0.35240064408422217,-0.7376393781880276,-0.10546224942454553,-0.754389222669231,0.7368555833082377,0.5614036525641891,1.175438768372826,-0.17543859649122806,-1.5789473684210527,-1.5087719298245614,-0.9824561403508771,-0.03508783052710449,-0.26315926478691437,1.2105072685542198,-1.7370806729867991,1.0168702958820641,1.3847938638199833,0.38502720355712,-0.03575572458837762,0.6832180487606481,-1.2823177845307412,0.45256973720494653,0.6969737116631902,1.189368058289599,0.38377894048417965,-1.7387470148387012,0.402224778482074,-1.0360855418101638,1.3151883994242803,-0.35138533868835364,-0.12290816518235784,0.24560987305300083,-0.543859604068417,-0.9999999862979468,-0.21052631578947367,-0.6666666666666666,1.3157894736842106,-1.2280701754385965,-1.631578947368421,-0.8771929824561403,0.5614024592056049,0.9473560574910681,-1.5438939382016696,1.105170833076145,-1.561457026843173,0.33333465455796724,1.0876902880346346,0.6490641734561812,0.12256900255320002,-0.7023802815196449,1.2446820337641022,-1.3691002156829557,-0.3339058983101166,0.7889606400291006,-1.4564313703808878,-0.14061290430995518,-1.6668343044506981,-1.5089304283824723,1.070089363980951,0.38596488783957394,-0.49122807017543857,-1.280701754385965,0.631578947368421,-0.6842105263157895],[-0.5263157894736842,0.9298245614035088,1.5789473684210527,-1.631578947368421,0.9298245614035088,0.45614035087719296,0.8421052631578947,-0.9122807017543859,-0.07017543859649122,-0.8421052631578947,-0.9649122807017544,-1.087719298245614,-0.17543828516574286,0.7894804085999905,0.12281374190613507,0.8245616836905334,-1.0,0.15789473684210525,-1.7017543859649122,0.15789473684210525,-1.0526315789473684,1.1754385964912282,-1.6666666666666667,0.21052631578947367,0.07017543859649122,-1.1228070175438596,-1.3859649122807018,0.19298245614035087,-0.7368421052631579,-0.12280701754385964,1.4736842105263157,0.9649122807017544,1.4210526314902068,0.3508772218209026,-1.6315790124183558,0.08771668184252208,-1.2105292942049284,-1.0701718502578623,1.5964786043638663,-0.22808899505894706,1.4210207391878436,1.6841754531480353,1.0174984599583208,0.05254319957732659,-0.5089232789327116,1.2981883557424094,-1.2631784219852211,0.0350659910864288,-1.7544096768542987,0.6842010099738468,-1.2807035266406517,-0.5087710323186118,-0.19298245614035087,0.5087719298245614,1.3508771929824561,-0.22807017543859648,-0.6491228070175439,1.6140350877192982,-1.6315789596245018,1.631578869999059,1.7017478891102702,-0.4561444108564953,0.21052492289031588,0.05261345070000861,0.9999767158814165,1.0350791284956466,0.6139897664780765,0.3858315316451357,-0.7721131901156032,0.403260291727016,0.719021572088869,-0.6847412940916917,1.29759792848686,1.0695921208037562,-0.14108730170257583,-1.000728069490827,0.19265555182722918,-0.035136531845207736,0.7543887370205336,0.8947551298402355,0.7894784506488488,1.263154813340841,-0.2982456140350877,-1.2982456140350878,1.280701754385965,1.631578947368421,-1.5087755099791629,-1.1228080610099522,-0.17542572897614447,-1.263121246940728,-1.3333318309220803,0.6840739908332363,-0.4737861961708914,1.6315416549988464,-1.456402575753475,0.4030322254922823,1.2099949578352063,0.38548488990682644,-1.193875121469493,-0.5799408685140083,-1.456797589270983,0.280254070953874,-0.6674286592137199,0.9993029536551441,1.1402396632523715,-0.3857955318301062,0.508984244490644,0.8773907137011068,1.5263695432951598,1.3684275046147778,-0.19298245894624422,0.5789473684210527,0.12280701754385964,0.15789473684468808,-1.4035211411704895,-0.7543819161313434,-0.4736462847569389,-0.17545930294162657,-0.5088076173469555,0.5789368328374412,-0.6312541548130517,-0.7539613189907879,1.1933050908494982,0.8594431132114447,-0.30062673795749645,0.24105988936487838,1.5058094951691943,0.2982388363043356,1.142353308909398,1.6350259614201046,1.6170910920391675,-0.38342961283280713,-1.4894645193742126,-0.35012069000050333,-0.08758912070313155,-0.5964500473939055,0.9472948188307652,-0.4561649386347082,-0.4035143973336357,-0.29824561451323167,1.4736842105263157,0.15789473684210525,0.3333296464254158,1.6666750270165163,-0.12274599228190242,0.26318544336306243,-1.2455425734965029,-1.4733599089225755,0.9304777934145743,-0.5246844624021303,0.4239841090831827,-1.0497285547048019,0.06841812239592455,1.0787414617160067,-1.0604416727220556,-0.9119400152255869,-1.3078702232854456,0.43322446546110877,0.8183614662939783,-1.3412895361465325,0.7075866435428723,1.5811276870528566,-1.1754538709997953,-0.1760300741051961,0.7187445349618313,-0.28094319705807075,0.9122261845947397,-0.5438665173204418,1.263157894736842,-0.7368424304391741,-1.421031104343821,0.8421108399684379,1.7194232844011847,1.7196067163231645,0.5096482861748869,-0.6306085707942403,0.002150564289408782,-0.5918908280211553,0.2712458848113566,0.3604952250269736,0.31968032150272996,-1.4087865684015448,0.5560813527862464,0.8819804499074353,-1.6505160455964165,-0.39854723387795415,-1.1542391091333217,1.2807813827361234,0.04700738572140931,0.11118910885410604,-0.8583035293856789,1.332270719566977,-1.0366599362098883,0.5782264006007567,1.2630038001330135,-0.07018051839517468,-0.5964896780665322,-1.6842215823581543,-1.3858645027154497,-0.6312437805265717,-0.858734601431554,-0.3668350490800762,0.8974883085609667,1.1620980848917046,0.12996220657485,0.4688320627192375,-1.085629269367413,0.5662179077258752,-0.10562708428624817,-0.6437842880431632,1.1252089697433671,1.2214256447471548,-1.3103051368546559,-1.3372982946280092,1.7671522739568128,-0.7633871398596638,-1.4194752523868779,-0.14695822630411137,1.670891188445546,-0.3338927459085698,-1.4408778277155738,-0.15958321854208732,0.6312708648499618,1.6491185161311983,-1.5789388422384123,-0.3333187033043782,1.5439517806025276,-0.5783776048485392,0.8961235634513751,0.33652311246879363,-0.43295058431293865,1.0970259519925987,0.1904026539027471,0.9701666654720419,-1.6176417443764164,1.2101685910527766,-0.9881321534663754,-1.7432900173928,-0.5416130832712313,-0.15029522775879328,0.6719539016325009,-0.8094896148349825,-0.7908190791665894,0.2397509516977877,-1.2225485061688648,-1.2472400748069286,-1.0092464960210707,0.2476443119825599,0.4545742367973054,-0.2647288184099316,1.5962240173667133,-0.07017945022834174,-0.7719091854515603,1.4912556292621197,-0.666475494337902,0.7024440204502753,1.423058777680678,1.4430639960496865,0.16565570865301704,-0.9874876105604925,-0.10410808249650709,-0.2698811769369079,-0.033996863836988585,-1.4173370868614252,0.7999496797087952,0.40566437220691853,0.8483817268816617,-1.6705934526903106,1.2989763268204306,1.7320661055274353,0.4007500248536793,0.5731276518089556,1.5337621121429974,1.125994939775632,-0.37233271701691045,-0.44987391726230985,1.2463683371933323,1.2977245140170381,1.368346921480413,0.7368431098422089,0.9824790000213104,1.1228449515592538,0.5266179625914497,-1.7183517739314513,-1.5591374367147868,-1.1883676843156212,-0.5882843223364426,1.5042487155386448,-0.6811020707389176,1.485948602970453,1.508316936875288,1.54126292292449,1.090044678135129,-0.762724109824916,-0.7769194935644728,-1.572965208266621,0.05086359737292601,-0.689370342709095,1.241370789496025,-0.007676415500691639,-1.641041496409881,-0.6614167262205336,0.7189068396058061,-0.8154148906532019,0.7214960915328297,-0.8598024940213334,-0.754401328637478,1.5087695588140868,1.210543945556222,-1.4034449224631798,-0.8768197108400412,-0.7710744414693181,0.019360647644319308,0.39043997855163914,-0.4647084197555877,0.7517585449256071,-0.15153943238181186,1.697955918971257,-1.58244985576614,-0.009245074205105694,1.6458957651754902,-1.4894712374413006,-1.7511658176965499,-1.5276895740703762,1.5049654019259116,1.223471783226173,1.4338096007155825,0.7265489175594267,0.9878734758363833,1.1623930725535874,-1.3319936994621846,0.6776154989920102,0.915402737880156,-0.2279752597124027,1.614062511679807,-1.087717765069099,0.6140514730562078,0.9474137204323846,1.5616641702899783,-1.7010955888068988,0.29961381302452145,0.794273402373177,-1.3578727599991272,1.1765154324363585,0.29104243632755816,-0.21420395267921374,-0.6739088222627818,0.8796693554442843,-1.1478408592907572,-0.9525076503317335,-0.8808863749919418,1.555325807468782,-1.0912141370850936,-1.1775210198509052,-0.47834551987088736,-0.34800889654242373,-0.9115864736416874,-0.7695526318606936,-1.7003187375213897,0.9590813085922136,-0.1014054063791686,-0.7541361040076904,-1.1929275410299873,-1.175431463168836,0.07017542490016672,-0.24559718151283583,-0.7191542104827586,0.17579571125934734,1.3696797999519272,0.9705826118346038,-1.583286354565643,1.3725017538334787,-1.3570559423999151,-1.3397846941503146,0.0740657848411343,-0.9687756856238562,0.07490455065511634,1.1108928836607384,0.8860781347743248,0.6418634335231307,0.6147581415905451,-0.8940805940883696,-0.23458483126705143,-1.0020241678877027,1.6626254397030626,-1.6659654307240777,-0.157510627771374,-0.690247004876602,-1.5220511790042015,-1.5961943119479334,-1.0701330146663388,-0.4385802353079695,1.140350864073435,0.2105339361392162,-0.7893845740733004,0.4212796723349474,-1.4371008205244244,0.23560176638913538,-1.616022010735978,0.6368157648818286,-0.025701158734523114,0.23357304275019503,0.39976540549798883,1.6564745502487697,0.7010520067594547,0.38761957244882556,-0.694044015951682,1.540604530079296,0.9528644187339603,-1.471391955661522,1.1483801756620808,1.0474977591977448,1.2752764338084481,0.28034991123507286,0.7708891963073602,-0.3929647533904024,-1.6277602426797078,-0.9821066779601447,-1.2807019534948216,1.5087736094762605,-1.1754385882160352,0.7894738157118507,-0.08769520264518833,1.5790740621244306,0.03683049618182094,-1.6231782349757693,1.7526763885920191,-1.398689341487398,-0.9759166364309084,-1.3497708065181415,1.2915293144369822,-1.2398073863103969,1.4525063988089264,-1.4371877874016519,-0.0787414895343238,0.7556224935276592,-0.21940374187503559,-0.06753101950676295,0.8137891937681564,1.2069488277903924,1.6104527332248282,-1.7023629433160887,-1.3887894698321734,0.5000003689169039,-1.3649493966565553,-1.4382475926987048,1.140342010341486,-0.9298229944846181,0.3157895455183479,1.6315779091070919,0.000009764310608095662,-0.5437932848431382,-0.4365771077267822,-0.026624942833011905,1.2953659299010805,-0.5419494544228831,1.019603190197469,0.6993523532952227,-1.6738802828591008,1.2166144656356788,0.25903471031945335,1.1269646432014144,1.6789105253539742,0.05897108093504804,0.5716364635236498,-1.1034081137167586,-0.9228155064165372,0.31552078221110375,-0.4917431634902702,-1.5622508346126935,1.46830554110815,-0.8176776883554449,1.3884636455850141,1.2809386250957426,-0.2982198559316309,0.24562325781723748,0.2631578947368421,1.2280692017714894,-1.1929706171665757,0.47357114228201563,-0.31379124170964046,-1.0975115229716859,-0.72466193115734,-1.7391619018333024,-1.2304685361109515,-0.6549837493115733,-1.5873976590442367,1.356028385046968,-1.461703780110015,0.3037653455401609,1.368318940231936,-0.6899742798582906,-1.5166755008897506,-1.1240825433231334,0.18102836732273697,-1.4201964073562527,-1.4915081373898857,1.5050935557127654,-0.5524631050124658,-0.34656573501686005,-0.49005328222564565,1.0526604085503348,1.4912049656075022,0.2982586454131039,0.9298271523574617,-1.2631575719285542,1.491233425614746,-1.035293307460176,0.8612152055663032,1.2346803242703486,-0.0600414223597867,-0.23301221470077207,-1.56638522319596,1.1149234594058404,-0.13423570736568988,-0.3679909802349309,-0.1329282159219118,-0.04682867622757239,0.37448128906802824,-0.001996810871609858,1.1836371185928825,1.7491536339334663,1.599887882390072,-0.5265392819902439,0.3473617368480144,1.5358880021011883,0.3916945665598251,-0.5769597331365456,1.1228683406493685,-1.526572064058454,-1.4561630156901322,0.7719060854639296,-1.5087719329416676,-0.03508473572096667,0.22815393284841456,-1.6142117784954173,-0.4196971798907112,-0.3624846276864197,1.1670815683662283,1.2928405982267304,0.837474260555368,0.028713744829910848,-1.3623646826897002,-1.1610523280048857,1.303542767365508,1.5558965354796,-0.6500796305048151,-0.3474457043005787,-1.4497222641813041,1.4834260276339792,1.1413105440464961,1.6279602248081526,1.7287680763000486,-0.27501460755463897,-0.8044390764947636,-1.579077265881942,0.1220762651371744,0.4908992068494302,0.5789384708480114,-1.05264130541711,1.105263157894737,0.6491259404785097,0.33352320698241955,1.1229561045812382,0.5278781991770495,1.70694317045826,0.14914334022822132,1.3460705793357712,1.2606640008780898,0.9965967261244154,-0.516697059544577,-0.4905659509429206,1.732405723461584,0.41269511440668294,1.1706188240284092,-1.7270561312748245,-0.030431204705288917,-1.485284846932826,0.8745352348911339,-1.4644603683845099,-0.5735714558087077,0.7040029699343543,-1.5263696101582518,-1.667803206503747,-0.6850759524576707,-0.0880728834492194,-0.3859660518261419,1.4912267118052542,1.6140350748211671,-1.070175431514924,-0.6839687332817475,0.22848137110945443,-0.26155118931578714,1.4431641886952868,-1.4827362152584749,-0.512946942334052,-1.1400849309185055,1.6854188811901074,0.6120179821282405,-0.9012070987102068,-0.3043334399148296,-1.6026486725547944,-0.7275924563986472,-0.1980728198671948,1.5261131720495429,-0.7899646257618129,1.2376789380293032,1.6545951988508538,-1.663920176518761,0.386275465299034,-1.667514838147226,0.7006610366885773,1.5257840169939458,-0.3861602822318055,1.140335186634447,0.9298245614123358,1.4912280576803743,-0.5789473680173409,1.2808842817235107,-1.5084358048148634,-0.5953033731093501,-1.715744945240435,-0.8525339658318157,1.1873095520289871,0.5431694295462718,-0.26033810998714507,1.6702707572364728,-1.1535368167219333,1.1140679015759627,0.4457049788282224,0.311265842855255,1.3403084334345445,-1.5883993981494182,1.658565282561012,1.1456776338941062,-1.190267591413134,-0.5429605186257608,-1.2108832377921792,-0.6673632189655381,1.017053515924117,0.5963397542749254,-1.3333922814541317,-0.789474894591543,0.01754385966541895,-0.9649122807017544,-0.05263157894736842,-0.8420916417524027,-1.4910012304415883,-0.7534933086731043,-0.8925213891518013,-1.223546539653636,0.6394748184745382,1.696215405122251,0.4890555408310824,0.7195180733003774,-1.6807153555958327,1.726734837752559,0.3368558492980614,1.3738500469482788,1.5410284236355514,0.3524650966401256,0.07591914993395397,0.424209673860643,-0.875869915214987,-0.5434439305117018,-0.2631138102884,-0.5615713769830881,-0.5264361495243493,-0.07022874283409282,-1.0701916275194037,-0.7193055306450612,0.5964912280701754,-0.9122807017543859,-1.368421052631579,1.4736709728782356,-0.5437941934239034,1.211277031956639,-0.9635727429063234,0.2826376600901717,-0.7683572544660906,-0.08211621647864507,-1.57173709506095,0.08015251553116942,0.9427286727494729,-1.3182527638348707,1.3991264226296987,-1.4153226169761852,0.2658210973597211,1.1279723257871783,0.42668061611099034,-0.6112790591994266,0.1065412584431671,-0.10442396201183352,1.176107268467664,-0.754230002397883,-0.5788866772989575,-1.175438755986406,-0.9473707654218213,0.3333333079147361,-0.7192982456140351,1.105263157894737,-0.9122807017543859,1.456139068495634,0.9123312408810001,0.7197109850409011,-0.7712084010639912,-0.542757283767218,-0.7003170276483498,1.3349878680412068,1.4234988443073604,1.3207217260158866,-0.6935762974529228,1.3264409539267032,-1.689986269739746,0.9919446856672777,1.3404560197360875,1.2167617791335354,-1.6086263135022318,-0.2253414964164051,0.6153347368787967,-1.1744986318009971,-0.701038269932188,0.10556335697848408,-0.9122081203213195,-1.2456029179751393,-1.2982456265702922,-0.9122807053985662,-0.5087719298245614,-0.7543859649122807,1.0350877192982457,-0.47368421052631576,0.8421054314962048,1.6140966013631568,-0.7540787313467827,-0.8941259132921026,-0.5958987059627964,0.9830623377501047,1.5972778220927146,1.1948017219039593,1.161222884665621,1.7415556202877878,-0.9589980578997215,-0.661397880508447,-0.662770607612538,-1.6102753720848615,-0.7865900881599571,1.176871540117682,0.22884478049894502,-0.7364326921244571,-1.2803989706308376,1.228220439570766,1.2807212871553022,-1.280701748744558,1.6842107571469556,-1.6140350877192982,-1.543859649122807,1.0,-0.8947368421052632,0.05263157894736842,-0.40350877192982454,-0.9298241866569628,-1.3859347237666275,-0.36838264004409726,0.08773946766271502,0.1403729668619071,0.8245859413370242,0.631688768316862,-1.3331720884987035,1.0180136208024995,0.21129141618702266,-1.1396683533138225,1.3161109974000913,-0.17504570326028834,-1.6311211114131308,0.21081996896140268,-0.35075146892672016,1.0702293011215813,-0.5964807230131182,-0.9122564728923063,0.9824611645512322,1.4736842105263157,0.3333333333333333,0.17543859649122806,-1.6842105263157894],[1.736842105263158,1.5087719298245614,-1.368421052631579,-1.2105263157894737,0.24561403508771928,0.45614035087719296,1.263157894736842,-0.07017543859649122,0.3508771929824561,-1.1403508771929824,-0.6491228070175439,0.8771929824561403,-0.3508771934228379,-1.0877193074444962,1.0877192890820822,-0.07017543897830505,0.7368421052631579,1.5964912280701755,-0.08771929824561403,-1.2982456140350878,1.2982456140350878,0.7017543859649122,-0.3333333333333333,-1.4736842105263157,-0.7368421052631579,0.15789473684210525,-1.719298245614035,-1.368421052631579,-0.8421052631578947,-0.10526315789473684,1.2456140350877194,1.5614035087719298,-1.0000000019255035,-1.0526315845869074,-0.6842094284400431,-0.7017466780587843,0.9473866759733679,-0.631556881983647,-0.8070170575485309,-0.6140604407731447,1.4736866306678824,-1.0000235870410135,-1.333434165419317,0.2630654442192548,0.578928285873029,1.3684159049573417,0.7368424690467879,-0.7719298192993836,0.6666666675053378,0.5789473484867322,-1.6666673622043269,-0.3157904307497755,-0.3333333333333333,-0.03508771929824561,1.4385964912280702,0.05263157894736842,1.7017543859649122,-0.7543859649122807,-0.4736842105309461,0.22807015146410065,0.385965478477102,-1.298245131818152,1.719302102686036,-0.5789360609159961,-0.8596129956252491,1.0702073817771358,0.05258997133597058,0.08760048829309176,1.1753348041827172,-0.21094948001084587,-1.6148214670713263,0.45570673304454545,1.33305333229874,-0.64927585245229,1.4034890943540614,0.01756926797697966,1.7017542011233127,0.2631503260994913,-0.9122857483540882,0.8070396126763024,-0.8245461533273268,-1.1929790742132007,-1.1578947368421053,-0.22807017543859648,-0.05263157894736842,0.0,1.1578947362675687,-0.9649123504549999,-1.1052625491094257,-0.5087401533578774,-0.2630885897759154,0.36853964703306774,-0.4559031211183129,0.6845388327245675,-1.6838888712420768,1.000242666381523,0.10531869250893804,-1.7369977171026718,0.03483578083600415,-1.5786292589564157,-0.3151390125125667,0.9304926418987263,-1.4029034230559079,0.00029014459807898623,0.8947919988333023,0.10525796890222137,-0.5965641666460542,1.5438140176914037,-0.9298372047301576,-1.6315737450829746,-1.1754385864830825,-0.7368421052631579,0.45614035087719296,-1.1403506623879682,-0.12280644002212407,-0.19296094138419503,-1.4033782951639733,1.684547485124271,-1.3326949569052695,-0.7181472626142903,1.159847216633879,-0.3477240850031564,-0.8898323718715351,-0.04598385483635627,-0.729046653175784,-0.762646796865831,0.2734361288093197,0.9560857015082189,-0.8890303484382062,0.9684325358544689,-0.910047635832544,0.10688176401214183,0.2301798861019871,-1.4711813867645962,-1.61264578247438,-0.45599230181605005,0.07018103837143722,-1.3859264171691534,1.0526608103319042,-0.40350876218854204,-0.38596491228070173,-1.4385964912280702,-1.6315786785706832,-0.14020651715831045,-0.40294743282686496,1.4576275207939098,-1.2600506298408773,-1.3806165873162044,0.6397627661089949,-0.3219406789643879,-0.10780898008682516,-1.1413025263232484,-1.3683060018858053,-1.6116419402937432,1.0913351714490098,-1.3139021460590428,1.733453682871231,-0.2361536029493418,1.5337957069247161,0.6213366693763037,1.6040224665148017,1.3917746946068557,0.3359684001968087,-1.6835564410727648,1.684514405511893,-0.40331626688721284,1.3860065033342548,1.1754381886352676,-0.05263157894736842,-1.1052631574087708,-0.2982256668451057,1.3162552672573908,-0.24380027314684588,0.2492380836793173,0.6032869316634502,-1.6735598569108188,-1.1087862749295674,-0.03685178988927055,0.945384082781656,-0.17866241478838185,1.34871439344683,-0.6285821643738074,-1.6744115749870354,1.7480299149004883,-0.4682174364402452,-1.1229501041969856,1.0152352181563988,-0.8777121377972139,-1.125623489165699,-0.7111797102591404,-0.2773380762955883,0.9137026506048961,0.9129314822512448,-0.8944423563083209,0.5790515902057456,-0.1578929612468113,-0.8771930976670963,-0.2982483195726431,-0.22803532147589087,1.2288826809350943,-1.1552189706390545,-0.06556418189015338,-1.5891473971022243,-0.8152175479408907,-1.2703303326841007,-0.991825909806765,0.9515551316381543,-0.5226528997226456,0.3415894889042912,0.24552619621149613,1.2540066194857427,0.4142047882462246,-1.4171745596272693,-0.1415526450524073,0.12264919635441511,-0.033754002407624044,1.5929961318661965,-0.6064351274810456,-1.4011286577542144,0.6674042189332099,0.36928580499631636,-0.5433611210951637,0.3510738050993671,-0.6491232294956731,1.157894254854045,0.42105736678050143,-1.298241608489008,0.40424617360951864,0.6160939198249131,-0.34758528728305865,0.9162326225649655,-1.663621375702346,-1.736447185814112,-1.285666977067039,-0.09692879981994013,-0.7436973502550839,-1.296541915416767,0.8553631080058611,-0.6443225017461026,1.4787309095397339,1.330434807503383,1.2407936836836266,1.4375047334610864,-1.1258234577963817,-1.6054238041455553,-1.1194983402700753,-0.790140120137802,0.5254842734141179,1.0877213256856357,1.105672462603678,-0.2805665637747282,-0.1052526233870467,1.3859648394600008,0.4736886432624914,-0.719315691425045,0.4739002494372155,1.334264677024063,0.6153070630409835,-1.4730916905004439,0.40111166395546644,-0.4993034094341407,-0.9436335386152747,1.3533028016645725,0.3069546324652973,-1.4731861643330735,-0.6713724419110361,-1.5917836203104976,1.5487456887671236,0.8572606232421708,-0.40454348874120377,0.6296412418588804,0.4293616922549201,-1.349518850785364,-0.4762418640943299,1.663394450156577,0.05044806968183425,-1.403996769270494,-1.666464743722946,0.6140995769712889,0.4210603611183851,0.47368421824897194,-0.1403536787286329,-0.40349463511375655,1.737120922986695,-1.1925717955064514,-0.40317884341536225,0.5949224335225891,1.7314521598492871,0.7778664823757063,-0.01620304056743245,-1.3651880381659909,-0.05901932048073305,0.9520852525749633,0.08892479935448495,-0.25100506582153115,0.7859468067461228,0.35899481801189115,1.531924670142355,-1.1089141394887982,-1.1391044323535808,1.555242060407705,-1.357462343527124,0.16997352575513666,-1.0205889277796518,0.6656765263862452,1.175469565311001,-0.1754430411383889,-0.7017509817886609,0.8245614048025736,0.3684147273260059,0.01754275400087405,1.684312275576768,-0.6314992278710486,-0.5094641840882914,1.10227339444018,1.1683954378949784,-1.2228828858750478,-1.2599245804175212,-0.6411217259010388,1.2461175712104058,0.11869744206534635,0.6780822621233336,-0.5217842940661279,0.04262294562574592,0.9975035802873785,-0.749760289673103,0.3044606310308934,-0.23409484941414113,-0.7289101843318608,1.6761869013616575,1.2043356395984326,-0.5302213325057342,-0.3874529510151347,-1.3685225208835097,-0.035116240365720634,-1.035068507959711,0.6491228059370084,1.614030710286215,-0.3158032632140583,-1.227986825236225,0.6313543905532464,0.31409650315055193,1.5566195060682673,-0.3592061684729755,0.40968327695748674,-0.9578618145002042,-0.6700774365698025,1.1298638461253352,1.0722238063274354,1.510075265753741,-1.5125370580466853,0.5224745450675538,1.224722620389741,1.242560601311658,1.0863293573040609,0.5353451191399108,1.2542906778091452,-1.2352261391974064,0.5027803247244708,0.17103967278004392,-0.4230836529545633,-0.6316839145860619,-1.5438657028767058,1.421065015168699,-1.0526313182547844,-0.9824573735474242,-1.1228157280275586,-0.33325603699632345,-1.0355047932724073,1.1200487020065157,-0.9359541780290193,-0.23687837658555824,-0.23723817849196716,-1.3569390705127424,0.9316736621220341,-0.9541869814204338,0.9505778487630171,0.6711651420396285,-0.544527623377057,0.3099537768269281,1.3941296387573976,1.5355731774397334,-0.4039613857203287,-1.3377583800415345,0.20474207813795317,0.169351351176533,-0.12874736172669102,0.13556292324708355,-1.7566095309619185,-0.5965401639423097,-1.6666909881094372,1.2631570078965104,-1.7543848082963254,-1.4912278245455528,0.7543848833058052,1.491325739970157,0.6659523099240697,0.24150984534635644,-0.2179892430890382,1.6045852575261086,1.4478958892485556,-0.2501738406856066,1.5280991251401126,-0.11381596749536202,1.5263658752778024,-0.4368424417013933,-1.0248557446738114,1.1781688441064446,-0.7014913093794499,0.6925856747888032,1.5315206037317672,0.08914339751477747,0.6462568226271338,-0.3564192713242099,0.6255056619077745,1.3459550382418803,1.5417743203636038,-0.5789431012190587,-0.28073711835498394,1.1929824232726585,1.0526316873228836,1.1578956868254087,1.1403640980179601,-1.526240121096805,1.4902686458069405,-0.8467600840808936,0.6235848768546421,0.21858735836960538,0.061431671339696375,1.1869240724161212,-1.1049046644867766,1.4635931641512587,0.05046697302660581,-1.5330047875939603,1.1735946403707842,-0.23949222165454745,0.204171298006345,0.008299895339118084,1.2892244030877587,1.147064987727595,0.14105454781580357,1.7150142597153712,0.08185134717487215,1.4863296451668118,-0.5104302483341842,-0.9473299044320049,-0.12276665555240393,-0.8596492284379367,-0.10526470269155705,-1.1578939438047051,-0.7543461847118308,1.4561986041083426,-1.071189154390351,-0.5309724911440975,-1.2004479818774982,-0.937968674605235,0.3952829890374554,1.2920970550172266,0.7189857826676271,1.550768534033657,0.36333153150195513,-1.1017289284116936,-0.3625899881696877,1.6990477645821807,-0.02781700185343608,0.6901005851531397,-1.4129557683435972,-0.710885484498405,-0.628190634446946,0.1029911192263664,1.0474890635744027,1.1011377699827087,-0.03626759256888015,0.43861277069052534,1.4736789462118707,0.4210525893972133,-0.5263157894736842,-1.578946986752446,-0.456109028314942,-1.455893161655385,1.613867685916692,-0.05538371717517613,1.5915962417526397,-1.356452612982235,1.415388186704463,-0.9693169052683211,0.0011506257183440192,1.3738623573461948,0.9559121286285226,-1.1068318663259171,-0.6304943039442392,-0.1628795822141907,1.5313894976101599,0.9686652240726489,1.3049870945486641,-0.09687889913669355,0.8112674789015465,-0.8423479631159075,-0.5468916479960797,0.8570727583320744,-1.5795922184082214,0.6139815020436229,-0.12285728746920092,-1.4561375410471742,1.280701754487716,-1.701754353215847,1.7194137879938176,1.6497402321404273,0.036669493058263516,-1.10503118640276,-1.597437173187105,-1.3173397857311708,-0.9493347718365849,0.788818245613983,0.3539165750566244,-1.680908461989999,-1.5383915318880195,0.731628507248716,-0.14111035692244936,1.4687522320883581,0.7603197997698546,1.2675385124025405,1.4806421014673081,-1.570894677403918,1.373104362379963,1.6859409485796024,-1.49159534079452,0.8584062953334467,1.0347088589787996,-0.6141911792987342,1.122761269569229,0.4035087317136857,-0.17543859705968615,0.017544559517313332,-0.8945193233363179,0.2995527030247604,0.3013672486643627,0.5299502557984835,0.7227714571018443,-0.6455296079579159,1.600477180316817,-0.7327118744023077,-1.224719609300859,0.64946416842086,1.1247073843780928,0.7993951917109046,-1.1093658989236144,-0.9705798074719417,-0.9925768673280609,-1.39784851103598,1.6388101884289576,0.042155365693469025,-0.5909392098045272,0.004057496639109592,1.2297063915063422,-0.1227552177312558,0.08762244681524342,1.6489742752348653,-0.052714697064758696,0.7017522837208604,-0.17543859649122806,0.08773286939117245,0.7371169824875621,-1.7351544577388571,-1.5217883061196842,1.3229081307926074,-0.8338191760610817,1.3259913623664144,-0.40876139340573425,0.02665176175089433,-1.2601143516805526,1.454017896802546,0.1051598577055933,-0.9578810348969593,1.2913471599732287,-0.515077183812571,-0.6396959830794324,1.2348974730983677,-1.2031683867157916,-0.08051925295059004,0.3570824248652687,-1.6966706705506496,-1.5065084679559344,-1.6309249369576173,0.4036584257657494,-0.4035296437890878,-0.01758434616206789,-0.7719246155926134,1.473684209029132,1.2105351036383454,0.5441462438755438,1.212019992339142,1.0046008133332271,-1.728552768518282,-1.1277733920320487,0.6663940313652372,-1.7341602204353428,0.8049526224321388,1.07706921701306,0.7562379111378084,1.144319365055899,1.3597308544781446,-0.5664200791909423,-0.7763982376787779,1.3796967388213337,-1.2367968776933926,-1.11392802657515,0.49994800999858163,-1.273762309304402,1.5660347517388555,-0.8053795257187728,-0.08722214503205088,-0.9646952862913004,-1.7543580760973112,0.6140303678394262,1.1052631536004096,-1.438596492678467,1.1228070519538793,1.7019601375796714,0.5099181208408237,-1.0666366100567526,-1.4660048369181384,0.6623175348370823,-0.8923029842955895,0.05953416395150926,0.056809933016827005,-1.2642116784483037,-1.5122282921255967,-0.5472073058452066,-1.335314742556472,-0.052827638759429356,-0.6846285894109208,1.6822902550389605,-1.706303126205885,-0.11162283824693259,-0.008134964034116813,1.0237347473400449,-0.9620390652275691,0.7901842694496573,1.7019118196209788,0.35096247070943953,0.2982535963772058,1.6315808968633494,1.192982448212362,0.15789473684210525,1.3157894736842106,-0.6841357644513316,-1.543270990249363,0.14261277314126605,-1.2229638093170891,0.22025131787237046,-0.14215808927542395,0.4755868136700361,-0.8743310664324826,1.6691302018465628,-1.103737220719623,-0.8231782089157312,-0.4368166856828625,-1.278505984780766,-1.3851610877972265,0.5064556356992209,1.6612706798924257,-1.0960479469079942,-0.6778547425917189,-1.4180271617221505,0.4221055138679349,0.12315211669960377,-0.5964821770439701,-1.35088056032106,1.0526396522364672,0.6140442946114175,-1.6666666666666667,1.456140350877193,0.0,-1.6140282384348446,1.3334853918986347,-0.12207095590637028,-0.8925552521527895,1.0917101144882844,-0.16911990586840484,1.3593197913636472,-1.7266130000202893,-1.3578844805161832,1.2211226689386594,1.3082253899577025,0.7649208597958679,-0.20010422109752618,-1.5881784918407154,0.49859196362464026,-0.15198992097749378,0.004074892966825011,0.002251156680658753,-1.1920336119041097,-0.9295452036746034,1.543928592361679,-0.7719473204986516,-0.859625072976058,0.035084966640150705,1.9315053411079993e-9,0.03508771929824561,-0.3157894736842105,0.17543859649122806,0.5087753803343973,-0.22808915189901582,0.7193271513803662,1.4388390071371957,-1.2449021821743873,-0.10451934181915538,1.0534977618099164,0.9131267846661114,0.8953208509114642,0.8248410655164727,0.47394271455622766,1.7200454355919135,-1.1745608676700277,0.8079331378494233,-1.7359895585302019,-1.543088512701749,1.7199827479461272,-0.7537213056383395,0.9128302563358993,-0.4382735673062391,-0.6314770009790414,-0.8772045644472659,-0.6666625154834372,1.5087719298338078,-0.5087719298234976,0.05263157894736842,0.38596491228070173,1.6842105263157894,-0.08771929824561403,1.6842105272757317,1.3683950139960122,-0.38602416009289614,-0.6667439382448013,0.017518371067332218,-1.4911881203514212,-0.982487924410337,1.718896823486963,-0.8079396487960804,-0.12413792435534775,-0.913519667838107,1.6832689059740367,1.6131042554105401,-0.49203253632960425,-0.035527672429474855,-1.017582070843483,-0.12265659860813177,0.42126677611474733,-0.24545282108246877,0.9123734771288355,-0.5789486845365525,-0.7719299022229975,-0.403508772712716,0.6140350877192983,-0.42105263157894735,-1.3508771929824561,0.8421052631578947,-0.22807017543859648,-0.6140350877192983,-0.9649123832195988,-0.5614037786911809,-1.1403529865347137,1.5087621016516233,1.6140272109591445,-0.4561753367007191,1.1052587170980657,1.2456040439905294,0.03492137243707658,0.28047664956747587,0.7365794510814753,-1.6142044673796732,1.403453827056782,-0.49123631861585676,1.245643385634513,0.5088280981957802,0.00004470324784136811,1.4561458824116857,0.01755378624338788,0.0000012139360283728992,-1.631578947368421,-0.5614035087719298,-0.9298245614035088,0.3684210526315789],[0.8947368421052632,1.5614035087719298,0.9824561403508771,0.3333333333333333,-0.7017543859649122,1.2105263157894737,-1.4385964912280702,1.631578947368421,-0.8070175438596491,0.21052631578947367,-0.21052631578947367,-0.6842105263157895,-1.24561175533721,-1.0175429593718308,1.070170885439442,-1.192982645855228,-0.24561403508771928,-1.1228070175438596,1.1929824561403508,0.7192982456140351,1.4736842105263157,-1.5263157894736843,-1.0701754385964912,0.3684210526315789,1.368421052631579,-1.631578947368421,0.7368421052631579,1.1403508771929824,0.6666666666666666,1.6140350877192982,-0.17543859649122806,0.017543859649122806,-1.1228071765916587,1.2631574275138695,0.4561408312866279,1.2982485850210923,-1.3333260250774586,0.14035273262634357,-0.8596055856107523,0.14044352932876722,-0.5437150468237227,1.1755279128801936,-0.5613570692943799,1.157967696168522,1.0000823525789624,-0.3332975435307565,-0.8245185500448786,1.4386039895413276,0.4210538738081842,-0.7894723759619618,-0.6842077555090207,0.8771965180676123,0.9473684210526315,0.3508771929824561,0.6666666666666666,-1.1754385964912282,0.14035087719298245,-0.42105263157894735,-1.736840542068712,1.333333330970296,0.5964916457970367,1.5789476067605699,-0.15788434653446534,0.3684636757562202,-0.5262965816404201,1.631623196312227,-0.9295932128160626,-1.1924283626763705,-0.06928950577292776,-1.2268553960060273,0.1417795234308022,-1.6124971288808834,-0.33207036033533466,-1.1398701997868914,1.00027866180999,0.5440935636969482,1.333459729117535,1.2807387934290633,-1.0350497643376795,-0.10525431905791413,0.9298244545997387,1.1228072342884503,-0.49122807017543857,1.5614035087719298,-0.5789473684210527,1.6491228070175439,-0.07017146400563742,-1.7192978467522904,-0.47368479501302907,0.6490908361260075,1.1753541331342845,1.3858202148714789,1.2804042400348865,0.8066699144512475,-0.5263138323865558,1.4564509343181489,-1.2451843044214757,1.123471477667528,-0.27955130309589055,-0.8936369246654233,-0.14001889982062474,-0.2979946259116374,0.930682955598727,0.8958715152736415,-0.8939590217040385,-0.2802292535976242,1.351151854978131,0.4387432288457967,0.9299018844412064,-0.3859637905599362,-1.7543880066886335,1.3508771929824561,1.719298245614035,0.14035077349102293,1.3684219783460685,-1.122808399554495,0.7192658894371782,-1.1581053325504382,0.3853159989741187,-0.5277452786925536,-0.49360771543795473,0.1893046300158078,-1.197628670827973,1.2926306511255037,-0.8488387775942113,-0.9365922092232994,0.8367546278950213,0.3307458381189184,0.15700829024943533,0.017706857601059278,1.405557542184322,-0.784942297370277,1.672695494860362,-0.4166336643428883,-0.8746745262305679,1.4222068020093732,-1.3678718951108422,0.017640609064163554,0.8421097534250859,-0.3333332991686261,0.17543859649122806,1.105263157894737,-1.245612644940773,-0.29832341538322105,-1.0528903122486006,1.0165239309542191,-1.6866807870637834,0.9079379933954937,0.8531820549730167,-0.21976197875433834,-1.5026345904042546,0.05798412406607701,0.040195475736876235,0.33884649556923546,-0.8687239953599484,0.2597939839988142,1.5103261365469836,-0.22460512429992358,-1.3968526687870904,-0.6380678879292078,-1.2500834483760073,-0.44556005255428566,-0.5189747643839318,-1.2411994654191907,-0.29633440687896023,1.3864815284015204,0.5439693561047905,-1.5614027327873563,-1.087719298245614,-0.42105277827630255,-0.8070242444055507,-0.7194480122827754,0.9819766565969645,1.384335265955757,0.24150610236095557,-0.04157385660714047,-1.0970423089141328,0.0757911706939015,-0.3290681024276098,0.8456649943712942,-1.3490780940148712,-1.457179453143607,-0.986266531571535,1.3323945730061764,0.9509555631394044,-1.587094072862195,-1.6125932950073611,-1.181998627089695,1.347931757930061,-1.126976985424794,0.08082639842081844,1.5510709687496456,1.30169909989445,-0.8583017293818023,-1.473391752253326,0.8421151018212147,0.245614127498531,-0.3333404231390732,1.052686656834375,-0.8595320074036571,1.3334799846027787,1.7184583090301644,1.6286868425036356,0.9431289033528251,-1.4092216870523437,-0.49776689842494637,1.7284564946810583,0.4637436129352823,0.12701353955129374,0.47201297848773716,-1.2345168891404499,0.4499547714411731,0.06427146872720692,-1.491952990399536,0.7330182113137937,-0.7990594520574296,0.9772763654716969,1.2931483840870035,0.18625305487272842,0.9027983860510147,0.6708316449479164,-1.0685236571894594,-0.21016812675371063,-0.15787844130049883,-0.8421048833788451,1.7193427617371675,-0.9994353661753296,0.7202722763347904,-1.2967917053398277,0.7033905995332954,-0.5777867919558131,-0.36612704357883025,0.5992231980485047,0.5460875054831869,0.1589530324418053,0.053611615929162894,0.7194838149072824,0.1900423578461437,0.11671651364892806,-1.1327156339310256,-0.5255605666716113,-1.7535195029739576,0.6266105785864993,-0.18636881255465004,-0.25272054434122987,-0.6204705104257972,0.18567901992757674,1.6393620624113672,-0.5567886082690715,-0.4368673428520189,-0.2979175239247183,0.08777797272823931,-0.4385936799084713,-0.5437014273794286,1.737732277614324,-1.1737619532307626,1.1436421897933127,0.32010634845180075,-1.6793666339674989,-1.2030758794590464,0.2369081342531638,0.5170673132938315,-1.2723655483860565,-0.9355922182957117,0.8397374975650093,0.17181319482720359,-0.7640807364984586,0.9997771937039402,1.2170172435841002,0.6354473346633985,0.03105359609165847,-0.2922742466185775,-0.05993251498630975,1.5015828926390533,0.009473816272997839,-0.25557953162215985,0.5308495818798532,0.22981435840901182,-1.6836905393290316,-1.0876363603242625,0.7017612788382587,-0.5611994688335152,-1.0339769479554426,-0.6647755635998867,-0.224665240662854,-0.8376740083187814,-1.7489022255009081,-1.6070205115455924,1.4276612504481292,-0.18572670865131957,-1.2172605456676109,0.43782281694100833,-0.3125682353368968,0.47172085428388083,0.8844865978949138,-1.0902222986819743,-0.43314473223871025,1.5838814417562441,-1.3894865187522727,-0.4679513740610789,-0.2882314764040265,0.20307053047419107,0.5516727603563077,0.988003917495703,-1.3653515713610838,0.21159676314959747,0.5967828045106374,-0.017506858773321417,0.4386057917142005,0.3861769320164394,1.667644416061128,0.8438605658324746,-1.6289502539424556,-0.7161940350043511,-0.7859148322523271,0.19549844072084985,-0.8053247767229047,-0.4868424911680865,0.6072546015159673,-1.6677041738711091,0.874637160675806,-0.7828831146359536,0.3323465599917915,-0.25429140196176325,0.2832225771867035,0.2847226444548336,0.9612020675158187,0.6374207345644568,-0.5179742796865926,0.9903476840311678,-0.3282896263131571,0.1608352492302279,-1.7528614179970605,1.2636265910375943,-0.9296922169662581,-0.33332195460584724,1.403516540060584,-1.1577134630699462,-0.666074235119351,-0.7008417122060441,-1.4549600043032709,1.3170300237542092,0.8076185797492358,0.384265046815085,-1.1606614101246413,-1.4734166487332003,-0.3797960748023552,0.8500827542795676,0.2321424823917928,-1.1769871387621553,-1.320636930066285,-1.2033316153314841,1.35408625570724,-0.7509250376968543,0.3467820040697033,-0.31024422454695877,0.6573348738219357,-0.25647705656737524,-0.7158241262860717,-1.3143046272136627,0.842634544408336,0.6142261815435824,0.38601194648339565,-0.12278054301498795,1.5263158003610282,0.9299377031507671,-0.0874821917835106,-1.5259264569394402,-1.332946638680951,0.5612658784036344,0.05159425162453827,1.6279439040572872,-1.5837155980457869,0.8382924975576059,-0.26459046016792614,0.6125335565023469,-0.07338246287123233,-1.617608068350496,0.9442255658212766,-1.2175646587635445,-0.8379016580639195,-0.05118851609714519,-1.0945634751684923,-1.1542303563150822,1.3762804681273193,0.4625452929520111,0.8100098091319583,1.1764491029155293,1.0002015676137772,1.6316687240864949,-1.456133140568903,-0.05262585206946534,0.8771930119776875,-0.8069825216138082,-0.6314785993205155,0.6844165798792708,-0.3153143825491521,0.6843424126743323,1.2446197057539286,0.7338569826467581,-1.163068811074877,0.4494443060490448,-0.8836570286070601,-0.18167106595658053,-0.0037858370925199615,0.6328633519095151,1.6525427458573967,-1.4389247435578227,0.14484317222959647,0.8576271433244537,-1.3262158830450759,0.8434199370012776,1.4102208688872269,-0.169756882233819,1.5642527892969782,0.31691830993413916,0.4389312476990225,-0.05266291851968536,0.6490907521713101,0.052631099000299816,-1.631578874057901,0.12278769332772614,1.3333767537216967,-1.6841056432892563,0.14042826593608887,0.36859754822551,0.5439101457403183,-1.088820136890579,0.8387016636554554,-0.5671269426149833,0.6248613978013835,1.7144137358564522,0.24714644336639072,0.8687497127463687,-0.38922952534392474,-0.9059000454300025,1.2161280145938067,-0.12591913626018494,1.5301948434387072,0.576715144772148,1.5820442568803563,0.7760035477593971,0.3710542554968403,1.422148461850206,1.087939893038478,-0.03519122468466869,-1.298319896464573,-1.7017560269372742,0.5263161531546713,0.8771753149784912,-0.2807634933216203,1.1226989683447972,0.36812656154090523,-0.08765609886932692,1.1757753558684745,-0.6491755976557113,1.2275047597220086,0.1754103608078702,0.7208496863641282,0.11072103241187135,-1.7266064947324253,0.01702699810071784,1.2142150527538706,-1.1834845887640109,-0.8869156151336787,1.0866638230096946,1.2844398974391977,0.5026847597907652,0.45532845096686053,1.6161965889205208,0.9669405766871912,-1.2448819234549908,-0.01756814688246823,1.069888541817288,-0.8948231712087319,-0.6140431992448006,0.8070175438596491,0.5789362017204416,0.19282943268881286,0.13987855651271425,-0.035951047888382145,-0.7375836097330822,0.22784989993424679,0.1232530505542523,1.020431356675086,-1.5160855937695898,1.2087696010606848,0.840800997239868,-0.8965061437357621,0.26412166068123427,-1.1374600139073283,1.3581942148193593,0.5353338839992743,-1.0509987816805897,-0.20577620399912044,-0.9730715519078248,-1.0204930902078109,1.4918206619605203,-0.03397662048282472,1.4564297616431,1.1576652938538496,-0.33366406757656336,0.7543708760241343,1.4561639871670955,0.9298239442870201,-0.2631687060383361,1.2803947653769383,1.5954119566301086,0.7348330914343842,0.41933762164907173,0.349865878864836,1.2634865269965276,0.9530008696699414,0.8770512316702094,-1.2925768115328975,-0.2951310081630171,-0.6142294273984558,-0.8237820093404016,-1.685663736896423,-1.1720749073730443,-0.027043940134758054,1.337033933675818,-1.04634258264188,0.5010844137795838,0.46961513267710436,-0.7555652458526014,-0.33376535068774354,1.5959821860532049,0.45550596473923927,1.4382994924692827,-0.1579183070623244,0.666679502174526,-1.192982455289182,-0.000008377150048390514,-0.29868299156394873,-1.510566066049843,-0.8105058051366507,0.7510163311409346,0.15560758048836448,1.5613985582733114,1.4286634057162144,1.1422516260619264,-0.9233574234070462,-1.2425127150479953,-1.0880224652729142,-1.1591148325204126,1.5541037209050583,1.665275057444166,1.4284333300740566,1.3915053512405093,-1.2202883491832346,-1.4283960119797212,0.7663627696577694,0.9267222566333184,1.2439813252810334,1.490224520575175,-0.33413309219505183,-0.5968423415104093,0.26310252764089326,-0.7017530553713587,-0.9298245614035088,1.491214090460408,-0.5092705403802859,0.10290260978494367,1.4688084208989745,-0.6197729082905542,-1.0223750038171526,0.6119355374575884,-0.76545531671212,0.2612875914597008,0.45847113767481384,1.3330353132792578,-0.002536052503924713,-1.2173891106857204,0.8109877775617177,0.2934584486852715,-1.4128849858738202,0.551055113157151,0.500048174702561,1.0102173266077137,-1.4973491352854367,-0.828396773378469,-0.44089912661691766,1.3670516427998056,0.03426910716351537,1.0874903724629539,0.31575726711541263,1.2105289317473478,0.22807017773760643,0.08769997328614927,0.13989658754815534,-1.668720796826503,-1.2330210602309544,0.1688718744178631,-1.2173230351476763,1.2236708911376921,1.5456144537178436,0.6035340481661132,0.9214951302831471,0.44782953497291766,-0.7637580422883817,-1.1357270666907435,-0.4044754404732937,1.486333170083421,-0.23585871945496015,-1.5528167879573167,-1.725966104266574,0.08204060019302335,1.1707452082826062,0.11993204497546724,1.4370937742898429,1.4725214597132248,-0.8953988958553164,-1.7018492681933357,-1.140366806430138,-0.9473684214184276,1.1052631601219027,0.9473680834927481,-1.7195567398851066,-0.9487266696743497,0.8386398562496927,0.4858819069199396,-0.7603796578808693,0.24170268100171846,1.701037276125496,-1.2626252190037874,-0.7536547634349292,0.8787197258580759,1.3884183088352668,1.684886815584889,-0.3526787583796882,0.9434904183117949,-0.5849711866764556,1.2395859770979962,-0.5304160019481484,0.032027143329278064,1.1731015507386393,-1.0018092046894365,0.3323997881077933,-1.7024213665481722,1.7013851788731458,-0.9123041968270432,-0.9473746387621561,-1.1578947375174211,1.0,-0.43859649122807015,-0.789542443604026,-1.4390470513825135,-0.9135310152294714,-0.2829283754503163,-1.7391290100543675,-0.561864089888518,1.5806095860849518,1.229091915094027,-0.40461787085927636,-0.5792525371109016,-0.19126946167328135,0.8967079268867744,-1.3855128196368844,-1.5982948596511861,-1.7055501944745395,1.4522921908093187,0.8395953848617724,0.7177851252069765,0.7880830275984412,-1.6680748229504623,-1.6498282343683675,0.9118359667870368,0.017389314429889297,-0.3859746090199754,0.7017572266786232,0.5263157894736842,-0.3157894736842105,0.19298245614035087,0.4034959577172113,1.07014946311826,0.8770379464432193,-1.509023975742127,-1.5788334957144043,-1.420031349845982,-0.383761228192031,-0.10274686440902057,-0.08569673409730313,-1.3843002997736507,1.2468106782933077,0.15853657308353258,-0.40463459981863364,-0.4599382500874044,1.0994581958157634,-0.23361240127856572,1.189405587051434,-0.8620387900105667,1.5063903758875343,-0.03663669771839832,-0.4568413230175058,0.5083688827091573,1.5788900685562932,-1.6491250609381747,1.210525048879187,0.9649122807017544,0.19298245614035087,0.6666666666666666,-0.07017635092155866,-0.035072805146904217,0.5087652350991962,0.9825310276141992,1.1407454790730651,-0.6835121064826568,-0.29771857592372103,-0.1755841847928716,-0.28138305039185035,0.2265815753857787,1.313124309210366,0.2785681181034311,0.45352808595820127,-1.0395555849708131,1.694771047000016,1.2047068574400062,1.592586167957082,-0.17837063202811648,1.138093510111037,-1.2119873798550462,-0.3164147339648638,0.9121256825529579,-0.49125570513105865,0.5087707959376446,0.5614021622410018,0.3684210526315789,0.7894736842105263,-0.43859649122807015,-1.1754385964912282,0.8070175139564748,-1.5964786143577339,-0.052518707888834185,0.24583852096408645,-1.157545821219087,0.40385045020333893,-0.10525303395003267,-0.8764556975897212,0.47575890895507067,-1.2254308132382095,-1.401058692507526,-1.6121841840851932,0.05274760798115066,-1.2467032619325107,1.7188982385368132,0.3333440602898965,-1.4213157634531939,0.7539996723704196,0.21034534157604037,1.1929267369035756,-1.070174144839678,-0.6842105197195129,-0.10526307497308535,1.5614035087719298,1.4385964912280702,1.2280701754385965,1.5087719298245614,-0.9298245614035088,0.3508771929824561,0.3684250396615315,-1.2280393276851338,0.9825100911071122,-1.140305675054657,1.350933726515522,0.6842909787984693,0.6670735539115585,-0.420235571001993,1.1939256976401225,1.6503491137437236,-0.06906736111198937,-0.630973378185249,-1.420539480627729,1.6144400089959101,1.5792007473528464,0.017701473792969574,1.578965006500321,1.3859652209559419,1.000010317505106,-0.6666662962673598,0.03508771929824561,0.543859649122807,0.19298245614035087,-0.9824561403508771],[0.43859649122807015,-1.2982456140350878,1.0,-0.2807017543859649,-0.8596491228070176,-0.7719298245614035,0.47368421052631576,-1.6666666666666667,0.7368421052631579,1.2280701754385965,-1.3859649122807018,-0.38596491228070173,0.6315788774503204,-0.8771931355526719,0.36842105263157804,1.2105263157894737,0.43859649122807015,-0.15789473684210525,-1.6491228070175439,-1.2105263157894737,-0.7719298245614035,-0.9824561403508771,1.4210526315789473,1.543859649122807,0.12280701754385964,-1.456140350877193,-0.5964912280701754,0.2631578947368421,0.38596491228070173,0.6491228070175439,-0.07017543859649122,1.5964912280701755,0.8947368421034457,-0.6842105263211294,-0.94736842105286,0.9824560840958535,1.561400746276301,-0.3859671832545401,-1.6140368939802157,-0.8947386710827829,-1.4912395808044279,-1.6666673735233561,-0.9649296347232829,1.2631506845380966,-1.4385981161775063,1.280695605923518,-0.3157908137158302,-0.6842105484438744,1.5087719266959159,-0.7017543860446235,-1.473684210532956,-0.3333333333431299,1.368421052631579,-1.3508771929824561,-0.8596491228070176,-1.6842105263157894,-1.3333333333333333,0.8771929824561403,-0.7017543859649265,-1.7543859649122937,-0.017543859738328754,-1.73684210495032,0.6491228087515449,-0.5614045978241838,-0.7543932588489959,0.8771622298233428,1.1226997672353811,1.1401553682170311,0.8592724127382554,-0.21085949745997176,-1.2984817721215889,0.052458840190362205,1.5086654799406825,0.10520813350709084,0.9824251501038377,-0.7193097077901237,0.24561265702484186,0.19298240887748566,-1.7543859650556834,1.350877192871806,-0.42105263159628775,0.3859649123002163,-0.5263157894736842,-0.2982456140350877,-1.5964912280701755,1.3157894736842106,-1.5087719297666664,1.1228070175575484,-0.33333333318161384,-0.6666683283674214,-0.36842351604758167,-1.2631662455027708,-0.08775045437320415,-0.368498665045203,0.49108820989794855,-1.4564686355170322,1.0694939931462744,0.718779106767941,-1.421323961691723,-1.7195097503372831,0.8244357980421726,0.4210027855807362,-1.2982559107967448,0.6666498481386082,1.385943942557581,-1.1579226882083173,1.736837870219632,0.38596251923411706,1.0350876465731393,-0.9298245614428229,-0.35087719298312536,-1.4035087719298245,-1.5087719298245614,1.6842105263157547,-1.4736842103345869,0.3684211809541261,-0.07017822895706179,1.7017405100809584,0.491172783254969,1.4559973694737622,-1.2633901920407704,0.8591535982822504,-1.4919694217365982,1.5250597342795231,1.5785581357977805,0.10815016580102,0.7938041004925656,0.8959570707058806,-1.194071217259496,-1.2989235387902136,-0.8771368131768825,-1.6489527559022084,-0.9471101676727651,-1.4733734870367654,0.8422760525596417,-0.684161402014573,0.17545585626536564,1.0350799966504591,-1.3157976871947317,0.368420610293276,-0.2631578947368421,-0.6491228070175439,-0.5263157889365114,0.3157891823230641,0.8070126921400772,-0.08774106139471946,-1.122968642645033,1.0521231381140606,0.8937665011789369,-0.1769644197967781,0.9276421305224856,1.3836622993899617,1.017903057075039,0.44428163720603814,0.6205994831203906,-1.1382534785314427,1.664637400332407,0.4542308666262002,0.2452680893196774,0.7025166474173706,0.018698205866791513,1.66767087867316,1.018075650603802,-0.6664383352877685,-0.7542481790184272,0.929872062799878,1.0877260015075871,-0.6140350649902432,1.3508771929824561,1.192982456138446,1.5438561301185116,-1.6140396569102478,-1.0175630445298176,1.6490438338740905,-1.5968333478405146,-0.38672473989822986,0.788163550648422,-0.650925842991737,0.41878569727750287,1.507059617924231,0.036298551487488756,0.11207998928290049,-1.5007806615123513,-0.3118296214503854,-1.6329750743176559,1.5067396342751607,1.4727172887702005,-0.2104012745138916,0.0005656799848884657,0.3866894985586205,-0.45566934911041407,0.08795672337686732,0.8949283260622103,1.2808148941191377,0.35090226641893935,1.0701761219998733,0.6666666666666468,0.05263157890936714,0.9473657503226017,-0.14035829903466793,-1.2456701756717325,0.4910604004933376,1.1574806309401409,1.0519716364394656,1.0167195057246903,-1.5625528555664123,-1.6155484677778438,-1.4922860658703798,-0.06880982910881828,0.989931511458304,0.3426611780583665,-0.6433309245286035,0.01769692415881188,-1.5802143694910429,0.2616781270138085,-0.1940003679359816,0.19239505889252537,-1.4210820153770298,-0.6139681983838703,0.8070263382352372,0.1930004378805323,-0.5087277871280329,0.12281245883960219,-0.9824559710195953,-0.789473684210607,0.2982456138806708,0.8070162458924365,0.49122389129330285,0.6315432182443933,-0.4211476617073972,-1.7370680940373027,-1.6143234743331742,-1.754745065911059,0.2096480283774891,-0.4754778428153212,0.6828259129678459,1.5277350608234304,0.04398924446657627,-0.30447084099664495,-1.5540025720799135,-1.7189100494082696,0.6999826610797126,0.24346014814411884,-1.1246000592050625,1.4375039264629657,-1.4039109146357898,1.3858037250286612,-0.10528878844997192,-0.9473539183033653,-0.9122754330249421,1.6315809630112275,1.7368422223715423,1.0175438560371997,0.15789471636805313,1.2280689241874403,-0.6140391115735024,-0.403513361512584,0.9824128060253731,0.3683347281615578,-1.140469264858137,-0.5616510672871371,-0.4045143910031986,1.2611795390805864,1.0689319993691888,-1.5240409971479816,-0.9197973204458747,-0.07506247358361626,0.8501674553412235,0.736987040331304,-1.0029439136732299,-0.897438066193051,-1.2474340439681282,-0.9658552060656703,-1.4565317059437064,-1.4387407947243007,-1.4385970542258522,-0.0701746514186549,0.3333336241760754,0.5789486675977219,-0.22807014586632723,1.1929824519378431,1.4561370304857035,0.5964862681283724,0.6666574433647788,-1.2982762444636937,-0.8597191907047346,-1.4211535779002897,-0.00013159514205700933,-1.1582973592124146,0.3146335279444412,-0.3351810085203836,-0.141359690693512,-0.8398842949081442,0.48342663160118415,-1.0401873624609224,0.8502029086495675,0.5427830247921754,-0.17937743332706985,-0.7747398987816804,1.3844855491341492,-1.369107119115947,-0.1406924388099309,-1.7194186693346185,-0.5965123905295661,-0.08771498598686761,1.4035137102262938,0.9649132453431535,-1.3859649083302767,-0.35087719362210845,-1.052634228231684,1.7017484274197807,1.3333209852252854,-0.17548587811295654,1.2981470803686683,0.5787782451980377,0.7014887702486085,1.7011325445755285,-0.1239429659763666,1.472154241166867,-0.19417444397621647,-0.43748598998980126,-0.44747542927894285,-1.1109753487636833,0.9023706786020169,0.6998307424005853,1.1010934329842932,-1.0374379577225532,-0.8607946680655597,0.3502377668446413,0.6311619724659069,-0.0177546594160483,1.315712774259667,0.5438639472149964,-1.7017515431330115,-1.2982559182543376,-0.000021086135854120977,-0.9298245613890792,0.4561402643081395,0.26315661394966433,0.8771867207139692,-1.5263620401281697,1.420929688388208,-1.754541738876848,0.26294080769631234,-1.3689745479554893,-1.141175093466057,0.24449445776937068,1.0335800943407538,-1.6143285483616459,1.059925813108201,-0.11204570487953454,1.3753892788499646,-0.6335447178258798,-1.337038156297686,0.9106146541010554,-1.2290647052140355,1.420286663525952,-1.1934807567229344,-0.08797427773271349,-0.8071507666494548,-1.2280939053175635,1.0876788600513618,0.7016729566805061,0.789449074413859,-1.4385964882895772,1.5789473620454069,-0.6842106532107138,-1.0350888009852763,-1.3158467755111707,0.3332298754214016,1.3157209496540008,-0.5439518813910178,0.19256261193933608,-1.684792265815393,-0.9131518461150041,-0.7036940618990454,-0.17687703108950428,-0.2036018995844668,-0.6732698731839182,0.65687505526668,0.13874250374111724,0.41787650314897845,-1.6330713932682959,-1.1061817701450904,-1.1411359055576522,-1.5094046318368843,0.9995898079766743,-0.6844070089206729,0.5963740768375165,0.6665471649078197,-0.7720063258059784,-0.05263931518819581,0.8421052639841556,-0.3859649165651653,1.631578608934281,-0.0000026374032051431253,0.6841659680654312,-1.49127766670146,0.4385588124102119,-1.456224268918074,0.5258700572671255,0.332671442236895,-1.720310855370114,-1.1951864843434412,-0.7554609350140441,0.32350942411135886,-0.777443629022562,1.7276753518337773,-0.7033748457648893,0.15494428840002697,-1.1418323915987378,1.4024906785900217,1.3850756123301071,-0.38671114555002467,1.0871626005730715,-1.3862214914273339,1.4384479356665945,1.5788496197923125,-0.05266253075268083,0.08771928364523471,-1.2456140349485698,-1.5964912312883648,0.9824517092369343,0.5789482601837608,0.8596138172014759,-0.5789332817944419,-0.7368530357265389,-0.9124412153115711,-0.47423641917214077,0.2622225714776622,-0.08925248439013671,0.7869536049575532,1.7360564158246137,1.2894364635711548,0.7327194845444336,-1.5347617310670314,-0.29886011731056555,-0.9151465823742009,-1.3698330508366297,-0.421994637015909,-1.0361456128435484,-0.0710682220697253,1.1923737966873489,1.6838780662971444,1.5787715821577248,0.07010775730550385,0.21051289769612755,1.0526320954665027,-1.7192982463648692,-0.6842091987042204,0.7543777425766569,0.28068832267683336,0.4210117118930424,-0.1403078736122509,-0.7368420784400913,-1.0353057920384017,0.6310123570426642,-0.790602351092484,-0.01956561089208149,0.8222695740529272,-0.4388804686960122,-1.0777212404701952,0.505192125431454,-1.112812989810838,-0.8770990939284488,0.04956022010736468,0.7348757690910822,-0.8784701746779745,1.2442069922219443,0.45503666241994273,0.01696185299746833,-0.8248386720935611,-0.965000253589546,-1.2105437898523905,0.7894743362980833,0.6315798792079343,1.5087719298245614,0.1403517528100901,-0.3859856187761402,1.2982042695899878,0.01748062727522033,0.43858635962427195,-0.2982591537540915,-1.7545650397792845,0.6485686674574835,-0.5275785056014806,1.4364153561111994,-0.10703315631498897,-1.2798719622591177,0.23857940821051113,0.10166343149594324,0.816829033743416,-1.4030305652845827,-1.669807709764899,-0.7919942635230918,-0.3176069815001751,1.6827647860622854,0.43768525169707817,0.15749030485281454,0.8945036452331738,1.4736050554911553,1.1929384135485321,1.5438306847990038,0.47367885162669016,1.368421052679845,0.491228070832235,-0.6491355311388598,-0.8596965286763262,1.4034398267224482,-0.719410308056445,0.05249955036220846,-0.47400332712335774,-1.4040972768457913,-1.1419291354072536,-0.14243934427518778,0.6303641762668304,-1.1566265761621748,-0.05979631754091057,-0.9859337834641475,-1.0079301280622317,-0.175062407888258,0.27760208516721413,-0.12567120609390933,-0.45794494100306904,-1.123791524909658,-1.000566393962555,-1.7019795002787317,-1.1580501335426459,-1.0351187774142754,-0.4210573257795691,0.4035069933751897,1.0175416696661133,-1.368421052384864,0.7192982440446076,-1.3684263361078675,0.6491004650113735,1.1578473113955026,-0.9650978033670587,1.6839137825158574,-0.2110257783050881,-1.4569966220603077,1.5421165198545896,1.2086979897890864,-0.7902694153788863,-0.99892622419528,-0.6395518613488447,-0.9510848659836154,0.9212210256431238,0.21030872936058512,0.45264788439620474,0.6114794814347634,-0.07133468765235847,-0.29880857065448974,0.9120293386181113,0.6840307356525449,0.03498840417732885,-0.6842678543365255,1.3333042075028803,1.6491152482512392,0.19298247492968798,0.7017543859649122,-0.8070175472136463,-0.15789560751489934,-1.210545231321149,-1.4912757248061732,-0.193189342561545,-0.03562186771721536,0.999274010336969,-0.12383667757129636,-0.21219803739878335,-1.0891232931494785,-0.15846761912620613,-1.2975303487196042,0.9904733845301014,-0.16291950276644254,0.8149898757517089,1.2979018397669109,-1.0377071461798197,-1.5627585164290236,-0.035550623778767554,-1.1230762952847417,-0.6142408187469285,-1.5264446404526013,-1.4562132101615917,1.1227612234660207,1.5789172314361866,-0.7017640759342679,0.7017544316021435,1.0701754411232736,0.017543857656554845,0.21052413364404998,0.1578745692668244,-0.7018230866736546,-1.1580713105086187,-0.15844453123192484,0.2448520043895823,-1.088557341421747,0.01591501857738425,-1.282268470062097,-1.0711018368018475,-0.7016343041515146,-0.7662352162527644,-1.446247400797979,1.2702137158377684,1.685947938286665,-1.2460135009138422,-1.6139713399446742,0.368282820528857,-0.544090431453282,1.4735438070066897,0.8244915834371486,-1.017592478041891,1.0175135923667278,-0.36843182588237866,1.0526317752138101,-1.5263157894723534,1.1403508796408028,-1.4385964911612277,0.5613920253207902,1.2631384525824576,-1.596558550718487,-1.1053627555165064,0.5785946324604387,-0.10593329118785705,-1.7026292872227224,-1.0016158537391697,-1.7044837052821291,0.4005680975898094,-0.7742790503235522,-0.4540580186263539,0.9726343225931633,0.604531668263617,0.28537568740760366,0.2469741490477274,0.47410377150258143,-1.3333585603770441,-1.368534550194366,-0.9298518345219163,1.4736888303755382,-0.7543856171104522,-1.4210588537651154,0.7192953307077521,-1.368421008251563,1.122807017546317,1.5964912280701755,-0.03508771929824561,1.578935502177927,-1.5789548037481629,1.6139214705817846,-0.8072575971331194,0.2452917743850609,-1.2812804454172877,-1.6324529867432025,-0.28198292625171095,1.1026457738272641,1.0138478821215031,0.5224769094709207,-0.2990645759024081,1.0062781343118772,-0.48303302938149334,-0.9782378349604793,-0.05142007194903006,1.4388777982504342,-1.438656700943186,0.14027807245582996,1.6491201777766533,0.3333460200177232,1.0000079423401336,-0.6140363242928497,1.5263154879004237,-1.1578947247782405,1.2982456140350878,1.3859649122807018,0.5964912280701754,1.0175433972198573,0.3859540305763493,1.0525899980446152,-0.4212477242553431,1.4382233558479816,-0.26370968716931803,1.227597313136806,1.613621112924768,-1.6675303299864446,-1.5275811075014112,-1.1592468412449992,0.7535810295235809,-0.648607366251918,-0.7180689355833151,-0.15734953751779568,0.00013538939504998128,-1.315787118682521,0.07014627285920909,-0.21055715501605352,-0.4210666024000703,0.6841881467937195,1.7192937253601677,1.2280699090192242,-0.2631577174919983,1.2456141118157829,1.105263157894737,0.7719298245614035,1.2280701754385965,0.9473684179432724,0.7368418445299194,-1.175453809749893,0.7192785043544934,0.8069960141538299,1.7367943264354755,-0.4211293310856051,-0.6843578138008238,1.5436882578442652,0.5085306859515457,1.3504971570596218,0.03465906316794921,-0.4740538731269428,-1.2462177504483385,-0.12344972962368031,0.35051206349449765,0.8244796596072342,-1.2456287859215733,-0.6842134319411545,-0.10526361998405248,-1.6666697340883962,0.14034942207735568,1.5438596636817894,0.12280708434801774,1.5438597289806437,1.736842105263158,-0.6666666666666666,-0.6666666666666666,-0.2982456140350877,-0.8771929824561412,1.4210526315785736,1.3157894732005808,-0.10526316370438725,-0.5789474506376552,-0.5438597048548854,-1.5614035266200568,-1.754393585021399,0.3508456274842836,-0.17548250629841905,-1.3685092180124792,0.14024452124206693,0.7014974314771377,0.3681746268480718,-1.3158840795679225,-0.7368627492416493,-1.456142933587306,1.4912279621552438,-0.8070179343300125,0.8947367169710179,-0.8421052725388933,1.3157894736813163,-0.9122807017543859,-1.7017543859649122,-1.2456140350877194,-1.1754385964912282,1.2105263157894737,-1.5614035087719298,0.9649122807017544,1.2105263157894737,-1.28070175438599,0.4385964912404613,1.2456140350982676,0.31578947370490057,0.8596491225974967,-0.07017553119682596,1.4210524778692044,-0.8421054752163913,1.1578932070672643,-6.129933061446225e-7,-1.5263159566795874,-0.5614035387803754,-0.7192982706825898,1.0175438498825815,1.4035087705030669,0.1929824405779514,-0.3508774570157758,-0.08771946646827689,-0.28070175444390216,-0.45614035087719296,-1.7543859649122806,1.1578947368421053,0.7192982456140351],[0.5263157894736842,1.0,-1.736842105263158,-0.12280701754385964,-0.08771929824561403,1.3333333333333333,-1.7017543859649122,-0.12280701754385964,0.45614035087719296,0.0,-1.7543859649122806,-0.6491228070175439,1.6315791474522814,-1.526311203093598,-0.01753924342339307,-0.6140348953765595,-1.2456140350877194,1.2280701754385965,1.5614035087719298,-1.087719298245614,-0.9298245614035088,-0.14035087719298245,-1.263157894736842,0.543859649122807,-0.12280701754385964,-0.21052631578947367,1.087719298245614,-0.3684210526315789,0.47368421052631576,-1.6666666666666667,-1.5087719298245614,1.4385964912280702,-0.9649122807017544,-0.8070175438596192,1.0877192980826844,-1.052632902192213,-1.4561209894594778,0.8772079743593636,-0.2280629072594035,-0.8245614463882337,1.2982385418715152,-0.01755483968573571,-0.473715887677131,0.6666008108128137,0.4386388501829356,1.2281276760849265,-1.4385309070534802,0.21053405107887477,-0.7192883012438915,0.4386033245806043,1.2807023094184184,-0.6315789473684522,-0.2631578947368421,-0.7894736842105263,0.43859649122807015,0.3508771929824561,0.7192982456140351,1.2456140350877194,-1.0526315789473695,0.3157894693614227,-0.3684210526847076,-1.4210526316329397,0.5614035032379998,0.24562084008269844,0.5438888002454322,0.5965228523433532,0.701785002060355,-0.5964644063320701,-0.26306065563213776,0.351123251981513,1.1057771980058,-1.6135621550691839,0.4395798261422792,-1.3498494657771896,0.08818481113012605,1.5264047586238005,1.614069866795222,-0.6665848296762241,-1.596497093548823,0.7543781893592393,-1.5438593694867528,-1.3508772362971704,-0.3508771929824561,1.2105263157894737,0.8421052631578947,-0.3684210526315789,-1.3859649406304289,-1.649122847370759,0.9473690693090009,0.08773923513153582,0.08778875062042733,0.9826418961120064,0.6495906277681487,-0.9814240538442904,0.19458479239243076,1.6513693424179745,0.3361548337774469,-1.3827514095013462,1.7227990367833652,-0.4694715486759291,-1.2407636812471396,0.21469288097270206,0.19551706976477262,1.5627897940245505,-0.034340632402970105,0.4389077008918951,0.6316566560927505,-0.6315919984016273,-0.2807184533491508,0.947366030828209,-1.6666666694343546,-0.14035087719298245,-1.1403508771929824,-0.8070168903479528,0.33333626828750856,-0.9648977121048183,-0.4560835577710226,-0.9471931220345655,-0.2273063460957412,0.44118473510458733,-0.5386949240112654,-1.5348263080005358,-0.3016138789169341,-0.24331197560897388,-1.7136484949339155,0.26312299096087394,0.6912283171319474,-1.4861994986544471,-0.6937910669516663,-0.22022003434842674,0.6188558792430275,-1.2803181346232322,0.73236328214285,0.24288560962657726,-0.2802309718018909,-0.016889628625121084,-1.578844087486413,-1.5263141727044298,0.982463404416449,0.385964650838399,1.6666666666666667,1.736842105263158,0.7017564487366875,-1.1226786889954903,0.5969913404895183,1.4933200263086797,0.6725987776859973,-1.1631249990749588,-0.559248685782208,1.5551993801957766,0.21537015636029117,-0.6514153853361184,-1.3643921824116971,0.8377168918208646,-0.44074291230612783,0.7832786589353428,-1.2961059668014348,-0.6796949651102423,-0.8798885188780616,0.5437892788029076,-0.7147440413849732,1.686446768739545,-1.4690531835960992,1.0201544775758682,0.3866142177559042,0.26338190080163115,-0.6140002411957317,0.6666668116529956,0.7017543859649122,0.2105263564546541,-1.6314659434694148,-0.08684523213228418,-0.13760080708523043,0.1121807118676899,-1.7399227195347078,-0.6247095792513165,-0.45684719674867497,0.904823671781424,0.636423646137883,1.5595541144551273,-1.6622528668875236,0.5031744660623211,-0.16319306610342296,1.567346977584683,-1.1888128974504273,-0.7961609447664678,-1.0851415482713336,-0.7169212372312903,-1.1719675631360889,1.1363534680503096,-1.7093202622799715,-0.820339331258737,-0.157092635091875,1.3334169317221976,-0.8421094864435933,0.298242148850136,-1.7017525340632438,-0.6666295978169244,-0.6839232102437129,-0.6121665624039717,-1.4329297075451555,-0.5143005283670431,-1.4870984095189308,0.046911399802520654,0.7216095949841318,1.715423787909072,-0.18402415319814544,-0.06936486714135877,0.4780604428252812,-1.5508779134401023,-1.659983253074747,0.6319950190405678,1.0377552212658092,1.0689112318355074,-0.9340200091020492,0.9240308135567684,0.2765586840532231,0.3894577759268112,-1.5841032694678274,-0.1525155170048919,1.4395784705032508,-0.034978461218844514,-0.08771489854931637,-1.052621212046173,-1.7543784390988237,-1.6664783240015801,-0.4903769160835336,1.6169480151307456,-0.7288528110740382,-1.2647137364304144,-0.09895934255023793,1.607104610517941,0.5074957495568942,-0.4989957894489579,-0.048435829594350985,1.7136771506071389,1.646811164852571,1.0674668691733413,-1.029977139728334,-0.08710743694503402,-1.024631992066099,1.0867213838917225,-1.346956399596975,1.508561412272804,0.5619077104774189,-0.7670694009952296,1.7140646310115988,0.5500263730981715,-0.06892142240845729,-0.4911807303021425,-0.33334525503670476,-0.12279625544548609,0.7193603748040851,-0.28033955490816465,0.0888734288952071,1.3187814975990626,0.5170812234088938,-1.089339743904657,-1.6434918236283342,-0.4473257951198232,1.6438016642948639,0.3738455500237426,1.7025916153801075,-0.373949254598642,-1.162548877239186,-1.22363466755638,0.4107006045926934,1.6007575373770524,0.7428162370964773,-0.6738831313384449,1.1529111528407419,-0.030311372135997945,1.5791016800261095,1.5631264859485443,1.1693558515862188,-1.3266058460501151,1.0893972136514545,-0.5614067199579533,0.49120542991492894,-1.719269873521569,1.5965624415433304,1.4915579102007388,-1.3496652702949747,-1.154588999991868,-0.7472520153532334,-1.0570532294268047,-1.401737673474076,0.5835976375398075,0.9381361169496737,0.15749072911832954,0.8576479026503124,-1.584043229745325,1.0659755029987799,-1.2092233701856738,-0.5778049847089571,-1.1544485277751826,1.103778474868058,-1.2372370483935726,-0.9621882797727419,1.775427080008733,1.1872044688646861,-0.8091201609148304,-0.6039659208229842,-0.8361694082926654,-0.33191665857213337,0.0526107700584436,0.2807104463515057,1.2631650234563478,-1.3332915569402184,-0.9295099855558575,-0.8411190232538497,-0.9096021507649362,1.127961844353182,1.3779418297996704,-0.5285241794471208,1.1766295999769218,0.9356981807601036,0.34819955829777793,1.226829063644018,-0.034722897655496215,-1.3112410489015782,0.6011822900607783,-1.5262732614120935,-0.3267177333064432,-1.2891299566570078,0.08556653162255362,-0.7199127946382033,-0.7954141194020672,0.5474374840701715,1.1340678764203609,1.0783959573247002,-1.380623027291829,1.5450835290176212,1.7193455428434057,1.5263450507511542,-0.22806947251051082,-1.6490890276313532,-0.26303741124209074,1.1409075432013582,-0.9810549002708371,0.6348755001803803,1.0244895495296005,-0.6715167291979621,-1.0169582336286056,-1.291571133567451,0.5620293978970152,-0.39976154136323455,-0.6243383227572304,-1.0587752074650714,-1.3124287978110465,-0.5804765675931817,-0.897686446699442,0.023391412192209343,-1.2974903713658543,-0.9577417574523378,1.5976464401678354,-1.2469235502668174,1.0970251103885367,-1.3434389867175103,-0.9946943035162342,0.7207247561171566,-1.0875454807152145,0.7369887669774972,0.17544582222525013,0.07017225377253447,1.526336801647361,1.6493022767344716,0.2989173059684352,-1.348427013114603,-0.39809553994676183,-1.6372805806273216,-1.244817993603765,0.8856254516136945,1.4428244060832827,0.04061161151898213,0.3563839145606901,-1.5200896432733368,-0.883037901725051,-0.702652192336483,0.20275625583795306,-0.04981009777029382,-0.6820215511359681,-0.14016543166133297,1.4190309110218937,-0.6323840826945436,0.0633218961549711,-1.36048846262796,-1.5734915194003714,-1.5948268507018861,-0.5084726236028978,0.8948272885804038,-1.0701727923509643,-1.070175440873594,1.4912339206812115,0.42108915887644655,-0.508282434792811,-0.8928922429618813,0.8651522448269495,-1.3568569988736785,0.5095027870370045,1.675291700292573,-1.2940898982778548,0.595882467555457,0.09938140458964301,1.710994588220012,-0.3358990538008845,-0.5606575850971535,-0.6115589506150696,1.0987464719855196,-0.12082087051599756,0.0021628903088993234,1.6007168772346263,1.6179968473951074,1.153365768004415,-1.3945543413512698,-1.1700768032111024,1.6502165256979662,1.543978994247495,-1.4385848680427562,1.3684210641397432,0.9649124333450856,1.1754386197432523,-0.6315564540427898,1.0179203717391307,-1.682524083747066,0.5140701420875733,1.6942974862155693,1.0684858861043707,-1.7308834855145234,0.015291575263289656,1.3417640460854503,1.5786388376252012,0.09625419024293823,1.260256124469459,-0.8319589810409518,-1.280395880365422,1.3939759417778586,-1.3344935891044802,0.2016369784091092,-0.913223288096407,-0.23325750134009354,1.419795421204609,-0.6217208282346309,0.47807205706849887,-1.0516345134090428,1.0178779515958787,-1.5963222640090893,-1.649122757847082,-1.5964903515619975,-1.3508763055161759,1.3509135355388704,-1.2978544550051716,1.721131078011789,-0.6439038522062019,-1.0089131471159898,0.1173570661989807,1.193336306381756,1.3939578522023732,1.10661536139713,0.7091707591779078,-1.3065803828888474,0.8218193661782244,1.455146587943502,1.0835243762766755,-0.33304145961886605,1.0628771393410938,1.0121514077824938,-1.0639493141461605,-0.7883851671948828,0.19370228032617115,-0.15014273476281426,1.0203284501030758,1.3692142771503168,1.5440410595784608,-0.40342893870544083,0.6140370428405035,-0.14035087719298245,0.8421095252359573,-0.5963631326408426,0.9128436921936319,-1.4184576002559806,-0.15233474748289424,0.7092941672468307,1.4836640481956913,1.0324346180473165,-0.04599624981942404,0.7343505717392843,-1.3336237535450426,-1.1121791053749106,0.3903029151611866,-0.40887215979193753,-1.0570052560242311,1.1695884198031754,-0.9421789057976513,0.464774850670606,0.987132198673146,-0.5436880613262248,1.6307537915273123,1.56754479694882,-0.3487440576953767,1.1232915185802086,-1.3506466263836872,-0.8771644910281212,1.6666758505367116,0.6842106500249954,0.17544807637658025,0.4389409856050203,-0.6828482242350188,1.688329917720424,-1.080916406963396,0.4473197514677139,1.7479460873723724,0.10434561385490396,1.7603385804757035,1.0455867516244637,0.12802290085841045,-0.726048819756672,0.5065755342051825,0.8168538772911954,-0.8635007570885717,-0.30574119633162367,-1.2788541322037075,0.12686905448493316,-1.1935167907677755,0.9431021912891938,1.3838700704185987,-1.4316829193122536,-0.5065656659463003,1.1936065428610612,-1.5436407148193165,-0.9297417560865732,1.105278122532886,1.3859648954833526,1.5789599372807341,0.4918771242630762,1.651491442910497,0.6025323355622253,-0.2185281542898609,0.31050808324583473,0.24522729004759147,1.1978160663584707,-0.16722585637436915,-0.04395934734643949,0.8376272069490425,-1.4327331637039344,-0.8565451029167553,1.421559767947476,-0.26072879040859714,-1.340034007532865,0.9111626589097435,0.20854149401709882,1.589076542511356,1.114060690062314,1.2606024775947655,0.3581980497684285,1.2478429814005667,-0.45545145559386957,-1.3681380533272278,1.473818825274431,0.6842215535164077,0.3333333333333333,-1.736831551946113,1.4393363558032357,0.8274820308826779,0.5692722712787761,-1.3373899797669908,-0.016624493459206115,1.0254929513018438,0.591852650106194,-0.03766993674481082,-0.007258591520771224,1.4185882230537736,1.1039825265840164,1.2639844273286578,1.4025148440392368,0.6787389142525098,-0.16413491806897834,0.3979153263589693,0.11410729343006211,0.9863610538952778,1.6017562700771812,-0.10885064884832153,0.8838894791464479,-1.1205048685958248,-1.34996856817241,0.1757509067253299,0.9474412163413348,0.12280722190979457,-1.5438601088484494,-0.17543067324955622,-1.5081869141559636,0.5813988088353463,-1.5012623420118572,-0.8969431417477536,0.6208236889414472,-0.7217057647369227,-0.7322839827080534,-1.0787395688311374,0.9557180461448074,1.408848866593484,-0.49785160559733105,1.4320116714494515,1.4440876769353201,1.566301636669481,1.800682310874928,0.5499689367133545,1.0000727249570533,-0.21301403960537146,-0.36598321486652163,-1.4971115752986353,1.496113650375237,1.1944755227945902,-1.4556107925164867,-1.736629901363657,-1.3508574035313805,0.6666666666666666,-0.4385969365872862,0.368421258328628,-1.63122523191804,-1.1213403392709484,0.9880132637255754,-0.2677678678286567,-1.398420561019111,-0.1260602913329943,0.5140255544363906,0.4904358768290647,1.2413953685545491,-1.4678293658644577,-1.6198550583296707,0.6925699201267348,0.184150679857933,-1.6562263438453464,-0.06577569323229426,0.6420282467228341,0.7596453527012897,1.0419029531719564,1.1199145311897833,-0.7643677885070126,-0.7340877531797105,1.6499021751175722,-0.2453128024367079,-0.6139310275776301,-0.5438587571634889,-1.2456140350877194,-1.6666666666666667,0.3684210526315789,0.45628503847329305,-0.999284791640341,-1.2950119667520246,-0.04501239364177983,1.4713154368347923,0.3025804941872321,1.624820979252377,1.4288455771089525,-0.424592117079256,-0.30427999742651335,0.6996169856925034,1.3137447535179538,-0.5709515389648994,0.8930806268393939,-1.1198924884898822,-1.3416368718638754,1.131053983334886,0.6284445216616069,-0.7645043162282543,0.5647316420802054,0.10642953822852058,-0.05220748832022481,0.6141869736231105,1.456195560709421,1.5262761487982557,0.08771929824561403,-0.8245614035087719,-0.43859649122807015,1.7017892579873781,1.4388787745951561,-1.1741986003383835,-1.3305597039700192,-0.0814390615624512,-1.252905992869989,-0.4048720926181221,-1.5511159243535788,-1.4826510375436064,-1.0172755665138724,-0.9339634847361801,-0.08221714164293825,0.3673997256337948,0.4188917039870254,0.6277566425036738,-0.36261016820627,-0.32062861453783675,-0.1865692680958683,-0.22461202627080362,-1.577260500048969,0.790127666671153,-0.8419058174161924,-1.105205791381064,-1.4912193825380349,-0.8245615320313174,-0.6842105263157895,-1.4385964912280702,0.2631578947368421,-0.8070164468955925,1.2105449990840695,-1.6839838461247656,0.5268716032316739,-0.5426256198868054,-0.08557393639199577,0.2847127756415146,1.2531138663918744,0.3812243900950569,-0.19525807189573882,-0.8974018706929626,-0.3895548507309711,0.7849288168050832,0.04918621063085657,-0.513016695971773,-0.866738489647883,-0.5031352855659641,-0.5410601437796524,-1.7352596969407441,-0.7361912989822248,1.3686111641821903,0.2105336228144054,0.6842114316163698,-0.6842105327469463,1.1929824560624542,-0.43859649122807015,-0.19298245614035087,-1.3333333333333333,1.736842105263158,-1.6315774792732625,-0.31578374131125586,-0.43853063753021715,-1.525929344064993,0.24607575790977276,1.2638925154406027,1.2469355085728837,1.0377979254797862,-1.1894134766604236,1.424390193367265,-0.10047488282607767,-0.3268348117143295,0.49811378134079437,1.3923474158920162,0.19816054445655765,1.1957564377796992,-1.472141355274871,-0.2272527350893347,1.281037727217367,-0.438535824094953,-1.3333311067033222,0.8596491228070855,0.2807017543869373,-1.4736842105263157,1.456140350877193,1.5087719298245614,1.3333333333333333,1.2105263157894737,-1.0701754385964912,-0.8421052607958511,0.10527096533632173,0.4211116822785188,-0.5262089280664093,-1.4560697696586948,0.0702388054288286,-0.9997199919802461,-0.578492375018238,-0.8063343491588558,-0.5778216756003147,0.9312834275600765,1.3695632097982593,1.4045868291100279,0.9659345105018174,-0.7889344094147446,1.175727466307943,0.3509674300270117,-0.42105044153959464,1.3684222632456489,-1.3859648939553009,1.4385964912280702,-1.0350877192982457,1.5087719298245614,-0.6842105263157895],[-1.4736842105263157,1.368421052631579,-0.17543859649122806,-0.12280701754385964,0.7368421052631579,-0.9824561403508771,0.8421052631578947,0.9649122807017544,0.8245614035087719,0.9122807017543859,-0.9298245614035088,1.0,-0.2456140350326358,0.7719298319881581,0.3859649204110384,-1.175438596152464,0.22807017543859648,-1.1228070175438596,0.7017543859649122,0.2982456140350877,0.15789473684210525,-1.719298245614035,-0.19298245614035087,-0.5789473684210527,0.22807017543859648,-1.5087719298245614,-0.8596491228070176,1.456140350877193,0.14035087719298245,-0.8245614035087719,0.9473684210526315,-0.10526315789473684,0.6315789479074101,1.1578947384440135,-1.491226973878401,1.684216579996877,0.5614277681615042,0.8596849785201365,1.6141081473594046,-1.3858966369750998,0.33336353709268723,-0.4035641168439298,-1.3860254278093056,0.8068165656966363,-0.03526185493791933,-1.5790257718430225,-0.3508788575596721,-1.1228049899956491,-1.0350872693347568,0.5964854338693977,-0.8070219914067608,-1.2280703810442837,-1.5964912280701755,0.40350877192982454,-0.3333333333333333,1.1403508771929824,0.8947368421052632,-1.1578947368421053,0.17543859649949492,0.0701760468762144,-0.5263042203775565,1.1578964829493712,0.9999976453776546,0.2280948190821127,-1.4034310192169304,-0.5437335833142889,1.1405645124156456,-0.7540547213210745,0.8423852479910349,-0.5439123686760933,-0.9828417312835752,-0.4920896064359835,1.4547455686710906,-1.5447983976284643,-1.4740790448262786,-1.1757492306219057,-0.4563555963856852,-0.3333121111591134,-0.7368165827717315,-0.6491005108749159,1.087737290343522,0.9298305205517053,-1.719298245614035,1.368421052631579,-1.631578947368421,0.3333333333333333,0.7192982468918612,-1.3508716305562556,1.5263142460215349,0.3683851097429508,-0.8421217342695232,1.1930282675168715,-0.7015647063094164,-0.22751437522745885,-0.22705850568084598,0.7032928937656704,-0.12137785435972728,-0.20950031701412158,1.4563184862855605,-0.4573086018954005,0.9808789379741903,-1.5449627501169245,-0.6324912877178182,1.0336698630661503,1.2621314254073979,-0.21133383180119575,0.5084911433538946,-0.4912770401839804,0.7894356774919601,-0.07019122285856344,-0.24561381942869046,0.9122807017543859,1.2280701754385965,1.228070175438586,0.3684217181955962,-1.5789544508985645,1.2455515536693422,0.3858589069882657,-1.666819953731018,-0.4913886369043612,1.5610276317811205,-1.2637899054063921,0.17448964512215814,-1.4936065698013874,0.36496854318172284,-1.61849502233866,1.6962026918710118,-0.11224958102563427,0.9227103829098344,-0.14636759208937675,0.80157136921539,0.9241398593135162,-0.16291431495515837,1.3124044541613156,-1.7207716589653483,1.3149690137655639,-0.4039232539757228,-0.8773074270574173,0.052614233287945254,-0.8947372900641246,-0.3157894736842105,0.5263157894736842,-1.66666502602349,-1.5614092387774616,0.1753898779336098,1.192777997438585,-1.5090862633737694,0.5954752341800783,1.1906911357113166,1.3644654203714643,1.1158660755959073,1.6732193192526974,1.2510100685311976,1.2859602684673384,-0.8902818032498634,0.19641449012509185,0.038121556729710945,-1.6092014720172971,1.2336627857907057,0.042456618288527107,0.79825009744268,1.0985140918000988,0.04815569999433842,-0.14300544015885724,0.33176322926061735,1.1400769818349337,-0.3158166071638222,0.6491229628751827,-0.017543859649122806,1.0701754385966489,1.2807034575804297,0.42102642053061656,-0.3333558242298135,-0.47382143722996045,-1.5092979424436925,-0.7560250346545719,0.11942068227658749,-1.4801194581903567,-0.817974134104281,0.600777400269166,-1.6271941482722776,-0.27593715821852505,-0.27564081253882156,-0.7163399549544757,0.984398019011669,-0.0852879727960502,-0.5745246852663071,-0.13447893602200264,-0.4135426423644612,0.9210836530158552,0.5897701950279216,-1.1790818593464607,-0.1598329739393386,-0.807423850847688,-0.12292572518845465,0.9824596724047361,1.2280701753021113,-0.29824565311842394,0.08772642415418008,-1.0351040239645832,1.1929554340152295,-1.5965906559789427,0.08721974933963064,-1.3000787341235838,1.0824789854249655,1.3059496356450113,-0.13623229011132987,-0.20607139277598532,-1.4849066441513443,-1.2570763355425458,1.0056291241220947,-0.7492341727579879,-0.3998244270061724,-0.8389110251762084,-0.2059951920596606,0.33815004445921,-1.1165832703064202,0.8502433272038611,1.553805015580328,0.7499001902603202,-0.19486591679889764,0.8589382490366609,0.12259790995451314,0.9999901513835587,-1.5438596508217142,-0.245614064059867,1.1754434400797094,-1.5614184933335677,0.5788536665854589,0.806806284076406,-1.0534634775099712,0.04975394876039703,1.2908189323385282,-0.574106997826257,-0.8585194060669697,-1.0148037680071837,-1.311019573043993,0.8467306831844003,-0.08213366704771742,0.9700025817220176,-0.7510818789400943,0.23007901226163482,-1.7518970066257282,-0.08446039125878217,-0.7838051043976525,-0.09705402618065012,0.55461642869621,1.2420505071631835,-1.1943052986952523,-0.2637606148123234,-0.7369377928420697,-1.368442793259002,0.4210524586432859,-0.10526288133413413,0.29824538494771546,-0.8421106418272138,-0.9300121817091581,-1.6319759715150135,-1.1588242414434968,-0.9326216337822938,-0.30679582974376823,0.3170139376288244,-0.9857980645507857,-0.05531869699470346,-1.2277679769985688,-0.45318994939366,-1.6264144480176341,-1.469597449716249,0.14177916273490246,1.6313783000097348,0.4565426803786918,-0.06813119988784376,-0.2579024489473917,0.7285418676779752,1.5388980215450365,-1.2654327995884909,-0.6850902520301728,-0.19328533411029253,1.263114735098383,-0.6491559620806199,1.5614033076830849,0.2807002866461897,-0.6140354025895376,-0.2807601291901361,-0.6669731864348475,-1.3514277122964902,-1.7026201401482906,-1.3885747209231607,-0.9740361744931939,1.1731947555308953,1.4630838204710503,0.7444087666645514,-1.3549467595359173,1.3518081616328883,0.9338509223757077,1.0907608163628597,0.7365664756226489,-0.6333273690613965,-1.03618896151009,1.3182349430028306,-1.589136769381607,-0.11120909228367129,-0.4943301604674679,-1.036621353362863,0.017117988822757557,0.543867235545088,-0.9824415899078326,-1.0000140349267892,0.3859648845607728,1.0350765169234863,1.526287748080904,-1.6141816563165023,0.5959625777991863,1.6656690788631707,-0.7733344443088669,-0.47679393913477963,-1.6944528750668488,-0.391946439243388,1.6147635907946674,1.5121498624376746,-0.09329890942742342,-0.8757614903756255,0.4971275884278292,0.18008124259181998,-0.5790592967052738,-1.0378894027891339,-0.07094766248834576,-0.45142470982487326,-0.39282454995143523,-1.5303188605076783,1.5585731168320618,-0.5629334755638147,-0.5091257147055013,-1.5438588820868224,1.315801577642565,-0.7543865045610247,0.14035087667761562,1.0701610272858677,-0.9123289437129591,0.36822517740283595,1.3326220200553065,0.1391379100984318,0.3488079680213591,1.5737951343235668,-1.7152199677453976,0.4289792963452947,0.1409671013384294,-1.4501488760078274,1.4356533973792474,-1.3116694658185972,-1.623723746057169,-1.6973851795864938,0.36496696495754555,-0.4440960423642942,-1.246466826150662,0.1641392988876935,1.0995438342179482,-1.6879009842824673,0.8741079755015086,-0.2647975294255616,0.49068706383173627,-0.17550868944860948,-0.2631898517170938,1.6315817647524629,1.473684224766037,-0.000023529654889887743,0.7017088048769613,1.5086324797925643,0.4555324543404366,-0.24673248762293376,-1.5470032470887831,-0.6224155607633417,-0.895731108909581,-0.5900553830332126,0.4263229150646433,-0.5322765649390235,0.03380226613851792,-0.48817870951889786,-1.4864920583556755,0.4906880107418809,0.3252430702833563,0.11456117508081534,-1.0181812722450152,-0.7822688592820715,-0.3573603572679565,-0.6016960034549496,-1.3895938289387013,0.01594103186919347,-0.0006044447202761058,0.07005003335497198,0.33334700318478105,-1.22806179898784,1.6842105270245402,0.7192872445517214,0.8596210917222168,0.9648091967654331,-1.4565754879964685,-0.5804507186239415,1.7318198250635342,1.1453213714811572,0.6959335644669935,-0.011667037295016551,-0.3429940346944665,-1.144805322108885,1.5581017834483684,0.12062286510847588,-1.142927118613481,0.29040286719621217,0.7772693920434204,-0.9040938872041968,0.6480905836408017,-1.203822846019299,-0.5864379590300804,