{"layers":[{"layerWeights":[[-0.8596491228070176,1.2456140350877194,0.5789473684210527,1.0701754385964912,-0.9649122807017544,-1.7543859649122806,0.7192982456140351,0.17543859649122806,-0.9122807017543859,-0.07017543859649122,-0.42105263157894735,-1.6140350877192982,1.6666961005685375,-1.0174806711278055,-0.1403522810836407,1.2280701169431525,0.8771929824561403,0.08771929824561403,-0.6842105263157895,-0.21052631578947367,-0.24561403508771928,-0.017543859649122806,-1.5087719298245614,1.6666666666666667,0.8596491228070176,-0.9298245614035088,0.5087719298245614,-1.6666666666666667,-0.03508771929824561,-0.8070175438596491,-1.263157894736842,1.5789473684210527,-0.5438919621351644,1.57885244794817,-1.1754484681404802,-0.43938047733032454,-0.29842207658533393,0.5138457260319408,-0.7340987900359086,-0.10529688338749979,-1.3966575221073427,1.680846698842938,1.5781028760595615,-0.6508187800248759,0.06697782522546937,1.4690093540291473,1.4467766928346129,-0.16061306520895358,-0.6174428653956839,-0.3515968572289275,1.7367055657978998,0.877192952095982,0.14035087719298245,-1.1403508771929824,1.6491228070175439,1.4385964912280702,0.5087719298245614,0.7543859649122807,-0.2280701782202493,0.016389835819331865,0.26297831518334586,-0.33369992725117675,1.6636123188328849,1.0780151218110854,-1.61038143226992,1.172246126914503,-0.9504634375673373,-1.5824494757283385,0.6902699101329798,-0.3588545352493016,-1.7023406962416279,1.3923759710807542,0.3615839408656557,-0.6421084628683228,0.6721960932492028,-1.6342358631290017,0.11629353891312394,-0.4719704849173959,-1.3441399456465855,-1.7429351994401083,-0.27350774604277733,-0.20364168026076981,0.42105263157894735,-0.017543859649122806,0.9473684210526315,1.2280701754385965,0.6143762803152214,-1.0613761295164412,1.5536861823392136,1.5440202475388909,-0.4831184201438102,0.035724046924212376,-1.3806721640832451,-1.0778897727840238,-0.7485623069602234,1.3001024396420602,-0.5774305526262873,-0.4953646204534275,1.2986242305280575,0.7791530482247998,0.6372146265556414,-1.4451862236631603,-0.6452252418931063,0.8304121637947176,-1.615966438176611,0.8190275029481271,-0.5320458871337881,1.487162033658535,-0.7080428968627921,1.7112368816427102,-0.36971282683139894,0.38596491228070173,-1.4912280701754386,-0.719269299703915,-0.9985675651374123,-0.4717238050171331,0.32354632083210205,0.60268277348416,0.2595381599112355,1.769113400630912,-1.0672039089807666,2.3895922444884548,-0.44156831168889804,1.0037746465691086,0.07906734130094444,1.906862485792794,0.08169259845762346,-0.5127898589515159,-0.0010001271875596292,0.6703248846258977,-0.9800554400796762,0.5231559717102965,-0.4430064805755506,-1.0196693652647413,0.007888625639366115,0.5630517009526368,-0.09241185592275801,-0.02994441362695411,1.2047362234260108,0.08337163671112363,0.6666666666666666,1.1578947368421053,-0.7010454119275165,0.888310544840538,-1.6126397558878396,-0.7160268802451617,1.0438677994579115,1.5001777487779793,0.42847727101822103,-0.5814213757226252,0.04363261929715759,1.4765660380215648,0.49059497492331694,-0.19395402691661487,0.7675877301444252,1.401313676620343,0.2860994285923423,1.0815779974654813,-0.17857347661955794,0.6641410964633744,-0.6849615781945597,-0.2193530433274079,-0.5163411384487059,-1.9909911425870204,0.4598336395071395,-0.9812104658605593,0.021829740743908543,-0.2695817552800315,-1.5087719298245614,-1.5263128500256098,-1.6246850905134,1.6701715549911853,0.9373987402464496,-0.48996829130640546,-0.3790075092863743,-0.07256649510674443,2.5670430382157208,1.2175907044190335,-0.10461123731761598,-0.4011198006873595,0.8709113602593151,1.2363977444261929,-0.3111904456981977,1.3588807753629357,0.15756693035515254,0.4625062967104169,-0.6054544977142745,-0.4790238525825043,-0.6498601494533299,-0.3108119858361371,1.206159239058114,-2.0414908727082715,-0.9335423642239953,-0.7635488925645808,0.14528976962253434,-0.1590082893348996,-1.0877225318094437,1.331676033021014,1.0235106593115406,0.8078619179870938,0.17368999056519802,1.6744374103444715,2.363776229937296,1.2983132767166272,-0.7187247946960659,0.4413929029370901,-0.5750324476826797,0.2943585037959026,1.8072599255235624,-0.6399480002739797,1.4310250882889057,0.602709745162469,-1.0505776877087902,0.3858110219872693,1.347863138467798,1.1580174389492226,0.04992772018632525,0.6072218769621832,-0.4883030736579659,-0.6034459157700272,-1.6790482777828324,-0.5186680719058621,-1.0277257426921822,0.9105362530592315,-0.20623510694084107,0.6505363644898808,-1.1505284471735415,1.009994834394213,1.1400275772008475,0.38636783099352745,-0.12505779984997228,0.14530802429685064,0.5907409002215042,0.20366625324012216,-0.15073395832644035,0.1973204379958929,0.5193777818903332,-0.23769387581972073,0.2539665759852987,0.4115971557155066,1.4281922563627067,0.17869729377081423,-0.47902719671402655,-0.4070120481359838,-0.4912766570636449,0.40999496323915696,0.27853110661398744,0.1618241621485849,-1.0223707457711908,0.5625309210905312,-0.2355368836386087,-0.4712432390379662,-1.4738580416611815,0.480575835468363,-0.5946159042977567,-0.36406070045080197,0.25911601762784575,-0.2223036081830339,-0.7400660837864528,0.03589419364904733,0.4618036499744343,-1.6196437465308127,0.902491994792507,-1.5134055763144023,0.5027054960945849,0.4754173358750889,1.3724274855464715,2.3089204992470576,-0.3112215851094175,0.5870576050064037,1.7804184406881356,1.0730776536008888,1.2745142905392943,-0.6102984183593891,-0.6251855583240286,-1.266857372514049,-2.5022023929189605,-0.3266770353468724,-1.4735024555553553,-0.5955612726978523,0.9294944063045818,-0.159395995237606,1.4055443862428776,-0.6439903812511418,-0.10380443842744114,0.07239244781115974,-0.25507872708015783,-1.8979662186052464,-1.402672596726073,-0.9394216762118047,-0.9118023577852992,-2.0098555815437864,-2.3392063745150864,-0.2667619508355,1.2007830289333379,0.7542617475481007,1.466018622002361,1.7126784224388616,1.1927619702216103,0.7968765447835137,0.30849785376379973,1.762584031215491,0.6429619750800022,-0.00856014402942933,0.8259536386961653,-0.8561494721401284,1.3305562631287398,0.6144383993882259,1.1927070147875627,1.598592006322774,-0.5340625340058176,0.6647512163721231,-0.22091618994624426,0.19749552461499786,-1.6112856579102246,-1.8884455561383313,-2.420897570073112,-1.278866506716722,-2.941836840582904,0.041472411981708375,-2.0190361735247895,-1.7260315102152097,-0.6420484672491921,1.33461393793478,0.5251147447738591,-0.3647925392756899,0.4173057030148352,1.3348447122632363,0.16821247254937247,1.2095172457541472,-0.3257472219052957,1.5021669521394645,-1.0870272284076365,0.5102553351796246,-0.2853235578063399,0.17523959360363697,0.2982370230257415,0.34431132606642006,-0.2623190935815319,-1.6579802167212327,-2.076250028773425,-0.01740823747842289,-2.5310105499592175,-1.833479190914865,-1.9373727340995628,-1.8716125740024079,1.0384658663178645,-2.19376805171656,-0.47563691414077625,-2.245594099912826,0.34383538003528064,0.5519827157561941,0.7301802690856848,-1.6837916123067882,-1.0949293706267513,0.32504343183697976,-0.8467206896188875,-0.3323287158639165,-0.497447831983723,0.46895061511739383,-1.3723798807884549,1.2484672878165284,-1.38672206988589,0.7879285119622459,1.5263154701558546,-0.862035659035936,-1.026383258556024,0.09733417041564876,-1.2118604457027555,-0.9372944007555548,-1.1045877619784241,-1.6422969469094322,-0.22356304281039718,-0.33298983422757444,-1.0952617623547805,-0.49210720139849784,0.20696221834065817,-1.3382396209105478,0.039815418939070944,-1.3082600425066142,-0.05947707152701443,-0.30192794597174266,0.26821436412261046,0.3386713866579677,0.20205490350622415,-0.5639952214649969,-1.529284975197729,0.9347939535185332,0.43037611785794905,1.6264728499266656,1.5599701391491165,0.8111402029437945,0.4912053896612044,1.2443804875495044,0.04826258334994581,1.3490798668684099,1.153264592346898,-1.9729449790578348,-0.5209384575636855,-1.0571398164330295,-0.564097410378191,0.9162078071670324,-1.2080028353048866,-0.0051250499484751634,-0.20667357844133838,-0.938458933649595,-0.7350994774055934,0.5299546078227887,-0.24515906130125484,0.7716039558398194,-0.3285711723808104,-0.7898130389319356,0.3446199298430736,0.7071728128348916,-0.7732238241166497,0.8144340621282652,-1.3509388508697662,0.4909788553101436,1.3095771612975042,0.052492435703431664,-0.8772013272818635,0.5439549390233592,0.9339824105177191,-0.6026754874234621,0.6074469380390113,1.6027857268601902,0.5692730876887316,0.9928613144574651,-1.242165166217279,0.1508163999615024,0.5471668589691694,0.205212313980142,-0.24499594851455475,0.06223411792488169,-1.5788262126418076,0.0007543943256889674,-1.052783428161998,-1.2428194731636886,0.6854749534379788,0.46479475239580387,-0.07713777293820688,1.0183239222657274,-0.5455844644895581,1.19480727506963,1.1888147794769772,-1.2547168253455876,1.1831497751388131,-0.5293026506432756,-1.350882441340484,-0.9109951983894939,0.27585567695555624,1.1094596784428934,-1.0269302445865955,1.5130975967352447,0.16614545939639347,1.3609866533953945,0.5567131370700645,-0.4043406168228398,0.12463898182422134,-1.535819567262489,0.3444257413803034,-1.3723850249039016,0.4093437117706986,-0.33314126599892124,0.6431845019764688,-0.19412218190981,1.230482709003656,-0.37850176573023553,0.5370087963696152,-1.053502615719683,0.8145839976818589,-0.16735130319972635,0.891635517506582,1.6021760890018226,1.5479352184505955,1.5469842841125039,-0.017543859649122806,1.0353436868164065,-0.9674571648837076,-1.1598577147361795,0.352775436673746,-0.5796007151674976,0.20117840630915837,-0.5296658810488618,0.08304459523079916,0.014277510189617109,1.3063322015486736,-1.490410995087397,0.8183404201374282,-1.6567100420031038,-0.6356612389693742,-0.7647889574551572,0.051789917338027305,0.6374653589517467,0.8786017551353207,-0.08161548373078807,0.025873116528371067,0.7176914209298367,-0.7767136300348346,0.6300298027086373,-1.0804042403254783,0.3483291894998857,0.7979522890143147,-0.8546693279401332,-1.263018762009658,-0.6313196583964226,-0.2541242269020515,1.2873215733205141,-0.24160387486326054,0.7484172560760379,0.785611208213319,0.36006540981920704,-1.1773479074827526,0.6912960241693689,-0.913727537015926,1.7340394550164857,-0.9657768595979926,-0.5269127672264096,-0.12565476056455727,0.44637393119584723,0.22306249092016334,-0.15966194490210778,-0.5962347770903822,0.8720212043472739,0.3490153100938821,1.5942707335766322,1.2166750971628417,1.083649873871411,1.2927065586089856,1.7917114613451495,1.6986139654419006,0.8095455791819806,1.1578942014440121,0.4740537100436528,0.726630878805532,0.487903689589066,-0.7932879469118221,0.7209563414138852,-0.483648090788702,0.8617676831068786,-0.10833282739293479,1.2342639983043713,-0.46863684690115687,-0.37109941392531853,1.5112415945346944,-1.0985354246538868,-0.19665311388525708,-0.46182195439105483,-0.4823916888405456,1.295186156084392,-0.025109713739935896,-0.13964425161722657,0.7800043123742157,-0.8638410404513118,-0.6359104945543982,0.9271918916132033,1.0524729389368248,-1.324541524545152,0.29725923558461936,-0.31548438329649,-1.2280701754385965,0.5265267215512187,-1.0711618695319531,1.3238118259397935,1.4696604219567653,-0.6353808515674084,1.035969200731632,0.7081419200346388,-1.36293472753335,0.822392767894057,0.35424432570856446,-0.14779181610524622,0.7144396813943976,-0.4075085761682424,-1.3324863230772337,-0.0901683827679558,0.5267726787968755,-1.4081932554352323,0.2892923970773842,0.2229792733644019,0.8037129267589815,2.019994790904801,0.6341671620803971,0.8862807383451851,1.296636425298418,-0.06514388439790371,-0.3966252920452416,-1.1228080090606396,-0.26315897495444435,0.7896917871387332,0.4939423338526933,-0.438513574294511,1.1762861203161812,0.9153676524815946,-0.3186382694755025,0.3642085077302896,0.8139078374294465,-0.6077350598743206,0.29043949343203807,-0.09901567427919554,-1.1818770115912138,0.8688820799536889,-0.6253421841038346,-1.1231148177275447,-0.040396624723469485,0.6377665683033084,0.5983135046637829,-0.483028115841953,-1.0961078100757775,-0.6230467671325521,0.1249732888722854,1.659380270493906,1.1509436464993978,-0.6004136548095129,0.0803523848787721,-0.7719134926714333,-0.12280806400466168,-0.2631715631095928,-1.6662089349453504,1.1936374325032189,-0.19149449233745625,1.8717773417320689,-0.26574346776648405,-0.5779527242192593,0.46839303117142717,-0.377731227156411,0.23885977193593466,0.5662482019683561,0.6233444545579383,-0.45561463512778655,-0.5092491181894693,1.2986317276449082,-1.192943935008855,-0.7680963435891723,-0.8132399104228578,1.5971668678133244,-0.4166541339543734,-0.8735044594467029,0.6032933672815799,-1.068105811266188,-0.9635634005746205,-1.0222273935483996,0.7253348378900448,0.31581962486569404,-0.6666666666666666,-0.5263157894736842,1.1045098703280434,-1.1150801925968523,0.14086262947958697,-0.13421080512677516,0.4901190371280301,1.63969200460133,0.6802911007384063,0.9814229420444855,-0.45713720092190535,-0.42976336694725503,-0.40832484926873935,1.5825042054174587,-1.4485134100116714,0.6813880537892305,0.10394211386680229,0.2345993101917296,-0.2792749033620955,-0.024228684437306056,-1.399093481186736,-0.4498370985054183,-1.2104754132364322,0.5737385194260024,-0.866805390440902,0.8916978338896674,-0.45174759839376066,-0.8947368421052632,1.280701754385965,1.6140350877192982,-1.2920231355572591,-0.33087545844482785,-1.1476528480828898,-0.08816957452266637,-0.48317093851530024,0.23279494699771386,-0.8763968342947893,0.7800820902887643,-0.4557979125334217,-0.8373804669881735,1.507365770606118,0.6923752214227785,0.15346183834552884,-1.4238607915109234,0.6830897561160889,-0.5234990861249103,-1.7017083356683003,0.22754096653878314,-2.009473983271436,1.1631298926050813,-1.6312506220615297,1.380303611839299,-0.734265030673587,-1.3667354959492628,-0.5786111192604303,0.017543859649122806,1.263157894736842,0.24561403508771928,0.052996601560430935,1.2335505057636835,0.5948535115885957,0.835103273216446,1.3633574793941197,0.06870148723541981,0.1505898845220875,-1.2113873323048219,1.9226239689639557,-0.4546587929334113,-0.7774813632854396,1.490890990360827,0.22583598557723036,-0.21507488417552895,0.667160417510953,-1.0300763208548909,-1.5547365207935508,-0.912543954113121,-0.7304716003092441,-1.1024953098744112,-0.240143027944877,-0.8052283707375815,0.7293045300553384,0.5614398266609271,1.175482011747718,-0.17543859649122806,-1.5789473684210527,-1.5087719298245614,-0.9824561403508771,-0.035568334831735396,-0.26607163141177453,1.1974043402757677,-1.7695559356369006,0.9554394791990459,1.2594495550776048,0.16954735671748458,-0.2112112852004266,0.5846440377729062,-1.428620115553606,0.07183742075245952,0.2338814033796133,0.657011392782641,0.02522844852496375,-1.8774184257925763,0.3580240466099375,-1.1550051785054842,1.1373041615889954,-0.4142864577531004,-0.13321981665247742,0.24595649715670437,-0.5436533697489226,-1.0000442091162491,-0.21052631578947367,-0.6666666666666666,1.3157894736842106,-1.2280701754385965,-1.631578947368421,-0.8771929824561403,0.5659523188049539,0.958711760802148,-1.5344178473300694,1.1043368262688646,-1.5630946078195704,0.3308488909438402,1.0868784462863816,0.6455317975387836,0.10644339023954097,-0.7439180229999296,1.161540767516467,-1.4538101341497445,-0.39919147671828203,0.7561820285653621,-1.470152529498753,-0.14861611517111686,-1.6810406918994938,-1.5224411914901317,1.0513318891281334,0.38474912964498204,-0.49122807017543857,-1.280701754385965,0.631578947368421,-0.6842105263157895],[-0.5263157894736842,0.9298245614035088,1.5789473684210527,-1.631578947368421,0.9298245614035088,0.45614035087719296,0.8421052631578947,-0.9122807017543859,-0.07017543859649122,-0.8421052631578947,-0.9649122807017544,-1.087719298245614,-0.1754556004804036,0.7894618431418622,0.12283527376368888,0.8245625808512648,-1.0,0.15789473684210525,-1.7017543859649122,0.15789473684210525,-1.0526315789473684,1.1754385964912282,-1.6666666666666667,0.21052631578947367,0.07017543859649122,-1.1228070175438596,-1.3859649122807018,0.19298245614035087,-0.7368421052631579,-0.12280701754385964,1.4736842105263157,0.9649122807017544,1.4210395118391288,0.3508368723964358,-1.6386821998639152,0.06877486913497158,-1.2341155794406333,-1.1085431908382282,1.5390138438734433,-0.3073338044134467,1.3343711034004175,1.5820454582893497,0.9696669799889592,0.03657898279787144,-0.5450089051301024,1.2709306900746042,-1.2763765477323945,0.025471784920416678,-1.7679317630312916,0.6773774650895802,-1.2822820707836433,-0.5088958428983683,-0.19298245614035087,0.5087719298245614,1.3508771929824561,-0.22807017543859648,-0.6491228070175439,1.6140350877192982,-1.6315942532701495,1.6291684146650263,1.7006722563068895,-0.4562104424968939,0.2024043834487002,-0.009389702354471832,0.8849126792695847,0.81958952462722,0.3685168215151224,0.0740224618923632,-1.2875059683953762,-0.22348604710499081,0.24297614544206725,-0.9252773674686762,1.1215997470906618,0.8698895782217024,-0.2572226531524802,-1.077645967086162,0.1239391240719123,-0.10266607318966388,0.7131117679540332,0.856074450568836,0.7741294649514996,1.2600338430218563,-0.2982456140350877,-1.2982456140350878,1.280701754385965,1.631578947368421,-1.508793487684421,-1.1297975544918346,-0.1835820513993822,-1.265928291301166,-1.3415560990239812,0.6343154183315759,-0.6630068726400977,1.4785786627437492,-1.664430409260163,0.02101178352785175,0.5925148954153917,-0.2506324441984252,-1.7494717654359002,-1.1197550468015613,-2.1079163507094933,-0.43876785219469533,-1.1371706341239023,0.47813694755309893,0.6198546144143312,-0.6389508719762248,0.3694146769236182,0.7841678999345293,1.4816337172946514,1.3840460228202305,-0.1929900613808241,0.5789473684210527,0.12280701754385964,0.15789461318345446,-1.403560517213057,-0.7543985397938033,-0.4884648423033981,-0.19663480449310242,-0.5639412908227233,0.4942574907679294,-0.8401808456608753,-0.8226675002708264,1.040178600077672,0.6522415986078353,-0.4941220198202214,-0.2651895518229298,1.0227956106625418,-0.2579141422488663,0.5005257249823849,0.8147348144906591,1.0574464408653892,-0.5402284179477103,-1.6586371204972736,-0.3585953185702479,0.101612727266115,-0.34597855574347214,1.096885181032063,-0.40081874013828694,-0.3912686107618926,-0.2982456003455482,1.4736842105263157,0.15789473684210525,0.3339466137207434,1.6595192370443783,-0.1474154559792071,0.2188714947718143,-1.2734051381231235,-1.5709248618901794,0.8482021868427883,-0.6009530558340512,0.2980632609555933,-0.7751494362139404,0.1888411458902185,0.6327191571513662,-1.283898157847895,-0.9095392021052325,-1.0635958393508391,0.38239535364204047,0.8053951598044354,-1.2219359463776596,0.8638956775921725,1.7863986817017845,-0.6357705173597781,0.44462297410541024,1.1064543449427118,-0.13572106697533337,0.9408824942450192,-0.5428148345890481,1.263157894736842,-0.7368618344113128,-1.4219121147653655,0.7958918375485847,1.6217995750157947,1.584824322519278,0.39853685112604437,-0.821644621406239,-0.12911830987914152,-0.6198285551022463,0.36330109865860266,0.47851439605163826,0.05610669753411733,-1.6237606482882856,0.23015715440238482,0.701836328084193,-1.1563915280841834,0.25777924683674586,-0.9565461945098119,1.5090516525285902,0.5490349558698513,0.7098951186587233,-0.13630979200985072,2.3511291882324215,-0.20595592739517452,0.9325841270024392,1.3403939117740218,-0.0670465972354331,-0.5964892751963574,-1.6856119642613834,-1.396549678171415,-0.7163100325658159,-1.0420599535298651,-0.4267687522505104,0.9185206946078334,1.1324928017191833,0.18263325254965998,0.6498093601373086,-0.6251897567596145,0.7285275105886698,-0.05572752032497213,-0.5187073904271089,0.8840316297622409,0.9521823742022715,-1.0452488326347267,-1.0126797160343244,2.086315703626898,-0.052539369131344334,-0.2850133882536214,1.150533514241901,2.715652291339151,0.8407043685332131,-0.435993932986074,0.33026452450148586,0.7101235716094207,1.655452197338384,-1.5788647927606192,-0.3329805785018796,1.545015243147571,-0.6362094245292109,0.8036823406264156,0.44918720122117217,-0.1873672243263056,1.3737965247255135,0.515159544998615,1.5247158919092987,-0.8836825682096368,1.6414070976408432,-0.47619959033168163,-1.4105419549928873,-0.7863893800334438,-0.5383825696282597,0.37482829890333663,-0.7675717918846772,-0.20409413462540543,0.9765648840580965,-0.3048658479825097,-0.04096934355318408,0.03996742008616254,1.1130472272262246,1.1766029673641023,0.10997346633119096,1.6646715305031106,-0.06844376356988165,-0.7716829909437273,1.4916642653484644,-0.645935047730898,0.7018386385846264,1.5004257940953039,1.7253709246667324,0.5859925323229893,-0.5020454185915434,0.40806258955354896,0.37905917617328205,0.6019500139486305,-0.8882422659632462,0.7671059394117467,-0.00303231545607377,0.09483914214198831,-2.1602752136829877,1.0752870688831533,1.9425513147325226,0.8090318006247257,0.9471731065229793,1.943651456969052,1.7391697150503707,0.18346149026597616,-0.1946960708519479,1.5441585328080878,1.5211511310175823,1.4219476176001995,0.7363015305174522,0.9827425732911808,1.1238631196767654,0.563795678599688,-1.6752989902884756,-1.3592282551032446,-0.7637696083104757,-0.01085848978935653,1.8768627708123697,-0.39995790601829323,1.824400060876316,1.9601440477030503,1.5588102978492453,0.3283588467493186,-1.299835210230186,-1.0357766721341917,-1.1877107486627054,0.6486109726483732,-0.04581037968958875,1.3956675552799447,-0.17382162981307217,-1.5724306375574697,-0.48648545688584854,0.802098431428753,-1.09188839391389,0.7311780135908299,-0.6501098725248553,-0.6994624121537681,1.5087263984651342,1.2106279715846957,-1.3872624164832115,-0.8406541155856706,-0.6819791507432338,0.3220541714138706,0.8854458539185753,0.014317567062007016,0.7795498087900111,-0.33131172784773066,1.5651215705238029,-1.267023129874476,-0.4245248068933675,0.9477174089986358,-1.6608570540489405,-1.1916842473348264,-0.7372755403188342,2.1397434414796326,1.7992356963357525,1.450994661385456,0.26670021982501874,0.7078295850834225,0.8535245561906866,-1.6094644885205331,-0.016474666128329225,0.7853554767052651,-0.07769866017191686,1.6488876878563692,-1.0875092491747793,0.6141111877121304,0.9572937895096475,1.5783174879350315,-1.6128904681330745,0.5683853042768645,1.0857943457960946,-1.1895847121156007,0.7873281166266269,-0.13536829063526404,-0.21870755558410637,-0.6339251432358027,0.3090935042928902,-1.3347984254183636,-0.76400333956306,-0.39718825964228555,1.7596908176125676,-0.7302052461777804,-0.32636409798607335,0.26413056613154623,0.0042310251383523385,-0.8239375256474831,-0.9830250727782465,-2.1687681829758025,0.1366716597588652,-0.41038162141318213,-0.6425613017516889,-1.1443498857298773,-1.1685634110684764,0.0701572729686069,-0.24262542172697213,-0.7044872325547153,0.24083264162837817,1.5879371858722375,1.0619035815560645,-1.8430394273373443,0.736739339882358,-1.3940443400025044,-0.9289745314402803,-0.14105964605335297,-1.632887222457755,0.027599555282856857,1.2435984119342176,0.6463099326474634,0.04319552543119489,0.582731885993259,0.015105044102189548,0.7133435220744342,-0.5080048618214822,1.7646842608786182,-1.9623660987131224,-0.735684291222948,-1.5746812437907405,-1.8728214456114851,-1.5546404313606543,-1.0179429607084673,-0.4218414591956121,1.1410321181889291,0.21169750181411512,-0.7735976877194357,0.44050313837860205,-1.2716307096828152,0.14857847289254758,-2.0916450799762836,0.24481445713270217,0.28603888292373736,0.35721227876625056,-0.43486818974578656,0.9008384293843829,0.7907889348181317,0.8669648678789657,-0.8441184309804717,0.8871781370824765,1.0280633117680507,-0.6950151142536738,1.19246585599579,0.6568271017203692,0.8156753163680942,-0.16061412889301285,0.23209444858192801,-1.0785410024422148,-1.8478624206674263,-0.8888804368692647,-1.217926052765494,1.5105155359432691,-1.175215341423073,0.7894625641672047,-0.09796744026112258,1.577821326707905,0.0984654349902938,-1.8259207591118918,1.2489754276187968,-1.3773226041620237,-0.5374272117805212,-1.3157112456005282,0.6977558996029053,-1.0968087836405644,2.201859063121751,-0.46242446402245213,0.19668748614616446,0.8868812811147491,0.5750965256814947,0.6898944182230432,0.7344928397111301,0.4454282496395975,0.7194552679955307,-2.0591078243643532,-1.9040697267773206,0.1574553810904312,-1.4848207789163357,-1.3923998012337768,1.1748719199457538,-0.9299448593697529,0.31579058143902927,1.6314745378452262,-0.03368630146916601,-0.5774636383365089,-0.43243342564783543,-0.1421672228588142,1.0392419247843132,-0.2119028510041438,1.4523146689392388,0.616748024780954,-1.777664086142228,1.3918989302212585,1.2708110784948001,1.6890489886538858,1.616766243661657,0.820005087429993,1.9258345983150689,0.29081966392819525,-0.6183756744100701,-0.11013537495537477,-1.0694879828010062,-1.9678473706476833,1.0265634103388535,-0.8973181452609076,1.4476431919395545,1.4018845803506659,-0.25455692002369834,0.24858595353015767,0.2631578947368421,1.2278298257796583,-1.2459444850857895,0.4209888228299853,-0.33642310116117474,-1.1120887908562407,-0.5230759502467106,-1.1173318920899877,-0.8142377625557048,-0.7457377227157719,-1.7235019110659788,1.45127841598253,-0.8183647414073373,0.4773271317975368,1.2757878635675282,0.2695601625839238,-0.35112729541549464,-0.22849288227972422,0.4927354554203534,-1.5606931439259353,-1.7180132345463994,0.9578291707850264,-0.898809925564174,-0.11066643521599702,-0.0711645842980574,1.2448047600554173,1.5391067821543487,0.30193670069186984,0.934836268772163,-1.2633183224618367,1.4448196514533829,-1.0960926521451921,0.8480952576162046,1.2316229099112408,0.25290548759073644,-0.009687233194280389,-1.4175329338559493,0.8215711347988395,-0.4295425694551325,-0.89491460015011,-0.6800507311651925,-0.5308117072081032,0.1699551644202491,0.3926391477705313,1.544738954012431,1.3999589911968222,0.8225754869865078,-0.965369503801888,-0.20199516766978098,0.7842013339390048,0.40871342306677694,0.18131591475161046,1.7128398159212919,-1.2954182129164504,-1.4302190988918217,0.7726443363581049,-1.5087721468938704,-0.04111375331399646,0.193984191757815,-1.662372367048871,-0.33714604679673865,-0.24624574574949362,1.3485599549057155,1.1535671363962197,0.4812699595734863,-0.3051993391027911,-1.8004094520841576,-2.1264720195638502,-0.5658457964870167,0.17591484650969308,-1.1421771008507946,-0.30588444192904557,-1.3392881045785923,0.7699622685450712,0.20727241301624355,0.6852486148075027,1.05902966844774,-0.6973379918844799,-0.37136649424729873,-0.7959789586888509,0.6253626853274165,0.6386823011849013,0.6072075935459744,-1.0528043282347068,1.105263157894737,0.6494443281911139,0.3041830499882026,1.163008338105749,0.7586284981857483,1.8734243700066737,0.35809100291907764,1.2304447827569782,0.7024459138900503,0.3467600079800753,-0.7960450004151416,-0.9958413403739269,0.23488861796710925,-1.047090305829309,0.2715948297629627,-1.974968687978016,-0.3301756347816998,-2.138631636755926,0.11980355451662124,-2.1431543817762178,-0.720681478497475,0.9940996530508326,-0.7880153718560036,-0.9585596724969714,-0.4093026177333368,-0.015332724701349807,-0.3727903315183095,1.4911885707153107,1.6140343400014139,-1.0614923257231725,-0.7066414889122837,0.2802579688769672,-0.05367960622642393,1.665827638978801,-1.0542534275352866,-0.09758450722287818,-0.9173225952195351,1.285536702191561,0.45627547726315576,-0.9241273757894924,-0.731092793620281,-2.0669559032359253,-1.024286543403076,-0.8277312507263233,0.879714650533727,-1.4211887542550037,0.45915680573695017,1.4201343521895624,-1.0838298397138366,1.314219673066978,-0.813347509338867,1.1719001868493764,1.632046354254811,-0.3571395076664446,1.141337921450841,0.9297804487234561,1.491227345823737,-0.57899329507065,1.2668308425439079,-1.4762136033135143,-0.4234624599206752,-1.3849589686288668,-0.4709794622325326,1.5341329776974804,0.9436114748994443,-0.2954153003200007,1.5007010867848731,-1.0589737414673228,1.0695868939455622,0.2096191241762828,-0.08547188119593614,0.6779441459524109,-1.992960308205834,1.2573976298824054,0.9109057342555572,-0.8624350406415257,0.32547322748941515,-0.3383508027612323,-0.06941440343859315,1.2843333568130426,0.6698529438341663,-1.32493028916471,-0.7926466559943749,0.017462420855179052,-0.9649122807017544,-0.05263157894736842,-0.8456478854481425,-1.476178435801302,-0.672436526910117,-0.7463823748808667,-0.991942439068984,0.8422451066012843,1.8547052991843258,0.422028991039236,0.6029957541461046,-1.8070032499856583,1.4059793183624782,-0.12503000196842498,0.8500925917476186,1.026210134613882,0.1774525800235079,0.11849361270421019,0.5388551107098905,-0.4906248042367125,0.0377112435138273,0.25657429809234933,-0.2404740638105877,-0.36380683077780573,-0.042963101145175375,-1.0683253986720707,-0.7268025165280092,0.5964912280701754,-0.9122807017543859,-1.368421052631579,1.4709606626883047,-0.5532343356924955,1.2063335550352114,-0.9613221589570237,0.3063821242770726,-0.6945460661081672,0.016855335318571845,-1.4655207279596103,0.08336982359731365,1.027900656923397,-1.1686816773009223,1.483043081629214,-1.532976153540499,0.00405269218385414,1.1185156333951516,0.6410659034145648,-0.30246708421932095,0.48830244960222613,0.22977781055991336,1.436521600932586,-0.5841076403495963,-0.474080237264413,-1.1378523143000439,-0.946809791091506,0.3332382825809223,-0.7192982456140351,1.105263157894737,-0.9122807017543859,1.455982785572503,0.911605869098069,0.7190025412365084,-0.7652974377693561,-0.48797746366358535,-0.6274115256310866,1.3959929215398503,1.5465469231003364,1.5802163358968626,-0.30963948706723476,1.7779504635827275,-1.1942088431098434,1.4492720752868518,1.6839732301670705,1.5325496233899971,-1.3309367830999865,-0.017778879592979028,0.7945138507843593,-1.017059243690037,-0.6023854630580393,0.16757718671095956,-0.868738751542019,-1.2273036556652297,-1.2982457853758016,-0.9122813409436363,-0.5087719298245614,-0.7543859649122807,1.0350877192982457,-0.47368421052631576,0.842107870059053,1.6151129706751208,-0.7464955460669221,-0.8674962849898498,-0.555396689577765,1.0453902779021962,1.697476088723904,1.296189775997464,1.2718507313988865,1.8781055110831346,-0.7670608508818341,-0.43389636017426,-0.5338538556122009,-1.490807213367311,-0.6696749702234155,1.264966037169741,0.3117837003670502,-0.6824579858929705,-1.2400067028507626,1.246868122572166,1.285148627175189,-1.2810488127788788,1.684215917810751,-1.6140350877192982,-1.543859649122807,1.0,-0.8947368421052632,0.05263157894736842,-0.40350877192982454,-0.9298152604850806,-1.3858975619388998,-0.36828596435097644,0.08794773356086982,0.1449019595754559,0.8327385735805679,0.6341950863456725,-1.3312779217945834,1.0258119600208984,0.2433279327023813,-1.090058726142262,1.351311694940468,-0.13317516963084808,-1.6142912041741577,0.21429341670598628,-0.35188247628333963,1.0728111405676741,-0.5937399840309947,-0.8953791120081103,0.9867219653243177,1.4736842105263157,0.3333333333333333,0.17543859649122806,-1.6842105263157894],[1.736842105263158,1.5087719298245614,-1.368421052631579,-1.2105263157894737,0.24561403508771928,0.45614035087719296,1.263157894736842,-0.07017543859649122,0.3508771929824561,-1.1403508771929824,-0.6491228070175439,0.8771929824561403,-0.35093412152791165,-1.0889487658870374,1.0864898519183084,-0.07022666552679561,0.7368421052631579,1.5964912280701755,-0.08771929824561403,-1.2982456140350878,1.2982456140350878,0.7017543859649122,-0.3333333333333333,-1.4736842105263157,-0.7368421052631579,0.15789473684210525,-1.719298245614035,-1.368421052631579,-0.8421052631578947,-0.10526315789473684,1.2456140350877194,1.5614035087719298,-0.9999840401058078,-1.052584690829044,-0.6840482308589272,-0.7003487920458058,0.9502577473423852,-0.6272084322394393,-0.8046448489685023,-0.6162735862908211,1.4758099536427294,-0.9716176402409947,-1.2935243562202823,0.29769825940017813,0.5903918645184324,1.3722484145183775,0.7399631785610341,-0.7680961454137626,0.6702840730816207,0.5798042543726232,-1.6666104716649848,-0.31579646570299,-0.3333333333333333,-0.03508771929824561,1.4385964912280702,0.05263157894736842,1.7017543859649122,-0.7543859649122807,-0.4736841099333565,0.22742216410975027,0.3857996499071437,-1.2982365252537365,1.7200456056293374,-0.5670830635396652,-0.8356267390758948,1.0860397600685345,0.06022174665602166,0.06838624486650367,1.2603142719014708,-0.017011245060294132,-1.3241144081748064,0.7006369819496354,1.4651805182375208,-0.5719981367567605,1.4842353380913826,0.06422439490697386,1.7137726848857993,0.2951941590050462,-0.8587501802484895,0.8491376396318572,-0.8106059894275081,-1.1923936788685061,-1.1578947368421053,-0.22807017543859648,-0.05263157894736842,0.0,1.159104550707427,-0.9661790334455481,-1.1042696660617535,-0.5108191396877857,-0.2511263339282277,0.37460051462297733,-0.5302801019259853,0.6269499124996847,-1.752977363270402,1.0171118765077405,0.24113991462642553,-1.4059800193180607,0.5229341169274537,-1.1034128717319467,0.048790177781507134,1.4669577945003789,-0.5015310227023084,0.9671015614199981,1.5644592945040046,0.6378294296946083,-0.19432788807531826,1.749839676100258,-0.8508417569405451,-1.6288344958839578,-1.1747775714184743,-0.7368421052631579,0.45614035087719296,-1.1403428238870117,-0.11837007645497621,-0.18853783416685177,-1.396147645330136,1.6870729527763133,-1.300388333663699,-0.6945995120982846,1.215726750176279,-0.2694292173064884,-0.7617166836776947,0.26715233622622636,-0.15449752277359713,-0.10644899211944345,0.4125467823924433,0.6003156058480357,-1.2154699940908322,0.9561843366377527,-0.5406273678783019,0.75396731079573,0.754389117109373,-0.9343848772751664,-1.1836026452747226,-0.20833593209371254,0.12714914141473027,-1.4594866702754752,1.03885969100169,-0.40355355567663403,-0.38596491228070173,-1.4385964912280702,-1.630662678524257,-0.13754141348608406,-0.37805540844039043,1.5680485240941069,-1.1027103319795801,-1.1247207201795073,1.079012664486835,0.16343618686749847,0.12014785925785995,-1.060225155807896,-1.0131186534317562,-1.477998939474425,0.5743088144749108,-2.100982758765641,0.44128774678639154,-1.4920823553906777,0.3810307964755168,-0.07723926589715906,0.9990204640221838,1.1693067132396955,0.48491856159077323,-1.5125256250902184,1.6244240093596443,-0.478764843099663,1.366137301058736,1.175124524560074,-0.05263157894736842,-1.1052720449773221,-0.29351176458144984,1.3319604197785135,-0.1183758664492901,0.48516098181722933,0.8797006198479371,-1.0554483000767299,-0.26373814125317485,0.25661784354582884,0.3310891386208967,-0.7800566643577558,0.8625039364775798,-0.8337594731863313,-2.0790583309906183,1.1947530583773627,-0.5454768699752318,-1.1631744224705183,0.28756507456684727,-1.6008843729188365,-1.5693706740692641,-0.5286182747950249,-0.28420841833966304,0.4431178580591422,0.4188092650858841,-1.1136359893547834,0.47993651528262304,-0.16037732482880176,-0.8771932806678547,-0.29864636681726925,-0.24255503713215212,1.2784125653831855,-0.921781751868983,0.20566367555104925,-1.0545320019304378,0.15441323594332004,-0.24063600505572635,-0.656404206568607,0.5639624120240347,-0.912713551202031,0.11473863987634153,-0.2579707060781823,0.4793741162160131,0.030429399141535137,-1.2229457646115514,0.16672038207993212,-0.16121295624714535,-0.36469511750893907,1.4445799019165413,-0.32176407877798957,-1.467308192435833,-0.18897833693269933,-0.4982606372906733,-0.9617560818677701,0.16058658174416643,-0.655243792768708,1.1575848949860017,0.42296684291025266,-1.3098444156252984,0.4550482952752937,0.7768419653834319,-0.11121924148554087,1.5844251788921602,-0.7020637845918547,-0.7507181152840637,-0.7814383871663573,0.10941972749505893,-0.16583376452013887,-0.6962683625335357,1.018418366753013,-0.6946584142912411,0.5334310886498972,0.21932128431309628,0.27389289981116416,0.4312396493075176,-1.3257028602804168,-0.986804437005217,-0.6796190065960699,-1.3564636716866465,-0.5930412712600662,0.05681194549593572,0.44638666573231145,-0.5267581130711532,-0.13110829980710045,1.3859648039565684,0.4745377780964366,-0.7293137367373518,0.5101705547914681,1.3446197155124455,0.7503103764658439,-1.3396669556826282,0.38320007604162576,-0.37772011114188797,-0.6588163358030974,1.5046402700253325,0.5845566727361347,-0.5181265009941768,0.251461533991181,-1.1498721794063842,0.9022746156611703,-0.10523337162540868,-1.0716557900076975,0.32117975971423224,0.7535553002874342,-0.6558888780211967,-0.14542205594862917,0.7030734623511928,-1.157768171359428,-2.3761841423635124,-2.2522302636098543,0.3957949820049955,0.42196863684609237,0.4736843944068609,-0.1401925274288819,-0.40272225440219184,1.7922728780300916,-1.1564782963120523,-0.38037171173013934,0.05603271862660712,0.697923421260306,0.31614212364016403,0.43860120471056385,-0.9239323794707095,-0.19954881670578206,0.6053952843007566,0.26337578301828546,-0.26631815387026647,0.6446288890134338,-0.014555908975837674,1.3841180050412443,-0.5585054618201769,-0.3055099509485139,1.749712575279231,-1.0459822791315614,-0.5792827263376124,-2.052701090792293,-0.15354131019799558,0.7570609765004128,-0.3076313367500958,-0.7118406776727007,0.8245614532776079,0.368543297641151,0.032766165115130426,1.7600999249712561,-0.6150991847762054,-0.6848668681153182,0.31353032959813215,0.1275738951403161,-1.1763063897594794,-0.5351596127589865,-0.17124193847949,0.6189686238275445,-0.8458329772381262,-0.21131664625582097,-0.6842376425061576,0.7659107136719335,1.2971783400581969,-0.1133539285990688,0.971580859360229,0.48533801691658385,-0.3484518627566309,1.835474226038178,0.9477518850823045,-1.0484253369427043,-0.9875337142351177,-1.651650367960521,-0.11207427191377366,-1.0353511267283189,0.6491227863684935,1.6139237846748689,-0.3043829881461723,-1.2039146953728503,0.699625443930438,0.06006807160839668,0.9869938020556654,-0.8230430880000235,0.8290319842948095,-0.040160253470915466,-0.15652677561095638,0.4167927807138395,-0.5323157853334252,0.02694200288874117,-1.6014315421058702,1.1317367965452279,1.3925913985224447,1.0990316595908858,1.513025287153917,1.1387740381642002,1.6371121751372344,-1.1138652516325804,0.3994705786651439,-0.2621432473075872,-0.7812497894113191,-0.8363914857111158,-1.5990204385881768,1.4222812476875613,-1.0526503456976775,-0.9831715791781596,-1.1135955018221826,-0.32223591643006944,-0.9561405593634132,1.0891452843562994,-0.9023673925091643,-0.34179285556846306,0.19156378114225803,-0.6055565923857578,0.9769820565715858,-1.5803530856773023,-0.7490359141713321,-0.533525945544681,-0.2596498640913004,0.8061880800996793,1.0921338627733683,0.9963179394489037,-0.3060775250960163,-0.4018312017275625,0.955533722458778,0.5131124690446675,-0.1025228996344326,0.035366543544369765,-1.7549248251443872,-0.6901595102283351,-1.7086933371162276,1.2530716166555376,-1.754877625915249,-1.4907661091441555,0.7545069952300991,1.5237147967680449,0.6711830841245237,0.2858893707838513,0.23995032219249451,1.62732012181876,1.2728136820100295,-0.19978007197964562,1.1360235540862726,-0.4071457795346785,0.763397140615698,-0.9541289489490633,-0.8498662271036255,1.7532975614395394,-0.331957587136832,0.8688735527061279,1.5210578523139158,0.9186453085891017,1.6247611356175082,0.22566243199187044,0.9790391332662595,1.4398651474306094,1.5928173805390238,-0.6791440031359539,-0.3434268739888476,1.192323522754176,1.0525011273462346,1.1580248296488311,1.142374976939929,-1.461296277719171,1.4479927797152647,-0.765355246055429,1.0262932223457994,0.4594752986505529,-0.4462705451769529,0.08505211920766312,-1.37559460786065,1.1282401330010443,-0.15173209938738358,-1.6749969391824062,1.040954071911657,0.4456514918453472,0.9235059685667856,0.9685175013589828,1.7906177153425302,1.789040324909951,0.9869285279275793,2.210600331868181,0.24569645176553367,1.4937858813460365,-0.5339611060950781,-1.1130173653761268,-0.20872490681858727,-0.8657027513443899,-0.10508867363776198,-1.1581653006561874,-0.742790907373263,1.4637635655757675,-1.1117247721752537,-0.4689768528615663,-0.7874483202158801,-0.32435968355810213,0.07957999368138534,0.28735388559340996,-0.16924970331306735,0.7857517271159628,-0.13835052291742708,-1.1916467971431013,0.4301058017526806,2.23761138367164,0.356947470670129,0.9607592318562579,-1.1248162256985572,-0.26875245124450214,-0.13051731799330524,0.42618434483937434,1.0672404526989376,0.8453781606210605,-0.3296557752817801,0.22525102005953235,1.395079030419617,0.4110424844455546,-0.5263157894736842,-1.5788521597253475,-0.43290980179199157,-1.510048105182671,1.365268900776729,-0.3135255092955583,1.9300639878820942,-0.6348062200055181,1.546401839832145,-1.1569731815484126,-0.19626104543024808,1.3511967681622474,1.1081351235949755,-0.6759414953383192,0.22197636861432893,0.1641411611348702,0.6435888240085695,0.048029330012406474,0.5632720178820333,0.044536174042025194,0.9584775269531296,-0.7835681746763685,-0.7645950461035288,0.4303020724017604,-2.0423934945022104,0.39516118274856465,-0.1590084492284069,-1.4625291365412725,1.2806659316636846,-1.7017167223090155,1.7517536606872584,1.6423885405088736,-0.4306732934364053,-1.7393985803097327,-1.868235359577854,-1.0946128677386733,-1.069525555793209,0.3851463830466745,0.7371054031079547,-0.6168585969825174,-0.7814109904598234,0.6230910360256778,-0.10926460911948864,1.0288542251947876,0.19816848729933226,0.256511584341763,0.31787908387249036,-1.480013640956076,1.2861474337226109,1.4558474197459088,-1.9893374921951528,0.2754584807438456,0.6040884984991475,-0.7854299891337896,1.1099536076166663,0.4023888671434735,-0.1754112902029816,0.01757336002028458,-0.8658179697275707,0.3545937182159064,-0.16308894668434104,-0.4622208487720209,-0.2064392479855557,-1.3918696371076733,0.5656711813357546,-1.5090116375775926,-1.1846031587523076,0.4398123822731343,0.5812395236307055,0.1878824400035718,-1.3386727844118005,-0.8236857859023525,-0.7059048458527012,-1.6598874103619456,1.143225889760781,0.16328943340003405,-0.7407763282390777,-0.41662222388640047,0.5567351324107348,-0.7608722421673747,-0.2330609153402515,1.5294474300872194,-0.0631909072428349,0.701368155889849,-0.17543859649122806,0.08782320852472161,0.7476119897477115,-1.643048107305235,-1.706558112058457,0.4483052021390613,-2.0135249107562916,-0.08553563618017042,-1.7088578899801303,-0.8176661074801727,-1.8692755789019377,0.19063362755127325,-0.5902030672502983,-1.2414123934983297,1.5218611924033396,0.382606941701111,-0.28922711180600497,1.0954574674284296,-1.303943846892884,-0.45455906717442834,-0.4581241620886354,-2.3829932372396674,-2.22691478411248,-2.1424347678285014,0.2099857135468827,-0.4452568904670256,-0.025777621102213648,-0.7718350550361915,1.4736838390982423,1.2101629650927401,0.5357957420981769,1.2310397488024267,0.9583349455448033,-1.9989049385818605,-1.912441016242642,-0.385547540222297,-2.5133142582518784,0.091703568076472,0.1940357994616303,-0.41695462559818625,0.5911930057378819,0.840997052031656,-0.3135903855228692,-0.014538889012317483,0.9573883723829809,-1.3754666072781894,-1.0616287741158088,-0.2548049918123883,-2.1161627479595144,0.8266440255208561,-1.4070029721164017,-0.40166802539786184,-1.0567056885880792,-1.7716399192883214,0.598091064583221,1.1052061041907273,-1.4385968510490168,1.122766076719865,1.703777591109252,0.5369884760393451,-1.0260931224205467,-1.5022605155638116,0.3159877241653812,-1.3142397196599356,-0.0547713645603918,-0.2334350850460789,-1.528052921208836,-1.783884026686378,-0.7822662275927009,-1.8920377117689617,-0.2555081812518668,-0.9084856843698558,0.34427739922236894,-2.3281830605334237,-0.32257590831181165,-0.541051867879829,0.5159278005098615,-1.4658254012386314,0.3868274087559631,1.4707396802989807,0.2980137067601912,0.28933821754980255,1.6314192363800764,1.192877126225256,0.15789473684210525,1.3157894736842106,-0.6828628211307006,-1.5062198817894474,0.24797588015176827,-0.9771291655102968,0.3992439687900428,-0.04399873180966511,0.49815896475716503,-0.9716624964200476,1.2652035724609862,-1.6372674248935237,-1.482164256017655,-1.2781000452235585,-1.5786183670704623,-2.0108120443845934,-0.9421875894849863,0.9371801935570184,-1.1285954585493247,-0.7450689284312304,-1.505344651358297,0.28691156829498765,-0.027617815750628518,-0.7118201861159881,-1.3768963393204836,1.0461382599842362,0.6146346953923197,-1.6666666666666667,1.456140350877193,0.0,-1.6064745444818218,1.3814071993970152,-0.020765802153063968,-0.43081297527331575,1.660065001576803,0.18895049491302374,1.3993138657717785,-1.326150504740803,-1.0597513770037332,0.537898795072079,0.2503006228517624,0.21817719836032085,-0.1724437631042438,-1.5423917744716773,0.17452514882534798,-0.030467893135307657,0.2546642338361591,0.2485594123321004,-0.937159441903046,-0.6978263755575154,1.5717597628315416,-0.7836572782342106,-0.8765450304928541,0.024317645459089317,-0.0040193324874538425,0.03508771929824561,-0.3157894736842105,0.17543859649122806,0.5091464057275749,-0.2062070644270302,0.7844123058573229,1.7359789463179929,-0.6929155361117482,0.5687734851383428,1.5908051354054582,1.230698002584735,1.1103199299587245,0.7858766349412223,0.22804080136465266,1.5914173813134935,-0.7068593062193346,1.3857969085854847,-1.0249442272570692,-0.8203918803325226,2.215559495629507,-0.41166643844083484,1.1869375371756363,-0.2101585512304217,-0.5750481459895709,-0.8823268424100738,-0.6737275544305169,1.5052037901494353,-0.5130373635681194,0.05263157894736842,0.38596491228070173,1.6842105263157894,-0.08771929824561403,1.6842300823540541,1.3809334338151067,-0.3387839799888072,-0.5070057626222846,0.311783302046468,-1.0873747076776288,-0.6915856879536882,1.7704067383949926,-0.7221629781651386,0.1229477206745439,-0.6398430357550479,1.9105001924900065,1.750455311051335,-0.3360419689978952,0.2180466757903266,-0.7583738982743696,-0.006825160134328547,0.471263272995311,-0.20811072594369068,0.9284752349140433,-0.578972968328381,-0.7719398365227566,-0.4035092398001291,0.6140350877192983,-0.42105263157894735,-1.3508771929824561,0.8421052631578947,-0.22807017543859648,-0.6140350877192983,-0.964842436212392,-0.5612236173931728,-1.139907986558945,1.5095217031656627,1.6166358965072363,-0.44785575400858446,1.1085647346843535,1.2523826189315073,0.0730517637866492,0.30778793451034725,0.7478275580327143,-1.5987596867579565,1.4212685127324314,-0.46944361735616974,1.268989667421904,0.5318471164168945,0.04980350377116245,1.4721096631864272,0.03327450413468999,0.0027451205053808814,-1.631578947368421,-0.5614035087719298,-0.9298245614035088,0.3684210526315789],[0.8947368421052632,1.5614035087719298,0.9824561403508771,0.3333333333333333,-0.7017543859649122,1.2105263157894737,-1.4385964912280702,1.631578947368421,-0.8070175438596491,0.21052631578947367,-0.21052631578947367,-0.6842105263157895,-1.2462967284913735,-1.019726604902271,1.0694099574202256,-1.1930143511893616,-0.24561403508771928,-1.1228070175438596,1.1929824561403508,0.7192982456140351,1.4736842105263157,-1.5263157894736843,-1.0701754385964912,0.3684210526315789,1.368421052631579,-1.631578947368421,0.7368421052631579,1.1403508771929824,0.6666666666666666,1.6140350877192982,-0.17543859649122806,0.017543859649122806,-1.1228100750436054,1.26314891451505,0.45614746939282,1.298387637512603,-1.3318335073686383,0.14201500735292827,-0.8550157214983581,0.143817318102137,-0.5414803838058863,1.1870851601362256,-0.5594273983966324,1.1509679053944204,0.9892216061756021,-0.33638691825621847,-0.8428765363004018,1.4308112541180016,0.41980693250184825,-0.7896559049004782,-0.6841253579742029,0.8773031721032535,0.9473684210526315,0.3508771929824561,0.6666666666666666,-1.1754385964912282,0.14035087719298245,-0.42105263157894735,-1.7368140861725112,1.3333333528126918,0.5966164013638223,1.5791200870903983,-0.1563072792219073,0.3717262696737805,-0.5285799536343979,1.6311387494118332,-0.8959867027202588,-1.1337355321893607,0.02622797521737456,-1.104249466878249,0.22421964021560728,-1.55203630642137,-0.2820982180673797,-1.113540693557344,0.9849224166855464,0.5390766141512945,1.339505776072631,1.2882386470847644,-1.0226947597305076,-0.09962873700501207,0.9304584028682287,1.1227950938978266,-0.49122807017543857,1.5614035087719298,-0.5789473684210527,1.6491228070175439,-0.07010288821542218,-1.7194915618795243,-0.47359270263122355,0.6389347151433661,1.165878408234443,1.3677248337516297,1.242831449863916,0.7028465942693896,-0.6703803631950983,1.3122215953988485,-1.446046282485643,0.8840460453647859,-0.49331271407472815,-1.150710862427783,-0.40936036787410013,-0.5928534937769661,0.6699409736239123,0.8529391279102679,-0.8744122453214852,-0.26012338763732884,1.3719267749954969,0.4584732095329294,0.9423845239935889,-0.3879030009264994,-1.754238029151782,1.3508771929824561,1.719298245614035,0.14033164000372442,1.3682345082627652,-1.125993811027806,0.7081802063021022,-1.1990667800918215,0.26664944871560464,-0.7254696523085555,-0.6901601547155191,-0.17109783623500605,-1.7516878545493335,0.47840993381925606,-1.697116264945975,-1.7583616200620573,-0.3190769535464611,-0.713495234656917,-0.6151666522819013,-0.7004488031534917,0.7951882526508758,-1.008118272916629,1.6744954140873736,-0.2496789716400087,-0.7352780124537173,1.558819550904389,-1.334783227190194,0.023235392708700835,0.8337169378998857,-0.3332118306344127,0.17543859649122806,1.105263157894737,-1.2456864340050793,-0.31968205017185347,-1.1399631509601187,0.737796394003266,-2.011199183352835,0.6691430814136591,0.7119218058828957,-0.22680915918177363,-1.5263348510553738,-0.4500874590672718,-0.41401726634283076,-0.13555348026234454,-1.1201662688530187,-0.4405712500500349,0.9704241980504297,0.18889072855846226,-0.3942080593190918,0.0034862169302271326,-0.8770984399968456,-0.08434616357908714,0.10304459368797643,-0.838787835083833,-0.2433326799783298,1.3520548339503484,0.5109698468170074,-1.5629341432214423,-1.087719298245614,-0.42105746406175854,-0.8096707284455587,-0.8089278798985994,0.671654910154154,0.8941511286047419,-0.12902959388386265,-0.04572468158942121,-0.7146634820805546,0.3615836078406514,-0.6732692830365521,-0.009464365159334746,-1.2967888713670699,-1.0099115697048135,-1.4876768811838696,-0.773232310554975,-0.6861174580912711,-1.1188003288041524,-0.7281713920642588,-0.6849063334192095,0.941017381701395,-0.9735301600277646,0.9271392407824427,2.013823161311573,1.3349649567956017,-0.8554952225283009,-1.4553136512391758,0.8390477069655076,0.24564919929480367,-0.3333663103066409,1.0343228182758073,-0.9392008477228128,0.9100356778848637,1.0013150219413207,1.147585925546777,1.1063698034196314,-0.9304662517972808,-0.5547454268791484,0.336072198810553,-0.3285420967725973,-0.7146364185912097,-0.7113566215954216,-2.343214568543698,-0.9922472387248217,-0.6422991882164646,-1.1007387967007736,0.43530168640195516,-1.068963052442382,0.014642573249409912,0.41788588494042955,0.17387903848634642,1.0437409429094355,0.7182616084395904,-0.9583384524009233,-0.19600269981825794,-0.1582382038253494,-0.8488264068966858,1.7003386002767382,-1.0081659747636968,0.6269832658642065,-1.666040182832139,0.1868625382595216,-0.47586380633796055,0.3512067209765266,0.7912419546544803,-0.2257062014803744,-0.4212306770776511,-0.22525863361524812,-0.48794141611090563,-1.3857711901431071,-1.5970108420129112,-1.6888517235765033,-0.8236493016929683,-1.4837914409195847,-0.3151986035080262,-0.45747936311988296,-0.24367955002770858,-1.020131657887384,-0.3198356096870302,1.6678713325205028,-0.6275140569686241,-0.2998153645438006,-0.3075845289618233,0.08738087763241743,-0.4387242812655012,-0.5515177187924389,1.743662104573243,-1.1634183756136536,0.99422791690032,0.22890208760917802,-1.024105748316855,-0.29250549443313045,0.20014293550979204,-0.08136067017947703,-0.7414878885601339,-0.902850476881917,0.13702868846729652,-0.8558899546733296,-2.541155375162101,-0.11918687396937992,0.8767168849889296,-0.019464779909530886,-0.10697520138379953,0.24076523636847502,-0.09345871914504832,1.046592853358379,-0.399018083379722,-0.19576574399754948,0.5830725167069507,0.2661051374408822,-1.6787438958580885,-1.0851830525549704,0.7015854012729523,-0.5682475355326345,-1.0305433458992255,-0.6103113522348966,-0.08955817875086464,-0.4296722262045738,-1.0696149178744523,-1.1644831662054178,0.9634927488600782,0.03214638829632895,0.09255110118931666,0.8732414894341202,0.05840669691099149,-0.7346533718315394,-1.5428652552544313,-0.7621246841379654,-0.26879373508468024,0.8053582265614523,-0.9660045979929679,-0.20304753323955935,-0.6296433782387046,-0.5385927201527848,0.16974418085641935,0.9953643332179559,-1.3463884297024156,0.14736444497667717,0.5669816231705751,-0.015460225767562202,0.43838590517643444,0.3550250256608279,1.61002770510567,0.9011149358088114,-1.3634153697815783,-0.47566414705443344,-0.43531520329536705,-0.27445936857049785,-0.6325970878680721,0.8178266738089568,1.5737256598183984,-0.6509245726547791,1.1384008204665261,-2.5708141032139107,-1.6692932165556231,0.12414737383132159,0.33876273280408736,-0.7562009517993736,0.4528179276349524,0.13204279908494312,-1.5029475452892362,-0.03778593986760281,-0.8512599387658972,0.015911753940219625,-1.9112970565867808,1.0917962866889817,-1.0089378027990419,-0.333335952999806,1.4035469948903216,-1.1633444439087661,-0.7132832241657702,-0.6025837564212074,-1.3505482664570214,1.2103457084150298,0.8180698321378367,0.07796602466210874,0.16640126242125536,-0.3865303628840147,0.5840945705155391,2.0451344876939523,1.6645862086115606,-1.3467926097991778,-2.292824892745472,-0.7181160854379641,0.9755266769091497,-1.591248951897095,-0.370183895995447,-0.8247377551153277,-0.8768984077061072,-1.320260025987868,-0.8662451631552875,-1.0261482136805762,0.9122178977818003,0.5283182076313698,0.36758203492597674,-0.11940591663117595,1.5263158444703238,0.9275021279481992,-0.10758982633583318,-1.4573362111990473,-1.1834782157107508,0.5104677421533395,-0.11480297696544459,1.642851654293449,0.10865001867470991,1.4672686172048028,0.7994024241651282,2.923755288256482,2.21921969105744,-1.6139237704157452,-0.08602153955351595,-0.9682152725037598,-0.8391800220530038,0.023923125186125736,-0.512937670085332,-0.9967645560644961,0.23263227104086256,-0.06973974904876577,1.0629015037475706,1.7551262291785956,1.2981034661729403,1.6190071449287622,-1.4637716276642787,-0.029114436378364243,0.8771990525121057,-0.8094676579412403,-0.6502823932315871,0.7206689731356322,-0.10660409332049069,0.8329773053786561,1.1753688749183577,1.3892622899938192,-0.06195184890697095,1.662145534599897,1.0523070719719003,1.9291571119947264,0.7629109492612208,-1.060597771370973,0.29211551457279594,-0.7926901106223536,-0.14827636860611068,0.573466430015991,-0.6751904099806231,0.4458486987088514,0.5911254935528979,-0.48109250037111956,1.7599300287392894,0.8317898185636687,0.5962236638511976,-0.09222298560499644,0.6545093463476388,0.052907737099956206,-1.6315733011311881,0.12264958586948274,1.3511161227842408,-1.6630402370165858,0.2809878494932013,0.3682536639964091,0.22293173861449517,-0.7151519783090169,1.1690868784578958,0.7506143040660098,1.4648863370551015,1.7986546807297448,-0.46645863347772687,-0.1198680585536465,-0.07889752237566955,0.0013477358814522446,0.6988123464970535,-0.7489750082787344,0.5119785368001727,-0.16346288722429442,0.7874560067500658,0.39650230527536395,0.283446543961409,1.5922045727179606,0.9940184729647922,-0.1108951995407191,-1.3213886803075345,-1.7151176369313108,0.5263366963124424,0.8770462127637314,-0.3403940264577833,0.9380851545377777,0.43492250599491017,0.2278576129765243,1.3099387688849682,-0.5204846680794701,1.178119666088249,1.0097320473449474,1.3004090684011231,0.0739816605870424,-1.9804632049730695,-0.3538718027271089,1.7694777299424855,-0.1129893700843088,-0.4176807225708083,0.9544619152223424,0.810020753633506,0.4502767022585224,0.6172868017589678,1.5010317187212092,0.5940920538541539,-1.3417716519871918,-0.14327568127104834,0.9459748890948075,-0.9274264093674169,-0.6205202968841745,0.8070175438596491,0.5788032469417055,0.1298754545941432,-0.17325921578552245,-0.05860427001465783,-0.3019758629571629,0.7879427368607563,0.042451198947729654,1.0269005964459954,-0.29980789144646935,1.6395396104675444,0.19527907071905506,-1.7542649725734754,0.10581291964875802,0.11927092502781513,1.6060497608089996,0.7003777260388814,-0.5310209052578974,0.9340223546680041,-0.7633546296770559,-0.43504232461933523,1.3346351236036378,-0.571866112114287,1.0374421403129777,1.0577355255734284,-0.43196402159343184,0.7344591404368748,1.4544005101511872,0.9292445094776085,-0.2632060918464924,1.2268137470018108,1.1862009053379154,0.5341061242818229,0.6102155694807188,0.6598257677610582,1.0662493078625301,0.6640610407770758,1.1402920186941008,-0.8569792090586638,-0.09711889850369952,-0.3321613668602438,-0.11110658435302882,-0.1609299184500815,-1.1727637462017757,-0.15093662916406342,1.0651155641764019,-0.2463255760146809,0.8853346009647423,0.5950689919772701,-1.0697687353537844,-1.1120861162693636,1.0148993689605699,0.4284339151569454,1.3715660719633695,-0.16957928702474523,0.66588192893709,-1.1929824545032062,0.0025760055781126334,-0.33126268113879126,-1.8433416200007926,-1.036027021641067,0.8329989136574925,0.2507479192083071,1.0480063949965008,0.9725733780731682,1.0582569682373815,-0.49335619745100884,-0.6019139125071445,-0.17225195294741127,-0.017426664303228215,1.9997186454329403,0.9724762197960292,0.9491219675754278,0.8950104945594176,-0.6230065880347978,-1.0636129742152598,0.5414894283654139,0.4789005417452025,0.3762502917317093,0.8419996633032671,-0.4612357661137042,-0.6611436716769438,0.25694077241681723,-0.7018848628844804,-0.9298245614035088,1.4923765731321366,-0.5286549467865731,-0.2208718889762441,1.1543503675829467,-0.6183389415191853,-0.9760935439275049,-0.061426542601374826,-1.1773877597525648,0.05185204491913039,0.8208333611320533,1.6849567034220752,0.8186914249497071,-0.5983053052259146,0.44982458400504205,-0.25114127809017045,-1.4483938739534663,0.4275313545520612,1.1306053698995815,0.7667764391973246,-1.9355135352852035,-1.26949302367041,-1.2211516853110362,0.917182082971162,-0.16995374105990824,0.9883262086599396,0.31351866300753295,1.2105331302289337,0.2280701795446992,0.08767305345534827,0.12869818483038914,-1.7978271913204924,-1.5205364574233875,-0.05475320622808226,-1.4625315196555317,0.5122519315476788,1.0001488860758068,0.30411669144138503,0.7073726900996606,0.9611759985604587,-0.15302024164460978,-1.1139400870106293,-0.41788823818179627,1.279592049585754,-0.1254295804196387,-1.5201384168401104,-1.101613914448751,-0.42891588978191403,0.5653401801809498,-0.1277977895549936,1.0133207687280246,1.2264698723676655,-1.05069879125711,-1.7742308036414078,-1.1462010887658594,-0.9473680909934667,1.1052631618725237,0.9473677836069933,-1.7221809061826157,-0.9761940945861599,0.7085342543624875,0.20918892363975014,-1.021869917298419,-0.30497598850458707,1.0873851642125951,-1.6117988465373156,-1.014399519777087,0.893448400059344,0.9362575361411731,0.8684712840187742,-0.610639728789298,1.198683142946463,-0.058503724890719755,1.0472629630429686,-0.05843525278063493,-0.2095389829094055,0.8320776876417016,-0.85510630535687,0.26443153993707597,-1.8734439980652167,1.6254060061133944,-0.8913646185998303,-0.9477804264785364,-1.157894127502108,1.0,-0.43859649122807015,-0.7896508749508774,-1.4547158050534188,-0.907197293817658,-0.3030942395024327,-1.6894670427686362,-0.7105583935295622,1.1141755386422616,0.9303701042931726,-0.5678996095462028,-0.27327291786257357,-0.37452405029694885,0.30209991778062795,-0.3363313153310322,-0.5279704670734028,-0.7157994721746656,1.0682446264824164,0.7020700965854848,0.5061093595255652,0.7830659446656231,-1.4345112176372856,-1.689186657882733,0.6979224127857014,-0.09219924333876478,-0.38129207975155266,0.6978080369912495,0.5263157894736842,-0.3157894736842105,0.19298245614035087,0.4034606623574664,1.069807029638625,0.8804813010922451,-1.4658648466956712,-1.5388412195855306,-1.5847767435314248,-0.928314537797852,-0.6136714221174205,-0.24375247525415364,-1.2866434196289263,0.3655269343345847,-0.480110994945314,-0.4011480050139402,-0.300261088510909,0.39697550669349335,-1.6178382342689728,0.2194709881811815,-1.4243994801980557,0.7974753621932149,-0.3318150082534537,-0.595729912493542,0.3125329301015478,1.521469791555116,-1.6436743219577652,1.2102180564246652,0.9649122807017544,0.19298245614035087,0.6666666666666666,-0.07017796799644882,-0.035022802196216625,0.49238067211280984,0.8928319255863972,0.9364696953703446,-1.0440640101937584,-0.9871743480936481,-0.9894593112232029,-1.1166421629505563,-1.047598438393442,-0.7905059463901166,-1.2897409460118412,-0.4081762747202794,-1.4392488543210777,-0.2962448413525608,-1.2911492604432881,-0.34949391052524176,-1.3393197985883118,0.18000513190733633,-1.6680820497615663,-0.505764489964315,0.7654033239058541,-0.5079268479038214,0.5084982549452712,0.5610763830531796,0.3684210526315789,0.7894736842105263,-0.43859649122807015,-1.1754385964912282,0.8070174213220791,-1.6344814247864923,-0.11932505514338071,0.09318805727519958,-1.3250699516518116,0.12220003746598444,-0.5404661922175568,-1.4438106258407588,-0.10645258106484104,-1.8880948032868592,-1.8926064957450257,-2.2901911298584254,-0.5597708112521027,-2.250697285787013,0.23799530112281844,-0.6775461657201133,-2.0835895005595844,0.22399718833916255,0.015972837626698825,1.10626806569195,-1.1018302325470088,-0.6842068836119969,-0.1052624491987932,1.5614035087719298,1.4385964912280702,1.2280701754385965,1.5087719298245614,-0.9298245614035088,0.3508771929824561,0.3684571311535668,-1.2276103670334966,0.983217689491071,-1.1398687419587314,1.3485660530917944,0.6756688092764656,0.5670046175529067,-0.4793485435038715,1.1366213963916878,1.5920641765888346,-0.24082529523602908,-0.717820225059288,-1.5246034675298792,1.5095551173949495,1.5141940615464546,-0.11638655388219997,1.5080519155265102,1.3807581978177375,0.9947978912207142,-0.6675217390669457,0.03508771929824561,0.543859649122807,0.19298245614035087,-0.9824561403508771],[0.43859649122807015,-1.2982456140350878,1.0,-0.2807017543859649,-0.8596491228070176,-0.7719298245614035,0.47368421052631576,-1.6666666666666667,0.7368421052631579,1.2280701754385965,-1.3859649122807018,-0.38596491228070173,0.6315677875694543,-0.877217418567938,0.36842105263128266,1.2105263157894617,0.43859649122807015,-0.15789473684210525,-1.6491228070175439,-1.2105263157894737,-0.7719298245614035,-0.9824561403508771,1.4210526315789473,1.543859649122807,0.12280701754385964,-1.456140350877193,-0.5964912280701754,0.2631578947368421,0.38596491228070173,0.6491228070175439,-0.07017543859649122,1.5964912280701755,0.8947368419193632,-0.6842105268619116,-0.9473684212387952,0.9824571351277241,1.5592716562242273,-0.3874852102388116,-1.6145005869100792,-0.8946470523595145,-1.5011376887082897,-1.6858867655277445,-0.9705132501498731,1.2638829670932135,-1.4385488239014226,1.279902330029189,-0.31579736909613243,-0.6842131420750465,1.5087715417642809,-0.701754395243955,-1.4736842108564558,-0.33333333368400214,1.368421052631579,-1.3508771929824561,-0.8596491228070176,-1.6842105263157894,-1.3333333333333333,0.8771929824561403,-0.7017543859653126,-1.7543859649189242,-0.017543863903323176,-1.7368420587924138,0.6491329509080772,-0.5614896671887085,-0.7479992698591202,0.8925294000310118,1.096073430161455,1.111592694976294,0.7542085919174689,-0.2946497984032912,-1.3294299674586694,0.045374320286849894,1.505596626835543,0.09894937077774459,0.9801297214270459,-0.719872592018016,0.24549912112000336,0.19297998329514143,-1.7543861762340927,1.3508770663592282,-0.42105211964167066,0.3859652913767617,-0.5263157894736842,-0.2982456140350877,-1.5964912280701755,1.3157894736842106,-1.5070880850195407,1.1232079329221332,-0.33333329836173675,-0.6621459204688039,-0.35992101430252954,-1.2430611541568217,-0.04326503568132777,-0.296707496696813,0.5350264423347472,-1.4855016887587245,0.9577335373691961,0.658691018550411,-1.4267620876884832,-1.6921006361815654,0.8565794274466982,0.45594687364606884,-1.2766348097268123,0.6725800124529444,1.3822874773972988,-1.161897738957768,1.7349504589522644,0.3843703811320438,1.0350403501450185,-0.9298242174584066,-0.35087719245562954,-1.4035087719298245,-1.5087719298245614,1.6842105263155884,-1.4679110283255437,0.36972544606905894,-0.07010963504643081,1.7079675465114452,0.505142586073494,1.4993405708042074,-1.1667283525813905,1.0158846164661253,-1.2315126383237929,1.6608792397714403,1.5454191521125904,0.17002134883096073,1.000352241478072,1.05250693297424,-1.1325908547107728,-1.336615749333441,-0.9301088646651546,-1.6599606254161559,-0.9793560092765318,-1.4570765029055421,0.8715118691727425,-0.6576390711185857,0.1878785852457062,1.0299567035750852,-1.3194717372967584,0.36833706249132225,-0.2631578947368421,-0.6491228070175439,-0.5255139363573914,0.31597059827721924,0.8067375326344999,-0.08450188362563116,-1.1070017336485487,1.0909330389918162,0.9705419182684892,-0.03149502956090139,1.1030954447626526,1.4408504993212847,0.8980643666532905,0.555824302083704,0.9558874990841064,-0.7430719301715221,1.7343118697353497,0.18458180540372604,0.032284696233385396,0.6031350526125576,0.014301858149625604,1.7661030758362313,1.0871609753630675,-0.6405175058040247,-0.7500826929883954,0.9264279399331666,1.0874131705968855,-0.6140377986279564,1.3508771929824561,1.1929824561179607,1.5402679545588533,-1.618496175779153,-1.0206980133901993,1.645912834557975,-1.6101201800736804,-0.40167294108416546,0.7535792986767426,-0.6285765799167428,0.49215408694727897,1.44246458781365,-0.1230257158471587,0.1504409304136268,-1.3116378408154696,0.08602114626840311,-1.3494892602158612,1.36429242163164,1.1665056236449307,-0.401100991390197,0.018928545051591784,0.462349875417569,-0.3995843631741081,0.09812995912566301,0.8982974408974731,1.2861421957120096,0.3527615783049996,1.0702576468022207,0.6666666666674798,0.052631579224308556,0.9453620596020489,-0.14321299153686853,-1.249359415148923,0.4728654492223267,1.1183435068717407,0.973609386046972,0.9307563396103228,-1.583302535651253,-1.6529143166081757,-1.6145491865406019,-0.19453559285019956,1.0196902796744223,0.5719698172886405,-0.22484862500050548,0.3574431640147294,-1.6936095014082853,-0.087141542811312,-0.40552263197074256,0.11989303867142204,-1.4231944186908345,-0.6193254478891144,0.7958202133623501,0.19310292131095233,-0.5040124570330538,0.12416840660912454,-0.9820755278687319,-0.789473684207222,0.29824561925258736,0.8069404514669195,0.4913872261289351,0.6342010114662356,-0.425712273289374,-1.753966433906292,-1.6872187210509748,-1.8540779727011492,0.15150049218842657,-0.6026424230335442,0.40786500753562555,1.4092319619900842,0.40814307918562753,0.2501451448656927,-0.9985254053557934,-1.593709541408002,0.41785091150082804,-0.09897930671099499,-1.3025469384587425,1.2816836470572537,-1.4427369682441809,1.3699419730432236,-0.11236171462818086,-0.9432589977407818,-0.909174315352103,1.6334077694549627,1.737384985589032,1.0175437993513115,0.1578945523817505,1.2283231585285102,-0.61312074323326,-0.3984890608254402,0.986805081218599,0.3762859437884611,-1.1397401257857616,-0.6131249423676298,-0.4809428148436684,1.0540504229863181,0.7133250340370068,-1.5461758143593058,-0.41515946874349446,0.6965836794082817,1.2690637119733659,0.6956727141033834,-1.3998598749992925,-1.1659669519863518,-1.4557895297383068,-1.1096613652785365,-1.5145523630730455,-1.4594894794900486,-1.4408394568205705,-0.07049242515582756,0.33500596012299483,0.5794782548631963,-0.2280552700229215,1.1929823860076327,1.4561421135913577,0.5967889649747368,0.6731370837477718,-1.2937335178146656,-0.843047020770815,-1.4151247438679395,0.011791687800379346,-1.1734695061940146,0.17531575440388267,-0.6029474938634174,-0.5776426109454162,-0.7409151992353175,1.0690691666500938,-0.38525329034215,1.0649080726280784,0.35027837282371094,-0.5892278946728211,-1.1080514964601775,1.132189821658045,-1.533147260616484,-0.21283138490145692,-1.7403113855138976,-0.6055740914265753,-0.09142059292513799,1.4036754050881781,0.965160805497416,-1.3859583636595583,-0.35087720024341845,-1.0526214238901361,1.7017927243985704,1.3383805346512303,-0.17441532897645443,1.3127914677546708,0.5545981319814587,0.6989968609017042,1.687660660959601,-0.2842606756781704,1.137730432876628,-0.6239555317824096,-0.2880273778898985,0.038636490292516666,-0.6691781255373005,0.904380334337013,0.42652317137108686,0.6482723677257564,-1.397719709675015,-1.0481075043533297,0.23219677497416388,0.5667146462222282,-0.049527606104926576,1.3028543012473202,0.5402547208127663,-1.7187808573257686,-1.2988625552329973,-0.00038120812626768604,-0.9298245590083921,0.45614979407116873,0.263284525585714,0.8778145343349938,-1.5332011062908923,1.3992462907660141,-1.7983885704564015,0.2237431410968001,-1.3904013623557205,-1.206581600322156,-0.011155159244896148,0.6713689224725341,-1.4675120290277517,1.447283112427688,0.1667700318210472,1.2079765945723142,-0.9192780535381099,-1.7337908175206937,0.6258993267196131,-1.4152318229754157,1.3122901028368017,-1.2479182607284052,-0.10451626806287005,-0.817215440079358,-1.246688962167927,1.0647006716835554,0.6940853667595365,0.7893456167506133,-1.4385687367752955,1.5789484945136916,-0.6841596492346199,-1.03536479502367,-1.3236608945978408,0.30048684622818245,1.293787031276577,-0.5667234983586795,0.17206581634202756,-1.6749224157916875,-1.0231691580672726,-1.0082471304832996,-0.14940177986287553,-0.03852833572635432,-0.49936149754113124,0.5650623612537934,-0.00982738727240335,0.15757037229868032,-1.8770308770348008,-1.2973549705532372,-1.244787573478674,-1.5590864901896415,0.9704880133834783,-0.711554692448152,0.5711740117398407,0.6546755353336302,-0.7773515728400902,-0.048906860579257555,0.8421054165412389,-0.3859644759093511,1.6315185858243642,-0.0009648755670281505,0.6852475282595616,-1.5031531360045833,0.42300450005088164,-1.467402242191636,0.5149670751629465,0.33457635367638194,-1.7904527229990244,-1.410154290064138,-0.7047141037601509,0.4165905711661583,-0.6225855443460214,1.7400414457738578,-0.7311659487888973,0.09957478994639042,-1.2363603050238452,1.2424834408872663,1.2544206486300964,-0.4379977463452714,1.0685824667887582,-1.385377451101517,1.4610443196610534,1.6026869367947503,-0.048474814439383326,0.0877669983572917,-1.2456139616498452,-1.5964911157338286,0.9815708987916739,0.5820929319534031,0.8684799166602032,-0.5770980637306369,-0.7317820404381881,-0.9021939215416794,-0.4377067328550682,0.2884111059589958,-0.1975672530633819,0.5534280577485106,1.6890876519413285,1.4712505391868627,0.9459567112970585,-1.4889953562006237,-0.1317441786343657,-0.9060811887135127,-1.3669656360980866,-0.5344510020743839,-1.161150096478349,-0.09324820832707918,1.2345205886986077,1.728280420188409,1.6082792084450184,0.08878441722155936,0.21919784174928927,1.053809951777485,-1.719298112956847,-0.6842078186730558,0.7529111647746957,0.28416541561483655,0.42924855158782066,-0.1325060141091747,-0.7140538731116608,-1.0065928368554715,0.7037187867715009,-0.7240212415729266,-0.13402099689205144,0.5239110148319416,-0.5958234387689441,-0.7614066586185165,0.7257683663016518,-1.08336024296201,-0.7049413622814296,0.08735021545098139,0.703618566178048,-0.9864206041399112,1.1221461278334635,0.4252356353282541,0.052229922310326735,-0.775220474039661,-0.9186960107387795,-1.1797158301710695,0.8032894994519562,0.6319658270744339,1.5087719298245614,0.14035280861475258,-0.3883589794965194,1.2988150756928338,0.02116495180758102,0.44783276640200426,-0.2580818001413433,-1.6961306626271089,0.733780422152798,-0.46059615355893296,1.2251829053385102,-0.5540108590160762,-1.3987355876015501,0.6449570112053337,0.5027045512854889,0.7827085208059282,-1.3177078198983565,-1.6535692517074172,-0.9214359013382258,-0.4876384643630576,1.5734597632093232,0.42277394843537264,0.2085542507391213,0.9645739605603502,1.5474323524916773,1.245181125863007,1.5610725064556585,0.4761699407871463,1.368421052320861,0.49122809509833376,-0.6511010693944881,-0.863041581308816,1.403723216146343,-0.7124574722211805,0.0955585258065107,-0.3935010680730111,-1.3006468568241079,-1.1189077016030364,-0.44717999007703296,0.24155208269873102,-1.202068783234697,0.44219552616497604,-0.43728685091991676,-0.9736555279348045,-0.20087941808439824,0.27171934411453313,-0.27850670005226086,-0.6254315626667735,-1.188178784396481,-0.9971209303733021,-1.6656363083681245,-1.102497463606787,-0.9707839692922953,-0.3725971643837431,0.41151571014074473,1.019618478129405,-1.368421046731013,0.7193059938569357,-1.3694559379548294,0.646583549236636,1.154498187940146,-0.9679099715794416,1.7062817255379001,-0.11574246873552628,-1.3089639788355991,1.5266261187792716,0.9599542663997337,-1.0452040220305345,-0.8987643906154572,-0.08223249411875362,-0.30631863790694197,1.035619471030775,0.0969681142109915,0.4359347317016456,0.551583342575253,-0.1311124873487733,-0.23924103211634,0.9940473604077374,0.7257333429359918,0.07001923862549013,-0.6442471742198257,1.3629276136279793,1.6624057507966041,0.19407044822867017,0.7017543859649122,-0.8070161201433892,-0.1579335182928157,-1.2111475655559287,-1.4933888437365899,-0.20104831863908776,0.016000131503123613,1.147936940481418,0.029522652362060815,-0.25298235131246805,-1.2877133271700554,-0.22541577398768622,-1.0187183341184072,1.4734253261950678,0.39916552108972564,0.8334847805008686,1.0691864147196317,-0.977693910872053,-1.3977878981141567,0.06356461892947082,-0.9992344805511847,-0.5090186351511323,-1.4580134582929996,-1.3843920749079386,1.1741593352895956,1.6016624006768643,-0.6835538146690345,0.7017549526713964,1.0701759768817318,0.01754397450683487,0.21045437807608638,0.1577853810072722,-0.7038709874149234,-1.165899787521808,-0.09519855661424885,0.37824325532484776,-0.9687409234738547,-0.08850361206264964,-1.4009432027877893,-1.0182758373469531,-0.35621928052489704,-0.32350370822191743,-0.9853325565144012,1.3119728944254894,1.5514642712907418,-0.9775391107637549,-1.2663619074841508,0.5593590084355351,-0.4226214553987843,1.5705637831866626,0.9098395977186203,-0.9345266356308612,1.0755454350494664,-0.34690188692599044,1.0591155147015354,-1.5263157894106896,1.14035139865681,-1.4385963369931338,0.5610532945342993,1.2628997285696533,-1.5956903509656009,-1.0812297029476592,0.6360827451409461,-0.053138773654990694,-1.6911021397652688,-1.1128640460171322,-1.8766534578609835,0.2795548078331892,-0.6398958523796715,-0.29298162186539567,1.0991937330669739,0.6163365156891013,0.34107281364075676,0.5576775728654912,0.7796774167606316,-1.1943495570204563,-1.2942563118484138,-0.8635165845060618,1.5111016088874216,-0.7230603541293879,-1.4040460966331323,0.7229077394542935,-1.3684027896193374,1.1228070176601572,1.5964912280701755,-0.03508771929824561,1.578487792123456,-1.57907606601648,1.6181067701275933,-0.77026260449964,0.3155758796279546,-1.2599112564672839,-1.6718841991979385,-0.31574689240809845,0.9609622476919677,0.7887089161168054,0.38573359328299006,-0.47463644466940946,0.7679339824935749,-0.5316285915156892,-0.9475622394346943,0.14276321705936298,1.5657348970388854,-1.4006990570635311,0.12382852111049063,1.6515619035651488,0.34685636546398435,1.0095442738805316,-0.6080188835123227,1.5266900857968948,-1.157616978889769,1.2982456140350878,1.3859649122807018,0.5964912280701754,1.0175379896706196,0.3859529208726857,1.0581879318874206,-0.4019541301790931,1.4554220744510384,-0.26021595376867324,1.2132707082355454,1.5985356619141768,-1.7142638195119628,-1.672415559048652,-1.3322343134585628,0.5534875476653098,-0.8542806654177909,-0.8798837428101789,-0.3041937611615903,0.010688916522397346,-1.3442108859387232,0.037782826397086924,-0.24587536911095684,-0.42510872052331755,0.6811102906070867,1.7154318955132914,1.2312373049900216,-0.26023228493809303,1.2460651589894833,1.105263157894737,0.7719298245614035,1.2280701754385965,0.947368285280611,0.7367770178849657,-1.1772105237308794,0.717203919071706,0.8064032859532002,1.7388646178917417,-0.4118377864973246,-0.6714971830041713,1.5545267498073956,0.5004424995086176,1.2951162314364717,-0.0877179784552779,-0.6084707885663225,-1.420918186253917,-0.22983552203639535,0.3072349049913496,0.8132771467518186,-1.2501923216594117,-0.6864107860918844,-0.10530276230274033,-1.6669410309683217,0.14021693435592156,1.5438697183321004,0.1228531229626609,1.5439147636467707,1.736842105263158,-0.6666666666666666,-0.6666666666666666,-0.2982456140350877,-0.877192982456212,1.4210526315087244,1.3157893451850582,-0.1052608402063838,-0.5789063337039518,-0.5438437062640259,-1.561408891539391,-1.7569993700525584,0.3424050222431076,-0.1906259704143555,-1.4182547043766098,0.09530436711355256,0.6283776762253213,0.3273566547515774,-1.3309054421466302,-0.7399626352339759,-1.456358251957991,1.4912236631616074,-0.8070122245129918,0.8947402345546839,-0.842105214187871,1.3157894736894296,-0.9122807017543859,-1.7017543859649122,-1.2456140350877194,-1.1754385964912282,1.2105263157894737,-1.5614035087719298,0.9649122807017544,1.210526315789491,-1.2807017543855552,0.43859649238088544,1.2456140360533376,0.31578947369778887,0.859649151829723,-0.07009036516519908,1.4212071606080174,-0.8420640725103479,1.1581472505560293,0.000020710598886703646,-1.526272898352944,-0.5613356823636817,-0.7192936204522926,1.017544280367642,1.403508768751793,0.192982966708734,-0.350868519515455,-0.08771378282108197,-0.28070175554219723,-0.45614035087719296,-1.7543859649122806,1.1578947368421053,0.7192982456140351],[0.5263157894736842,1.0,-1.736842105263158,-0.12280701754385964,-0.08771929824561403,1.3333333333333333,-1.7017543859649122,-0.12280701754385964,0.45614035087719296,0.0,-1.7543859649122806,-0.6491228070175439,1.6315794398194148,-1.526304046839211,-0.01753199228289173,-0.6140345932457052,-1.2456140350877194,1.2280701754385965,1.5614035087719298,-1.087719298245614,-0.9298245614035088,-0.14035087719298245,-1.263157894736842,0.543859649122807,-0.12280701754385964,-0.21052631578947367,1.087719298245614,-0.3684210526315789,0.47368421052631576,-1.6666666666666667,-1.5087719298245614,1.4385964912280702,-0.9649122807017544,-0.8070175438596958,1.087719295278501,-1.0523170542879485,-1.4402740696490808,0.8894731660160176,-0.22209342061288465,-0.8245615364185519,1.298225306389197,-0.017563097393737938,-0.4899461060505232,0.6384635502957435,0.4351196684531378,1.2280655294878562,-1.4386099332916502,0.21046082100478702,-0.7194096786536721,0.4384905923285509,1.2806944235408526,-0.6315789473567474,-0.2631578947368421,-0.7894736842105263,0.43859649122807015,0.3508771929824561,0.7192982456140351,1.2456140350877194,-1.052631578947371,0.3157894656142252,-0.36842105272924486,-1.4210526316553527,0.5614033705142967,0.25191337356440086,0.5677505875831004,0.618269797349162,0.7350780949620597,-0.569837242982239,-0.24016361446573917,0.3995323163464556,1.139238497492815,-1.652743825247324,0.4246084523438466,-1.312187919597386,0.10923120009680913,1.530846658499729,1.624483258813459,-0.662369345185976,-1.5977848339928624,0.7537365971271138,-1.5440140103042745,-1.350878637691228,-0.3508771929824561,1.2105263157894737,0.8421052631578947,-0.3684210526315789,-1.3859673010125484,-1.6491234384916822,0.9473678956941728,0.08782590490503536,0.08977359907122828,0.9934365641261135,0.6806314617028274,-0.9172782910490352,0.3238552912983201,1.8313843505762375,0.5207086902709307,-1.1687307923732446,1.9794410565050384,-0.3166596395228147,-1.1237220471356266,0.30286625788716587,0.23433266321147575,1.487616630578557,-0.08379274997556872,0.4570000105366991,0.6350269459506018,-0.6334525803262419,-0.2840536218032541,0.9483594555200658,-1.6656284845332818,-0.14035087719298245,-1.1403508771929824,-0.8070127838726175,0.33332470943784787,-0.9647487549836208,-0.45539889269248834,-0.9398593362794346,-0.19051191847511964,0.5625576204422926,-0.3556682936117846,-1.3681892838687382,-0.3097334094105627,0.007962291123530852,-1.2272188467456122,0.44054926296536084,0.6158566219115136,-1.460808405848516,-0.3968534493606138,0.1299406993843389,0.7030559662164655,-1.4887974288042873,0.15514903369249944,-0.2376967270988888,-0.5738948523545891,-0.13684230016383642,-1.5596158460822214,-1.5068683593510581,0.9905794441520462,0.39608812607811456,1.6666666666666667,1.736842105263158,0.7013750875089216,-1.1264392674996346,0.5958551586191876,1.4931295681256698,0.7694629448589279,-0.9260678003797185,-0.08488963324659714,1.9975421007332474,0.4006113602629096,-0.3706340308431149,-0.607014924835937,1.4658911465117856,-0.28484369264234416,0.6926793526888398,-0.5894027773344529,0.41528019925557297,-0.25396059761653944,0.42242521415113093,-1.173974200829864,1.001709585045339,-1.8066515709911453,0.9065915433943118,0.3921714831250269,0.36508495686659503,-0.5610323563053726,0.6814954860358597,0.7017543859649122,0.21052700314040934,-1.6179324357608311,-0.07986796749523493,-0.12223417721939389,0.21301817490194278,-1.4627639695079444,-0.19892560709346851,0.17311459937758125,1.528549112325369,0.8966910305007432,1.893888211193588,-0.9479345568217445,1.3993354952216868,0.36925827473701245,1.8205952806369603,-0.45823781898637217,0.4709552197340515,-0.06603991771188177,-0.3989575212749227,-1.230082515540869,0.8136061705616007,-1.705958723441867,-0.6251184644142666,0.02368620534417914,1.4316273183430748,-0.8257515649563929,0.2982406307507254,-1.701745905299379,-0.6654016438239112,-0.6769623905051672,-0.600300112027652,-1.3791783924259713,-0.25821482798521284,-1.0701202927185394,0.4808801445764043,1.1828756103874762,2.2096179229575137,0.15471185082151862,0.0891217658484132,0.9986651923950761,-0.7106032746297807,-0.8796631259917123,1.0861282945340358,1.3505440807850562,1.684927544128302,-0.08184646267261952,1.2748683484548915,0.38147417594639016,0.3052504184692956,-1.4544884986731657,-0.010719329266971818,1.5524453105009814,0.03326100261295222,-0.06732823494541108,-1.0498372417573354,-1.7543515009302246,-1.6611474341088142,-0.48870965100494423,1.6237010253961373,-0.6645030911392875,-1.0454703646546146,0.20576719030399332,1.9314851870589755,0.8696996383340119,-0.016018754528911737,0.27778300499358105,1.7518937079276033,1.9427787185544503,1.3684083894450843,-0.5221382424666032,-0.21289695717070972,-1.2572000462397175,1.1662040789282309,-0.6924866038622516,1.7504638937447654,0.6071178613263115,-0.7317031054551765,1.8629009194416977,0.746546320446814,0.057208845826084674,-0.34772196074714556,-0.2866342739610572,-0.12062967551768994,0.7195481663603875,-0.2721960536747969,0.09411383779933369,1.332660273963637,0.6148573285334707,-0.8698586497556706,-1.3797172942779095,-0.2372671485457344,1.8619495303964873,0.6776365701383801,1.9576806067371029,-0.3085513477735319,-0.9897085288781076,-0.7946545469965705,0.6381201487090398,1.1275393457661869,0.2564862187681902,-0.25703101665910333,1.6481651221241873,0.2985332278997119,1.517154881773101,1.6960714724201025,1.5485171861298193,-0.9149461191907226,1.372516218039567,-0.3530557684616161,0.5183737997331237,-1.7215730420611637,1.5967771531094315,1.492022075494363,-1.345052133300149,-1.1372570590752074,-0.6810361768419169,-0.8798626914926061,-1.2021218182586857,0.7816524259417446,1.182331620125528,0.45457400924636604,1.034430726997299,-1.4195926355164352,1.1682643805080404,-0.8406236479773318,-0.8133798352467975,-1.9543385555903587,0.7205546166144675,-0.6330340349321469,-0.5265994306536171,1.7453028054167692,1.26878734267756,-0.5932206739249115,-0.18510253324183962,-0.5118442442239206,-0.17871697996016644,0.08540814708997968,0.2797411726379071,1.261649109431773,-1.3330555125573262,-0.9220487548056572,-0.8302559739368814,-0.9054638689342936,1.1525362639295331,1.4555718687594685,-0.3756565009686147,1.459785250158722,1.222678277572876,0.6591452993588269,1.4047333969825824,0.20012567200470757,-0.9877973078509434,0.6413934238749268,-1.8705792902801965,-1.0982039183131336,-1.657312121198938,0.3750697230719472,-0.6458167700275164,-0.9511176573629726,0.6647885565983683,1.3834061738265446,1.2895231255796376,-1.2099758722396161,1.6010821795142207,1.775872676716455,1.5433528582662395,-0.2278022421106443,-1.6490436891571212,-0.2612531876055542,1.1450190589154,-0.9841025165916711,0.6679586826638119,1.1192475698716795,-0.5016577323066035,-0.7892397159456512,-1.0528411319702824,0.8356347253916013,-0.16942783810044337,-0.0684866360699165,-0.6380894342604939,-1.307333307707284,-1.3293031647785087,-1.5507246256788398,-0.4159828523446918,-1.2308898515646962,-0.9134119484552957,1.5467299452023817,-1.0926154744994196,1.1387498164809158,-1.2613886532811789,-0.915676946033902,0.7615161787383515,-1.0480894026761263,0.7624343854088039,0.1767206689242691,0.07013340887760997,1.5263910311432236,1.6351153271587737,0.279618797816785,-1.3216781917787825,-0.29927889704252847,-1.4949436374697835,-1.129175887146893,0.9215500483094227,1.6547668602431838,0.43952646449908667,0.7767616143540284,-1.4715995947516425,-1.249939223994783,-1.4030272874022154,-0.3196110577499549,-0.6694882657307973,-0.6910290469005205,-0.023671689343340005,1.4943446084729837,-0.5683278288281316,0.07451501043878135,-1.2548141712306915,-1.400355414956158,-1.476359407610524,-0.46216812567914883,0.9117012328785736,-1.07021297169927,-1.0701754413807558,1.4912353200480468,0.4179128667178836,-0.5314150134424606,-0.8936809207474404,0.9569946712336499,-1.263606925238287,0.5657909282887605,1.7241632716779702,-1.075078906280162,0.8471663044268569,-0.18952662433679723,1.1033150140260146,-0.7376345643332739,-1.1248949656319462,-0.952965371927816,0.20480063858182956,0.19738460953835332,0.36293195273606327,1.7251507694425945,1.7085414308260274,1.2120990458333285,-1.2025747260404684,-0.9957345813407851,1.711901227355691,1.5552361394348915,-1.4328166848436676,1.3684205201815152,0.9649124684754838,1.1754386201024496,-0.6356582378639228,1.0125066696835079,-1.6969052465407897,0.5962811747666542,1.8261703257969961,1.268394282237965,-1.4553348499137277,0.23647387734832417,1.0059418322886289,0.7448885860764617,-0.3553037898014159,0.399338875618488,-1.6597747725037937,-1.592581474289939,0.8004866899229058,-0.7988295624192405,0.9050252977963064,-0.387775381011641,0.14623857200177873,1.6095363133847416,-0.41410597902368584,0.5903907087823832,-0.9924391207737641,1.0294561470551702,-1.5933578114609945,-1.6491058353133172,-1.5964901498679382,-1.3509437524277574,1.3480329633107764,-1.2961853597777189,1.7096180595112558,-0.5883977493605578,-0.7745893562498973,0.4896755757874778,1.4575542651348874,1.2762196198029119,0.5862435061371652,0.3875697899580898,-0.8849702333126458,-0.05994074803095419,0.3767693795305885,1.0241164239002114,-0.3783835244696012,1.7717882916872194,1.8373928859242596,-0.45841116369301493,-0.27258632386414666,0.4623092644171387,-0.005315885722087974,1.0982791063921138,1.412784660838444,1.5558573094957717,-0.3862824834189576,0.6153431397114038,-0.14035087719298245,0.8420923359230129,-0.5964749505122628,0.9117964404027858,-1.4042616373027927,-0.062181229107782246,1.024408732687678,1.7737509541805008,0.9943473233247211,-0.23136866134475384,0.253806657997615,-1.0163775145758716,-0.6484781866391702,-0.47091367484159563,-1.3683105992731175,-0.7480682560333308,1.9523893228390399,-0.007217434718637628,1.2959571538733614,1.5171130161943711,-0.11172333855422711,1.844174268617324,1.7014199375997685,-0.20836808754059277,1.235588346337666,-1.3132808017466575,-0.862244829807412,1.6686274524948301,0.6913065796341817,0.17545090429304994,0.4393218322384691,-0.692094353262772,1.7788246718553928,-0.8814433512110531,0.8080957415767952,1.8612121325091624,-0.12789724301480482,1.297985547213945,0.6456806211001217,0.15540578165207614,-0.6406908240581557,-0.1900292418156633,-0.0011365334042206937,-0.09441157355108673,0.7721866332138538,-0.45287036523823654,0.7915483326758919,-0.726030715202104,1.3308223954426075,1.6450433915449274,-1.204458783354709,-0.30235727657190825,1.2896849364366474,-1.5274734169587634,-0.9233678774244514,1.1022171134395213,1.3859648038690666,1.579125376577251,0.49379694849795186,1.6390780962795868,0.7925137135932218,0.2212656580484694,0.6922346673636484,0.2723748523647166,1.1314901189876645,-0.314142505794349,-0.3084279183696021,0.8178021941545619,-1.2095476343119484,-1.3331439183789529,0.6584538636626821,0.0869330152647874,-0.6901576333903336,1.33793632843411,0.4313058270155066,1.7966763333841682,1.34919168986227,1.465220332833652,0.5479510401281731,1.3819923771453586,-0.3838926201194371,-1.3402142819070624,1.495814240149232,0.6828316216553153,0.3333333333333333,-1.736722314667853,1.444608273972212,0.8312144232528735,0.7264391403134827,-0.9017183220318209,0.22938594085261732,1.1310885773225279,0.7600145630932288,0.28016800619190757,0.013414454135916158,1.5188773673764937,1.2669698963304916,0.73567263126446,0.4526007225969265,0.4600436048200241,-0.0670211653227519,0.4489282507310776,0.13284273050255713,1.0865184711912392,1.84047083010054,0.11375769706588212,1.0535401110191245,-1.041453902024634,-1.3400054059470439,0.17984621118851282,0.9543407335291403,0.12282079762977045,-1.543862062250544,-0.17536420663233934,-1.496139743700569,0.6144102831676984,-1.4280568132498312,-0.8658937247337563,0.4878897543403917,-0.6908717486114031,-0.4189390640239347,-0.6500219657486521,0.9016116268298902,1.635902585689808,0.07273342464517189,1.2256201569954703,0.7711898874080255,1.3369013297848764,1.788468705888538,0.4466798760745811,0.9438558932685893,-0.13679025042590845,-0.04955114930190604,-1.175036226384297,1.6978018441423757,1.324010359082797,-1.4147461870278242,-1.7340420644317645,-1.348294647050774,0.6666666666666666,-0.4385988289455655,0.3684367952839453,-1.619350979477045,-1.083191081609516,0.9998047839672373,-0.47550435967931753,-1.6822313625781113,-0.3227597280976488,0.35905951933168057,0.3872594338671091,1.4176198003835057,-0.2959793200435481,-0.41808848296121376,0.983141347595394,0.08624709943966531,-1.33654751113382,-0.26595848418512147,0.13282936626432093,0.4022109064282441,1.0218780047036762,1.3338451237087288,-0.5651149369731263,-0.6025082092677257,1.7206503477750763,-0.23591947790175563,-0.6131254244456311,-0.5498725768617224,-1.2456140350877194,-1.6666666666666667,0.3684210526315789,0.46098510069130216,-0.9692625921340328,-1.2725506342967796,-0.265229064930005,1.251722998168307,0.15229561827229338,1.1209516036066889,1.0657868102486312,-0.12872106833001598,0.7553782225625417,1.5312814722452035,1.681264841349746,-0.15575394219838823,1.1824179257291587,-1.3372293113806726,-2.0481702338815992,0.7095512941139164,0.6102826901613446,-0.6439354117151692,0.7330243900290986,0.17829990556348263,-0.010477753258927814,0.6190131219457177,1.4544765675206153,1.4926529311393146,0.08771929824561403,-0.8245614035087719,-0.43859649122807015,1.7017950333936278,1.4620221631901695,-1.125005425417883,-1.2759354942737784,0.008078263636321411,-1.0872926488592152,-0.2730705542687025,-1.0709823795502782,-0.417951386589622,0.21402968485277132,0.10800471880375732,0.5521821179897058,0.9014396104867581,0.7736462615357977,0.7585225519906781,-0.48155305510805047,-0.3947323547846916,-0.14967201198346392,-0.12522482308220714,-1.5003522415690795,0.7916240423391282,-0.8419622746358447,-1.1042958178294737,-1.4912499247925743,-0.8245685520192434,-0.6842105263157895,-1.4385964912280702,0.2631578947368421,-0.8070167916290679,1.2153899559330972,-1.6694724163119352,0.6236600782251245,-0.3488547952880634,0.04468948713290501,0.2673985861089269,1.3563441391048718,0.7646662937838175,0.23662461767184845,-0.2992324676193339,0.08647442246362572,0.9778366609428453,0.34640140639162476,-0.32772990680279057,-0.7659951915980907,-0.41250700989193045,-0.49522996459807156,-1.7106980844435873,-0.7339506237929806,1.358937321737141,0.20279378458139213,0.6834122264797291,-0.6842105334598169,1.1929824561963815,-0.43859649122807015,-0.19298245614035087,-1.3333333333333333,1.736842105263158,-1.631643718105852,-0.3160013014037064,-0.42919007799547293,-1.5068938195940877,0.25571265711848107,1.2646658206689787,1.2557562434445289,1.136423595155184,-1.060092164075216,1.5419967514247648,0.06041646366363138,-0.25721092959369557,0.5469476633368439,1.4240690584198445,0.23612396428963084,1.2079071102828944,-1.4700380823449593,-0.2237738027248017,1.2820356188025377,-0.4404214078957181,-1.3326505504616786,0.8596491228071381,0.2807017543883372,-1.4736842105263157,1.456140350877193,1.5087719298245614,1.3333333333333333,1.2105263157894737,-1.0701754385964912,-0.8421049686088519,0.1053527284106975,0.4212116191546501,-0.5261155947889239,-1.4558464378629958,0.07038432817295794,-0.9984237851794112,-0.5766134219085026,-0.8000514170225399,-0.5705542917919321,0.9254512730055683,1.3740384887262707,1.4065450489787887,0.9674281996975798,-0.790016604049782,1.1768251165449897,0.35157242630971686,-0.42058814623314794,1.368702641885854,-1.3859648643022668,1.4385964912280702,-1.0350877192982457,1.5087719298245614,-0.6842105263157895],[-1.4736842105263157,1.368421052631579,-0.17543859649122806,-0.12280701754385964,0.7368421052631579,-0.9824561403508771,0.8421052631578947,0.9649122807017544,0.8245614035087719,0.9122807017543859,-0.9298245614035088,1.0,-0.2074408258788338,0.8563368630951359,0.3868783874745591,-1.175400535024817,0.22807017543859648,-1.1228070175438596,0.7017543859649122,0.2982456140350877,0.15789473684210525,-1.719298245614035,-0.19298245614035087,-0.5789473684210527,0.22807017543859648,-1.5087719298245614,-0.8596491228070176,1.456140350877193,0.14035087719298245,-0.8245614035087719,0.9473684210526315,-0.10526315789473684,0.6316027695077685,1.1579999182069776,-1.4900671684579996,1.6872991620826356,0.5714068799958335,0.8673169590599048,1.6419184310754362,-1.3360316036272593,0.397218259793479,-0.3141352401312579,-1.360173612187135,0.8178489901777547,-0.02159670747548795,-1.5480845838520414,-0.27489821572109924,-1.078276737749792,-1.0082543005045213,0.6608743957039285,-0.7517683781290746,-1.2244750571487704,-1.5964912280701755,0.40350877192982454,-0.3333333333333333,1.1403508771929824,0.8947368421052632,-1.1578947368421053,0.1754578873855813,0.07033453927792818,-0.5260918649879534,1.1583970386961053,1.0106441113815479,0.2727595335987948,-1.3200453401394232,-0.3672842909185685,1.4279236038822396,-0.5055762885392049,1.205579227265883,-0.0815077460029231,-0.5088531169286125,-0.1620195786044643,1.7007390836650456,-1.1825032916256848,-0.9726049820105843,-0.8254799009708692,-0.32823780267165353,-0.25471711174692013,-0.6518432154728776,-0.6077129463648301,1.0963037006205194,0.934674848973657,-1.719298245614035,1.368421052631579,-1.631578947368421,0.3333333333333333,0.7181393640255039,-1.3484845584350744,1.5268626016297195,0.37101729378816706,-0.7863680085128892,1.3139266039569386,-0.3548236265490757,0.24006387544184712,0.3511161176396232,1.1565329168963456,0.650227008607726,0.6322226640298102,1.8764897382977521,-0.22773036022751217,1.3415141164561388,-0.9619660347473978,-0.10296647521861722,1.3992580111414303,1.479451164974682,0.038471083959155494,0.7995011990999895,-0.3096776980472473,0.8508115895143242,-0.08534308617528005,-0.25034134230792526,0.9122807017543859,1.2280701754385965,1.2280701654599897,0.36343496088406835,-1.584510470812513,1.2031093741024672,0.4002722426027243,-1.5350374668488331,-0.2691700729963215,1.6791547373408995,-1.0294111467621427,0.65454734960413,-1.435428510905703,0.5507864814416894,-1.1734053033316971,1.3679014970744152,-0.41782344968458096,0.7997436282579267,-0.09368075136919694,0.4637491386684176,0.44361052699617376,-0.437771651558872,1.1992723264785563,-1.8248525879460993,1.179302911494627,-0.5435857574984317,-0.938707066417251,0.048734140807288044,-0.8948877293311843,-0.3157894736842105,0.5263157894736842,-1.6672228094184247,-1.5457962563547984,0.1622123587617677,1.178363610301091,-1.5163228760417147,0.6795546366509961,1.1534362376458678,1.1746914939091924,1.1240503343057189,1.1018826944294955,0.6082878849991015,1.5655328868221061,-0.8133624848590634,0.27346102718677123,0.19570517592076492,-1.0213319720188159,1.1714444349882094,-0.37247998722976755,0.30534820085902603,0.40793625343841944,-0.6793996298762901,-0.6937760544802603,-0.022855830468026982,0.9711336600227651,-0.33981560986394393,0.6488843226949412,-0.017543859649122806,1.0701754384160105,1.2800499271021706,0.4367092401273079,-0.46789837473609147,-0.633755030438266,-1.3939586879969375,-0.4478034698131384,-0.22579280054438716,-1.8130800349627259,-0.8022369489897954,0.2015758546869608,-1.3009457436324672,0.1695824002205372,-0.20016662118740874,-0.48972004184265433,0.7956018224476282,0.18834315167594604,-0.5037478632807858,-0.27872683144240057,-0.7131100296732538,-0.028649489274912402,-0.6465600432168103,-2.23980009370018,-0.7444094319133089,-1.0442628723056695,-0.14991409659334795,0.9812410777203797,1.2280701750865217,-0.29824972281280004,0.08899924872313152,-1.0590402294657306,0.9329808838648642,-1.720644240623293,0.4985878541130104,-1.191277427152444,0.5742971068341023,0.9191842884309686,-0.054868285383008426,0.2920186534754208,-0.8761630830046125,-0.697920423205609,0.9963389642349016,-0.5022717956194047,-0.4741032832127229,-0.682446594802405,-0.13880325457037815,0.4223036549802139,-1.4308233312237293,-0.2668039043472954,-0.08876407727621878,-0.6292502230541371,-0.8832477611770904,0.5580317216001277,0.08338304425849659,0.9917688557489739,-1.543809890994566,-0.24492456197014065,1.1867617995347384,-1.6098922170420418,0.3917646498099621,0.9686711941380176,-0.4314153071572018,0.439990387702662,1.0968209727049365,-0.3432939083213456,-0.0634720554493987,0.022751338406862998,-0.5205712362054221,0.9172382241505853,0.5772373397794174,1.420450141039054,-0.6246755242490994,-0.2201147764900772,-2.188563838078452,-0.4317668177433371,-1.010024361042661,-1.065132838499827,-0.847828022376449,0.03173854618184897,-1.8119416962144352,-0.5153747158273085,-0.7881973111363105,-1.3942762076184991,0.4210467853013341,-0.1056360241195966,0.2839960238520358,-0.8481035332480892,-0.8774098156631704,-1.1647385412223041,-0.3352305151623138,-0.41313558758193125,-0.3036659844352311,0.31745084203360874,-0.6217662539242247,0.7448480429277513,-0.4633689300906154,-0.12421694938346885,-0.9182346941672582,-1.1644385650612323,-0.517690295882788,0.6674351631732787,-0.19246923542840655,-0.453245279340243,-0.5738490383108281,-0.1497861461013698,0.44636822159798967,-2.0841658361259334,-1.1812337451129051,-0.34885335650254284,1.2393790221691676,-0.6495621865917264,1.5613967081090676,0.28049195410839484,-0.6138312752959153,-0.22246452610951428,-0.6562382312621802,-1.1663576388267434,-1.0239963696645096,-0.9485861746829385,-0.7077219050232557,0.6826686735443933,0.5320199024919576,0.25182406399536317,-1.2982327570816263,1.0643716687052929,0.5063760862463318,-0.06873159862862568,-0.37140924050508095,-1.264320934895891,-1.1530981596150243,0.8834013161415979,-1.4801672116109574,-0.3178778789131602,-0.7852950426695892,-1.4148072387811694,-0.34180178321065396,0.3480666778971811,-1.0727970460881873,-1.0010231171932753,0.3859640976082568,1.038243710695516,1.5226021308581363,-1.6091806343150517,0.4747195173958668,1.3873087378457298,-0.7463872411181826,-0.579187053024152,-1.887009411578485,-1.4400283180996454,-0.06307058043974009,0.10062899381758712,-1.2879628928776974,-2.3038093541110833,-1.1710162128401271,-1.3593009615579577,-1.106546770749336,-1.0553524815113116,0.29242423535583034,-0.4403632421681392,-0.20590970467758557,-1.068992629231929,1.5640579823412761,-0.5236824720816964,-0.7033091114779033,-1.8017871066939695,1.2066738300082585,-0.7550128203764548,0.14035085347235382,1.067965010340943,-0.9176094581690974,0.35527031818354826,1.1460408502980695,-0.4107714182800464,-0.10062890988827904,0.8098634442881655,-2.1347184240542805,-0.8831715534443877,-1.6799548195255065,-2.519241281100399,-0.1628714662596085,-2.5879880398111648,-2.475905153920255,-1.7354619182892332,-0.04018095950638196,-0.44255449138146746,-0.8213408621311701,0.22797394105047908,1.2943949632100629,-1.0848208566931423,1.0275925065293614,-0.084340513778459,0.6572279338954841,-0.36825324946899607,-0.3369766812685872,1.626563752980353,1.4736839317924988,-0.0029204587341938324,0.697414651733865,1.494946864109707,0.20230264112993637,-0.8240677082015639,-2.2330128639022564,-1.3175150366544235,-1.6125514357736572,-1.5131411874791334,-0.44183064717349957,-0.610341585614252,-0.8975614541205026,-0.8446415504157755,-1.002762972289069,0.46134186493758184,-0.42334478134891657,-0.33740047090563524,-0.9208758631836241,-0.5487468883598912,-0.2140510145890355,-0.14455822050582898,-0.973919287471241,0.6897662525781412,0.4404488164640351,0.10543238595039676,0.29092446976341096,-1.2476816974012452,1.6842367093156676,0.7140241347917349,0.8556115170607207,0.9334352138493816,-1.664474474605063,-1.0785377096112374,1.1642866046675888,0.6674373921515553,0.18953388486903708,-0.3792570556775061,-0.12223731728421072,