{"layers":[{"layerWeights":[[-0.8596491228070176,1.2456140350877194,0.5789473684210527,1.0701754385964912,-0.9649122807017544,-1.7543859649122806,0.7192982456140351,0.17543859649122806,-0.9122807017543859,-0.07017543859649122,-0.42105263157894735,-1.6140350877192982,1.666696091315301,-1.0174806913813605,-0.14035228107491446,1.228070116943516,0.8771929824561403,0.08771929824561403,-0.6842105263157895,-0.21052631578947367,-0.24561403508771928,-0.017543859649122806,-1.5087719298245614,1.6666666666666667,0.8596491228070176,-0.9298245614035088,0.5087719298245614,-1.6666666666666667,-0.03508771929824561,-0.8070175438596491,-1.263157894736842,1.5789473684210527,-0.5438919621351638,1.578852447946976,-1.1754484671039105,-0.43938048413659336,-0.2984228743020207,0.5138409401983332,-0.7340997500310346,-0.10529600629288981,-1.3966692412485004,1.6808472221311883,1.5781041500630446,-0.6508429713009058,0.06694669625097557,1.4690309275972278,1.4467839228351573,-0.16061308989019668,-0.617442866857152,-0.35159685699840226,1.7367055657711146,0.8771929520937589,0.14035087719298245,-1.1403508771929824,1.6491228070175439,1.4385964912280702,0.5087719298245614,0.7543859649122807,-0.22807017822024386,0.016389770293088402,0.26297830903926145,-0.33369992807943166,1.6636097115047925,1.077956409067028,-1.610489640166142,1.1721668399219034,-0.9504898280184917,-1.5824745395474455,0.6901889931785581,-0.3588469631750258,-1.702312287615766,1.392330775005238,0.36155042211999217,-0.6420213537011223,0.6722941344492565,-1.6342258661187368,0.11628821094715289,-0.47197545791681883,-1.3441416247568332,-1.7429347154419466,-0.27350694476677917,-0.20364166559671731,0.42105263157894735,-0.017543859649122806,0.9473684210526315,1.2280701754385965,0.6143763144872177,-1.0613764617564372,1.5536870242396783,1.5440210201863394,-0.4831542716984745,0.03560160667244067,-1.380831204410541,-1.0779429208471092,-0.748468604782592,1.3003715854197515,-0.5771960630100995,-0.4952471779227233,1.2986083913637874,0.7791603389972512,0.6374825014355293,-1.4448332492354923,-0.6449777895125517,0.8303463423567167,-1.6160442766456014,0.8189451231170122,-0.5321228061795231,1.4871062885986743,-0.7080743395867052,1.7112349717148905,-0.3697128134606627,0.38596491228070173,-1.4912280701754386,-0.7192692997039127,-0.9985674019204012,-0.4717221391496498,0.3235204952377926,0.602658583379183,0.25950317916950133,1.7690261923406312,-1.0672259302043965,2.3897869859060035,-0.44121023997047626,1.0040934054700257,0.07919321358450084,1.9069974838473065,0.08210583039515226,-0.5124498567293974,-0.0006869447315950143,0.6708110075518043,-0.9795476215907801,0.5233230630319609,-0.4429415834898768,-1.0195866508985048,0.007991943297753603,0.5630944478059098,-0.09244560874140978,-0.02995273911120201,1.2047341845696806,0.08336959562490262,0.6666666666666666,1.1578947368421053,-0.7010450099599403,0.8883221794420468,-1.612606433487608,-0.7159173770936349,1.0439559527949465,1.5001301882432478,0.42828741827865124,-0.5815992738206971,0.04368875958427556,1.4764646448103727,0.4906859031367275,-0.19357546623308625,0.7680833633679115,1.4017334611386572,0.28643439892218514,1.081884967535347,-0.17785620525454243,0.6647435161963906,-0.6845350325541636,-0.21909490843491308,-0.5160929306132634,-1.990798250185763,0.4597942965788646,-0.9812205034537679,0.021822549602746794,-0.26958476953114,-1.5087719298245614,-1.5263128498288032,-1.624682830862464,1.6702142607740627,0.937569817684707,-0.48977046603935814,-0.3788634208185891,-0.07270154698192885,2.566777414854146,1.217483215317781,-0.10442220457822818,-0.40112567629214974,0.8712650492282622,1.2368363160276357,-0.3108104143305364,1.3593027698857791,0.158260786434322,0.4628591237131749,-0.6047869246355007,-0.47873496931233633,-0.6494029272591353,-0.31053914700901974,1.2062448096805616,-2.041510910547642,-0.9336327908634512,-0.7635786604852136,0.14526907887897048,-0.15900838908416035,-1.0877225375288804,1.33167601213509,1.0235199156866297,0.8079361968560944,0.17395644973266766,1.674659156293184,2.363852594285773,1.2981293355036487,-0.7188364724654379,0.44168911547907347,-0.5745398175714093,0.29469765308913465,1.8075767097945972,-0.6396188189422746,1.431311636090336,0.6029048255087571,-1.0501803899025317,0.3860254785335085,1.3480853568901832,1.1580670808808768,0.05026467624619394,0.6074008822395598,-0.48825913256239706,-0.6036397377203241,-1.6792704413906059,-0.5187715292917382,-1.0277681158112744,0.9105344059773145,-0.20623278651511998,0.6505413939175537,-1.150523996138525,1.010049695855155,1.1402845817630658,0.3865167262727938,-0.12498008555114806,0.14551835658130025,0.5908746156823407,0.20384333254002432,-0.1502231900749974,0.19776396919982714,0.5198469191505453,-0.2370161653522608,0.25465010444749286,0.4120636106088465,1.428674741754113,0.17923110226188768,-0.47840614808839166,-0.40669349562110924,-0.49106738567428565,0.41040746922421756,0.27876093021403,0.16148457146940048,-1.0227199869050678,0.5623857701067209,-0.23554780965196806,-0.47124320278643483,-1.473858041387064,0.4805763296621686,-0.594617704217674,-0.3640130250060304,0.259208130793581,-0.22226516170707977,-0.7400323341753708,0.03600638067908288,0.46184713109533687,-1.6192046505575939,0.9029880499818825,-1.5131711553715086,0.5029202496421787,0.47598619799682,1.3729920333573127,2.309323160336023,-0.31083393487864397,0.5874067372078019,1.7806719906342297,1.0732726174856602,1.2746176256130457,-0.6102459952282603,-0.6251348682871579,-1.2670677099298713,-2.5023933894637627,-0.32677274130893197,-1.4735038463721775,-0.5955613226765466,0.9294944113912824,-0.15939606681535065,1.4055423748995377,-0.643996722653689,-0.10386815411393989,0.07230084530803686,-0.25514094661132464,-1.8979312287743872,-1.402409333387517,-0.9392300827997977,-0.9114739318401247,-2.0096048606081407,-2.3390844638010084,-0.2666143711754271,1.2011121529706155,0.7548913152465352,1.4662458643834482,1.7129116400682554,1.1929248136198356,0.7972024344245694,0.3087470563709579,1.7625179143842753,0.6429003992681772,-0.008589107245240738,0.8259000394954371,-0.856191653541993,1.33055990506708,0.6144388178192712,1.1927070210629733,1.5985919148087326,-0.5340635848966715,0.6647496964135416,-0.22101241909285949,0.19725368525453582,-1.6115325548476174,-1.8887133875224,-2.4205798570830104,-1.2786040134619627,-2.941641864778546,0.04168378953043691,-2.0187387714840264,-1.7257378857707981,-0.6415818991227284,1.3349659220724175,0.5252479731086555,-0.3645228374521405,0.41797389022463716,1.3352941370305378,0.16852273839497972,1.2096500732514788,-0.32582926520603234,1.502128789641426,-1.08696896568547,0.510250679452238,-0.28533451225600664,0.17523971245077227,0.29823702910202865,0.34431126068003287,-0.26232095860505394,-1.6579916567047486,-2.076325504631843,-0.017620127623639653,-2.5313063414223933,-1.833787913230969,-1.936964469160322,-1.8711085955068811,1.0391913724008184,-2.1931111078317596,-0.4750531623697394,-2.2451535749059155,0.344237148659481,0.5522120339361022,0.7302809574386473,-1.6831007574290873,-1.0941459970281524,0.3252998508719974,-0.8465161650341909,-0.3320977385619742,-0.49747379553432086,0.46879958544491673,-1.3723348769570833,1.2485074026660496,-1.3867249951988962,0.7879276357295043,1.526315469112797,-0.8620357566721224,-1.026383429593877,0.09730977134869928,-1.2119234800704217,-0.9374450472982887,-1.104730249348771,-1.6422540556422496,-0.2231617545728857,-0.3325565114807263,-1.0943863357337051,-0.4910592788242057,0.20780339994425137,-1.3373769842109073,0.04046124338905453,-1.3077094206365614,-0.05885421519364851,-0.3011862977077884,0.2688898969414769,0.33873699760557535,0.20204046040673374,-0.5638978486683153,-1.5293732066141843,0.9345452448783492,0.4302957463026723,1.626470424907266,1.5599725139245955,0.8111317364705344,0.4912053875125527,1.2443804409935482,0.048262925390111074,1.3490710719732442,1.15326542260597,-1.972954741547447,-0.5209254487422033,-1.0567615729686366,-0.5636552351983024,0.9164148169191092,-1.2073017593795203,-0.004229192973729256,-0.2058844757779725,-0.9378465286078321,-0.7345586773844627,0.5304974986448951,-0.2445678580511445,0.7716936918796965,-0.32798194257514407,-0.7892649548058864,0.34484129249911577,0.7071936973683738,-0.7732396509951929,0.8142181199004943,-1.3510976673758144,0.4910211715713439,1.3095965848918065,0.05249233551724371,-0.8772013279853822,0.5439549374218071,0.9339849699893139,-0.6026577420075595,0.6075212130318355,1.6029273747794315,0.5693994189979307,0.992873063463731,-1.2419300945876213,0.15098133088854224,0.5475896639313796,0.2056840808335416,-0.24452584992432383,0.06263954809877477,-1.5781900002077534,0.0016017902156194666,-1.052090278321454,-1.2427903482894804,0.6856964937653075,0.4654113154983226,-0.07676884952416389,1.01836306272856,-0.5455092777615964,1.194780373106871,1.188737376769162,-1.2545348857937313,1.1831926609104764,-0.5292738057620535,-1.3508824413403593,-0.9109951981287729,0.27587155525623436,1.1095641202067603,-1.0268238146792081,1.5133488284364491,0.1663079075138873,1.360936935453236,0.5569599298886211,-0.4037273324666782,0.12515697992111105,-1.5350576360483708,0.3449697628799677,-1.3720729873957167,0.4094987978040809,-0.3326629213446701,0.6439406914273821,-0.19376645552179894,1.2304381374228428,-0.37823470055697894,0.537401110352817,-1.0530471521528328,0.8149193943239329,-0.16718836632603887,0.8916975614490402,1.6023568862261373,1.548002778513026,1.5470341777608143,-0.017543859649122806,1.035343686064666,-0.9674100953911662,-1.1597173712490927,0.3528676110822684,-0.5794380388948348,0.20129710434770787,-0.5295073680069041,0.08337032407991689,0.014727489742885761,1.3067653040073992,-1.4896127610809278,0.8186833654222272,-1.6563168933421002,-0.6353340981562985,-0.7643036061894247,0.05247903669678154,0.6376874537366,0.8787227654122972,-0.08154337860571063,0.025697366263643436,0.7178244958682434,-0.7764300331748278,0.6302855226590227,-1.0802934155574158,0.3484585968071022,0.7979774923619515,-0.8546541878128593,-1.263018272699972,-0.6313196580938849,-0.2540747861642363,1.287525223508127,-0.24132653086836295,0.7486666953515383,0.785748794540102,0.3602458790113916,-1.177134886530389,0.6914935193605192,-0.9132213646376761,1.7345862267871524,-0.9653442875391766,-0.5261968900549792,-0.12520976638395595,0.4466969548474152,0.22374097005767216,-0.15936727737522896,-0.5957352576300031,0.8721326278018229,0.348777079956782,1.5942843407127008,1.2169368425240792,1.083925259880404,1.2927520714711591,1.7917513689226274,1.6986118613405354,0.8095457184390543,1.1578942011127489,0.47405369829013827,0.7266956696839715,0.48812290945363873,-0.7929355595856856,0.7212669553454653,-0.4832884476742286,0.861838629585587,-0.10854044556728741,1.2341432138955466,-0.46829775623919156,-0.3707368399948279,1.5117341074121586,-1.0977394133323417,-0.19596378795510547,-0.4614146881886729,-0.48185966003038394,1.2956596152001605,-0.024674348544861956,-0.1393906576810807,0.7799085394032157,-0.8637888389496153,-0.6357214717114388,0.9272567299278691,1.0524737179877754,-1.3245198177448394,0.2972661109572678,-0.31548436949507047,-1.2280701754385965,0.5265267171054734,-1.0711116711729267,1.3239520010170542,1.4697702236019312,-0.6351619297134842,1.0364153163862087,0.7087335709810465,-1.3626465867229622,0.8224557759637012,0.35443882024185175,-0.14756051774454307,0.7148963396774866,-0.40682661742798065,-1.3318016062785851,-0.0899888630681561,0.5268707076278211,-1.4078802932450687,0.2895003110845315,0.22306502374078976,0.8038609154267295,2.02027480425477,0.6342681839823566,0.8862034642142547,1.2966288196454068,-0.06513267022627912,-0.3966219619842688,-1.1228080122602815,-0.263158977472401,0.7896917871973452,0.4939497712937071,-0.43846802320331146,1.17622254582939,0.9153194494483823,-0.3181695346190399,0.36475288153447705,0.8143841444548676,-0.607615141500858,0.2904450975877849,-0.09841179941213693,-1.181028830199099,0.8694916584224521,-0.6248355563940635,-1.1229450471737443,-0.0402985031027076,0.6378097055937249,0.5984703307267994,-0.48259524019599415,-1.0957616133466055,-0.6228601654572951,0.12495349791225566,1.6593504925191382,1.150989241248808,-0.6003835530443679,0.080365827805969,-0.7719134926715443,-0.12280806644393223,-0.2631715638963766,-1.6662088742417192,1.1935980955763676,-0.1916253292115789,1.871826409568148,-0.26527571401609,-0.57727668859742,0.4687624031209217,-0.3775900310547613,0.23884311213770418,0.5666329508405838,0.6237173070677615,-0.4552708325755639,-0.5089227162473854,1.298688987394627,-1.1928195844393412,-0.7679483895267489,-0.8129016294045198,1.5973045802417671,-0.41660516222478494,-0.8734685546892336,0.6032839231949113,-1.0681412297753732,-0.9635549016557363,-1.0222305855059468,0.7253344912601882,0.3158196248654891,-0.6666666666666666,-0.5263157894736842,1.104510002587528,-1.1150791294021765,0.14089719014131655,-0.13403090295515813,0.49044322533421186,1.6400818870515073,0.6805442215978742,0.9818475367566089,-0.4567821460234557,-0.4293917524427505,-0.40806590407572757,1.5825630086694826,-1.4485454955291683,0.6814253624353419,0.10415148742737182,0.23466533992125638,-0.27921973728048016,-0.02427679253875925,-1.3991240146376398,-0.44982890933239156,-1.2104999018778135,0.5736712280685646,-0.8668187629386882,0.8916825073872119,-0.4517473945777268,-0.8947368421052632,1.280701754385965,1.6140350877192982,-1.292023013757017,-0.33082936815070985,-1.1475316316398454,-0.08802296552530513,-0.48298104000649195,0.23293651942531976,-0.8762266403875527,0.7802635811739123,-0.455411992553537,-0.8370772384741556,1.5074540097589884,0.6922787364535015,0.15357107541906018,-1.4236690890026031,0.6831690634640472,-0.5235582663122172,-1.7018166677809603,0.22737994218815882,-2.009655746002482,1.1630115428125454,-1.6312972164458097,1.3802392833014698,-0.7342759531352023,-1.3667354462692267,-0.5786111135318343,0.017543859649122806,1.263157894736842,0.24561403508771928,0.05299660978457911,1.2335550258001255,0.5949011451269652,0.8351263224165575,1.3633059494066382,0.0685819794754097,0.15059219748335165,-1.2112728439621392,1.9226704108099841,-0.4545572361661199,-0.7773269895583398,1.4910571773900747,0.22592294280182096,-0.21509512372638326,0.6670298290643323,-1.0301751641383674,-1.5547802698863924,-0.9126370107738976,-0.7305790076707864,-1.1025653468200953,-0.24014961160775994,-0.80525899902628,0.7292904145572097,0.561439831721448,1.1754820177971161,-0.17543859649122806,-1.5789473684210527,-1.5087719298245614,-0.9824561403508771,-0.03556856703778494,-0.26607281567557467,1.1973978385542672,-1.7695671265023307,0.9554144661483297,1.2594064054291638,0.16947544064754966,-0.2112485576328492,0.5846085692923645,-1.4286814582946537,0.07176160902160014,0.23382418390441675,0.6569562404332757,0.025189667755186104,-1.8774385215721465,0.3580068220893748,-1.1550231868243823,1.1372877746434105,-0.4142595529472414,-0.13321746441376137,0.2459564115421346,-0.5436533697483272,-1.000044209739127,-0.21052631578947367,-0.6666666666666666,1.3157894736842106,-1.2280701754385965,-1.631578947368421,-0.8771929824561403,0.5659537924793324,0.9587154390985833,-1.534414777567172,1.104336734540893,-1.5630952418502226,0.3308476403754365,1.0868778343563703,0.64553036988021,0.10643962660715817,-0.7439218953976771,1.1615333139007213,-1.45381372866332,-0.3991919182972679,0.7561818561742992,-1.470152623706686,-0.14861609657454353,-1.6810405078636586,-1.5224418337778864,1.05132256162233,0.38474912965137137,-0.49122807017543857,-1.280701754385965,0.631578947368421,-0.6842105263157895],[-0.5263157894736842,0.9298245614035088,1.5789473684210527,-1.631578947368421,0.9298245614035088,0.45614035087719296,0.8421052631578947,-0.9122807017543859,-0.07017543859649122,-0.8421052631578947,-0.9649122807017544,-1.087719298245614,-0.17545560198119442,0.7894618398689759,0.12283527377852006,0.8245625808518828,-1.0,0.15789473684210525,-1.7017543859649122,0.15789473684210525,-1.0526315789473684,1.1754385964912282,-1.6666666666666667,0.21052631578947367,0.07017543859649122,-1.1228070175438596,-1.3859649122807018,0.19298245614035087,-0.7368421052631579,-0.12280701754385964,1.4736842105263157,0.9649122807017544,1.4210395118327532,0.3508368723754004,-1.6386837457128673,0.06877075510962545,-1.234120353789974,-1.1085486241513833,1.5389993173736858,-0.30735778370748906,1.3343497895306504,1.5820306710135081,0.9696798257840236,0.036570795982697774,-0.5450167445377108,1.2709263458081406,-1.2763784512346996,0.025470284940478916,-1.7679320276800754,0.677377408742426,-1.282282090496463,-0.5088958568938453,-0.19298245614035087,0.5087719298245614,1.3508771929824561,-0.22807017543859648,-0.6491228070175439,1.6140350877192982,-1.6315942532701495,1.6291655814148545,1.7006712782635849,-0.45621044231039454,0.20240335140092897,-0.009404828551120695,0.8848856358914463,0.8195442595478856,0.3684692179027142,0.073964960901583,-1.2876175819668116,-0.22357407966132034,0.24293853464670684,-0.9252988989486194,1.121608584784876,0.8698866507965053,-0.2572068022489505,-1.0776401988388289,0.12392368023729383,-0.1026724640421557,0.7131048297031345,0.8560488206850464,0.7741214463335362,1.2600335390591595,-0.2982456140350877,-1.2982456140350878,1.280701754385965,1.631578947368421,-1.5087934876476414,-1.1298057634841503,-0.183584142286268,-1.2659273498723271,-1.3415555164782889,0.6343171201329196,-0.6630265702902252,1.478603851974485,-1.6644441904316163,0.020873238976794013,0.5923760633994415,-0.25067060236181415,-1.749490809714521,-1.119875261067004,-2.1080093219418217,-0.43887671884214746,-1.1372357318820299,0.4780481631001057,0.6196900805134774,-0.6389972723655324,0.36940508165763736,0.7841443314678134,1.4816195853833305,1.3840511655098997,-0.19299006138154456,0.5789473684210527,0.12280701754385964,0.15789461318345446,-1.4035605217341085,-0.7543985539751547,-0.4884619977757656,-0.19663685312805643,-0.5639688991141185,0.4942731183529702,-0.8401669499055036,-0.822580501995872,1.0402056042319914,0.6522617608705376,-0.49399839839601156,-0.2651598414671706,1.0227623366273726,-0.25799001387756243,0.5005449267215478,0.8146654570226157,1.0574245541814322,-0.5402141129739152,-1.6587159706984214,-0.3586897443701154,0.10160336331109869,-0.3458908947272677,1.0969639592478826,-0.4007965975410542,-0.39126830205817525,-0.2982456003454862,1.4736842105263157,0.15789473684210525,0.33394680014432415,1.6595131417516706,-0.14742225580144666,0.21883043212604872,-1.2734833687478968,-1.5710012625565513,0.8482097364633893,-0.601035423851085,0.2979454578999863,-0.7748943365956287,0.18910960837454271,0.6326990589342174,-1.2837838876866055,-0.9091857881403069,-1.0631388462736682,0.3826294509115394,0.8055624966792893,-1.2218344589537813,0.8638716754228144,1.7862964528938052,-0.635823838392345,0.4446538557052975,1.106507354999058,-0.13569710930291737,0.9408918383461188,-0.5428147680469382,1.263157894736842,-0.7368618345097129,-1.4219126313387978,0.7958522850832835,1.6217261708372246,1.5847180757310677,0.39840971395002855,-0.8217818447545221,-0.1292708225705348,-0.6199634089727198,0.36331526052315216,0.47872658840289317,0.056250806694945206,-1.6236162898596187,0.2303456381533759,0.7020738097849601,-1.1559792853306559,0.25818343902182217,-0.9563175530446879,1.50911776292791,0.5490144096587695,0.709833292270982,-0.13637160517569794,2.35117398253796,-0.20585476894667193,0.9326472013626904,1.340425810215394,-0.06704597100579002,-0.5964892751963574,-1.6856119627055235,-1.3965519605829038,-0.7163457820078296,-1.042187391688394,-0.42685637688632405,0.9184796184592784,1.1324512396920345,0.1825521017043466,0.6497401673011154,-0.6250527091740689,0.7286845319375098,-0.0555362499401019,-0.5184812749700469,0.8842310812670634,0.9522706841101497,-1.045112418117946,-1.012551451791648,2.086419632067264,-0.05246335600311619,-0.2849861580134969,1.150616018553743,2.715711787904898,0.8408335205168448,-0.43579423571004916,0.33038644286575813,0.7101565200296953,1.6554593600354286,-1.578864763304854,-0.3329805385476895,1.5450138670766977,-0.6362247931053538,0.8036047887832519,0.4491742307233293,-0.18734934491609795,1.3738143015073947,0.5151837562055221,1.5247863644289126,-0.8834161629099373,1.6417202054028999,-0.47586228863465063,-1.4102304799536751,-0.786189682862583,-0.5383761813077363,0.3747435286666023,-0.7676282462749293,-0.2039508394733996,0.9766848395468205,-0.30489395464897523,-0.04086061178312484,0.04011844894491351,1.1132172489006733,1.1767915106725455,0.1100723035475586,1.664685524892883,-0.06844361718594819,-0.7716829913185483,1.4916642723014562,-0.6459342199924178,0.701826458017913,1.5004112720307528,1.725376531456726,0.5860927036967912,-0.5018648142984775,0.40834262518768316,0.3792737611927322,0.6021969958060994,-0.8879494919711785,0.7672485512564029,-0.0029204338711122904,0.09475417767247703,-2.1603967825776422,1.075114943173644,1.9425245985514905,0.809197435595579,0.9472744535608791,1.9436609324819887,1.739162249425085,0.18354239745274484,-0.1946048949103436,1.5442957047250554,1.5212440640683569,1.4219799982312171,0.7362929701860892,0.9827425728551419,1.1238631621921842,0.5637987031862352,-1.6752940049582892,-1.3591775134628237,-0.763712900591794,-0.01067134920156707,1.8770640560052174,-0.3997325649681508,1.8244211413394447,1.9602273361018614,1.558864117763064,0.328256675353245,-1.2998499488742556,-1.035827327888006,-1.187585426997697,0.6487082806983856,-0.04566904467989038,1.3958301162295899,-0.17376033635688154,-1.5723744139662728,-0.48642213729685035,0.8021956984156472,-1.0919106272305477,0.7312153477583665,-0.6500165765694994,-0.6994304486630203,1.5087245028971945,1.2106279715379742,-1.3872607985999637,-0.8406537401593365,-0.6819578768407314,0.3221501841025979,0.885558649154125,0.014489918777508852,0.7796400119519176,-0.33129661388485654,1.5648681933833113,-1.266941277874583,-0.42449308286558446,0.9476875308733252,-1.660734886912336,-1.1914221070174877,-0.7369832134662054,2.139831855361478,1.7993968731925625,1.4511024149111018,0.2666316810527507,0.7078380107571627,0.8535336199818523,-1.6094482813032602,-0.016615462540771644,0.7853496491680102,-0.077621779470575,1.6489052886841438,-1.087509109243492,0.6141111877121292,0.9572940562772317,1.5783175657186008,-1.612852472368632,0.568490992094926,1.0858429885505865,-1.1894599241318748,0.7873150905397064,-0.1354946790427633,-0.21882318430158534,-0.6337625718318227,0.30933594710081835,-1.3344342084975271,-0.7637337728522005,-0.3969501281299442,1.759747629006553,-0.7301911180361922,-0.32615889855904545,0.26436371307351053,0.004451137809148035,-0.8236844770794498,-0.9828187426957758,-2.16886473700781,0.13651810292669056,-0.41040077550788057,-0.6425020244989977,-1.1443332867592566,-1.1685609055779582,0.07015727054493623,-0.24262540628371976,-0.7044857706766825,0.24086090512992725,1.588063776037131,1.0619130278140116,-1.843070144303498,0.7366216262406151,-1.393953143113106,-0.9287441412714054,-0.14075582058195296,-1.6325446219066693,0.02787850283801629,1.2437281297036664,0.6462271536494698,0.043098838470528415,0.5827762751116167,0.015329486661562614,0.7136684558110312,-0.5076971842856521,1.764997903060866,-1.9621958591490185,-0.735747310577687,-1.5748838081802754,-1.872881437886187,-1.5545921221956032,-1.017927680995042,-0.421837505640525,1.1410321370767988,0.21169751499593326,-0.7735946329706447,0.4405036900750348,-1.2715357819786763,0.14858427556993317,-2.091772561417429,0.2446911330435456,0.28623323625485336,0.35752720555122025,-0.4347293699290092,0.9009444449886116,0.7908844127545067,0.8670528560872816,-0.844199677245485,0.8869829087081887,1.027987741195189,-0.6948511286385664,1.1925693051449962,0.6570872712346535,0.8157870466385245,-0.16058612624804233,0.2320292890360948,-1.078658699589546,-1.847829300338572,-0.8887736575980261,-1.2178888725567727,1.5105159260195091,-1.1752153352791503,0.7894625641659472,-0.09797236758531196,1.5778178440171795,0.09849477451273056,-1.8259535921441608,1.2488083550177187,-1.3774015529972867,-0.5371630016142908,-1.3152816736522597,0.6978730704056556,-1.0966346754111511,2.202065539009582,-0.4621579322061816,0.19682369311786688,0.8868984353731781,0.5752007971899354,0.6900507816440337,0.7346901077542481,0.4457031406728535,0.7195139138308455,-2.059057778380924,-1.9040910083906006,0.15744919830117218,-1.4847414653045827,-1.3922821971042456,1.1748954678078354,-0.929946881652907,0.3157905812070243,1.6314745310575864,-0.0336982123987604,-0.5774664541576029,-0.4324459672151413,-0.14212765614096995,1.039303775156697,-0.21181676484288023,1.4525982175508414,0.6170664291327144,-1.7774596001595873,1.3919532968799664,1.2710503110129185,1.689278798612358,1.6168054612430809,0.8202620842824622,1.9261511333050017,0.2911846477431898,-0.618046715399518,-0.10983702824242393,-1.0693538631039554,-1.9677894063751038,1.0265578751248152,-0.8972442133102165,1.4477483804036893,1.401964777717019,-0.2545444213946681,0.24859222077775392,0.2631578947368421,1.2278298209594718,-1.2459599870887124,0.4209658883766862,-0.33643961987371734,-1.112005201044813,-0.5229002197155806,-1.1170860273013348,-0.8139221240937557,-0.7454738107390535,-1.723382014306148,1.4514749650613872,-0.8181482503242908,0.477483838987921,1.2758659874756115,0.2699065622131465,-0.3509930328793176,-0.22836036801262738,0.49299786287671366,-1.56037553686142,-1.7178107443000024,0.9578358651442762,-0.8988019500168192,-0.11050848389461711,-0.07094054243158977,1.2449016984996832,1.5391125292805583,0.3019390139927076,0.9348385358378501,-1.2633183227214226,1.4448046752845956,-1.0961082003141682,0.8480916046628374,1.231610364793759,0.25295723814206306,-0.009664312756503757,-1.417339130738659,0.8217390228063912,-0.42938940449115326,-0.8947503899815322,-0.6799453612287525,-0.5306616327807616,0.1702121098842973,0.39284331583313653,1.5449309390412735,1.399920092306457,0.8225700214010357,-0.9651391148281769,-0.201987902657175,0.7840873401811608,0.4088244339883073,0.18160057821781275,1.7131152609297047,-1.2952883169595566,-1.4302119484880762,0.772644203650166,-1.5087721469451008,-0.041117517388006244,0.19397258735021736,-1.662396133100345,-0.3371465796312912,-0.24630403437249293,1.3484760897731876,1.1534525870055312,0.48121281396176924,-0.30504461988164605,-1.8002208414760859,-2.1263571573050517,-0.5659178654422002,0.17602340683487042,-1.1418996022386194,-0.30556277565061674,-1.3389324976623624,0.7700000433797933,0.20723673984791188,0.6852048514824377,1.0589968038928133,-0.6973888931769631,-0.3711931594558876,-0.7957208513840379,0.625546695329203,0.6387469816052899,0.6072187748087031,-1.0528043921678942,1.105263157894737,0.6494444646632153,0.3041781949938351,1.1630228526673607,0.7586947295320405,1.8733586570048233,0.3579842349554831,1.2303602244652025,0.7023893945486234,0.3467097041046953,-0.7958550541013436,-0.9957085229371319,0.23483757386172352,-1.0470643761358618,0.27168824770191224,-1.9745842447728488,-0.3298193036886455,-2.138590652215691,0.11981087541125557,-2.143184509186359,-0.7206436433714267,0.9942101543173779,-0.7878140966181516,-0.9583904203102714,-0.409232525448251,-0.015301967425248319,-0.37278741093305306,1.4911885707015873,1.614034339354043,-1.0614884983085404,-0.7066497921348311,0.28028349286976784,-0.05358566589097053,1.6658723636817896,-1.0542042904412094,-0.09748722719373829,-0.9170861564954838,1.2856178606142261,0.4564840885463435,-0.9238669766139036,-0.7310346906261137,-2.066929723486468,-1.024030881392025,-0.8275079363754609,0.8798255156636353,-1.4212996968278782,0.4589470579221288,1.4200382282481592,-1.0837462482845968,1.31442197903569,-0.8131464176356205,1.1720216936615389,1.6320795273411397,-0.35712198989904326,1.1413368846233556,0.9297804487187551,1.4912273451965967,-0.5789932964809527,1.2668257022781417,-1.4761989020254571,-0.4233613805647772,-1.3847875146151625,-0.47080220189810257,1.5342466060270148,0.9437745923407422,-0.2953866247570426,1.5006696425024326,-1.0589254299809356,1.0694868259065153,0.20946705712996588,-0.08540052898152135,0.6779499891350635,-1.9930082856086753,1.2571732788600127,0.9106684467956272,-0.8625195658434546,0.3255528047630504,-0.33818531505244237,-0.069263142381445,1.2844311001067554,0.66988782001784,-1.3249110748407358,-0.792649225893361,0.017462420846500126,-0.9649122807017544,-0.05263157894736842,-0.8456481183935262,-1.4761740156379548,-0.6723895271660807,-0.7463144387089736,-0.9918589477942574,0.8423429628621124,1.8547676650483742,0.4220012992980346,0.6030606468480311,-1.806936492463086,1.4058633859049359,-0.12526326906208826,0.849818508351543,1.025903425268988,0.17722444884144237,0.11834328167098404,0.5387841634450155,-0.4906364251140914,0.037776403673718706,0.2567432990432478,-0.24035274410622712,-0.36373585939108477,-0.04294811748153987,-1.0683141886320864,-0.7268100612889555,0.5964912280701754,-0.9122807017543859,-1.368421052631579,1.4709604936730902,-0.5532347660519296,1.2063387635646006,-0.961323325618278,0.30636054191365086,-0.6945756095448582,0.016812039314397315,-1.465595048705231,0.08322535612703207,1.0277817486561627,-1.1688584908000221,1.4828763477541218,-1.5332203495161107,0.003825226479700194,1.1184605176847802,0.64108327735463,-0.30242006235533336,0.48837879061408224,0.22983963568580223,1.4366249997634566,-0.5840285691650797,-0.47402557671063084,-1.1378312633979684,-0.946807803257928,0.3332382851048749,-0.7192982456140351,1.105263157894737,-0.9122807017543859,1.4559827855499359,0.9116058662879815,0.7190017766023687,-0.7652984810809853,-0.4879806307772867,-0.6274165029568507,1.3960084376136763,1.546602034464909,1.5802606209344452,-0.309581246517894,1.7780137983797488,-1.1942011011654812,1.449290689728054,1.6840230279143502,1.5326056558657923,-1.3308854034460174,-0.017719707447569132,0.7945541494493626,-1.0170421516261414,-0.6023791191576772,0.16758135097667537,-0.8687166331126962,-1.2272967745881225,-1.298245785375795,-0.9122813409436319,-0.5087719298245614,-0.7543859649122807,1.0350877192982457,-0.47368421052631576,0.8421078674677243,1.6151129543559155,-0.7464949240863892,-0.8674950532425566,-0.5553955626106639,1.0454005238615434,1.6975111644565748,1.296207267247729,1.2718555629833328,1.8781081126972328,-0.7670542758441757,-0.43385718744524754,-0.533829449525899,-1.490801918818459,-0.6696667835893355,1.2649863015699125,0.3117984483372689,-0.6824681951178849,-1.240016879708252,1.2468542370519686,1.2851484371861768,-1.2810488242360771,1.6842159178107443,-1.6140350877192982,-1.543859649122807,1.0,-0.8947368421052632,0.05263157894736842,-0.40350877192982454,-0.9298152604809431,-1.385897561909085,-0.36828596427686183,0.08794773581547032,0.14490196989676138,0.8327385852209487,0.6341950882447477,-1.331277920170551,1.0258122090263595,0.24333032705072316,-1.0900562161805993,1.351313394514921,-0.13317263813552047,-1.6142906099952712,0.21429602061064812,-0.3518795782812003,1.0728112283919182,-0.5937424512417077,-0.8953806653817092,0.9867219708280599,1.4736842105263157,0.3333333333333333,0.17543859649122806,-1.6842105263157894],[1.736842105263158,1.5087719298245614,-1.368421052631579,-1.2105263157894737,0.24561403508771928,0.45614035087719296,1.263157894736842,-0.07017543859649122,0.3508771929824561,-1.1403508771929824,-0.6491228070175439,0.8771929824561403,-0.3509341261750384,-1.0889488662058753,1.0864897516061374,-0.07022666970646937,0.7368421052631579,1.5964912280701755,-0.08771929824561403,-1.2982456140350878,1.2982456140350878,0.7017543859649122,-0.3333333333333333,-1.4736842105263157,-0.7368421052631579,0.15789473684210525,-1.719298245614035,-1.368421052631579,-0.8421052631578947,-0.10526315789473684,1.2456140350877194,1.5614035087719298,-0.9999840401071863,-1.0525846908330934,-0.6840482309264347,-0.700348751221601,0.9502578530910049,-0.6272082591987523,-0.8046463146700148,-0.6162771858403787,1.4758091680185785,-0.9716174881588604,-1.2935231207987925,0.29769899074984496,0.5903908758027568,1.3722467685649251,0.7399626828820594,-0.7680961410228161,0.6702841843500522,0.5798042813529245,-1.6666104660687342,-0.315796465703043,-0.3333333333333333,-0.03508771929824561,1.4385964912280702,0.05263157894736842,1.7017543859649122,-0.7543859649122807,-0.47368410993826937,0.22742215559236986,0.3857996467839554,-1.2982365145382024,1.7200478204694278,-0.5670677176161214,-0.8355976883849268,1.0860648928209766,0.06022275748938999,0.06837901565385905,1.2603505527474164,-0.016975214238347094,-1.324090240414005,0.7006650476296415,1.4651825197690498,-0.5720343330125321,1.4842085641628062,0.06420517095415314,1.713754822466773,0.2951791495004645,-0.8587544230943759,0.8491470118158058,-0.8106031573991006,-1.1923935547537163,-1.1578947368421053,-0.22807017543859648,-0.05263157894736842,0.0,1.159104925944131,-0.966178943279492,-1.1042647989365402,-0.5108150358007935,-0.25111377540866703,0.3746197917528769,-0.5302658888672912,0.6269844511074699,-1.7529767938764815,1.017126292826588,0.24116130443842443,-1.4059637440029293,0.5229316172941314,-1.1034655440161103,0.04869625998608505,1.4669579102107981,-0.5013929498205881,0.9673269779337105,1.5646065284210893,0.6379657917645489,-0.19421906634083025,1.749900990495689,-0.8508122818179821,-1.6288344524117362,-1.1747775716612996,-0.7368421052631579,0.45614035087719296,-1.1403428238869557,-0.11836878990076727,-0.18853640559667206,-1.396143152196187,1.6870783407088303,-1.3003797043102219,-0.6945960874235052,1.21571860140667,-0.2694699184002738,-0.7617796302554413,0.26714396928434614,-0.15446659168069338,-0.10638241225979257,0.41246400316051146,0.6001112880030051,-1.2155574154399933,0.9562449811800128,-0.5405259724284811,0.7541434185504651,0.7545794910279695,-0.9342019928608282,-1.183408498821099,-0.2082155268106469,0.1271700152499533,-1.4595456379192109,1.0388447172759943,-0.40355365777070235,-0.38596491228070173,-1.4385964912280702,-1.6306625606639917,-0.13754312804059315,-0.37806406463622744,1.5680568402386716,-1.102664463449769,-1.1246805651869565,1.0790522691192659,0.16348030126505453,0.12009009769563356,-1.0602995638513582,-1.012990186262428,-1.4778177375165995,0.5743576602719738,-2.100716640897726,0.44147058894293206,-1.492031317330709,0.3810761318375662,-0.07698456247190191,0.9992291394603744,1.169480018351437,0.4851414992024494,-1.512367154870555,1.6244127625720415,-0.4788012094804941,1.3661366779017774,1.1751245132533044,-0.05263157894736842,-1.1052720448761717,-0.2935109265367332,1.3319423345899541,-0.1183980454354448,0.48518445212021594,0.8797727445451003,-1.055281441632575,-0.26355522618459887,0.2565798857078437,0.3309825215066992,-0.7801132399204209,0.8624307867434824,-0.833834455888424,-2.0790825387121936,1.1948573434924978,-0.5451807938029041,-1.1628489362294387,0.2876010292984637,-1.6007109875997487,-1.5691459481288965,-0.528280374288489,-0.2840456535084833,0.4430798012343857,0.41869716942328106,-1.113673108467982,0.47992109326203614,-0.1603774485031483,-0.8771932806677087,-0.2986466154618785,-0.2425565566641727,1.2783925018560907,-0.9218315437167169,0.2056139578073958,-1.0544967389590363,0.15463059530556297,-0.24054313970259902,-0.6563392747930209,0.5640222121201386,-0.9126772703404987,0.11460190712013076,-0.25826912747041675,0.4791671836218812,0.03047708472730507,-1.2227337549748765,0.1669998964539658,-0.161138368505533,-0.3646685993078415,1.4446185738508013,-0.3216055973529517,-1.4671341391110844,-0.18896003738835607,-0.4983618247051077,-0.9618222794134473,0.16054073933818871,-0.6552460175169795,1.157584889005343,0.422966718038183,-1.309847283826815,0.4550172460689397,0.7767853970970371,-0.11124547168553606,1.5846050996513836,-0.7018011442143185,-0.7504276602822688,-0.7812781300629894,0.10957088644243722,-0.16575672653164214,-0.6962980451858929,1.018199131370494,-0.6945548102999748,0.5333407359462176,0.21943992659430384,0.27405910836968056,0.4310400598550853,-1.3258412937247626,-0.9865755481812808,-0.6794321288150322,-1.3563864723728827,-0.593064179819421,0.056734321488240064,0.44624381585653894,-0.5268457121844163,-0.131126588422697,1.385964803949311,0.47453776420771904,-0.7293223843929498,0.5101636896707707,1.3445845089755768,0.7502987980909296,-1.3395446202658754,0.38329164420234163,-0.37756076315852827,-0.6586883129629236,1.5047325433072287,0.5843951053339653,-0.5180974478405456,0.25157658486172696,-1.1497750377160818,0.9021703384187815,-0.10527437826744877,-1.0716251040217644,0.32099805658323693,0.7534872307129571,-0.6557208094829178,-0.14525232712279865,0.7030752370314514,-1.1578202405718996,-2.3763641893202943,-2.2524194921040896,0.3957117577445001,0.42199117886364523,0.4736843943906222,-0.14019254861796304,-0.4027262787748556,1.792284766501728,-1.15644570741084,-0.3803036895947904,0.05604973907950673,0.6977844488288186,0.3160817006390295,0.43870588641099356,-0.9238588643560941,-0.19965599088224573,0.6052668264986366,0.26353465534662135,-0.2662454837452789,0.6447123487883082,-0.01465491086872461,1.383884258739317,-0.5586277565711838,-0.30541198269447284,1.7496662710203847,-1.045728398383951,-0.5793007253313316,-2.052857109608923,-0.15379977785614876,0.7569062589759746,-0.30767362583879315,-0.7118360159890986,0.8245614533059021,0.3685433880879278,0.032768861071134726,1.760121526110569,-0.6150690830294581,-0.6848257975416306,0.3134472959478359,0.12743589151530862,-1.1762248571234681,-0.5350531399208214,-0.17111214424367308,0.6189754306987503,-0.8458924570202249,-0.21135731641906183,-0.6841852567995589,0.7662509842004932,1.2970319441169036,-0.11335513709804486,0.9715599509491744,0.4853708861111934,-0.3484631915347029,1.8355188047437763,0.9477782451971654,-1.0485328817857467,-0.9878093176776331,-1.6517496968873757,-0.11210870058207933,-1.0353499413458385,0.6491227863563739,1.6139239637766025,-0.3043784168003999,-1.203917219477413,0.6996300539119714,0.06004347286796411,0.9869161175485925,-0.8231280460741632,0.829140532789845,-0.04009412594569646,-0.15633815267446122,0.41688002813920144,-0.5324863640603485,0.026858405705552063,-1.6013126206061437,1.1319512494138908,1.392441914370658,1.0990420978218307,1.513208907160525,1.138863422506032,1.6370365243243126,-1.1141023157241177,0.3993720623292078,-0.2623873165124284,-0.7814557399393253,-0.8364637535198037,-1.5990312919999266,1.4222825791081941,-1.052650340418845,-0.983171605691982,-1.1135892854098854,-0.32224993173358035,-0.9561531989660765,1.089129039052857,-0.9023718499918282,-0.34185001021054595,0.19165804197413053,-0.6055664030219878,0.9768872020021234,-1.5802524219192122,-0.7490826214405872,-0.533509922222329,-0.25944312624205756,0.806148599857293,1.0919333134367888,0.996376050449229,-0.30609693904202256,-0.4018007143212859,0.9554439584478129,0.5129641611934646,-0.10264750163098164,0.035169233753360556,-1.754968659731668,-0.6901719999821424,-1.7086952494969687,1.2530718553847262,-1.7548776333190714,-1.490766104721799,0.7545069243930123,1.5237026774566722,0.671111177081877,0.28584274015544897,0.23999644325890385,1.627183156088832,1.27276104561456,-0.19978392054212804,1.1359772283792366,-0.40697944803474373,0.763501852568978,-0.9539698885492396,-0.8498383651879312,1.7532544353586461,-0.33190200284435123,0.8690721551938733,1.5207879585048816,0.9185153591167637,1.6248155657311454,0.2256243655831121,0.9790908292618208,1.4398129369580537,1.5927629737208535,-0.6791944180345937,-0.34344526659955127,1.1923235222305257,1.0525011246486093,1.158024829651962,1.1423738951309992,-1.4612892091589709,1.4479194440420788,-0.7653997291793067,1.0263081462128694,0.45941274905427254,-0.4464278400576063,0.08474224721832349,-1.3755061788881915,1.1282620155035734,-0.15146308341129003,-1.6747679698600335,1.0407278177029236,0.4457595677642623,0.9237460402625638,0.9688010400251368,1.7906127765550148,1.7888406744218908,0.9868553001398739,2.210569070940642,0.24568898600209155,1.4937366176689366,-0.5340009032734054,-1.1130995018230427,-0.20875249011636074,-0.8657062455471038,-0.10508867519984816,-1.158165315190924,-0.742789980243717,1.4637483775963513,-1.111742952088131,-0.4689758303431624,-0.7873829049106633,-0.32422649763512845,0.07940966423011289,0.2870257947166284,-0.16932462982485344,0.7857262894612325,-0.1382282753090292,-1.1914632280596789,0.4301913372895724,2.2377460360647854,0.3572699509207156,0.9610088539729764,-1.1247658871538848,-0.26889515490035504,-0.13065346653868737,0.4260919888258263,1.0672088385798777,0.8452632917600005,-0.32976375079594256,0.22519558704046955,1.3950650074061104,0.4110357049734508,-0.5263157894736842,-1.578852152420321,-0.432907303109278,-1.5100923198308431,1.365229223391741,-0.3135250731058127,1.9302188859845077,-0.6346393373515573,1.5463300086770468,-1.1569423036470128,-0.19618413819889263,1.3512721159515735,1.1082530288173926,-0.6758751844769635,0.22206492994045304,0.16447862266188987,0.6436448772196263,0.048093094485450516,0.5631614744262214,0.044440916797278546,0.9583316393575396,-0.7836539747826191,-0.764712036238827,0.43012453757620406,-2.0425840983142285,0.3950910045202051,-0.15901233119325622,-1.4625320819135965,1.280665854683673,-1.7017167169440022,1.7517636701158241,1.6423644281390086,-0.43074515739834146,-1.739333063979508,-1.868111972386497,-1.0944790343588326,-1.0695535859789853,0.38508248564804287,0.7373045739901363,-0.6165917875340844,-0.7811124009825542,0.6229852380816875,-0.10924409449902352,1.0289644663733815,0.19820619932936304,0.25630999500760604,0.31743778325109223,-1.4801319596200184,1.2860145747054723,1.4557797803230113,-1.9895499418984293,0.275231808843459,0.6039363338353879,-0.7854740387928415,1.10995259070105,0.4023891563362492,-0.17541128474699377,0.017573957864724255,-0.8658040482771902,0.3545887064375252,-0.16319438188777685,-0.46229969989020886,-0.20637477802597232,-1.3918277869314795,0.5655924303069455,-1.5090102018751037,-1.1845346934594123,0.43973706046972105,0.5811371462781251,0.1877915084259785,-1.3387790302832168,-0.8237559264138293,-0.7059495693595166,-1.660099574883642,1.1429193511295093,0.16329458173510605,-0.7407821102471108,-0.4167231386494303,0.5565217743339156,-0.7610768668901203,-0.2331357216733856,1.529436600469663,-0.06319471258919394,0.7013681900007387,-0.17543859649122806,0.08782464973208812,0.7476123916035419,-1.643039395193289,-1.706600774936538,0.448145797783011,-2.013654743336056,-0.08553619682582844,-1.7088946367552864,-0.8176363858154577,-1.8692829941901774,0.19039835821901832,-0.590171774880445,-1.2414239082119722,1.521809439609564,0.3825789772429064,-0.2893256469987683,1.0953549105652391,-1.303965742363033,-0.45451226169335296,-0.45824093036710756,-2.383172603615045,-2.2270900415237445,-2.142551592917654,0.2099637627221488,-0.44526033455150504,-0.025778488126664265,-0.7718350483898629,1.4736838431023327,1.210162848709945,0.535773087454306,1.2309940398046562,0.9582598017274655,-1.998998630138004,-1.9126355871216747,-0.3856024432007742,-2.5132635682120616,0.09164053413411152,0.19401843648733844,-0.4170994856875307,0.5912749022708467,0.8408172603992731,-0.3137958891654632,-0.014636796897853846,0.9573605207664717,-1.3753758412151693,-1.061452770420939,-0.254844541536495,-2.1162227387831356,0.8265341308792653,-1.4070966626837471,-0.40172547276804826,-1.0567163121286287,-1.7716422495409685,0.5980609879317591,1.105206104190734,-1.4385968471700545,1.1227660769302075,1.7037665575556669,0.5369564135113303,-1.0261643986009346,-1.5023562148874317,0.31581160331674707,-1.3142928281843727,-0.05463063662513699,-0.23338857189013626,-1.5278884730345985,-1.7837507238854884,-0.7821694288069021,-1.8921518026997786,-0.2557506808026419,-0.9084525207867885,0.3442213098007608,-2.328157583298112,-0.3224036829505689,-0.5409834942774358,0.5159908458943937,-1.4658524199978509,0.3867761677933159,1.4706957677276475,0.2980022324213985,0.2893367593952214,1.6314187045895534,1.192877126225267,0.15789473684210525,1.3157894736842106,-0.6828636828313539,-1.5062260260379379,0.24792919693850543,-0.9771414898478672,0.3991675688942234,-0.044076954504254875,0.4980971114845382,-0.9716630414040901,1.2651850373419316,-1.6372413779901624,-1.4819733793818637,-1.2780997104789162,-1.5784966711828856,-2.010691235772114,-0.9424176023733797,0.9369816804219622,-1.128575980379267,-0.7449145134731474,-1.5052505895035395,0.28693555734137577,-0.027626822452178214,-0.7118548868965354,-1.376913721577212,1.0461366885616792,0.6146347241421922,-1.6666666666666667,1.456140350877193,0.0,-1.606452994020623,1.3814362177489679,-0.020762424465283667,-0.43070675565396127,1.660158540500934,0.18884732785583813,1.3990439387773328,-1.3262501149151775,-1.0596331525605742,0.5378139600636634,0.2501561430064839,0.21810106184135877,-0.1724861359665579,-1.5423977942572693,0.17428217401987833,-0.030622629573365492,0.25471948927367355,0.2487079693742629,-0.9370754919109381,-0.6977164843050518,1.5717846098917376,-0.7836741674212442,-0.8765553374200544,0.024316518699720617,-0.004019614420195864,0.03508771929824561,-0.3157894736842105,0.17543859649122806,0.509146355954475,-0.20620593673552218,0.784414797216206,1.7360251165897735,-0.6928385072640278,0.5688948746357992,1.5907556156027511,1.2304586015721095,1.1102211148036232,0.7858616307302535,0.22799502111905964,1.5911616075034678,-0.707117513523903,1.385748158800013,-1.0249385109912112,-0.820375599230432,2.2155818930702513,-0.4115930476606721,1.187061034520436,-0.21004052355416053,-0.5750471149780074,-0.882350351468941,-0.6737351713070905,1.5052035398835926,-0.5130376627620501,0.05263157894736842,0.38596491228070173,1.6842105263157894,-0.08771929824561403,1.6842300830293022,1.3809335391267357,-0.33877942438323566,-0.5069659696709354,0.31186709612566765,-1.087248514668116,-0.6915183013444562,1.770399376766163,-0.7221652610995697,0.12300764664101398,-0.6397970057904715,1.9105238163825127,1.7504546756798864,-0.3360416068599416,0.21806861036729025,-0.7583093257914357,-0.006779338182625252,0.47127655860066564,-0.20810017177771406,0.9284809688221953,-0.5789728151849858,-0.7719398403256836,-0.4035092397994534,0.6140350877192983,-0.42105263157894735,-1.3508771929824561,0.8421052631578947,-0.22807017543859648,-0.6140350877192983,-0.9648424361583056,-0.56122361692521,-1.1399079729125827,1.5095217242229384,1.6166359184883474,-0.4478557365060549,1.1085646376800813,1.252382421835693,0.07307962088513394,0.30780926573526346,0.7478281929380893,-1.59875968230238,1.4212685123907813,-0.4694435862346252,1.2689896724240801,0.5318472357581016,0.04980529662652394,1.472110871537746,0.033275073680829444,0.002745248453496691,-1.631578947368421,-0.5614035087719298,-0.9298245614035088,0.3684210526315789],[0.8947368421052632,1.5614035087719298,0.9824561403508771,0.3333333333333333,-0.7017543859649122,1.2105263157894737,-1.4385964912280702,1.631578947368421,-0.8070175438596491,0.21052631578947367,-0.21052631578947367,-0.6842105263157895,-1.2462967392415116,-1.019726639458842,1.0694099451598829,-1.193014351700209,-0.24561403508771928,-1.1228070175438596,1.1929824561403508,0.7192982456140351,1.4736842105263157,-1.5263157894736843,-1.0701754385964912,0.3684210526315789,1.368421052631579,-1.631578947368421,0.7368421052631579,1.1403508771929824,0.6666666666666666,1.6140350877192982,-0.17543859649122806,0.017543859649122806,-1.1228100750445429,1.2631489145122952,0.4561474693926544,1.298387651509807,-1.3318334037258273,0.14201514362744114,-0.8550168785981154,0.14381426143851322,-0.541480541012244,1.1870849916818629,-0.5594275649481386,1.15096761444386,0.9892206423590266,-0.3363871530375352,-0.8428770265025669,1.4308111231265497,0.4198069211392033,-0.7896559080109309,-0.6841253580769827,0.8773031720989249,0.9473684210526315,0.3508771929824561,0.6666666666666666,-1.1754385964912282,0.14035087719298245,-0.42105263157894735,-1.7368140861879329,1.3333333528108593,0.5966164061874333,1.5791200879668001,-0.15630724483403868,0.3717264027660357,-0.5285799713934549,1.6311429996116515,-0.8959626430553614,-1.1336984836175457,0.02626849758851497,-1.104214495370701,0.22422887974808814,-1.5520005008842137,-0.28207356539771455,-1.1135389391191786,0.9849165621447484,0.539074528047367,1.3395186652447575,1.2882655481998848,-1.0226839832480186,-0.099628740226567,0.9304583905814429,1.1227950936066675,-0.49122807017543857,1.5614035087719298,-0.5789473684210527,1.6491228070175439,-0.07010288824946005,-1.7194916049775142,-0.4735926929394152,0.6389097944105383,1.1658534626118127,1.367698414116044,1.242816559972354,0.7028316498229277,-0.6703717845768827,1.3122672462214875,-1.445989805123448,0.8840388634145866,-0.4933434749165398,-1.1507255439808357,-0.40939555905001274,-0.5929266905728842,0.6698792726556005,0.8529474345076651,-0.8744054244827334,-0.2601298687297833,1.3719174545754125,0.45846858322108813,0.9423848449425569,-0.3879038855603567,-1.7542380894391603,1.3508771929824561,1.719298245614035,0.1403316397764148,1.3682344829269804,-1.1259943232232266,0.7081773208555082,-1.1990986230009506,0.2665952552816319,-0.7254769529613819,-0.6901538276861569,-0.17114673698296368,-1.7517123329550606,0.47848466258946615,-1.6969091384385961,-1.7581003177184606,-0.3189203493873322,-0.713300746408629,-0.6150815216342296,-0.7004579158531288,0.795031586237953,-1.0082289814000134,1.674487006802868,-0.24960127638410182,-0.7352275816769408,1.5588884875525375,-1.334778748006245,0.023227062903921077,0.8337075988660316,-0.3332118772739737,0.17543859649122806,1.105263157894737,-1.2456864320659948,-0.3196836041984052,-1.1399616398024863,0.7377236143610925,-2.0112432488557865,0.6692247482197171,0.7120835198753269,-0.22661412411476528,-1.5260207834190567,-0.4495768603951214,-0.4133578277459943,-0.13527337975608525,-1.1198497780444112,-0.440392773506409,0.9705053499360654,0.18895996340106255,-0.3941151668754748,0.0036406051616120617,-0.8769427314776754,-0.08412474801605106,0.10320567166525833,-0.8386572232493263,-0.24330198036449022,1.3520261228307346,0.5109622925937191,-1.5629347553420911,-1.087719298245614,-0.42105746406293265,-0.8096722828985209,-0.8089434100761594,0.6716536125683682,0.8941957183004059,-0.12891482015276162,-0.04542508906313565,-0.7142789103334667,0.3619834979240468,-0.6728872136710815,-0.009235975533051612,-1.2963902685737057,-1.00941217813074,-1.4868842529879929,-0.7730710323100873,-0.6861305706812175,-1.1184878098007114,-0.7280736376575836,-0.6845946585936613,0.9411613988241067,-0.9733516211056936,0.9274072847996395,2.013919299030915,1.3349735194330623,-0.855498264799883,-1.4553027820718203,0.8390443933858559,0.24564919929480367,-0.33336636126712466,1.0343161280660174,-0.9392275757973199,0.9100038622443962,1.001285280302035,1.1477215287759877,1.1067816662390517,-0.9299981053863949,-0.5543541921917157,0.3364848457503885,-0.32792864313466463,-0.7142334882747174,-0.7110170512271544,-2.3422568044637853,-0.9915972988161281,-0.6416255787136109,-1.1000975387322303,0.43568868949771794,-1.0683962499884132,0.014865568214415864,0.41789583369869127,0.1739854447854298,1.0438996213874834,0.7183052935476946,-0.9582986937834428,-0.19598767272587703,-0.158238856033532,-0.8488323057569827,1.7003315178633354,-1.0081690876715041,0.6269620845698022,-1.6661140072312213,0.1868910516444375,-0.47572720010452085,0.3514855562620408,0.7914260823660229,-0.2253566236015285,-0.4203374759619681,-0.22482657164470632,-0.487655295165268,-1.385473072225537,-1.5964582667892344,-1.6879592600087365,-0.8231472980602095,-1.4833862195781784,-0.314722403634565,-0.4571321672047388,-0.24330943623648293,-1.0197920864003627,-0.3197005930214702,1.668006439626026,-0.627557904068884,-0.29973559678654815,-0.30759868810849555,0.08738059946186608,-0.4387242521819518,-0.5515184455307184,1.7436641004870557,-1.1634086226473404,0.9941751075556248,0.22898434054717082,-1.023925355584789,-0.2921827036694149,0.20030039390112772,-0.08101578383353658,-0.7407659073893746,-0.902396355240522,0.13727705945582833,-0.8556798706672989,-2.541072971798255,-0.11892086503692681,0.877047442651081,-0.019246410618606814,-0.10643893684841149,0.24122572004052395,-0.09316957341250441,1.0469552699077374,-0.39879671961058494,-0.1957682554277147,0.5830396501920944,0.2661249662379121,-1.678747652879231,-1.085182069954363,0.7015854350982987,-0.5682476853990566,-1.0305409059948967,-0.610308494606217,-0.08954163639752916,-0.4295853313166449,-1.0694218947121232,-1.164220574489494,0.9634260286751667,0.032525762586861816,0.09342342120932348,0.8737806065763771,0.058716127471004784,-0.7347465002357564,-1.5430257692568519,-0.7612662478765215,-0.26819652830259594,0.8060288798710047,-0.9651485817361652,-0.20247149603791742,-0.6295700912057957,-0.5384689161212773,0.16992168594950446,0.99533073537179,-1.346395699856895,0.14735313643930692,0.5669572026970982,-0.015460107235068382,0.4383859088003331,0.3550183955357712,1.6099673359614723,0.9010739117877405,-1.363435931059942,-0.4756666765146232,-0.43510820434097913,-0.27453985817084164,-0.6323246820195391,0.8187112407396632,1.574622410198066,-0.6502185118561791,1.1385612509263026,-2.571009000938821,-1.66921578613122,0.12498582027816928,0.33962855688571797,-0.7554723952060075,0.45369131853242317,0.13265865024151163,-1.5028502038868363,-0.03781253033248125,-0.8512543775618308,0.015812290513888383,-1.911404431609114,1.091712465860442,-1.0089855454826624,-0.3333357329074731,1.4035469948903283,-1.1633454951002384,-0.7133116848566812,-0.6026052845130416,-1.350716693966814,1.2100732325772994,0.8182570631518715,0.07809045107635613,0.16714488033474567,-0.3856102843111634,0.5850996753925071,2.045766047584059,1.6654560650351822,-1.3462201563071796,-2.292396242845223,-0.7171430773304107,0.9761174647652356,-1.590358715570368,-0.3694215282607981,-0.8239007778936095,-0.8766297005022639,-1.320158849297705,-0.8661354809272579,-1.026148866296956,0.9121709831612427,0.5282753615665343,0.36757568576787664,-0.11940471474862388,1.5263158444703238,0.9275019678212836,-0.10760360987595732,-1.4573640724374373,-1.1836949973936106,0.5103373409143185,-0.11450213888396431,1.643092636407745,0.10944977584033191,1.4683075695690804,0.8003691060693516,2.9243445797474465,2.220060136592475,-1.613408988122094,-0.08545088524321512,-0.9673790055575697,-0.8384528984062991,0.025369827092165422,-0.5117089932059815,-0.9957681791985468,0.23301011628725068,-0.06957343029965034,1.0629444734160534,1.7552044025692453,1.2981614964715955,1.6189672153907246,-1.4637971178928233,-0.02910973934017777,0.8771990541663721,-0.8094678236427263,-0.6502951565772002,0.7206421291593987,-0.10675732527476457,0.8330502478937714,1.1756822841398207,1.3900189038024777,-0.06116727036133934,1.6632408251358453,1.0531184403204317,1.9299211087750587,0.7639229212879106,-1.0599806390762396,0.29272973741415875,-0.7917582253191258,-0.1471468822097345,0.5750564852730196,-0.6739521590729771,0.44633343471608183,0.591316654425614,-0.48106648340581903,1.759756872790206,0.8317479345493028,0.596221442846322,-0.09228539074722103,0.6545067024285222,0.05290779377894121,-1.631573300490435,0.12264958803994733,1.351140272791021,-1.662982139660774,0.28094870400120026,0.36833769726510784,0.22320593368651973,-0.7143029780556805,1.1697930573001922,0.7513271393752952,1.4653367385407208,1.7993459452762592,-0.46550329915460953,-0.11866239822899487,-0.0780324316741323,0.0023685270883952295,0.6998344452294715,-0.7478291933205777,0.5125109481317018,-0.1630971302264234,0.7874955173021102,0.3964925064346961,0.2833002907567216,1.592088580176397,0.9939888663230066,-0.11093259650568821,-1.321394872375621,-1.715124597822702,0.5263366968786745,0.8770462126938076,-0.3403895203024905,0.9380914493863381,0.4349766986812558,0.22799198489928327,1.3102602337489258,-0.5200146318982464,1.1785102878947749,1.0096851413153691,1.3006697400901883,0.07464252784367664,-1.97924751700697,-0.35291442336491075,1.7700355039687437,-0.11196976344450521,-0.4164175091203327,0.9554927392603351,0.8105748239442505,0.45086319467419206,0.6176102657821329,1.5011493884695946,0.5938995936814799,-1.3418177948278087,-0.14325832034041838,0.945917983835987,-0.9274477963101757,-0.6205247956830647,0.8070175438596491,0.5788032467335428,0.1298806530364539,-0.1732973071904313,-0.058453803004607695,-0.3016898366255707,0.7882934932814918,0.04260625283344281,1.026990572206796,-0.29955062926400056,1.6398414677009365,0.19571106203996846,-1.7536704761769863,0.10651377965607503,0.12005995688994466,1.607044775376254,0.7016980490156911,-0.5300361394670119,0.9349398218958119,-0.7627123441780582,-0.4345610180535858,1.3348424309934277,-0.5721589341224207,1.0372159657566429,1.0577581365364586,-0.4320140876072715,0.7344547456444772,1.4544001270164377,0.9292444484559256,-0.2632060918932216,1.2268117609652691,1.1861240983392372,0.5342254414485961,0.6103871832024772,0.660020199795292,1.0663670162331338,0.6638450349940781,1.1399791209430155,-0.8569578131663946,-0.09686536321576239,-0.33170739646111136,-0.11062674844369458,-0.16026255656620533,-1.1717913378193727,-0.15000169877131783,1.0656406585863958,-0.24566805701390337,0.8858054595216097,0.5953681231240481,-1.0695665655342101,-1.1125156787591322,1.0146300638945518,0.42854421075337246,1.3715599578083657,-0.16958199626093648,0.665881385904074,-1.1929824545032062,0.002576412071156561,-0.33126772909534574,-1.8433845755434934,-1.0359613015512201,0.8331974351489618,0.25089126923895005,1.0479714045519202,0.9723410709053543,1.0579333283136623,-0.49340598467283253,-0.6016327618304537,-0.17185216267326256,-0.016954282269311952,2.0002783733652145,0.9731966894425264,0.9497723873915542,0.895366190729717,-0.6226526508617901,-1.0631814348889215,0.5417765286613857,0.47893646448084326,0.3758943886047644,0.8416784482468183,-0.4611747827061927,-0.6611475848591519,0.2569425805829925,-0.7018848927365865,-0.9298245614035088,1.4923764480047204,-0.5286584593389031,-0.22092351197487092,1.1543395601079545,-0.6181654774536353,-0.9758966478005775,-0.06135377718791346,-1.1773819714713116,0.051780934062337525,0.8210655805839979,1.6853269223842111,0.8190174252152186,-0.5977950655579525,0.45000993975719483,-0.25072771888044476,-1.4475301109018626,0.427916057331093,1.1311226399216672,0.7669993722207604,-1.9352330298412324,-1.2693685501086418,-1.2213720229919758,0.916975988411221,-0.1700322037951927,0.9882809953662209,0.3135256525012083,1.2105331296229478,0.22807017954471528,0.08767305348054401,0.12869754570272016,-1.7978253453304347,-1.520566770862891,-0.054760188748817655,-1.4624603011990889,0.5123140916778989,1.0001943898569063,0.30418081473502195,0.7077015715955433,0.961665365452816,-0.15254054755779017,-1.1134292861840582,-0.41748408486826877,1.280016937534681,-0.12461438574590007,-1.519385657488042,-1.1010695741357093,-0.4287700832342191,0.5655633229109966,-0.12754826826219826,1.0133459399449987,1.2263017037684159,-1.0508133076266701,-1.7742672056765305,-1.1461962905825611,-0.947368090995945,1.1052631618725393,0.9473677836069987,-1.722180971256192,-0.9761900884783835,0.7085680494288805,0.20917874731001707,-1.0218366650661437,-0.3048954135957088,1.087550325028764,-1.6114166999369846,-1.0141133531812996,0.8937565096860521,0.9366001563706094,0.8687486399055895,-0.6102385543960229,1.199011125095392,-0.05765054605602444,1.0479275035285673,-0.05790159802677869,-0.2092615881905613,0.8323137064188753,-0.8547107343515257,0.26454657231340273,-1.8735883630088233,1.6252854407756692,-0.8913593018893121,-0.947780272408818,-1.1578941275066832,1.0,-0.43859649122807015,-0.7896508514053808,-1.4547165712830037,-0.9071874881946235,-0.30307022121534455,-1.689382464507813,-0.7104744462394452,1.1143512794386452,0.9306639074181509,-0.5679297878158014,-0.2732437887062808,-0.37438078562463756,0.3023319372987687,-0.335802646350632,-0.5275984069632942,-0.7149681055894002,1.0688236357061656,0.7023394292481503,0.506175141308997,0.7831778659768817,-1.434308300506714,-1.6891962287580222,0.6977747023950118,-0.09230274622067075,-0.3812908740280637,0.6978084533285215,0.5263157894736842,-0.3157894736842105,0.19298245614035087,0.40346066226272065,1.0698066867767044,0.8804797123927829,-1.4658433616567692,-1.5387901633505523,-1.5846922908531755,-0.9282030852030101,-0.6135555599290966,-0.2438646319031241,-1.2865607452015095,0.36567569325385907,-0.47974924652940854,-0.4008592697481972,-0.29980766426522,0.39729201757408295,-1.617567369633042,0.21953316895302086,-1.4245022311725104,0.797246577154965,-0.3318587932759581,-0.5957004086784249,0.31242752416326863,1.5213787309626572,-1.6436737497061211,1.2102179993026327,0.9649122807017544,0.19298245614035087,0.6666666666666666,-0.07017796799817566,-0.035022802196073316,0.4923776625293868,0.892811288584362,0.9364435045721519,-1.0440913304737556,-0.9871732279117691,-0.9895182908619485,-1.1168308523082484,-1.0474711414388327,-0.7904387125261134,-1.2894299705107344,-0.4078825162676644,-1.4387918558963506,-0.2961109027762022,-1.2912488799196864,-0.3497716890866189,-1.3395412537952072,0.17979395731566955,-1.668133118562815,-0.5057992605485112,0.7653403508653953,-0.5079212367041585,0.508498204233255,0.5610763224338802,0.3684210526315789,0.7894736842105263,-0.43859649122807015,-1.1754385964912282,0.8070174213168326,-1.634495248940537,-0.11934490210713766,0.09314888172326492,-1.3251037373911014,0.12215525286440428,-0.5405344746343519,-1.4439487454599642,-0.1065079716871755,-1.888136802123884,-1.8926715054773615,-2.2903930400603665,-0.5598464268639183,-2.2507922463544956,0.2378610900420062,-0.6777332774142121,-2.0837113809691044,0.2239477135972633,0.015954951076606164,1.106257741248502,-1.1018337478140179,-0.6842068833041126,-0.10526244919879361,1.5614035087719298,1.4385964912280702,1.2280701754385965,1.5087719298245614,-0.9298245614035088,0.3508771929824561,0.3684571311529998,-1.227610367049842,0.9832175731260632,-1.1398693580224162,1.3485650346480196,0.675667894192119,0.5669725122377312,-0.4793682598271144,1.1366172180509788,1.5920551390078597,-0.24089014950528873,-0.7178311970640131,-1.5246204552132883,1.5095366779584107,1.5141311607772177,-0.11650883219095597,1.5080434209856974,1.38075750393787,0.994795730513488,-0.6675222316079155,0.03508771929824561,0.543859649122807,0.19298245614035087,-0.9824561403508771],[0.43859649122807015,-1.2982456140350878,1.0,-0.2807017543859649,-0.8596491228070176,-0.7719298245614035,0.47368421052631576,-1.6666666666666667,0.7368421052631579,1.2280701754385965,-1.3859649122807018,-0.38596491228070173,0.6315677862260974,-0.8772174215094267,0.36842105263128266,1.2105263157894617,0.43859649122807015,-0.15789473684210525,-1.6491228070175439,-1.2105263157894737,-0.7719298245614035,-0.9824561403508771,1.4210526315789473,1.543859649122807,0.12280701754385964,-1.456140350877193,-0.5964912280701754,0.2631578947368421,0.38596491228070173,0.6491228070175439,-0.07017543859649122,1.5964912280701755,0.894736841919361,-0.6842105268619172,-0.9473684212390798,0.9824571565791848,1.5592718586629501,-0.3874849984276385,-1.6145003663702717,-0.8946469942074115,-1.501139383538464,-1.685886991903198,-0.9705134218797131,1.2638843845961634,-1.4385483879029846,1.2799025120529661,-0.31579734894283984,-0.6842131420814783,1.5087715417625291,-0.7017543952441141,-1.473684210856458,-0.3333333336840027,1.368421052631579,-1.3508771929824561,-0.8596491228070176,-1.6842105263157894,-1.3333333333333333,0.8771929824561403,-0.7017543859653126,-1.7543859649189397,-0.017543863903504892,-1.7368420587946414,0.6491330022523208,-0.5614891488283964,-0.7479952709879594,0.8925390246204046,1.0960687872100512,1.111590785383253,0.7541798024349655,-0.2946587468887025,-1.3294287324019256,0.04537329885138693,1.505593850154631,0.09894514737354061,0.9801287564843113,-0.7198726848041308,0.24549911330334326,0.19297998251377282,-1.754386176538218,1.3508770660158536,-0.4210521185905621,0.3859652921873206,-0.5263157894736842,-0.2982456140350877,-1.5964912280701755,1.3157894736842106,-1.5070842937214142,1.1232088356120447,-0.33333329836377207,-0.6621422514618078,-0.3599123835443937,-1.2430433540935062,-0.04323731992537149,-0.296653789883666,0.535076859400155,-1.4854818128999927,0.9577239758607711,0.6586975004701354,-1.4267556524462979,-1.6920810973470388,0.8565921242909547,0.4559766562793298,-1.276615634149881,0.6725724239167855,1.3822787758832284,-1.1618996663273617,1.7349481111535194,0.3843686041251465,1.0350402999046124,-0.9298242169600103,-0.3508771924559729,-1.4035087719298245,-1.5087719298245614,1.6842105263155884,-1.4678980295887758,0.3697284903003041,-0.07011065315016791,1.7079736226210855,0.5051635246511592,1.4993780649173452,-1.1666353246394858,1.0160211930758634,-1.2313365202263225,1.6610220875258306,1.5454974540300235,0.17007705178525304,1.0004634456915575,1.052582038881745,-1.1325475663343183,-1.3366409279814575,-0.930164458404516,-1.6599856645349849,-0.9793874088268112,-1.4570878120222526,0.8715054960375096,-0.6576467064494128,0.18788040662972333,1.029956948105592,-1.3194718000130268,0.3683370611797053,-0.2631578947368421,-0.6491228070175439,-0.5255121309701561,0.31597038192145394,0.8067360065661536,-0.08449567196417461,-1.1069745059739537,1.0909928008570078,0.97063573646621,-0.0313623363568598,1.103255486087934,1.4409560818348592,0.8980714122675707,0.5558155098845842,0.9559651386776074,-0.7429327598742095,1.7343719556307233,0.18451698368752245,0.032176299720338856,0.6030587817826744,0.014230622158563872,1.766088620437785,1.0871545142315906,-0.6405210556877152,-0.750082410423411,0.9264278371759572,1.0874129212226666,-0.6140378089093574,1.3508771929824561,1.1929824561179674,1.5402666339736493,-1.618498705655956,-1.020700086648915,1.6459204225890187,-1.6101049657861768,-0.401650651077623,0.7536045280769121,-0.6285121224686155,0.4922255316718172,1.4424884300702046,-0.12306910642729799,0.15039100471247066,-1.3116048013399897,0.08617149919132694,-1.3492751070013769,1.3643267586789922,1.1664485620700107,-0.40117582529632334,0.018887833564598538,0.46231522573292827,-0.39959523067013886,0.09812836352855832,0.8982956446691555,1.28614047108036,0.3527614272452922,1.0702576166276379,0.6666666666674798,0.05263157922436011,0.9453613836991339,-0.14321422878483284,-1.2493632960379162,0.4728645752316438,1.1183428877394264,0.973576169997316,0.9307163747869841,-1.5832989062002867,-1.6529370861886035,-1.6145930976472758,-0.1946009548910026,1.0196781418967091,0.5720831868111511,-0.22471481047071332,0.3576256691095918,-1.693553728496187,-0.08717949715006053,-0.4055673520916644,0.11984473972118169,-1.4232495839882873,-0.6193508101219078,0.7958141229295044,0.19310212338104402,-0.5040126559251433,0.12416840840812236,-0.9820755239349073,-0.789473684207222,0.2982456192525962,0.8069405424609813,0.4913874006946723,0.6342036766843023,-0.4257151705863908,-1.753973040832855,-1.6872557588025456,-1.8541378005815066,0.15147729658432008,-0.6026626514576429,0.40776766729403674,1.4091930179319492,0.4082735544770581,0.25037481387108107,-0.9983088954509445,-1.5935902501900467,0.41789069786886873,-0.09904662045503784,-1.3026046025209788,1.2816272782863307,-1.442764670495582,1.3699431373394593,-0.11236451017669732,-0.9432589238744031,-0.9091742097470263,1.633407794447232,1.7373849924389755,1.0175437993758785,0.15789455240322403,1.2283231806385364,-0.6131201665962087,-0.3984837432694869,0.986810713879627,0.3762967387701414,-1.1397391846817777,-0.6131486019609299,-0.4809390352653292,1.0540113491753211,0.7132204749977025,-1.5461872931314509,-0.4149718008213123,0.6969048810123006,1.2692783549280755,0.6957997080896419,-1.3998279747747575,-1.1660440641457577,-1.4558434242773866,-1.1096928411214668,-1.5145741576208562,-1.4594938042734897,-1.4408389964189527,-0.07049161985042429,0.33500598314333746,0.5794782512639431,-0.22805530170855345,1.1929823860362054,1.4561421147223805,0.5967889740259652,0.673142553186424,-1.293725571818498,-0.8430247238137307,-1.4151100006851032,0.011813935425393895,-1.1734417769613072,0.1753264275740766,-0.6030028160113307,-0.577750787470813,-0.740837295713527,1.0693196760971941,-0.3850069303252977,1.0650050116246266,0.3503712631831139,-0.589189186380041,-1.1081035776285506,1.1321289172054525,-1.5331946387080064,-0.21284666899803178,-1.740308719811268,-0.6055744734945251,-0.0914193776663225,1.4036775419788852,0.9651608704688247,-1.3859583695431263,-0.35087720024037816,-1.05262142095096,1.7017927309125314,1.3383855139449674,-0.17441224312637907,1.31280917468828,0.5546069945041106,0.6990538182846082,1.6877270617282072,-0.2842638696661212,1.1376172779181377,-0.6240899059652358,-0.2878932264019385,0.03886558752714233,-0.6689982124175947,0.9043964409702585,0.4265888236766715,0.6482763617073869,-1.3977604012158718,-1.0481348278750382,0.23217399393320945,0.5667052697851539,-0.049528336399404085,1.3028535455449235,0.5402581763390536,-1.7187857485015616,-1.2988626806947563,-0.00038134894803200603,-0.929824559008391,0.45614979656696336,0.2632845293423536,0.8778151753128981,-1.5332038910817036,1.3992472256726618,-1.798376945087966,0.22376569760898268,-1.3903632348185095,-1.2065642690055702,-0.011228725007503527,0.671280200011863,-1.4673887706712119,1.4474735125183638,0.16691995027633968,1.2079605098688035,-0.9192222864534798,-1.7337807107972927,0.6258829730811099,-1.4152443175419622,1.3122879501967968,-1.2479064701019,-0.10452083147623435,-0.8172185454178036,-1.246692151086127,1.0646935400287725,0.6940829883555638,0.7893454092453754,-1.43856873631758,1.5789484947781023,-0.6841596484526509,-1.0353650313167964,-1.3236629180117923,0.3004786336830258,1.2938055022943398,-0.566709274428406,0.17206642427053742,-1.6748949009582632,-1.023159799525067,-1.0083520786915194,-0.1493440147999935,-0.038493028972742455,-0.4992950762556126,0.5650145135592931,-0.0097681996630201,0.15761379476641998,-1.8770601715311983,-1.2973811543416165,-1.2447885598374242,-1.5590904727085888,0.9704777152886203,-0.7115595385620301,0.5711724974502125,0.6546751038205999,-0.7773533624711819,-0.04890516164943627,0.8421054165499074,-0.3859644758944499,1.631518556517414,-0.0009653668327306567,0.6852495290871423,-1.5031601082581612,0.42300072637169295,-1.4674041027202287,0.5149522310392921,0.3345986665853057,-1.7904018521032319,-1.4102111778039408,-0.7047178857401389,0.41654031496906585,-0.6225777614275757,1.7400119893957038,-0.7311793398779302,0.09963465408225569,-1.236325517187444,1.2425070160826501,1.2544403258254886,-0.4379664876826,1.0685982172687516,-1.3853642667903847,1.461066826359874,1.6027076082150442,-0.048464600760713045,0.08776701967451629,-1.2456139616469921,-1.596491115701179,0.981570488154653,0.5820949005914086,0.8684880891759266,-0.5770987031157355,-0.7317827580517194,-0.9021876332361031,-0.43767812598144706,0.2884810021012299,-0.1975278072149595,0.553382253770069,1.6890768513529408,1.4712405179716368,0.9459424541063759,-1.489054094052123,-0.1317274115570299,-0.9060581843439269,-1.366913473045255,-0.5344270761571907,-1.1611211875897276,-0.09319010044489107,1.2345755614255043,1.7283358550897059,1.60832572300649,0.08881266130630845,0.21921317315261848,1.0538153675550685,-1.7192981129567642,-0.6842078186575179,0.7529105019922628,0.2841690637552615,0.42925672326871994,-0.13250524824517956,-0.7140477788882534,-1.0065716340834903,0.7038116353951956,-0.723885911552597,-0.1339564721216573,0.5238975383694379,-0.5958305248745058,-0.7613512132028813,0.7256631827009806,-1.083464449038304,-0.7049387541890477,0.08734487413071974,0.7036228967389853,-0.986386035664172,1.1221911205047905,0.42531418967071366,0.05230861176774084,-0.7751539737542653,-0.9186374473121673,-1.1796835171561395,0.8033002310321193,0.6319672265842577,1.5087719298245614,0.14035280862082994,-0.38835985572987913,1.2988173371088152,0.021170150341737262,0.44783166572122834,-0.25806460114982105,-1.696061635875074,0.7339110568435145,-0.4604288310529995,1.2252270085739674,-0.5540518127416827,-1.3987100088262547,0.645021354626934,0.5026727166276851,0.7826215386880837,-1.3177104565229674,-1.6535621260047708,-0.9214718752335169,-0.48764045591787364,1.573494835804384,0.4228491340411482,0.20863385209543422,0.9646426525699977,1.5475145512455848,1.245253468378475,1.5610841796640171,0.4761706399875006,1.368421052321064,0.49122809509872295,-0.651101912355022,-0.8630423464850597,1.4037309461447822,-0.7124549970788355,0.09559183241827897,-0.39341445722542495,-1.3005223224078264,-1.118774091170746,-0.44716257426629236,0.2415594786959888,-1.2019899947451274,0.4423268789069141,-0.43722183734279396,-0.9736804315902692,-0.2008684704526618,0.2717718651062623,-0.2784892530418214,-0.6254133790051878,-1.1881208871186235,-0.9970348156884131,-1.66554689052522,-1.1024167552924682,-0.9706996150817547,-0.3725287987667832,0.41152695541473494,1.0196210266116665,-1.3684210467306346,0.7193059938328606,-1.3694564075788744,0.6465824891362766,1.1545005965714599,-0.9679073183648367,1.706325229116701,-0.11565927713069672,-1.3088504336484736,1.5267184717988869,0.9599856979749783,-1.0451144043524165,-0.8985904213546657,-0.08205386242740749,-0.30619687558074554,1.0356462948362404,0.0969948280753077,0.4359887910003546,0.5516644642877141,-0.1310338032394095,-0.239130954362023,0.9941521794243658,0.7258087625856289,0.07006800688737683,-0.6441851249155229,1.3629753576533072,1.6624160155740912,0.19407281448231445,0.7017543859649122,-0.8070161201489496,-0.15793351661083962,-1.2111478507796174,-1.4933897611279818,-0.20105181471600536,0.01605440809834638,1.1480223532258464,0.029620914098751998,-0.25290724011425675,-1.2876780634119172,-0.22526844696107245,-1.0184789495878694,1.4735519169997873,0.3992687966297388,0.8334628307359548,1.0691293082471531,-0.977636448535162,-1.397651179487234,0.06366177367481399,-0.9991240431273407,-0.5089185371384088,-1.4579489628563422,-1.3843489863982592,1.174201208212158,1.6016857675666354,-0.683550395043486,0.7017549526726219,1.07017597744901,0.01754397468430714,0.21045438133167596,0.1577853770705579,-0.7038712972882132,-1.1659055752650658,-0.09516883356293171,0.37831615553275755,-0.968661078075956,-0.08849828929970555,-1.400854650489326,-1.0180895733320285,-0.3559512347750055,-0.32337709582043755,-0.9852263310880467,1.3119348412265845,1.551383948505951,-0.9774567641312807,-1.2662313378552872,0.5594559440921032,-0.42254193187460354,1.5706337342085392,0.9098776782259719,-0.9344938878921863,1.0755795897785414,-0.3468917005108089,1.0591168168742449,-1.5263157894106896,1.1403513992063603,-1.4385963368158097,0.5610532990853788,1.2628997273779219,-1.5956903199036885,-1.081225893693988,0.6360965259356016,-0.0531168684137465,-1.6910814870562558,-1.1128715034231629,-1.8766076432476424,0.27968544890454344,-0.6396777806371019,-0.29286778770725236,1.0991861184852594,0.6162205968348623,0.3410181451347135,0.557714616441861,0.7797372391474694,-1.1942988448576717,-1.2942031286700744,-0.8634704209138588,1.5111291268794942,-0.7230481595076261,-1.4040395725840704,0.7229085306485774,-1.3684027901797895,1.1228070176601572,1.5964912280701755,-0.03508771929824561,1.578487786242094,-1.5790760444116796,1.6181088086638393,-0.7702550629236178,0.3155939191052141,-1.2599038068532376,-1.671886255699963,-0.3157455677352094,0.9609679218033583,0.788770691124582,0.3858461795904359,-0.4746285918522346,0.7678221867112951,-0.5317192213838062,-0.9476474601110604,0.1427316611799182,1.5657210031260924,-1.4006995261147814,0.12382651500524257,1.6515824624267232,0.34687647008839984,1.0095476973212112,-0.608018682033277,1.5266900230013332,-1.1576169783078363,1.2982456140350878,1.3859649122807018,0.5964912280701754,1.017537988937683,0.3859528626734506,1.0581895905851848,-0.40194835987890254,1.4554297001676224,-0.26020557503459346,1.2132744290482709,1.5985371331418758,-1.7142719805643916,-1.672421462047771,-1.3321987179552994,0.5534681675636439,-0.8543398454544298,-0.8799564663792373,-0.3042619715401193,0.010674595008543867,-1.3442603013736125,0.03774699264446271,-0.2458978164310209,-0.4251095016093484,0.6811069278076758,1.7154268018025371,1.2312364415463157,-0.2602323449757727,1.2460651693580422,1.105263157894737,0.7719298245614035,1.2280701754385965,0.9473682853040336,0.7367770074318817,-1.1772101336625869,0.7172050633406498,0.8064039622293014,1.7388665696635932,-0.41182779850853807,-0.6714874938154043,1.5545393046084488,0.5004524685805171,1.2951218155717703,-0.08774402734400184,-0.6084972126613505,-1.4209521662126177,-0.22985942750217256,0.3072293819377094,0.8132774046214264,-1.2501927966208017,-0.6864112285889156,-0.10530279946521587,-1.6669410466585906,0.1402169253746809,1.5438697198428575,0.12285312988023162,1.5439147719160509,1.736842105263158,-0.6666666666666666,-0.6666666666666666,-0.2982456140350877,-0.877192982456212,1.4210526315087177,1.3157893451350917,-0.10526084028254337,-0.5789063338258426,-0.5438437078926982,-1.5614088935930226,-1.7570002418975734,0.34240117425697036,-0.1906324389645179,-1.4182695669172742,0.09529422897231546,0.6283545755771459,0.3273452195365832,-1.3309079704837805,-0.7399628250209946,-1.456358256987278,1.4912236606359484,-0.8070122296061425,0.8947402344337619,-0.8421052142112521,1.3157894736894296,-0.9122807017543859,-1.7017543859649122,-1.2456140350877194,-1.1754385964912282,1.2105263157894737,-1.5614035087719298,0.9649122807017544,1.210526315789491,-1.2807017543855552,0.438596492382626,1.2456140360547916,0.315789473698673,0.859649151832037,-0.07009036449741364,1.4212071612402724,-0.8420640514571529,1.1581472877513332,0.00002069981920968401,-1.526272898304079,-0.5613356820324247,-0.7192936199850768,1.0175442804419796,1.403508768730139,0.192982966653579,-0.3508685204561275,-0.08771378341972409,-0.2807017555422041,-0.45614035087719296,-1.7543859649122806,1.1578947368421053,0.7192982456140351],[0.5263157894736842,1.0,-1.736842105263158,-0.12280701754385964,-0.08771929824561403,1.3333333333333333,-1.7017543859649122,-0.12280701754385964,0.45614035087719296,0.0,-1.7543859649122806,-0.6491228070175439,1.6315794398371533,-1.526304046800346,-0.01753199228286288,-0.6140345932457041,-1.2456140350877194,1.2280701754385965,1.5614035087719298,-1.087719298245614,-0.9298245614035088,-0.14035087719298245,-1.263157894736842,0.543859649122807,-0.12280701754385964,-0.21052631578947367,1.087719298245614,-0.3684210526315789,0.47368421052631576,-1.6666666666666667,-1.5087719298245614,1.4385964912280702,-0.9649122807017544,-0.8070175438596958,1.0877192952815273,-1.0523170358330791,-1.4402731741071786,0.8894738590171805,-0.22209308294981497,-0.8245615355142994,1.2982253081693367,-0.017563095902601307,-0.4899526849831326,0.6384488333411403,0.43511852442386995,1.2280657507310346,-1.438609915754892,0.21046082138934702,-0.719409679367292,0.4384905946181985,1.2806944237298576,-0.6315789473567281,-0.2631578947368421,-0.7894736842105263,0.43859649122807015,0.3508771929824561,0.7192982456140351,1.2456140350877194,-1.052631578947371,0.3157894656142252,-0.36842105272924486,-1.4210526316553527,0.5614033706580498,0.2519137296698991,0.5677526819149545,0.6182725578652052,0.7350910184097195,-0.5698130977331137,-0.24015336983010915,0.39955888235921166,1.1392560418745952,-1.6527654911520382,0.4246062589749535,-1.312164478664427,0.10924404894980755,1.5308491735886731,1.6244860234711143,-0.6623680175551766,-1.5977853455868471,0.75373611549828,-1.5440141605939333,-1.3508786384237976,-0.3508771929824561,1.2105263157894737,0.8421052631578947,-0.3684210526315789,-1.3859673016735579,-1.6491234386490652,0.947367895694145,0.08782624610187328,0.08977439807574421,0.9934400835675748,0.6806390849242877,-0.9172642603746856,0.3238964282975405,1.8314593239654846,0.5207776439854195,-1.1686828052426195,1.9794890914301422,-0.3167060959483918,-1.1237493729372958,0.30286976627568235,0.23431221557332674,1.487545666596692,-0.08383424970722982,0.4570046759802459,0.6350383867412508,-0.6334412374770421,-0.2840478654965664,0.9483622414118515,-1.6656280259784022,-0.14035087719298245,-1.1403508771929824,-0.8070127838726175,0.3333247071537383,-0.9647487438847343,-0.4553988629332776,-0.9398553460110789,-0.19049999678817509,0.5626038094507094,-0.3556057698162466,-1.3681432387901014,-0.3097769865026055,0.007977123718918856,-1.2271434665301255,0.4406487262973095,0.6159101699255449,-1.4608856962142314,-0.39689314743276377,0.12985765732836504,0.702992590615246,-1.4888213850780518,0.15511189014537824,-0.23762909744734595,-0.5738658809930408,-0.13684274161065618,-1.5595887730130293,-1.506854656155909,0.9905808603935828,0.39609172001432325,1.6666666666666667,1.736842105263158,0.7013750429084192,-1.1264393243269097,0.5958550620572018,1.4931196406373912,0.769479700275575,-0.9260182689124143,-0.08476584098677642,1.9976559098796671,0.4006746929138225,-0.3705481732989945,-0.6068678792881509,1.466083698461698,-0.2848409663789738,0.6924296036375918,-0.5895176677172569,0.41523961855024005,-0.25403668490453324,0.4224407194827872,-1.1738779666764956,1.0017673955148114,-1.8065871204194848,0.9066251394727951,0.3921961997768154,0.36512684395422695,-0.5610172796653692,0.6815006751841427,0.7017543859649122,0.21052700314040115,-1.6179175304508764,-0.07984980846247713,-0.12220804239598582,0.2130489190923589,-1.4627063200706996,-0.19882270902811305,0.17326464976450984,1.528686259609932,0.8966744915552872,1.8938961655552298,-0.9478837517073724,1.3994292287248982,0.3691508494522437,1.820244054632736,-0.4585579712542484,0.47079669707942434,-0.06612068975937087,-0.398976602891549,-1.230039803872795,0.8136285383145191,-1.705849967642267,-0.6250401674549003,0.023716346194115237,1.4316484573625976,-0.8257465923376994,0.2982406198829034,-1.701745905299418,-0.6653955015013509,-0.6769547535199949,-0.6002894541711508,-1.3791412641639498,-0.258119870243056,-1.069967322237896,0.4810503502489544,1.1830350130546265,2.2097056345759016,0.154633549855052,0.08894783555646549,0.9985366433211096,-0.7106254253782138,-0.8797951005066292,1.0859596401458673,1.3502041256529183,1.684643978762569,-0.08201519748390043,1.2747608191498536,0.3814487250634592,0.3052562001024459,-1.4544461197866942,-0.01071048627064374,1.552435823393207,0.033281062830860506,-0.06731604873209514,-1.049836362411597,-1.7543515009303825,-1.6611388629113215,-0.4887107002590156,1.62370012275432,-0.6644721049804783,-1.0453638984503881,0.20590818503086786,1.9316336643080332,0.8698164972239614,-0.015992819047965526,0.2776682733835583,1.7516995559279709,1.9425739172194607,1.3681551273629304,-0.5222883407872674,-0.21300445787715505,-1.2574016984697018,1.1658810887082232,-0.6926243043209402,1.7504662263648667,0.6071254324326356,-0.7317282692224465,1.8628895683621947,0.7465848065470753,0.05724805995449955,-0.34766311981041265,-0.2866138373836266,-0.12062898732026722,0.7195481653786197,-0.2721922366887715,0.09411293478004226,1.3326660339711325,0.6149169543735,-0.8697192635794536,-1.3795763502205147,-0.2371887401742407,1.8620074190107094,0.6776468129055889,1.9575460175924353,-0.308702039348143,-0.9899138635956507,-0.7947922803623214,0.6381284103298913,1.1275594911112778,0.25649105431886166,-0.25711696570768866,1.6481597602404487,0.29870034849631877,1.5171884121036092,1.6960676784739424,1.5486240501802702,-0.9147736114799767,1.3726428398546904,-0.35297056434806684,0.5183686181656095,-1.7215846049623522,1.5967771519677354,1.492022405983548,-1.3450520289627008,-1.1372515922191448,-0.6810032273222613,-0.8797673159976042,-1.2020454569585195,0.7816927334874777,1.1823726854054175,0.45459096282600225,1.034338880794243,-1.4197240641497408,1.1680750769609396,-0.8407176011280034,-0.8135311169513062,-1.9544440344733618,0.7205805359698051,-0.6329722427008164,-0.5265419076692396,1.7453576726627364,1.2687580175846747,-0.5932606730746929,-0.18498180145603815,-0.5117339028787136,-0.17866615423990437,0.08536498810176435,0.2797111785167385,1.2616454378439423,-1.3330555126656045,-0.9220504967507698,-0.8302576087973188,-0.9054758810448993,1.1525331878501848,1.4555797211501793,-0.37563657415006857,1.4598183002916445,1.2226900750865564,0.65918798166865,1.4046470705099732,0.19994512413572918,-0.9879687565468784,0.6411154291470399,-1.8707857441797815,-1.0984199950489115,-1.657575933611844,0.37494719799408477,-0.6459230421226567,-0.9513399280770748,0.6646589810015227,1.3833725973729756,1.2895213048719278,-1.2099616025407687,1.601076164210459,1.7758784751767807,1.5433454159830273,-0.22780220018275968,-1.6490436891571345,-0.26125341851343425,1.145012087178604,-0.9841298320341908,0.6679515366968248,1.1192492567136834,-0.5016351087245421,-0.7892122145804791,-1.0528221915587896,0.8356814858707972,-0.1695210774833761,-0.06853927421668361,-0.6381917362392502,-1.3076117389746462,-1.329571786271193,-1.5510424081577452,-0.41639252649677855,-1.2311387053216025,-0.9136697171749105,1.5464807995682546,-1.0927192912225483,1.1386112364102847,-1.2614182459222227,-0.9156702920493315,0.7615149648535328,-1.0480823957083192,0.762439387205267,0.17672090267127055,0.07013340881047937,1.5263910301743364,1.6350978399355933,0.27959121050181635,-1.3216943547957027,-0.2992812247973144,-1.4949377500510403,-1.1291737673698456,0.921504116292771,1.6547734200654487,0.439497729801759,0.7766730205296913,-1.4717522733985264,-1.2501457904105018,-1.403199538094214,-0.31981515932278604,-0.669847221102409,-0.6912913664094369,-0.02395207647174651,1.4941876139851644,-0.5684110047290291,0.07443040254620516,-1.2548017576089099,-1.4003078782070273,-1.4763349802852286,-0.46216196446219115,0.911704291890178,-1.0702129870811108,-1.0701754413807558,1.4912353200480775,0.4179096392019648,-0.5314375608805487,-0.8936998217057356,0.957009561251164,-1.2636040880114623,0.5657749132479241,1.7241133341347112,-1.0750324740437136,0.8471154649708891,-0.18978723469617334,1.1031626711689992,-0.7376152625663863,-1.1249952017579854,-0.9531032219135546,0.20438795200338863,0.1971345232579252,0.36279425803249327,1.7250525105192034,1.708484421192461,1.2120437717046484,-1.2025202910849055,-0.9956763179146717,1.7119196463703905,1.5552395951288653,-1.4328163527689326,1.3684205199973245,0.9649124684754838,1.1754386201024496,-0.6356590650908446,1.0125007189911734,-1.6969278833071024,0.5963235218770169,1.8262511421025758,1.2684528084757756,-1.4553305969593446,0.2364662294410891,1.005678865906204,0.744466836008312,-0.35553650702591405,0.39909687090299295,-1.6599917382705451,-1.5926648702278021,0.8001108953607536,-0.7990025556646798,0.9051093005952463,-0.3876568809897263,0.14633970171385088,1.6095382581663333,-0.41406971219458893,0.590409946421663,-0.9924245283242142,1.0294583199017118,-1.5933574444961087,-1.649105821743633,-1.5964901498679382,-1.3509437524500196,1.3480324266188077,-1.2961841765044475,1.7096038704343988,-0.5883612082537829,-0.7744487747652417,0.48979971895081004,1.457555705497516,1.2761060054101607,0.5860473382126735,0.38730239318487925,-0.8850570218616935,-0.06030767515657892,0.3765107743498791,1.024099152672325,-0.37868653832976995,1.7717322411332963,1.8375819769355362,-0.458222327690701,-0.2723891505564278,0.46234799333699284,-0.005324594139479834,1.0982758676677047,1.4127830757165072,1.5558589138776213,-0.38627562859584025,0.615343484652429,-0.14035087719298245,0.842092335626765,-0.5964749506411032,0.9117961174654041,-1.4042587159787756,-0.06217566195372574,1.0245365788628538,1.7738398308530114,0.9942983039633014,-0.23133683410149247,0.25373928585534206,-1.0163089227596986,-0.6485173378461192,-0.47121406668921045,-1.3684884200307168,-0.7481098281927027,1.9524134499476697,-0.007180705115998888,1.296134006891017,1.5172471392009519,-0.11155924077709098,1.8442274460662835,1.7013995816660703,-0.20835255850148313,1.23559576206816,-1.3132905261218464,-0.8622412450841958,1.6686279483773225,0.6913128026276264,0.1754509042463666,0.43932188039244296,-0.692098272110377,1.7788478373781145,-0.881416634088075,0.8082253681692414,1.861225583867693,-0.12794288626392966,1.29795541905453,0.645597970849527,0.15534162346654332,-0.6408759906075703,-0.1902780309689781,-0.0013715253070093508,-0.09428067687029916,0.7723248382457597,-0.45286463775771435,0.7916169925949365,-0.7259764308782958,1.3309128383196975,1.6451019495573083,-1.20443850171499,-0.30233866477769894,1.2896825831978023,-1.5274851913628362,-0.9233676423993779,1.102216815673758,1.3859648038562609,1.5791254328415087,0.4937973129044936,1.6390720836323311,0.7925492251994158,0.22135836884281837,0.6922798127876677,0.27235109069574026,1.1315579902373558,-0.31411228586334045,-0.30851035757207873,0.8175706773179873,-1.2097513832393796,-1.333386953591511,0.6582064155153275,0.08692475212205435,-0.6902039239316551,1.3378147290467097,0.43116467799230296,1.7966411288068704,1.3492216505994188,1.4652748733988772,0.5479977998366122,1.3819999132719794,-0.3839140276401062,-1.34023295253717,1.4958151921616263,0.6828314936953104,0.3333333333333333,-1.7367223146761237,1.4446087872395752,0.8312118519025573,0.726456298818761,-0.9016353197031018,0.22943866196137025,1.1311743673751402,0.760116633407685,0.28027361486823626,0.013247890839940126,1.5185998959525606,1.2668254596208843,0.7354701206628096,0.4522786309133655,0.45985561940673503,-0.06725757416045482,0.44876725085975155,0.13270462259424176,1.0864627216627754,1.840535634212452,0.11383634564810467,1.0536015868214375,-1.0414489741802417,-1.3400350571927406,0.17983263195156582,0.9543410459700209,0.12282079754216865,-1.5438620632622366,-0.17536420695138843,-1.4961390556163936,0.6144108016565399,-1.4280711424837311,-0.8659174667296445,0.4878787195993288,-0.6907702368404598,-0.41873762016531557,-0.6499007290853945,0.9013080875733832,1.6355769658202293,0.07276696283492252,1.2255878011077193,0.7708729667914692,1.336700972289669,1.788308966850418,0.4466154306441251,0.9437964736026125,-0.13684828297839266,-0.04946946363529141,-1.1749399994458247,1.6978829617412594,1.3240376920448058,-1.4147516813741439,-1.7340450021595766,-1.3482946254630397,0.6666666666666666,-0.4385988299256432,0.36843679496713566,-1.619349891137453,-1.0831883399075268,0.999796308556832,-0.47557923356903664,-1.6822952004973688,-0.3227950033305852,0.3590238107953611,0.387131310637086,1.417349672058224,-0.29612063596533167,-0.4180734183055642,0.9830671677221365,0.0860396051041037,-1.3365387650704588,-0.26609656431762563,0.13265140347301976,0.4020967240905399,1.0218422381878922,1.3339077008977045,-0.5650451230877496,-0.6024600276845513,1.7206592769256772,-0.2359206160793473,-0.6131253117457792,-0.5498752081166152,-1.2456140350877194,-1.6666666666666667,0.3684210526315789,0.4609862441184643,-0.9692550791045713,-1.2725478990225172,-0.2652872606309819,1.251709490450225,0.15228411065247083,1.120748133034075,1.0655498205451968,-0.1289271481387601,0.7552164047066858,1.5310798756945307,1.6811026157864504,-0.15574838643025113,1.1824978205190317,-1.3372676559209282,-2.0483651430686867,0.7094747635847432,0.6103429508898466,-0.643839129901378,0.7331252565287152,0.1783169807260088,-0.010468798604558006,0.6190147552947545,1.454476535576634,1.4926383084347032,0.08771929824561403,-0.8245614035087719,-0.43859649122807015,1.7017950333934801,1.4620323601699936,-1.124999730349819,-1.2759252873553695,0.008122275124486001,-1.0873077825159077,-0.27316303006606507,-1.071072308199704,-0.41787360360898196,0.21409492733008198,0.10804736079844014,0.5521758901115629,0.9014538673250991,0.773689629289603,0.7585933101362011,-0.48165683393831255,-0.3947691147791946,-0.14962961983763604,-0.12512400132398135,-1.500273056920258,0.7916209298765976,-0.8419619802686114,-1.1042958142349744,-1.491249929221337,-0.8245685527868472,-0.6842105263157895,-1.4385964912280702,0.2631578947368421,-0.8070167916290679,1.2153917140526596,-1.669483436703315,0.6236948186577493,-0.3487463457609973,0.044724834505355374,0.2672923644568661,1.356239013246619,0.7646599954055641,0.23666010507287993,-0.29904486542603453,0.08663777020305939,0.9778473193668875,0.3464475926299327,-0.32771063888805985,-0.765998886250602,-0.4124774634310118,-0.49516636160709965,-1.7106425316912497,-0.7339326890504175,1.3589264232847744,0.20279454443988623,0.6834123229904839,-0.684210533459657,1.1929824561965725,-0.43859649122807015,-0.19298245614035087,-1.3333333333333333,1.736842105263158,-1.63164397435296,-0.3160025072231363,-0.4291645433190103,-1.5068403365642804,0.2557250736815355,1.2646703056783406,1.255762310844107,1.1364610653082823,-1.060014643998216,1.542061644975602,0.06046418965463738,-0.25719147119314395,0.5469688303466466,1.4240728690702769,0.23612814656153264,1.2079028139049937,-1.4700400826235105,-0.22377336886242147,1.28203325470367,-0.44042536348912364,-1.3326505517794809,0.8596491228071381,0.2807017543883372,-1.4736842105263157,1.456140350877193,1.5087719298245614,1.3333333333333333,1.2105263157894737,-1.0701754385964912,-0.8421049682697573,0.10535272926204245,0.42121161988156924,-0.5261155947708583,-1.4558464379868832,0.07038432704559341,-0.9984232776645321,-0.5766131430849936,-0.800048902186807,-0.5705540616088037,0.9254407754813845,1.3740402929168207,1.4065458958404151,0.9674269903340107,-0.7900211155246001,1.176825114767231,0.3515724428635697,-0.42058814697684666,1.3687026417954362,-1.385964864302249,1.4385964912280702,-1.0350877192982457,1.5087719298245614,-0.6842105263157895],[-1.4736842105263157,1.368421052631579,-0.17543859649122806,-0.12280701754385964,0.7368421052631579,-0.9824561403508771,0.8421052631578947,0.9649122807017544,0.8245614035087719,0.9122807017543859,-0.9298245614035088,1.0,-0.20743259917610118,0.856354876736441,0.38687838747357395,-1.175400535024858,0.22807017543859648,-1.1228070175438596,0.7017543859649122,0.2982456140350877,0.15789473684210525,-1.719298245614035,-0.19298245614035087,-0.5789473684210527,0.22807017543859648,-1.5087719298245614,-0.8596491228070176,1.456140350877193,0.14035087719298245,-0.8245614035087719,0.9473684210526315,-0.10526315789473684,0.6316027695354332,1.157999918328097,-1.490067162176935,1.68729955418199,0.5714097869914374,0.8673176703597048,1.6419395497922669,-1.335995526870814,0.39723020236378814,-0.3141222702743574,-1.360173660895092,0.8178497305828747,-0.02159605968184081,-1.5480829579846742,-0.27489333211033623,-1.0782749521793111,-1.008250633560974,0.6608826091357338,-0.7517585493463177,-1.224474262567909,-1.5964912280701755,0.40350877192982454,-0.3333333333333333,1.1403508771929824,0.8947368421052632,-1.1578947368421053,0.17545788739935197,0.07033462976698945,-0.5260918336938533,1.1583970389453606,1.0106444435810846,0.27276345789910134,-1.3200292372391134,-0.36722727953727696,1.4280329890847723,-0.50549243512699,1.205647643386645,-0.08141143673452518,-0.5087754835363796,-0.16196124887138844,1.700774097988991,-1.1824522641832869,-0.9725381709032924,-0.8254356355864395,-0.3282300644900561,-0.2546948118596537,-0.6518170405518949,-0.6076793049297228,1.0963160519161648,0.934674901233017,-1.719298245614035,1.368421052631579,-1.631578947368421,0.3333333333333333,0.7181359800295618,-1.348484881233131,1.5268649524131446,0.37102217157568823,-0.7863275678057966,1.3139555207825457,-0.3547686477667014,0.24017787660835327,0.35126928788704354,1.1566040821399493,0.6503496017479332,0.6323657909899423,1.8763975566387012,-0.22793482912400762,1.3412608468129554,-0.9621287272463079,-0.10311775334427443,1.399104090389016,1.47933445422287,0.03837238884008077,0.7995227394350859,-0.30963709673844836,0.8508273271535927,-0.08535544399843416,-0.25034480333934606,0.9122807017543859,1.2280701754385965,1.228070165459983,0.36342335707050766,-1.584513952256584,1.2031055613428487,0.40031599660479067,-1.5349366163714,-0.2691149616060271,1.679077447512287,-1.0295240475591383,0.6544236022572569,-1.4355843195797224,0.5506215565097418,-1.1734681672777854,1.3676824775699714,-0.41807484655318233,0.7993001638686626,-0.09389715278949019,0.46328776668094723,0.4431385993621358,-0.4380780441204791,1.1991754689720162,-1.8248640065240376,1.1792599114310334,-0.5436516832796172,-0.9387436540490035,0.048732599761162024,-0.8948877241194282,-0.3157894736842105,0.5263157894736842,-1.667224421316053,-1.545798859008009,0.16220679698770443,1.1783553299228064,-1.516313195631906,0.67953308647527,1.1531265320245248,1.1742877335259094,1.123821883604591,1.1014755187101049,0.6076057038102696,1.565199388210872,-0.8136818978131827,0.27312036449603855,0.19533317472414594,-1.021441284805238,1.1713558095505994,-0.3726747049995101,0.3050402171424736,0.4076178839743842,-0.6796287948333151,-0.6938566172472294,-0.022945202942164723,0.9710805758202884,-0.3398218285880815,0.6488843240157852,-0.017543859649122806,1.0701754384159574,1.2800499329417947,0.43670504198694915,-0.4679562340717048,-0.6338909153342726,-1.3939339223169138,-0.447703827099826,-0.2262487364638412,-1.8135039128487873,-0.8023863123731231,0.2011751642702586,-1.3012950822593579,0.16914316726857592,-0.20068866618541215,-0.49023835748414957,0.7948463786296948,0.18782651761297828,-0.5040932278645607,-0.27889784756578817,-0.7131030066959432,-0.028844026126143438,-0.6468649737991052,-2.2400375787654823,-0.744568637046269,-1.0443515353970616,-0.14993061598553495,0.981236071600811,1.2280701750865217,-0.2982497228272458,0.08899922723200426,-1.0590563449459114,0.9328641793081539,-1.720752197016166,0.49864628182705656,-1.191486562109402,0.5738899478574946,0.9187840193428686,-0.05513587024537403,0.29166409349181566,-0.876727027626759,-0.6985044079727607,0.9956015023868464,-0.5028475974234639,-0.47507599331530725,-0.683206571677821,-0.13929042037626188,0.4222619033556587,-1.4307929778744213,-0.26708328095383166,-0.08921913151462071,-0.6296346489924451,-0.8834341708241567,0.557914030463831,0.08336186121929988,0.9917526033084993,-1.5438098751101859,-0.24492456130643717,1.1867617218006954,-1.6099146418565558,0.39162309872565715,0.9685448860651604,-0.43145066547416683,0.4397252001169519,1.0962124936973905,-0.34374697537767457,-0.06376849888682443,0.022505827971615006,-0.5212039995375459,0.9164094603864873,0.576613802481594,1.4198638526619416,-0.6253201075142579,-0.22102292120752545,-2.1891387378570983,-0.4321117261210586,-1.0099809580812844,-1.0653072680056817,-0.8481235115881317,0.03153341972161673,-1.8120686753076367,-0.5154504875256858,-0.7882381362162185,-1.3943020827606052,0.42104678530157064,-0.1056360241629789,0.28398856682425483,-0.8481090628211023,-0.8774609725201177,-1.1646971066923182,-0.33511590242267175,-0.41342801001507257,-0.30426084069216286,0.31693331731879043,-0.6222061082625112,0.7445687434246734,-0.46378463036942463,-0.1248027826925411,-0.9185535582977677,-1.1647943754429142,-0.5184317655037192,0.6666257394122557,-0.19298187587389043,-0.45368215283145064,-0.574032858129485,-0.1500373048081313,0.44609953914513306,-2.0842214993086743,-1.1813486144170646,-0.34890765350870756,1.239371713942811,-0.6495609518485429,1.5613967081094862,0.28049195405937927,-0.6138375485572415,-0.22245749594762285,-0.6562605896286973,-1.1663282046133225,-1.0239156402236143,-0.9487536978904392,-0.7080379064039254,0.6819483211480944,0.531302473859643,0.25135974347742124,-1.2985845821701472,1.063947655977064,0.5061033171072562,-0.06930003231955711,-0.371915833477342,-1.2648438030573614,-1.153371948914882,0.882908932114471,-1.4803674425204645,-0.3180111700776289,-0.7854726436594425,-1.414813045932986,-0.34186388303452314,0.3479728356239607,-1.0728249084633996,-1.0010229439303902,0.38596409760832306,1.0382453137365426,1.5226021918970851,-1.6091800040575195,0.4746211206397266,1.3871404905205913,-0.7465006103684931,-0.579241965567744,-1.8872360177266063,-1.440639359608732,-0.06386628688071772,0.10006216926831005,-1.2882990759111315,-2.304173931217824,-1.1713703140232932,-1.3597096406416358,-1.1070292590655242,-1.0558781160379829,0.2920496053998492,-0.44071773433428557,-0.20623383562552464,-1.069101980026855,1.5638514143837154,-0.5236049996781857,-0.7033266844327183,-1.801915441914869,1.206610165025278,-0.7550129668105088,0.14035085347235998,1.0679650456703842,-0.9176093651828349,0.35526779650732654,1.145913267431777,-0.4110423896130402,-0.10080322941562082,0.8097405071230992,-2.134766523716359,-0.8835827434113535,-1.6807851823160134,-2.519608650134021,-0.16317489430127444,-2.588100168631579,-2.4759636794112363,-1.7356768872468156,-0.040914972644066724,-0.4431246283004063,-0.8218644041197886,0.22736281121530225,1.293817980948841,-1.0851463981771963,1.0273240065227913,-0.0843630199728932,0.6572793803723311,-0.3684106666408298,-0.33704702292146294,1.6265666305859556,1.4736839317787114,-0.002920414587775753,0.6974147505173098,1.4949488133440725,0.20214384716954303,-0.824335534593373,-2.233147365403216,-1.3174888824926652,-1.6126224820937884,-1.51329237598724,-0.4421476163175818,-0.6104005670311369,-0.897839181286623,-0.8446212610956082,-1.0028529219350106,0.46093593585364145,-0.4241101087160607,-0.33797711928021934,-0.9215348850559437,-0.5495218044101513,-0.21480858482690304,-0.14498341197641848,-0.974239151043369,0.6898547360785956,0.4405389955418555,0.10537170877004606,0.29089358455655007,-1.247668933065782,1.6842367093333095,0.7140241772187093,0.8556110294251371,0.9334096104084391,-1.664666922414442,-1.0788550917730737,1.164213840120171,0.667574726764305,0.18969259113843803,-0.37932454440072894,-0.12253175841203266,