{"layers":[{"layerWeights":[[-0.8596491228070176,1.2456140350877194,0.5789473684210527,1.0701754385964912,-0.9649122807017544,-1.7543859649122806,0.7192982456140351,0.17543859649122806,-0.9122807017543859,-0.07017543859649122,-0.42105263157894735,-1.6140350877192982,1.6666590290920889,-1.017674402802151,-0.14047753651748912,1.228064897966742,0.8771929824561403,0.08771929824561403,-0.6842105263157895,-0.21052631578947367,-0.24561403508771928,-0.017543859649122806,-1.5087719298245614,1.6666666666666667,0.8596491228070176,-0.9298245614035088,0.5087719298245614,-1.6666666666666667,-0.03508771929824561,-0.8070175438596491,-1.263157894736842,1.5789473684210527,-0.5438908259107148,1.5788557865154835,-1.175443820518671,-0.438701074050609,-0.2815692594753086,0.5606212927215537,-0.7196090732520959,-0.10527400817747049,-1.386421787780927,1.681150260196013,1.5750098313457106,-0.6345020877141925,0.10344367193313526,1.4374049932137367,1.4375016221997892,-0.15946391918053382,-0.6158919028272548,-0.35125015775310364,1.7367160256427105,0.8771929492542929,0.14035087719298245,-1.1403508771929824,1.6491228070175439,1.4385964912280702,0.5087719298245614,0.7543859649122807,-0.22807017822625,0.01754203696132252,0.2631128004708127,-0.33342864351418844,1.6659110383272875,1.1377724003306615,-1.4933983996960623,1.279419059346546,-0.8794649837726332,-1.4950834367524253,0.7952281238375709,-0.33901429658490445,-1.5870053224165408,1.6779785243974925,0.5974303119361047,-0.7068451633960339,0.6086581988377479,-1.5136254217902811,0.24892070330569613,-0.3507004845398112,-1.2350886678154875,-1.6859367221381472,-0.26336148984023605,-0.21050293103344236,0.42105263157894735,-0.017543859649122806,0.9473684210526315,1.2280701754385965,0.6141078684430638,-1.0526296861093982,1.5613753304934588,1.543575982322085,-0.45848795256926844,0.08576266787403287,-1.3658641681004098,-1.2051773629510283,-1.0819054793073875,0.8312812525125592,-1.0841294564339694,-0.8055116032457276,1.4289844175307522,1.015256414701865,0.4118837468359844,-1.7414388139152919,-0.5999046484626556,1.3823172443248628,-0.9511841876871034,1.4395834979824422,-0.07898846218916256,1.7256383519665635,-0.6004429708325519,1.7188692813806152,-0.3684644621000294,0.38596491228070173,-1.4912280701754386,-0.7192699925697066,-0.9997326706595596,-0.47363454932072213,0.333777872726668,0.6138807937212873,0.10457013070298589,1.4408403414343498,-1.6962247778984063,1.437234993501577,-1.5800186966336875,0.3667437974338083,-0.20340219211602495,1.5086049750639352,-0.7723476978057549,-1.6135251577907395,-0.5135977868250283,0.6131657049218173,-1.3922016190571334,0.7037238150926906,0.03845761298715263,-0.4553775066138999,0.4017555559146035,0.8424275798833577,0.0972909754794244,-0.019271540841810465,1.2103176320238236,0.0877023595067346,0.6666666666666666,1.1578947368421053,-0.7017544221129417,0.8774271962195946,-1.7173727262008465,-1.0680216402446188,0.3380932937087755,0.5672182077253689,-0.356122202326754,-1.3855246359535711,-0.44233868535086984,1.8207274086354703,1.0504198324271727,0.015453534304370322,0.6872945822578691,1.0400272748660087,0.331760286615017,1.5864649867576897,-0.6888375435619422,0.15735275655228653,-0.9781713045223065,-0.3531382966041837,-0.37048074504363654,-1.7417975548292088,0.7548606105488342,-0.9002922726632526,0.051480350197640225,-0.26315086062174137,-1.5087719298245614,-1.5263132388801888,-1.614292431596731,1.597329307643909,0.5802093069351841,-1.2458901054579377,-1.4401942742311695,-1.3181847300206808,1.5733331941043922,0.5228946747944418,-0.8199264117686227,-0.3042158800631053,0.8758096180783455,1.3046046394825892,-0.34192369182593035,1.7338000073496023,-0.11383745354214635,0.6324782688329467,-1.2777330356534309,-0.6542417707323916,-1.402955935088498,-0.9970257514974407,1.556060714954212,-1.2289143700247969,-0.20826137809450646,-0.5552852300039575,0.17318641018198702,-0.15779493380928025,-1.087718612271058,1.3331907445231772,1.0492858298246028,0.6963187040052355,-0.2904626647439835,0.9430056356280306,1.4188649929240655,0.6090657440438997,-1.190892257562385,-0.13389056842971042,-1.5470604764765374,-0.5313566560038264,1.1283405557432338,-1.2866586238292042,1.7324654724211905,1.8356622636595075,-0.23765524880881608,1.3051383821115552,1.7971330036198332,1.7929042933675854,0.034653347191638983,0.4302313439578206,0.025147421473429223,0.65588627489756,-0.5746081512530055,-0.04753187017098504,-0.9843589874144786,0.9125875010136919,-0.2105160447490575,0.6479589874892028,-1.0946454650067017,0.9498723742625672,0.8128561401812257,-0.08732264815482949,-0.6011421947320832,-0.07347318745379093,0.6455038083250971,0.19052448443612252,-0.8721453553373686,-0.7340501412080562,-0.5556165867107503,-1.4280426041166563,-1.1379747037526617,-0.2869433282869081,1.23515017585445,-0.6021415476191321,-1.3698470295934273,-0.7250008044514983,-0.8129753451608287,-0.16140993013157973,0.23666644563788705,1.4185450117514786,0.2893537940965119,1.0980912501837796,-0.19239213590051812,-0.4735496800580531,-1.4738557577723372,0.48926347272012893,-0.535147337755886,-0.37146124719870677,0.15053577750148317,-0.29882633904065026,-0.5948194952289894,0.5794954258625952,1.0734353886346102,-1.4391312639010887,0.9861054120031996,-1.432549982545586,0.7937126882252458,0.12041109490647035,0.528023226567627,1.345071534552008,-1.4108763439010257,-0.5040768228693426,1.4441244713045873,0.5303430711830663,0.15947253232517314,-1.5620116986925041,-1.109476581850218,-0.6422247853094224,-1.6423348475777289,0.04574145258866743,-1.4390824518792487,-0.5968279008756473,0.9294977808986501,-0.1427736702099829,1.4807829415150244,-0.566659503028076,0.12913783975174536,0.6605026251717708,0.7146612305653276,-0.8584205214640785,-0.4128230510019033,0.7366810989265384,0.5973919875963616,-0.8203785639936106,-1.2992622027159495,1.235468110245666,1.6393902585579954,0.4125285712702903,1.4634065015263524,1.5798784814719897,1.1880289076918094,-0.20628265176152422,-1.168321683931194,0.562985083629316,0.029795729240582717,0.002719623258576947,1.1099629332606453,-0.6516792128325994,1.350398424887008,0.6139961254044682,1.1926740085143797,1.6114143156997822,-0.46469883394637446,0.7887085582749593,0.3306092568930777,1.4622812600734079,0.05726392978054739,-0.23353732931607676,-1.3040541783705102,0.4460136945072905,-1.5802555179277067,1.4709895526499877,0.31923093392331386,0.494315684932489,-0.0694981380417015,1.6272643977078207,0.8771705230186848,-0.3171277901223539,-0.2494963293983445,0.6979707400506275,-0.9250003613535671,0.10824295613595541,-0.9389517096437148,1.3088481103715157,-1.2165879409468836,0.5079289255079347,-0.28075700184238156,0.17542920948520593,0.2982340269827342,0.3496896951022365,-0.21465781086982424,-1.5355244052074397,-1.3897641910050018,1.3831156123269592,-0.6511791508945886,-0.2371275642791219,-1.3946074975569798,-1.1589027212492786,1.5691592903116405,-1.445857518159651,1.3984614397817137,-0.6301443381748045,1.071633542808125,0.9899213325345575,1.1833169809689665,-1.9782783130021988,-1.2819941700233228,1.0151509647786912,-0.6985726975553357,-0.8335415836279332,-0.5821730641913271,0.5805836507680404,-1.4700566102283128,1.1734073448347115,-1.3857187830590898,0.7895512557148124,1.5263165730255466,-0.8598524297050739,-1.0190201444038485,0.2062192959821006,-0.5182917509211168,0.27099546356187154,0.3530857486474384,-0.8028418859008954,0.04741986092234245,0.19413767281395855,-1.4166006383399103,-1.1444583970283106,0.3798623312839516,-1.335038940170711,0.11323100556760415,-1.1377373803659558,-0.09450170815871789,-0.6357550709304235,0.28673940929320485,1.354322771929254,0.973992778316661,-0.2879365230444369,-1.2957868336795457,1.3779296082481927,0.5824832321131793,1.6088555185680207,1.5266946805285884,0.825003842807738,0.4912271798797597,1.245666188330356,0.05219156620983657,1.4353310379844975,1.5408903159970457,-1.4399028353398915,0.4711259318013192,-0.7829966994605281,-0.6976816915425301,1.6773592520401401,-1.4719301677635586,-0.30462360162431185,-0.2552926058642698,-0.7470509349917877,-0.670805304639037,1.1741563071253351,0.40486738699512964,0.8133801765584271,-1.6387815175646874,-1.581694511594255,0.5131994997697715,1.5179684127821331,-0.23313186320535206,1.4329712608667085,-1.0464602937299554,0.431816130501717,1.264878958854147,0.05265836209701413,-0.8771937735566451,0.5439354148153073,0.929939422850607,-0.6170762613168757,0.60806309316164,1.5720163368528803,1.0117451625047682,1.747788703545579,-1.2148317072476589,0.4969876455183322,1.1244070442264118,1.1655411970718674,0.6740738421830744,0.7563024427473624,-1.3254606971254128,0.2086573099848877,-0.6763537301359921,-1.127245068068079,-0.685959948413866,-1.5598524726014253,-0.7909427353941928,1.4277517300691969,-0.08644827494047044,1.6876550290925563,1.383676010382376,-1.445939863876604,1.1069969738864962,-0.5437583417225618,-1.3508800477696572,-0.9122287079860548,0.22898412196820903,0.8941710381666866,-1.428647374020798,0.9236156148486576,-0.056443137473270774,1.696465125947518,0.11296286034331518,-1.3973223571594051,-0.20889363981867023,-1.896234937930421,0.700221334852978,-1.0473282876807883,0.8797205305505856,-0.22441828013852752,0.21546676352356894,-0.39435673621021144,0.8015576605476994,-1.4006870405175826,-0.17916336256267304,-1.5093461256720206,0.63306043293151,-0.05282187592524231,0.9150925909602861,1.381806550420864,1.4579961788651743,1.5090169226078327,-0.017543859649122806,1.0352232423939571,-1.0690019499259582,-1.5408562079944637,-0.33986081318078526,-1.4136380554518875,-0.2315562272404977,-0.6294175807822115,-0.5055668462226685,-0.5943442437295436,0.8004798042592822,-2.044057699427057,1.413108688724641,-1.8030544522820466,-0.7768777159478216,-1.221748656945962,-1.2934504631955286,0.09512169235754452,0.7697924615189535,0.08593273915449154,0.44667927927404816,0.5559423936412307,-1.206902982387825,0.4888002361314948,-1.2163608846786982,0.19336387980584066,0.721408934069063,-0.8771501050240117,-1.2633594930159602,-0.6314357262658015,-0.3663106466425183,0.7269818796301961,-1.2039947707106602,0.0784729416556728,0.8408264729938769,0.8831071720696838,-1.3873917087455094,0.3573346059202063,-1.820580502000697,1.4097265421906175,-1.1218116411082053,-1.584445937410928,-0.33153256462659003,0.4547557849671916,-0.9459415413047603,-1.0961652697373496,-1.0488190492236287,1.7606703294545798,1.5423436556161156,1.7434810088834827,0.9558630559647299,1.0162459670995183,1.298279946692808,1.7209305726037158,1.684909538603806,0.8070109732429348,1.1578947490039904,0.47382133425403317,0.5823214208189904,-0.09371284166432467,-1.6746320670593375,0.3536569309399178,-0.3103738826219459,1.6927431025126722,0.09800142834107904,1.2618040533851318,-1.5537257562724323,-1.2002557856477878,1.226655614668207,-1.355520556331762,-0.00893928379904108,-0.5005096937456787,-1.137789057177913,0.4571737042397882,-0.20815095276897977,0.7290441970642144,1.6996539684646081,-0.8692167450331223,-0.8628445889801235,1.0064019022359665,1.0749152383108218,-1.3823836665807672,0.2811163144466333,-0.31579127146577257,-1.2280701754385965,0.5265479819255428,-1.1715110670790516,0.8394215211854016,0.9181560974938839,-1.0927319722182847,1.1212835881592487,1.3100247268590188,-1.2072962423286862,1.2741596195024825,0.6572632420739968,0.16688668555988292,1.3117238740676818,0.43058450792626335,-1.1596315174412433,-0.09705639540002356,0.6179141705847395,-1.7173958331960288,0.23977847639454433,0.7132388043706743,1.1495095839853047,1.661407789591559,0.6011492756071778,0.9919283288492505,1.2329842812575558,-0.11979288316610548,-0.40265319917020714,-1.1228061442113066,-0.2631555978368652,0.7895824093497161,0.44076320448800327,-0.7237171780244722,1.0262163154541701,0.6855578588775348,-1.044729788332798,0.6435111499069294,1.4703155094127285,0.16994208349466938,1.0363073528183742,-0.17938974851910883,-1.5501058966309225,1.0318585557371605,-1.2789963442154377,-1.5111881765908421,0.5823685518998218,1.2036552977826223,0.520311835183334,-0.8993682282602381,-1.3411692430932047,-0.8678905272831902,0.15990481890623492,1.6405200664472743,1.0038335702590153,-0.6994031999749799,0.07066246391582355,-0.7719136824433035,-0.12280479242200695,-0.2631727365544852,-1.7182183410585081,1.0254907668677775,-0.25705214014078537,1.5959129278740316,-1.3267812600037434,-1.1246069011049673,1.2351329870123733,0.055289736035372496,0.8573995675909695,0.6568746970584202,0.653553080910892,-0.6858697486998371,-1.1755659488044523,1.5597067508422695,-0.3299985508174912,-0.2292998163579573,-1.151055271046891,1.2606656842265234,-0.5809175616444631,-0.744850756839282,0.7290141886419287,-1.117053706248544,-1.050016812407373,-1.068740694638592,0.7194314678973316,0.31581927451762576,-0.6666666666666666,-0.5263157894736842,1.0881765354800281,-1.2074758865127322,-0.09727181918696058,-0.5477065627018509,-0.27649054643485227,1.2357011317957958,1.4612558813246224,1.2153666772852763,-1.0601892566939644,-1.1768890094659843,-1.0665710542905074,1.6339664179118767,-1.5711724463749766,1.4187413359274987,1.3022019061266543,0.8436448010898936,-0.6857321972440551,-0.07588612809203832,-0.9693546750996899,-0.022265316435837967,-0.911090645097127,0.7374019884791835,-0.8940576808878938,0.877454539038496,-0.45609698257592557,-0.8947368421052632,1.280701754385965,1.6140350877192982,-1.298253524056144,-0.4201586403767984,-1.3677792222417227,-0.3090604106132689,-0.8327855574711519,0.14818081861829951,-0.6275574592113043,1.1217126104070247,-0.6101307619151306,-0.9602051193948916,1.5275158690656747,0.5750075645503617,-0.47681920237991576,-1.6982467645424975,1.084676398534925,-0.4509110761500754,-1.632239650651163,0.7867284218401019,-1.3205468601391734,1.71150886344228,-1.3523998866587088,1.5437078183082495,-0.7190061341250592,-1.3682374712439032,-0.57892097867045,0.017543859649122806,1.263157894736842,0.24561403508771928,0.05262470332721468,1.2280576359711703,0.5582352958327934,0.8178989938332348,1.3904604391197082,0.20997570510105132,0.1885633532289076,-1.4301403481305568,1.5736905323379045,-1.1529467043655293,-1.6286420443819087,0.9653740425124293,-0.19232058859156972,0.045808005672895565,1.4292318935771169,-0.6519066464538417,-1.4012467317153126,-0.6513172860593895,-0.36295376516129435,-0.7417634136799389,-0.10609404914916774,-0.7543041020491665,0.7369573066795901,0.5614043717579229,1.1754396280427422,-0.17543859649122806,-1.5789473684210527,-1.5087719298245614,-0.9824561403508771,-0.03509129252687422,-0.2635962849739322,1.2080678503811833,-1.742992925469248,1.007202367965454,1.3746271079624113,0.3771637084051031,-0.04750902507631311,0.6705341780705597,-1.2978495232091831,0.4136010332893654,0.6413156109172737,1.13455926542826,0.34437150384740317,-1.765850101938574,0.3846298449731952,-1.0463718201753576,1.3088411309310848,-0.35504573820227725,-0.12344581428434843,0.24555517553036735,-0.5438593276412551,-0.9999992074965678,-0.21052631578947367,-0.6666666666666666,1.3157894736842106,-1.2280701754385965,-1.631578947368421,-0.8771929824561403,0.5612870335596698,0.9470402475651756,-1.5443097489549313,1.1047474256003784,-1.561730498734524,0.3331854840024527,1.08656859263524,0.6479359441129274,0.12009244842245238,-0.7101410988277329,1.2314640952178952,-1.3816185004222579,-0.34376180742412843,0.7808592906241988,-1.4603498579149459,-0.1425302339703826,-1.6690090530668857,-1.509515754550935,1.0701312180835096,0.3859647914145806,-0.49122807017543857,-1.280701754385965,0.631578947368421,-0.6842105263157895],[-0.5263157894736842,0.9298245614035088,1.5789473684210527,-1.631578947368421,0.9298245614035088,0.45614035087719296,0.8421052631578947,-0.9122807017543859,-0.07017543859649122,-0.8421052631578947,-0.9649122807017544,-1.087719298245614,-0.17543552100422982,0.7895611784509878,0.1228968879546935,0.8245651481092233,-1.0,0.15789473684210525,-1.7017543859649122,0.15789473684210525,-1.0526315789473684,1.1754385964912282,-1.6666666666666667,0.21052631578947367,0.07017543859649122,-1.1228070175438596,-1.3859649122807018,0.19298245614035087,-0.7368421052631579,-0.12280701754385964,1.4736842105263157,0.9649122807017544,1.4210460536463485,0.3508561346121596,-1.6318801963046643,0.08691200546360812,-1.2115902455276137,-1.0713188701601757,1.593903395038926,-0.2314973909226064,1.417245299438061,1.6808095809881822,1.0125478970377808,0.04839764761354976,-0.5128690298138353,1.294362537515016,-1.2663671647644958,0.033047029684292975,-1.7554626638700022,0.683590823409131,-1.2811221983574348,-0.5088681335243587,-0.19298245614035087,0.5087719298245614,1.3508771929824561,-0.22807017543859648,-0.6491228070175439,1.6140350877192982,-1.631594252713935,1.6315506058104803,1.7016416368282163,-0.45621398429500876,0.2098617875559064,0.05007554806569216,0.9954373554261057,1.0275346346125942,0.5996785490797528,0.3622512669788434,-0.8058901317286283,0.35453091478877774,0.6574070128603149,-0.7471618817433077,1.2304272571405834,1.0009717316464557,-0.2003692372967152,-1.038648041499594,0.1730720375039707,-0.04515158906907623,0.7487566408978189,0.8925554544735531,0.7887500147801927,1.2630088320528559,-0.2982456140350877,-1.2982456140350878,1.280701754385965,1.631578947368421,-1.508813351662747,-1.122922000644256,-0.17557779364358728,-1.2630516451790152,-1.333751380289432,0.6813995309384988,-0.47875148395740685,1.6219207015265489,-1.4740214284943827,0.37382695518874576,1.1645077059361557,0.31204125655025916,-1.299338204225648,-0.7072879474026724,-1.59874641866044,0.13012593755774288,-0.7911619242149939,0.9186199250628126,1.0959267613234964,-0.40585959580216796,0.49866668943612485,0.8723862485541792,1.5239506970395122,1.3679539240798322,-0.19298925404675907,0.5789473684210527,0.12280701754385964,0.15789472848062494,-1.40354352564407,-0.7543610357900614,-0.47323651671754313,-0.17481983338541948,-0.5087431814015733,0.5777756133251065,-0.6348812739905428,-0.7649218419580291,1.1676281741924726,0.8140852797638712,-0.37041453302426647,0.12385828382578673,1.3582226098536636,0.1326983572927361,0.9639529797142323,1.4533285716295692,1.471613548602442,-0.4717340127909628,-1.5327390204258813,-0.3688425740005337,-0.09639330285339849,-0.597695784663083,0.9489681576392298,-0.4552508698064698,-0.40328133470237215,-0.2982456103295776,1.4736842105263157,0.15789473684210525,0.3332848255087527,1.6668364427111102,-0.12166227598121616,0.2653844153526362,-1.2421882116318392,-1.4698180744206957,0.9291226329746685,-0.5395039579455174,0.38606457297058644,-1.1202212510668499,-0.053048081727618615,0.8973137247145689,-1.261574278342964,-1.0991311154940002,-1.4419182071378378,0.3304351430614077,0.7349123662133681,-1.3989208398373418,0.6727717208980809,1.5696357026292551,-1.164153642641102,-0.15808106021399843,0.7284686773155751,-0.2785030181529195,0.9125618665636891,-0.543874818256526,1.263157894736842,-0.7368497633771715,-1.420720160453597,0.842559253963864,1.7218438580910673,1.7252576436407374,0.5203569319946939,-0.6201386403001157,0.007487145413054779,-0.6031127159881026,0.23858144910678514,0.2802170743265154,0.17223348650221884,-1.5896036351868796,0.36946213985245097,0.7482384971676127,-1.6688163056284075,-0.3717952703973804,-1.1441509356568893,1.2706026594930981,0.04156959672341234,0.13414880505030613,-0.8102186050914069,1.3745192004187154,-1.0121562145456444,0.5869989987419232,1.264176654353229,-0.07014739874408747,-0.5964893012117167,-1.6843484685475545,-1.384928590855986,-0.6287098040976877,-0.850332669962705,-0.3502225320126028,0.9231556943809281,1.189442238530868,0.16203026480720753,0.5075465207205163,-1.057051680653383,0.5347488792657663,-0.1845530209257333,-0.7436704445775532,1.0339174134364242,1.2046066503302029,-1.2047545059794467,-1.1883815383707887,1.8810868084705297,-0.6975443671002387,-1.3604575123901683,-0.06297971131565581,1.7632402272335737,-0.25662704058053804,-1.4001199252924563,-0.144348470719319,0.6327326530507649,1.6492079922836735,-1.5789286463372212,-0.33317246767019815,1.545260358048082,-0.5741157182070463,0.9093599961317039,0.36344887189070585,-0.38866849583710117,1.152806529916251,0.2664660421697694,1.069020166688607,-1.5351347526053643,1.2344287382176191,-0.9852438152767843,-1.7675371427371065,-0.5580163622141371,-0.09331599832269724,0.8292888406270693,-0.6078482498536618,-0.6117437741590891,0.3577822346510977,-1.1210213539789278,-1.1193398388320224,-0.8864414610069876,0.3325558101221712,0.49550800976375314,-0.25164064683348075,1.597891560647196,-0.0700669953758915,-0.7716852459999081,1.4916615262437003,-0.6645256423067294,0.7086737371620616,1.4411960668914496,1.481437506741397,0.2241925817147311,-0.914358318896158,-0.011018993485994359,-0.1666821332890544,0.0320223469620505,-1.389582290608528,0.7702158054770483,0.3450691956600154,0.811228632776628,-1.6236756928218816,1.4466531065674286,1.9268919287227848,0.586812668209596,0.7145725130135622,1.6472756326178382,1.2497875954906943,-0.26787422500790026,-0.3894062117454711,1.270184025473845,1.3047518198947157,1.3692461144711974,0.7371021920029103,0.9827397229492373,1.1233657706941345,0.5298798454396081,-1.7091147718374256,-1.5361131849249123,-1.143655875257903,-0.5267774617767822,1.5686693650065922,-0.6125155058358142,1.5412067199355617,1.5326146851735483,1.4970036551247163,0.9787968779791705,-0.8540245862049086,-0.8135680861592727,-1.5338649706297804,0.1918658228997887,-0.5062813331358582,1.4238447418740494,0.15405330103557488,-1.5229571230073853,-0.5705664944905543,0.7807809854773639,-0.7860735496758435,0.7311630406876678,-0.8563026392314307,-0.7534087729033989,1.5089794519842024,1.2106274827215895,-1.4025681238131167,-0.8725529726725597,-0.7607395482127483,0.043187826446489615,0.43495238383195517,-0.4098208574272772,0.7987020659202265,-0.11915396715321606,1.7168379979063204,-1.6151866326086892,-0.13673806549182888,1.5017755983587149,-1.5789564522884059,-1.7988252432330487,-1.5278054809392179,1.5992733875469392,1.381127853791673,1.625764624746781,0.8951306759560308,1.0781970644276266,1.1954352678803235,-1.313406663264652,0.6772297745756697,0.9153743394481941,-0.2261470290388419,1.6144367914737137,-1.08774951680745,0.6141111357270499,0.9481729896380722,1.5644566145088978,-1.6923405126226092,0.3185319809254034,0.8310308132621756,-1.3152104059019438,1.202199637451631,0.29540095000709726,-0.24070733246692752,-0.7953054781531149,0.6771439600035449,-1.285015842931829,-1.0342781141941961,-0.9660336723184557,1.4859440613718728,-1.044529766545236,-1.0292266313746137,-0.29999084025984624,-0.23397591810993706,-0.9071111868550469,-0.8154144672487442,-1.733403440804094,0.9327631736075881,-0.11222790003177661,-0.7537425323199961,-1.192200441673135,-1.1753949286008523,0.07017472586039122,-0.2452729233832259,-0.7177598987497498,0.1819776535060161,1.3849474808420899,0.9982366852013951,-1.555811951382774,1.3685840717889213,-1.3893330921588973,-1.4316188980008993,-0.1220305597718126,-1.1787635833602113,-0.0247942407510735,1.0388564975596197,0.7599808781463531,0.5220800160951585,0.6234885346392538,-0.7762246893445109,-0.14027043107636106,-1.0216277565227025,1.5396435289874464,-1.7885684116817129,-0.24162287239780725,-0.741369209485828,-1.5422438663064777,-1.597830749195115,-1.069765991158013,-0.43850111051233254,1.1403470751769298,0.21069322768420634,-0.7885255674750555,0.42594262790269527,-1.4241328519076604,0.25504429805058826,-1.6087201628496925,0.6079415233488786,-0.0952278818342362,0.09306023766180509,0.1950043779040271,1.5010760284789044,0.6536506323928544,0.33357836797755325,-0.8183409567789012,1.4290995510324092,0.9887321312962158,-1.3548871653038586,1.1587558163890481,0.886695468719479,1.0486967391894457,0.10798282999302641,0.6587310422066667,-0.4605401718381718,-1.653064625270108,-0.9849812060364009,-1.2806168996539493,1.508779937069192,-1.175439554880678,0.7894733403804111,-0.08752445293044997,1.5818802675980832,0.04188204427696564,-1.618505612424634,1.7365351106714004,-1.444718725180735,-1.0636477950182184,-1.4811300167349402,1.1414965063166498,-1.3144058336050144,1.451445889286687,-1.4832487200508577,-0.19486796462342157,0.7119929980306519,-0.09335382825332396,0.0932298621128564,0.795992556654138,0.990683226413474,1.34802049526939,-1.8849298774108894,-1.5024244181466373,0.43448489591729234,-1.386931404960641,-1.4428701642539024,1.1405814394978262,-0.9297699578806612,0.31579111093256723,1.6315661657481866,-0.00027435585417100666,-0.542449017394493,-0.43827844024042983,-0.038514772101607704,1.2580828682699967,-0.6097719387114189,0.9130526755447629,0.5682762588824006,-1.784526740025612,1.1797373885110274,0.2787730861280341,1.0658842383020526,1.5853989777340678,0.12307524752501879,0.8097398108682561,-0.8953523836791759,-0.9753326841101922,0.06967832682782352,-0.7431945439377823,-1.7264719062128864,1.372016997347301,-0.8605365346732897,1.3766222740944707,1.2791678016835477,-0.29692843608105907,0.2457682209360265,0.2631578947368421,1.22805744557552,-1.1933660303737317,0.47378818283582386,-0.32091253788490026,-1.1222077548055656,-0.7746627003698315,-1.8227328016067277,-1.346044315326514,-0.7941341461965112,-1.7050533669466015,1.300077686497823,-1.466402211924706,0.22432367422259616,1.3094375529421238,-0.5478177416739629,-1.2529259132930763,-1.0022738604713883,0.020605485971708606,-1.7031529507399412,-1.72497890881019,1.3533192671617447,-0.6270811315844174,-0.36942108524614253,-0.49113017470004416,1.0548286277109733,1.4927808960058377,0.29833215169425414,0.9298817307668785,-1.2631683109686997,1.4905727889617637,-1.037586497287543,0.8497749144332838,1.2086276112275636,-0.10333340089289843,-0.3123165146500274,-1.6867270704401822,0.9579741186151123,-0.29744105408814364,-0.5064032873399688,-0.24509668586957956,-0.20226280379588712,0.2959974957638573,0.09840390346252943,1.305933246112858,1.6710418622939809,1.3065391180086898,-0.8326863371128815,0.13463778178731547,1.417188589032804,0.3488926742021433,-0.5795968035517217,1.1291366874672428,-1.5235884831724746,-1.4553579894393451,0.7719062745866433,-1.508772081827548,-0.035100980664623714,0.2266044673478012,-1.620052831638838,-0.43240366212146014,-0.3868558635592688,1.134071491269352,1.2320216502110863,0.7378978195906543,-0.10586584068980402,-1.5381420794181915,-1.3948220021909996,1.0531645740951843,1.3014824191984675,-0.7999899642731516,-0.3957690353358414,-1.5411299054524583,1.228971581324295,0.8026359403046484,1.3611330865924076,1.577299687656217,-0.3365853580793689,-0.8071621518772026,-1.5659864099297989,0.12915043864221848,0.4934909276681287,0.5800417291952684,-1.0526432879422218,1.105263157894737,0.6491281856485822,0.3313885391369764,1.114474886054638,0.5134682636465889,1.6861453355979656,0.12782419902139794,1.3068638798029988,1.1929039065172753,0.9008093706981426,-0.6544853626045506,-0.7236553968998901,1.4383259061531002,0.1181867939198161,0.9318934508186366,-1.9191299685628171,-0.25810005607139896,-1.7650236714687118,0.6114860924390882,-1.6167445577736395,-0.6208966717936566,0.7118319700546061,-1.4999846568236423,-1.653066480950198,-0.6810409448146139,-0.08699500640904835,-0.38551578260219305,1.4912357387743387,1.6140347365279017,-1.070218720222143,-0.685091520080806,0.220363987730012,-0.2737456846892138,1.4271410112311056,-1.4972653322695415,-0.5276052262954889,-1.1695557621825008,1.6361027816581752,0.5436258243860322,-1.0185317549584318,-0.48003915815388737,-1.807152579373665,-0.9358520699869414,-0.3931011908575476,1.3432404058173002,-0.949929633997349,1.127136327447184,1.6289529735227466,-1.630973408203445,0.4294535354370955,-1.6386051274835005,0.7103514328948366,1.5265857837524455,-0.3867085616204965,1.140184234898621,0.9298236898163847,1.491227729958773,-0.5789480196339181,1.280516071597393,-1.5124369307309964,-0.6027667496924131,-1.7211965273265717,-0.8592267881712207,1.1791163792241108,0.5356739344265183,-0.26297010572082297,1.6820813490824726,-1.1285275243545265,1.1475385617333695,0.4499333605121773,0.2705328474340932,1.3035733838029553,-1.589942648026709,1.6737580765937363,1.1667695131983358,-1.1425541520590807,-0.48667806359986493,-1.1710644500249145,-0.6472596200821152,1.02390001448674,0.5974198915625979,-1.3333445333895588,-0.7895450457197076,0.017542250565201572,-0.9649122807017544,-0.05263157894736842,-0.8426555551438688,-1.4924626595538566,-0.7556851449179752,-0.8927451641684718,-1.2166448878076743,0.6502232706687883,1.705146301108367,0.4947250375972867,0.7371525485266363,-1.625847563248433,1.8166860875530249,0.4188753629502631,1.4263311469278002,1.5992384532033674,0.4417140242441249,0.16318525628939534,0.48953169627734683,-0.8189302849949366,-0.5007883622443929,-0.23898258535105163,-0.5501163527743548,-0.5220464958097744,-0.06922432291718049,-1.070156053773023,-0.7193474286793972,0.5964912280701754,-0.9122807017543859,-1.368421052631579,1.47353137565516,-0.5438891007104658,1.2130068931695632,-0.9599963800672356,0.2925104149857404,-0.7448661849900472,-0.04731986047422135,-1.525934741418737,0.14668659314143223,1.034557557562187,-1.2045294765322143,1.5092928917984338,-1.328741728487875,0.3386743918873123,1.2071907549112202,0.5026617975770786,-0.5536345464363234,0.15033178206174125,-0.07448986591808167,1.1908915613219004,-0.7475124093044218,-0.5763979539512907,-1.1750968327106337,-0.9474636853693096,0.333326679835372,-0.7192982456140351,1.105263157894737,-0.9122807017543859,1.456137222517672,0.9127498894035495,0.7230037868299336,-0.7640689275436928,-0.5302201933915408,-0.6829905410759513,1.3535272219552563,1.448822467332891,1.3698478086727983,-0.6160027997722816,1.4296285782207045,-1.5738880379326199,1.087693883129374,1.4120636206384194,1.2736481950879128,-1.5576469487963944,-0.19152851266696994,0.6367519655121774,-1.1594159352137496,-0.6921465036332951,0.10989224327458551,-0.9110242030940435,-1.2454711345717426,-1.2982455944385454,-0.9122810799668017,-0.5087719298245614,-0.7543859649122807,1.0350877192982457,-0.47368421052631576,0.8421062406777325,1.6148330194100637,-0.7502404865909037,-0.8874815191331162,-0.5894074503161751,0.9889315782105581,1.6050355958470257,1.2109705060871712,1.189480225820881,1.7835449103095051,-0.9033520872599642,-0.6143753756475692,-0.6291769241573408,-1.5804542753281994,-0.7645308364502644,1.188334592478219,0.23583450120465424,-0.7312077631931169,-1.2778045241224882,1.2295691671120546,1.2809380536020953,-1.2807016408405492,1.6842159193405761,-1.6140350877192982,-1.543859649122807,1.0,-0.8947368421052632,0.05263157894736842,-0.40350877192982454,-0.9298152881393118,-1.3858973576960294,-0.3682887742697434,0.08793945096190466,0.14086099868089347,0.8252039873276412,0.6329122405170488,-1.331451063023282,1.0214894611937513,0.2168234250534631,-1.1338302945983123,1.3188173319512502,-0.17215076277631716,-1.6279808285163941,0.21274453076526417,-0.3497701940836479,1.0712514875107146,-0.5961430420487928,-0.9119159594870124,0.9825373426945211,1.4736842105263157,0.3333333333333333,0.17543859649122806,-1.6842105263157894],[1.736842105263158,1.5087719298245614,-1.368421052631579,-1.2105263157894737,0.24561403508771928,0.45614035087719296,1.263157894736842,-0.07017543859649122,0.3508771929824561,-1.1403508771929824,-0.6491228070175439,0.8771929824561403,-0.35087719115782245,-1.087719279508047,1.0877193146509165,-0.07017543791293693,0.7368421052631579,1.5964912280701755,-0.08771929824561403,-1.2982456140350878,1.2982456140350878,0.7017543859649122,-0.3333333333333333,-1.4736842105263157,-0.7368421052631579,0.15789473684210525,-1.719298245614035,-1.368421052631579,-0.8421052631578947,-0.10526315789473684,1.2456140350877194,1.5614035087719298,-0.9999999712858563,-1.0526314887398498,-0.6840520287298979,-0.7013721454413462,0.9478545702446356,-0.6308240855340431,-0.8058772792121027,-0.6134497732226645,1.4745073426075639,-0.9968432292766229,-1.3285809949218503,0.2674659711154813,0.5815973273580382,1.3697892156090474,0.7373816983958088,-0.7717080881820835,0.6668393304696816,0.5789512022533175,-1.6666377732790056,-0.3157531141198301,-0.3333333333333333,-0.03508771929824561,1.4385964912280702,0.05263157894736842,1.7017543859649122,-0.7543859649122807,-0.4736842038002495,0.22805093772017862,0.38596758295363187,-1.2982146515477357,1.7198268370886447,-0.5775914144662823,-0.8575283692113559,1.07387916571437,0.06010309874315063,0.09699593057516231,1.1909592554086648,-0.17890340996481968,-1.56166763923329,0.5008055181638115,1.3623119172005302,-0.628575862130861,1.4147903645441247,0.02302600236175961,1.704044064496291,0.2644060664554964,-0.9110288474901448,0.8074213495053277,-0.8246301268293273,-1.1930660884994442,-1.1578947368421053,-0.22807017543859648,-0.05263157894736842,0.0,1.1578890825592887,-0.9649710109153861,-1.10526321363336,-0.5085363829789549,-0.2626482871928792,0.36970507597182894,-0.45503633985335734,0.6872465041452657,-1.6763098873588305,1.0114386645377778,0.13097812975323125,-1.683419519917678,0.1009326565336147,-1.524751096298092,-0.28114498910005303,0.9526771219307619,-1.3886592864456022,0.010982960327194641,0.901645293487966,0.11122514097208527,-0.5920154391963133,1.5460357531978237,-0.9287093110745726,-1.6314518121773345,-1.1754481506656504,-0.7368421052631579,0.45614035087719296,-1.1403496120263639,-0.12280208698307081,-0.19295428026487305,-1.402735287356354,1.686165401055704,-1.3269090130038512,-0.7039582912272597,1.1841117362405726,-0.3091197172299694,-0.8333432607435383,0.03631090937983762,-0.6197624475558166,-0.6536313756100165,0.3259967040389305,0.9328593508070753,-0.962673639871576,0.8829504270066258,-0.9921662017730483,0.03830594907209259,0.182126363230117,-1.4979207931850615,-1.619044374773568,-0.4566712871814727,0.0694319173217843,-1.3853758364433137,1.0532096585018715,-0.4035089354871116,-0.38596491228070173,-1.4385964912280702,-1.6315835327981087,-0.13938321182319496,-0.39791678216891696,1.4738055902489116,-1.2206673781604191,-1.3129076813817746,0.7466366655515253,-0.18093870479769972,0.05463009185472947,-0.9569024867214716,-1.1862760801856138,-1.505478468228945,1.0607533263778353,-1.471398373437445,1.4980680165011953,-0.4872745189603849,1.308388110596158,0.4413630517273756,1.4744608824492762,1.3066270493553198,0.28939617780773563,-1.6988180106299668,1.6832509220608611,-0.40232460852394597,1.3860113212472778,1.1754021490425959,-0.05263157894736842,-1.1052631458099929,-0.2980730658007545,1.3207236895710652,-0.22122613561587715,0.29884646975671936,0.6968314329544304,-1.522555816909996,-0.9125521241897551,0.16506594110518125,1.1081501566578025,-0.05120566913105136,1.40868934064031,-0.6712059526938067,-1.828855035397731,1.504706554581338,-0.7433636287776211,-1.3933021728234107,0.7662190462868843,-1.0666043080226546,-1.2573979120395147,-0.8136288130402595,-0.3517227043840831,0.8848857059327973,0.9099680570650606,-0.8944569823389106,0.5789077524312712,-0.15792459962498134,-0.8771932292046921,-0.2979970006169512,-0.225607066909031,1.2436578342058686,-1.1094601080968352,0.021267626396536645,-1.4404331308532319,-0.6117128988714328,-1.053104250480765,-0.8191415634526935,1.0479780400768477,-0.4903062972848849,0.2866514215392957,0.09156602247769602,1.0297053263234452,0.15769104818960944,-1.6623321632202281,-0.3670083356850533,-0.07685877591106319,-0.1655528042154001,1.4996388666798772,-0.6913005630505751,-1.484315637193888,0.619099961659143,0.35771273237236945,-0.5475055831273381,0.3498756839985421,-0.6491305202807612,1.1578766594339178,0.4214876038426608,-1.2929119445397703,0.42402881106249884,0.663889539869712,-0.25805281152688236,1.054003863413811,-1.4900047813866881,-1.5767628429640674,-1.1891886286704187,-0.059698892673135294,-0.7731999938918626,-1.4187435879624322,0.6698799689748163,-0.8389339274737715,1.2712517310910882,1.1393611946505222,1.0870201684619873,1.3053661348367374,-1.2221336583794424,-1.6904058253805079,-1.2264324990643907,-0.907142389752508,0.44696448036561826,1.0600402902594175,1.0987600440895506,-0.28235473574521713,-0.10560286455625985,1.3859648108575675,0.47390202372895396,-0.7148254034097604,0.4887902228427188,1.3657481555181392,0.6748510447950656,-1.3882182405667223,0.49278987165682836,-0.44536652192145165,-0.9387528867709022,1.321547825431713,0.20550687056404301,-1.6424573394092699,-0.8384680326974976,-1.7034170162617792,1.463494309640869,0.8105598122344088,-0.4117271201636742,0.6007971561306693,0.35771955375733766,-1.4534515521584648,-0.6274755635842165,1.50191747481778,-0.05163648553684284,-1.4356754302367638,-1.6706714391314552,0.6126540349850221,0.4206486437054502,0.4736843389612737,-0.1402337379627034,-0.4002491665494051,1.7470185024812368,-1.171940394070396,-0.36742543426112206,0.6270589113707493,1.7406672047202951,0.7596198387238907,-0.06079143113151137,-1.461611128309236,-0.2438650317326037,0.7488770870316601,-0.01812760289432783,-0.2500021021826901,0.8547131480316283,0.4763956796038859,1.661035350015458,-1.0585760707204166,-1.186056332762359,1.4188980905447868,-1.5394959385864009,-0.0168441436658003,-1.1372923599970854,0.6316216142727679,1.1727816577099068,-0.1764635298635141,-0.702008079376981,0.8245614325236154,0.3684855428497489,0.01939862592494233,1.6911598997898254,-0.6153797120702941,-0.4885627576386809,1.1033460975806477,1.1512391574571885,-1.2455600949106505,-1.3159389689705776,-0.785989899666062,1.0339588205058639,-0.03616304321049456,0.6706633064599071,-0.4077484667065378,0.2174243975808872,1.1980903490216648,-0.5762612536802724,0.3727580667314594,-0.26661270945580895,-0.8520868509960269,1.501740556821448,1.021688972797346,-0.6514096776666546,-0.4224813090902133,-1.3693478187816637,-0.03599270638511507,-1.0350233574575147,0.6491227911940067,1.6140294766608314,-0.3142924417905513,-1.2224390566034506,0.6421939129566342,0.3127958214841777,1.5333246567031196,-0.3736967143233078,0.401906956884359,-1.0145449131477149,-0.8197102699231493,0.9493646820519962,0.9996796785639448,1.593563388322246,-1.3349203369814266,0.7351224609117569,1.442299736254241,1.4200000064820508,1.1765062578133567,0.5529642279497469,1.1871154669717756,-1.359490540357006,0.34969968265922263,0.056503029667424313,-0.4541971448255555,-0.6298981862556867,-1.5441042549562907,1.4211653452232464,-1.0526338459004436,-0.9824708023206242,-1.1224066396160384,-0.3281747092436047,-1.032063127207589,1.0921265672820453,-0.9706514942189466,-0.2504898942847607,-0.24507350075294823,-1.4235281459741478,0.7950092387876017,-1.0653630585797058,0.9486565975028994,0.7623145273898027,-0.38390443875918695,0.5045540063242124,1.6088864978482453,1.7459700524166246,-0.24138060979128817,-1.2425477550001365,0.2011736393460231,0.08936704530227306,-0.24650579210313328,0.03770412623021889,-1.7818975257994683,-0.591656950540387,-1.6664262975969828,1.2631521934749879,-1.7544195940702898,-1.4912268241336502,0.7544064387769288,1.4953085566210682,0.6597478878556569,0.19352002008763133,-0.2652206857557925,1.563836921391546,1.3948348639227628,-0.3464383908656272,1.402415180160777,-0.16579367153855593,1.5445440295917254,-0.3726452198771181,-0.8918180405426033,1.3617749884063213,-0.467564263829572,0.9463470481812313,1.7235105926159666,0.20048915997770245,0.6721059846408364,-0.398106556210589,0.5462119727519974,1.2711632528757102,1.5233450979725305,-0.5714092698820219,-0.28056971058045693,1.1929797685144645,1.0526184724371483,1.1579010365294191,1.1406196887019788,-1.5210970894859768,1.469974058789803,-0.9189410475920403,0.5477687927123143,0.1405182607513682,-0.046426565995807016,1.053749960224401,-1.199136087994403,1.4453715437828587,0.06025822706281637,-1.4985796717449447,1.2588990941535085,-0.1006446060052551,0.4008770402537314,0.2213776706642765,1.442744241355264,1.225824627625167,0.17113528174757137,1.7045549847154786,0.03779778306370414,1.4355381974990828,-0.5211522594810525,-0.9380465304105863,-0.1227281398273075,-0.8596618442332077,-0.10527513042614343,-1.1578896321857377,-0.7538122729365397,1.460825849530851,-1.1028069398416849,-0.6288226451439674,-1.3141299058929572,-1.0467060530288632,0.26052689227628395,1.1540561031704248,0.6284859318720737,1.5013262033751988,0.3231893967019587,-1.1205791664970741,-0.3416105021390874,1.7419193621615028,0.05067071001206595,0.7655442478369655,-1.362761202065813,-0.6726169317153315,-0.5855282887655754,0.12003354154518574,1.0355413243076628,1.0724992281798198,-0.037710381353804015,0.44568498403697354,1.473360390833862,0.4210499814923655,-0.5263157894736842,-1.5789449364359864,-0.45541101512486204,-1.4514302374404378,1.5698366002619193,-0.18104201586711466,1.4405177819794601,-1.4967422058601112,1.2671659707891687,-1.0986338970183314,-0.09124951005386298,1.2913821759135877,0.8754024764344318,-1.1657838616145755,-0.6613683161780004,-0.1960991770569745,1.4614476709041606,0.8785885956449546,1.243869779573413,-0.07335198145818567,0.8731434259088222,-0.7915490958581468,-0.5336442209663185,0.8519591430562404,-1.5767722987802646,0.6156103247466688,-0.1235078375592954,-1.4562008577325432,1.2807017590360736,-1.701753879138435,1.720980395079043,1.6558631184599977,-0.009337326235043087,-1.2363348291842524,-1.7611472306140665,-1.4858695483199613,-1.1239242786391197,0.6339805692073992,0.22996425738511933,-1.7849997908210844,-1.6422798848201186,0.6426481833856995,-0.2005735266958557,1.3769580910450814,0.6050882149090426,1.0997400421074894,1.3987043082709176,-1.5221326645252935,1.456285072720668,1.7594790425662166,-1.4611037461950813,0.8666268806095729,1.0324571121493822,-0.6159590548462976,1.1215403274790112,0.4033039325407251,-0.17543860987729928,0.017546633725099074,-0.8922919449831529,0.308318506181108,0.26466346001865604,0.416310397998546,0.5579621776939075,-0.8347149980395332,1.3843377424389898,-0.9458780623335588,-1.4061989972344278,0.49556559675481104,0.9898923844742843,0.6850580384825632,-1.1962383702853967,-1.0754327971094377,-1.1427504537652209,-1.5332003941692407,1.6032762701417358,0.11805161543631812,-0.4933580898431509,0.07292125920836576,1.2549730086785078,-0.12265352202829262,0.08084930352294169,1.6433972147836016,-0.054425242317133124,0.7015303668722281,-0.17543859649122806,0.08793686301950442,0.7395268319256506,-1.722735185571198,-1.5386785407426775,1.2476956803135095,-0.9695557752052183,1.1443211612501456,-0.627104345079205,-0.22695420070238662,-1.5142887827236162,1.2322462636939258,-0.07741077291765634,-1.096464836948122,1.1917087467613061,-0.5945254788280913,-0.7313791724510181,1.1788184988261319,-1.1624463306640735,0.01121364471915464,0.43401372736983523,-1.6562935076315288,-1.5042263646673464,-1.637992792935121,0.39727847269373007,-0.4070897891702464,-0.01823481203490495,-0.771906022755883,1.4736841743849065,1.2106034812982613,0.5474327964776703,1.223070852036226,1.0071329912272657,-1.7576497596301506,-1.2030591698301911,0.5461237771080265,-1.895317444705373,0.5738438523816036,0.8045237631556311,0.4951923199504616,0.9286536958251308,1.2087990554909862,-0.6387685025684535,-0.8105154521955409,1.3578012319632986,-1.2083947286920445,-1.0320485799793802,0.5843135202876106,-1.2222465354950625,1.5809940583081536,-0.8124218347281613,-0.09721003078028487,-0.9709699948797033,-1.7561851711248997,0.6135748266866895,1.1052066120470563,-1.4385965262400604,1.1228071463702465,1.7044865457313358,0.518310271776313,-1.0495408234833123,-1.4590066588501138,0.6474417223277305,-0.9276840224002602,-0.0006981682141937638,-0.05318782797504728,-1.4074383404514559,-1.6622459292334042,-0.6845130610804396,-1.435614261191374,-0.09611489403885039,-0.6916408028800005,1.6950087151547812,-1.6489133122862443,-0.027794448544886403,0.07246082939576738,1.0707302757242607,-0.9481839318883549,0.7855927537654572,1.6946037056111236,0.3473043639983577,0.2973952796766132,1.631488714774262,1.192878063806171,0.15789473684210525,1.3157894736842106,-0.6830306959062897,-1.5385721410354092,0.15870376056180202,-1.2012016807540853,0.24461689618516322,-0.11554184899648448,0.4942290975373601,-0.8726528321820077,1.6551143688524057,-1.1332144683212997,-0.8506037891499063,-0.4357018615081634,-1.2464832765196572,-1.3353075829686978,0.5562798045770977,1.7352649846359474,-1.0111414710550874,-0.6094200922700838,-1.3827899116813482,0.43036655251412337,0.12319164410527646,-0.5981035190712087,-1.3516460420498972,1.0523222302279815,0.6140108397073776,-1.6666666666666667,1.456140350877193,0.0,-1.613795566068632,1.3346943504117021,-0.11496720691221866,-0.8766998266094751,1.1189247623302732,-0.13126130514194959,1.4058187928131778,-1.6719354606414238,-1.3170154487396073,1.24685639140109,1.3368670143019121,0.8150537315246159,-0.131489614685486,-1.5189332755483502,0.5633432716845013,-0.08787784679864508,0.052745300289495194,0.0357111578417679,-1.173159332456678,-0.920610204475189,1.5468863591123596,-0.7709325906125719,-0.8595954759652732,0.03504229032605614,1.6862058437941386e-8,0.03508771929824561,-0.3157894736842105,0.17543859649122806,0.5088097689851123,-0.22784756404377465,0.7215723762649019,1.445431469413527,-1.2286398322671148,-0.07791395602928998,1.0931680279838651,0.9567540022021821,0.9337448727767397,0.8618913461870884,0.5198473764163578,1.7759665606462194,-1.114157754139523,0.8618538594723606,-1.687798837151339,-1.5058950648907379,1.7438753019896307,-0.7379181891100749,0.9228644333331931,-0.43117201174040143,-0.6287535908086683,-0.8767153782926959,-0.6666309149958507,1.5087719297867193,-0.5087719299508328,0.05263157894736842,0.38596491228070173,1.6842105263157894,-0.08771929824561403,1.6842105344718548,1.3685328956390392,-0.38408588740326344,-0.6613674359754836,0.029977919605195774,-1.4694774122896526,-0.9609742222421128,1.7361844355042748,-0.7888485186703273,-0.10135201190706748,-0.8882798990592985,1.7064146132759805,1.6364570218257932,-0.4700644174415335,-0.020538332651472535,-1.0077375481342714,-0.11666634165347187,0.42616888279835574,-0.24187693918063227,0.9143943859253314,-0.5787455831370609,-0.7719331949826306,-0.4035089636462024,0.6140350877192983,-0.42105263157894735,-1.3508771929824561,0.8421052631578947,-0.22807017543859648,-0.6140350877192983,-0.9649053338824015,-0.5613869662331127,-1.1402487909167474,1.5088558345133631,1.614522798766599,-0.454591479341729,1.106012470540174,1.2461975086270216,0.03676537074139675,0.2818016060034999,0.7388318633479645,-1.6108395799299617,1.4078337692583909,-0.48566512946154705,1.2478701801897991,0.509963382666505,0.0015850448145716773,1.456974617002117,0.018801646472274693,0.00024313968384426305,-1.631578947368421,-0.5614035087719298,-0.9298245614035088,0.3684210526315789],[0.8947368421052632,1.5614035087719298,0.9824561403508771,0.3333333333333333,-0.7017543859649122,1.2105263157894737,-1.4385964912280702,1.631578947368421,-0.8070175438596491,0.21052631578947367,-0.21052631578947367,-0.6842105263157895,-1.2455162120772787,-1.017345493382201,1.0701578201713344,-1.1929831902413992,-0.24561403508771928,-1.1228070175438596,1.1929824561403508,0.7192982456140351,1.4736842105263157,-1.5263157894736843,-1.0701754385964912,0.3684210526315789,1.368421052631579,-1.631578947368421,0.7368421052631579,1.1403508771929824,0.6666666666666666,1.6140350877192982,-0.17543859649122806,0.017543859649122806,-1.1228099403651632,1.2631493105017502,0.45614784329890623,1.298277112563512,-1.333254036476844,0.14044653170961993,-0.8586331219351359,0.14252660427657649,-0.541249802593859,1.1771403169995982,-0.5598183887871409,1.159444865010954,1.0010251716171474,-0.3320695336307817,-0.8239211538250797,1.438837530862054,0.4211269340561296,-0.7893603180158884,-0.6841140210283186,0.8773143312696233,0.9473684210526315,0.3508771929824561,0.6666666666666666,-1.1754385964912282,0.14035087719298245,-0.42105263157894735,-1.7368059396301694,1.3333333522601463,0.5965066510708543,1.578978895393077,-0.15728638568060865,0.37004580559867595,-0.5253136678939577,1.633957319567559,-0.9226267930727432,-1.1789202149113034,-0.04931744630594969,-1.202665070325694,0.17219466521843754,-1.5760611873053247,-0.2984939972599281,-1.118446751909791,1.0110903240190876,0.549841070354725,1.337878897131936,1.2846521859084716,-1.0327092399093578,-0.10466772345604997,0.9300515136363815,1.122891802335877,-0.49122807017543857,1.5614035087719298,-0.5789473684210527,1.6491228070175439,-0.07009161722578933,-1.7192915482860585,-0.47368662302218584,0.6487662443124597,1.1754858730817956,1.3863403628435234,1.2801781330654753,0.8079510447855648,-0.5181263683886201,1.467295475696269,-1.2316813959532282,1.1448554437600336,-0.23692795719020146,-0.8368326057364107,-0.08394598709689022,-0.2503458880348996,0.9677437907623697,0.9297730873294008,-0.8682406368448452,-0.2637462271882316,1.3576719051509731,0.4409222494484589,0.9310673743121473,-0.3859073648602529,-1.7543851083529998,1.3508771929824561,1.719298245614035,0.14033719486768886,1.368433573210982,-1.122885502980464,0.7186938513107511,-1.1603997286566405,0.3780223927185183,-0.5429101010028367,-0.5165024618688111,0.1541049474583423,-1.2430550796487554,1.2288060145826647,-0.9131907345748115,-0.9806890291726383,0.8210457589599667,0.3440826822889376,0.1861222384704389,0.05999930663729967,1.455470136814022,-0.7320734925499643,1.712008700394556,-0.39317090452310294,-0.8603621079143431,1.4276236222283136,-1.3655141773419974,0.018177421381138495,0.8421245761802917,-0.3333333730909181,0.17543859649122806,1.105263157894737,-1.245595817158007,-0.29950171603620807,-1.0582970102042994,1.000803073883515,-1.7197716137411385,0.8520797950432124,0.7752996164292457,-0.3177152326242811,-1.6182505132520673,-0.07220037912493911,-0.07092971077948168,0.26396807257550575,-0.9088440960571644,0.2316823793743751,1.5096111085273614,-0.1840911220232893,-1.336227957947422,-0.5795049940574015,-1.1985437174063076,-0.411835954018506,-0.49526342490757164,-1.227742865175322,-0.2900433825761009,1.3875143005396324,0.5443295323661576,-1.561399769989475,-1.087719298245614,-0.42105744604727235,-0.8071259667623639,-0.7236845232634297,0.9666096043949746,1.348440146149063,0.17761625638352796,-0.1383049506241512,-1.2173960204533567,-0.05434010039330217,-0.4614587726713186,0.7165639894127526,-1.4555532737215569,-1.5581650964277811,-1.1202780383556759,1.1621910714238768,0.809225166504317,-1.6456340738772852,-1.6041814498237759,-1.1608872087048887,1.366831464603734,-1.1079902345492871,0.10337042650615294,1.570241464218738,1.312364463361375,-0.85515983207978,-1.472367299131917,0.8421110532191934,0.24561610857078328,-0.3334908640640836,1.0521926446897167,-0.8659066328523103,1.3121914214043868,1.6725175776927468,1.5513344352351863,0.8394183927582922,-1.5262293259900153,-0.6135147604263028,1.6217696795429455,0.3674432218249217,0.024426604526321075,0.3212349388529509,-1.4453374695904069,0.19786454493966896,-0.1752579753535564,-1.6425958075306257,0.6809340411628353,-0.8087939457267789,0.9572094797514119,1.2809499839635095,0.1963401144110729,0.9203147039578929,0.6816355150548737,-1.0639282360631228,-0.208873047991366,-0.1578687030299072,-0.8420964560927641,1.7194178170051864,-0.9994607845875592,0.7154025850633604,-1.3136803546589184,0.6710054889877813,-0.6323997688419821,-0.43871014919948376,0.5143048648899502,0.4767166444617199,0.12300011977844012,0.034992376835752924,0.6749363440415002,0.09435721592736702,-0.028706685686646652,-1.3349759325749524,-0.7444620139436804,-1.9210201526561645,0.5561964054064025,-0.19873735074266352,-0.2819556391292339,-0.6525588078189536,0.18548238019492996,1.654961181271806,-0.5444950952353707,-0.4325998832693259,-0.2968375114153259,0.08798628087091385,-0.4386227247843754,-0.5435504144551055,1.7379709760643938,-1.175696585294908,1.1386499036368682,0.30734050106167154,-1.7044551281229914,-1.2398976074062138,0.19930103716210024,0.517443399418361,-1.2087758915522144,-0.8500824685158747,0.9013905481708959,0.1818068182492968,-0.8334048573198276,0.8459320815376449,1.011882037839569,0.461586055952511,-0.04004846825792094,-0.30615931306970645,-0.0854731477994815,1.4710322334190873,0.012046587647787245,-0.2364876543753736,0.5424060288864396,0.23369754950816476,-1.6821234750595897,-1.0874931923309785,0.7017294503902924,-0.5610019801185073,-1.033195462488568,-0.6644860005729308,-0.2244877472596302,-0.8424881251579166,-1.762928636519648,-1.6288676579553034,1.4152233320951373,-0.12076292970591548,-1.0808351094009896,0.5890651129372172,-0.19823033639325952,0.4954173374705366,0.7956879585491347,-1.267147730407764,-0.6629093890261959,1.40072743095781,-1.4709450483709265,-0.4928083402129205,-0.29539526452979886,0.1996567273427481,0.5657888324194643,1.0080102889816525,-1.353697157338193,0.21519918369819666,0.5981195393502267,-0.01748155310519834,0.4384881685418278,0.3865444201095683,1.6686759035915795,0.8445590884190399,-1.630633764991642,-0.7252503354342327,-0.8066104779416751,0.16447598998407703,-0.7924287132256775,-0.37495449783495016,0.7726102006387902,-1.524662318197218,0.9308951241378357,-0.8379583020650417,0.16426756665232994,-0.4899711462003384,0.040155440168677996,0.102759525196066,0.8644869588534568,0.60745802622967,-0.5073648376209848,1.0156039898883882,-0.30425236234129094,0.1804924812716055,-1.7430375577885326,1.2656022980738602,-0.928914719358277,-0.3333124273635759,1.4035464072234936,-1.1573689643529759,-0.6654493426661579,-0.7007999834322151,-1.458370003877571,1.3041652018832002,0.7812369747884047,0.35573466779233803,-1.1155328004023628,-1.335844175626939,-0.2253711208325362,0.93231378707866,0.2100207050881828,-1.3157191134561321,-1.5585809826929904,-1.4739680004789464,1.118466393515705,-0.9210930327636176,0.24361499356589567,-0.33622440014538796,0.6960051368313801,-0.19911405503260884,-0.6773323612012672,-1.289800613397563,0.8519794819369987,0.6152413566819221,0.38628301329282483,-0.12271767483834625,1.5263158443286091,0.9300626366196477,-0.0875995055493043,-1.5271933929198167,-1.3362008226963171,0.5503440084507298,0.028834260876105827,1.6231094599059086,-1.5019416954718368,0.9836293384920287,-0.14132855803150282,0.6439412714208277,-0.14376038039286998,-1.7941813156275537,0.6955920909028056,-1.4555800915842725,-1.027379569066552,-0.20591809600170802,-1.2013454069111724,-1.1800889173317575,1.4388139393584483,0.5447861968535289,0.8646484742106164,1.2064656308970074,1.010154235470182,1.633044822548223,-1.4558317424796434,-0.052637788044793965,0.8771932255197818,-0.8069727055514577,-0.631452850074586,0.683626469899581,-0.3160064010197453,0.6792099527478999,1.2399611318973494,0.7710913664464302,-1.0421290482002663,0.6035557456219324,-0.7716149858042717,-0.1590927507009586,-0.07527605811315159,0.47898427465839505,1.4821017219176038,-1.5639445478901093,0.031550078032288785,0.7203728591653106,-1.4316855668320447,0.8338793699052318,1.4847494691500414,-0.07976722358422449,1.6241298970464941,0.35055849328268124,0.44989599827983606,-0.051543262937989824,0.6487526440871744,0.05262062440006983,-1.6315786712097728,0.1227209886795424,1.3332242805207375,-1.6852295745825066,0.14145930434724788,0.37253931437540255,0.5651077018847664,-1.0126054290314563,0.9893028644876398,-0.3925255557428831,0.7419909199559336,1.7485270602874876,0.21455683586298574,0.8082095576759801,-0.407278742300692,-0.8866574364795371,1.1768392350370132,-0.24237239101180966,1.4305707134913304,0.57445537704251,1.6515188214129253,0.8540663521323258,0.4234826850427448,1.454454815452428,1.0962805424293327,-0.03513388281108247,-1.298952366742189,-1.7017588397655459,0.5263169127390442,0.877098645961769,-0.2817079505210349,1.1195658910272157,0.36797799000209563,-0.07585192822594146,1.2111270739832343,-0.5681380556141473,1.3802900205890263,0.3654825580445715,0.8620285352800869,0.18189991398286795,-1.6891466722171362,0.06093489011384949,1.3096139596896779,-1.092968386491736,-0.9024751798115178,0.9877458396345551,1.209381841277459,0.5065086809321886,0.5100639747040872,1.669331791005115,1.0018966797571267,-1.2242117307442217,-0.013686927292777032,1.0684783941892229,-0.895375723492079,-0.614063531649562,0.8070175438596491,0.5788641705712779,0.1911246361176405,0.13230013982829417,-0.041812675021928064,-0.730804557802443,0.2551080392874471,0.17977241507285385,1.1415179924637164,-1.3360163429067273,1.375012380298143,0.9538279381444472,-0.8146684086266568,0.35301459978508926,-1.0202611404023068,1.417692779087292,0.4979299379703288,-1.1360627272451707,-0.24506466012840344,-0.9525368774913776,-0.9711333813804766,1.5191290709797838,-0.024144214479856627,1.4609986364483456,1.1562281622664958,-0.3355538739787807,0.7536743968674308,1.4561105242893224,0.9298284977102452,-0.2631951813989849,1.2779536759654095,1.582487318400646,0.7165335590829012,0.4073729859551507,0.3417093977236734,1.2698748010153902,1.0181942637016597,1.0343955784218375,-1.1038560215350217,-0.13309393932546865,-0.48152477031319996,-0.6942683186224226,-1.5975264542096381,-1.1639200492802355,-0.08499322320400225,1.2793361774162904,-1.0463179699247676,0.5400871274407745,0.5021951702658323,-0.7588710150990089,-0.35262301377044614,1.5844162337392076,0.4490662898584199,1.4357964130153609,-0.15828189954558916,0.6665295838538048,-1.1929824545059469,-0.00003885156913730891,-0.30197439111268864,-1.5287642748530808,-0.8425829816072522,0.7151247747833406,0.1094419709869915,1.5039485060036784,1.4203779004697326,1.2409174998445447,-0.7414686564794022,-1.0400752243647058,-0.9074791945855119,-1.0246413845937232,1.5947492320421999,1.6338486174758606,1.3742866452428781,1.3747975529736778,-1.1946067521493884,-1.393979307472659,0.7611278643065066,0.8807082595427539,1.1957942034344569,1.468670547970636,-0.3438326438481138,-0.6002335022210913,0.2627789537231617,-0.7018600791847224,-0.9298245614035088,1.4911639601830589,-0.512516908188449,0.08315014464175627,1.4284892759923025,-0.6739411512884712,-1.1037759177562103,0.4967681872294835,-0.8573531245008991,0.2687348583500276,0.5721964787905279,1.4978031480922662,0.1547080530800534,-1.1301338120505127,0.8059239306645337,0.2545115335598383,-1.4280849529360533,0.5531997843721742,0.513001881682037,0.9969101248118983,-1.5584901647158247,-0.9071440676394009,-0.4943226720570494,1.3449738373212505,0.024605255275375146,1.0847017849472775,0.31556232394111955,1.2105419832191704,0.2280701794837104,0.08766911526136707,0.1369156466264015,-1.6835857727223564,-1.2687463776338506,0.10903555698422736,-1.3158975970637223,1.0680011930147215,1.377119935648692,0.5086110741782567,0.9089748731442768,0.493942735149398,-0.7114801531253248,-1.137349662788946,-0.44361804487748996,1.4658592059606443,-0.23928297021982825,-1.568527477887498,-1.7635754349143127,0.009199830873811828,1.0758051458287847,0.04960564877403478,1.403325740817509,1.4595871573315327,-0.9019342892080421,-1.7033858594095441,-1.1402295736155965,-0.9473681859898899,1.105263161813441,0.9473677835893238,-1.7210740735791874,-0.9584449808474355,0.8126163234683593,0.4397077507221512,-0.8394050631092606,0.10417175513873969,1.524729756192417,-1.4134387105751725,-0.85998010611474,0.8013107536837896,1.3036402212837483,1.5805929325323547,-0.4266533920275256,0.9150265443760192,-0.6139211309778101,1.170500810685201,-0.6215628494361143,-0.06744034826902116,1.0938019982797682,-1.042821789856333,0.3155635479913566,-1.70859197434227,1.699178424071152,-0.9123851437964652,-0.9472756419014664,-1.1578943028801207,1.0,-0.43859649122807015,-0.789756241195374,-1.4422354734690597,-0.9232179423743214,-0.3019254216763741,-1.776550318708583,-0.6348452695910937,1.4738644757501318,1.1129049916662077,-0.5071824447639797,-0.6653612956855146,-0.28035698930971836,0.8089532015782014,-1.4299457714130113,-1.621959955787673,-1.7663702821332012,1.3511803178255422,0.7402075653423017,0.645197446600454,0.7471659034074738,-1.6871517210436837,-1.657196052779849,0.9083405339060084,0.016545225999959813,-0.38595704824460486,0.7017298397417255,0.5263157894736842,-0.3157894736842105,0.19298245614035087,0.40336824274800614,1.0696936611070804,0.8750894750478516,-1.5125019920047535,-1.5838108992482358,-1.4304264480426299,-0.4023786296965817,-0.12852151279286045,-0.11632323865452247,-1.4217734456464086,1.1854654882496658,0.08862045560809431,-0.4562514001871855,-0.5113039796518853,1.01796399192015,-0.32888905701215676,1.1160787167754944,-0.9091411052705403,1.480807863373076,-0.049464528190121086,-0.46249220446089817,0.5053543337631563,1.5785362338528877,-1.6490546521314249,1.2105383616883107,0.9649122807017544,0.19298245614035087,0.6666666666666666,-0.0701777783477486,-0.035040400494379516,0.5084031034171649,0.9815144803995173,1.1394614387741113,-0.6849565968231577,-0.30081431883376386,-0.18406660853394882,-0.3038342410819737,0.1825449566446165,1.2425520102757954,0.20810938086482184,0.4012841225727952,-1.0924143401582476,1.6172208636844203,1.124224227454164,1.5327261448340326,-0.21834835098783398,1.1140639325014916,-1.2246282289244896,-0.32137709176369994,0.9106812514092264,-0.49160770840643103,0.5087826121564447,0.5614162984950026,0.3684210526315789,0.7894736842105263,-0.43859649122807015,-1.1754385964912282,0.8070174297042176,-1.596546320744632,-0.05251940160441579,0.24659054377255266,-1.1558740919943664,0.40547100418885024,-0.10572135297809158,-0.8789639978414105,0.4684405915030375,-1.2365549955640964,-1.4133167883552036,-1.6227926390157734,0.03336309323703907,-1.2765027372066144,1.6944018610011673,0.31725258894809744,-1.4322674267287698,0.7471727887499162,0.20775507156860773,1.1921535598687774,-1.0702286237948204,-0.6842102768871493,-0.10526244995808746,1.5614035087719298,1.4385964912280702,1.2280701754385965,1.5087719298245614,-0.9298245614035088,0.3508771929824561,0.3684485066402047,-1.2278125523314682,0.9829809857158402,-1.1398011841256441,1.3516659441372867,0.6850431555812224,0.6682828189245723,-0.4173306770884413,1.197369283532004,1.6536884350793237,-0.06734611979863525,-0.6312664877000947,-1.4216888746759506,1.6127907502430268,1.5786078722408952,0.017827017343796533,1.5787598950748074,1.3856932661478285,0.9999084061783483,-0.6666779723945218,0.03508771929824561,0.543859649122807,0.19298245614035087,-0.9824561403508771],[0.43859649122807015,-1.2982456140350878,1.0,-0.2807017543859649,-0.8596491228070176,-0.7719298245614035,0.47368421052631576,-1.6666666666666667,0.7368421052631579,1.2280701754385965,-1.3859649122807018,-0.38596491228070173,0.6315759362085898,-0.8771995758579448,0.36842105263146235,1.210526315789469,0.43859649122807015,-0.15789473684210525,-1.6491228070175439,-1.2105263157894737,-0.7719298245614035,-0.9824561403508771,1.4210526315789473,1.543859649122807,0.12280701754385964,-1.456140350877193,-0.5964912280701754,0.2631578947368421,0.38596491228070173,0.6491228070175439,-0.07017543859649122,1.5964912280701755,0.8947368420126323,-0.6842105265879221,-0.9473684210650735,0.9824516897423342,1.5611780416012213,-0.3861403946765436,-1.6141294466045475,-0.8947931845106292,-1.4922668079920998,-1.6683858881789875,-0.9656352967394646,1.2627125620436837,-1.438754974079281,1.2804083676466844,-0.315813617434103,-0.6842116941426167,1.5087717653592734,-0.701754388276306,-1.4736842107554278,-0.3333333336236376,1.368421052631579,-1.3508771929824561,-0.8596491228070176,-1.6842105263157894,-1.3333333333333333,0.8771929824561403,-0.7017543859652454,-1.7543859649124143,-0.01754386122181725,-1.736842090277251,0.6491228877183057,-0.5614904095131252,-0.7547724097037406,0.8762517774893049,1.1205735374104442,1.1344498612671314,0.8460380968355953,-0.22402546171200372,-1.3071849169645546,0.04667617898072573,1.5039010275694675,0.10179860674074978,0.9813740440951484,-0.7195769631266576,0.2455675136335318,0.1929815126068499,-1.754385970307062,1.35087718862173,-0.4210526300966905,0.38596491435656083,-0.5263157894736842,-0.2982456140350877,-1.5964912280701755,1.3157894736842106,-1.508771924537296,1.1228070188018224,-0.33333332147095585,-0.6664807544372021,-0.3681549420881864,-1.2628820013684354,-0.08774381021483889,-0.36939667770978224,0.4878132600225861,-1.4677625677364554,1.0465031947357737,0.6979872166843449,-1.4340382504039757,-1.727973321565184,0.8190062198374286,0.41883474409961297,-1.2986835537867492,0.6659971280719704,1.385006911565246,-1.1583196367939261,1.7367318154261102,0.3858794341630558,1.0350851176172169,-0.929824560641964,-0.3508771929904042,-1.4035087719298245,-1.5087719298245614,1.6842105263156657,-1.4736841924405721,0.36841475600520274,-0.07026440845841204,1.7017611887582156,0.49053115095340716,1.453964758875474,-1.2668984694379226,0.8517560609133046,-1.5014235516222556,1.499680363486829,1.5425566456790822,0.08830942343549182,0.7930007104808934,0.8884315867047237,-1.2123519266692901,-1.312216935946313,-0.880273726637295,-1.6487747807823987,-0.9437683176323742,-1.4681192363439273,0.8449331798661974,-0.6836674926756927,0.17569863105590344,1.0349580675080112,-1.31592033247166,0.36841435739758965,-0.2631578947368421,-0.6491228070175439,-0.5263157802037544,0.315785031277858,0.8069025731586702,-0.0878564987663928,-1.1250707724684867,1.0446815934726417,0.8787964484780726,-0.19985460763872517,0.9012452176402176,1.3496007581199763,0.9871980649732649,0.4436204655549496,0.6321590910396151,-1.1445524277176966,1.6290614984260772,0.4138154449333062,0.2262080696306772,0.700551569641166,0.03020051517213287,1.680810343219892,1.0239733571059355,-0.664397579991737,-0.7536571315924361,0.9299767273460747,1.0878042717545717,-0.6140349428247567,1.3508771929824561,1.1929824561177893,1.5438099604376307,-1.614099301792497,-1.0177837077377159,1.6479854881585208,-1.6025375599282,-0.39916738965404924,0.7676809986487152,-0.6774207109541309,0.3916759198797125,1.485130160624988,0.0270333670730915,0.1320801474113177,-1.4682133914989617,-0.2950168089231012,-1.6590025989762394,1.4618273410394014,1.4415205799909672,-0.21979110120476725,0.006352714196702719,0.3967787513019747,-0.4513282195729999,0.08935476710928647,0.8955445121551797,1.2814119067478282,0.351155632159124,1.0701932941010912,0.6666666666667308,0.052631578670023334,0.9473289259451989,-0.14043344747564382,-1.2462539349219006,0.4890605770658383,1.1515808503529408,1.0418352127162562,1.0037564884829584,-1.578496390912928,-1.6327155013556385,-1.5068520092000584,-0.06618805260209844,1.02950467878127,0.3984250049123522,-0.6009668231150048,0.01719118672818072,-1.6102391579623232,0.231218185686063,-0.20867453485152065,0.19003394522626801,-1.4184444412141386,-0.6135758201872378,0.8060114346281161,0.19314129461799318,-0.5082114277849122,0.1228908702195086,-0.9824530904723213,-0.789473684210266,0.29824561437156955,0.8069963808732622,0.4912076800394782,0.6310839579223847,-0.4224154456638073,-1.739675012507597,-1.6179368608957814,-1.7600782437058884,0.19627368680220508,-0.5040045986146585,0.6609666426282306,1.539355054787826,0.11530596127602998,-0.21417422203820066,-1.4873943566133407,-1.7147137305122797,0.6702740061570296,0.2141148582395114,-1.142595062996099,1.4281738324150184,-1.4073637138930601,1.3837950420969567,-0.10593178567974638,-0.9471687074737628,-0.9121908928259562,1.6316095123687326,1.7368433057743018,1.0175438233982994,0.15789456775521815,1.2280662339482837,-0.6140567132515166,-0.40362245692067256,0.9816424017569505,0.36711957023195047,-1.1419645610042244,-0.5654782710492176,-0.42147345921526386,1.2229887064902896,1.04213839184002,-1.4966142161184528,-0.8288819977692977,0.036675964878651796,0.9235289571929091,0.7374822109982769,-1.0433080391865543,-0.928074066269235,-1.2657785612640737,-0.97652227773404,-1.4610213297218142,-1.4400812245916523,-1.438726937663759,-0.07023509380712645,0.3333419437637111,0.5789653627934104,-0.22807079557814305,1.1929824139713507,1.4561154118629756,0.5964675466953726,0.6666257094588264,-1.2984437736550376,-0.8604641631145681,-1.4228257314436024,-0.0020681346366398187,-1.1642674051616893,0.2938348020113918,-0.373238456913814,-0.16816112096561467,-0.8078614453823392,0.5705360003248912,-0.9316194979892188,0.9174564897687818,0.5270795893367478,-0.22989212203404552,-0.8082991318441826,1.3651253102178365,-1.379785814392431,-0.14507268440937868,-1.7206833393806518,-0.5968917769453984,-0.08773123287673579,1.403610620933878,0.9649306178772069,-1.3859646333577778,-0.350877197344914,-1.0526548633129187,1.7017103066153636,1.3332886148070553,-0.17574278342097377,1.2972099636723842,0.5767018710826911,0.6975159243643184,1.6915042540830643,-0.14705912430778756,1.4331318759250475,-0.2261517546258419,-0.4224517368949551,-0.3803549334091945,-1.0166777426742208,0.9555365304536827,0.6686851218890242,1.0439347713637825,-1.074976976318599,-0.8851688670415069,0.33557269486703634,0.6232885120383366,-0.02098962858322668,1.3148748095151555,0.5439270068167172,-1.701714139792583,-1.2983682228586497,-0.0002468283593048399,-0.929824559670301,0.45614013464009595,0.26318200833904837,0.8771988543307939,-1.526742881589752,1.4194007665424717,-1.7570320409164428,0.25880145526423093,-1.3784635684866384,-1.1624771857776295,0.20800125876789474,0.9961671260701962,-1.6216188473463309,1.1049381773886349,-0.03861241459817057,1.412608987212543,-0.666979972961321,-1.3936260498471589,0.8716455160295001,-1.2582493975870104,1.3994256904599682,-1.2061682790644666,-0.09309930425561375,-0.8088248982174794,-1.2284234782327546,1.0873140506413446,0.7009145530847818,0.7891860957627119,-1.4385963708545946,1.5789476311585289,-0.6841966087853164,-1.0350883481481254,-1.3163603684200498,0.3317931131661414,1.3141269929790182,-0.5463353721894024,0.18515237108271265,-1.7035203234711607,-0.9439377151435565,-0.7412465229442309,-0.1971801633913734,-0.16441480968531516,-0.6044173215732175,0.7019849212885954,0.11284825139083753,0.36920719677250974,-1.6674637077622914,-1.1351553165291615,-1.1654707630788994,-1.5269425412574404,0.9903639464238579,-0.6868971793656592,0.5951317794326225,0.6652581035326474,-0.7729768386798302,-0.05271562295352972,0.8421052790088784,-0.38596484241154744,1.6315745170639906,-0.000030840838904420705,0.6839580739636238,-1.4920662297362428,0.4375783315680577,-1.4571457300428179,0.519434556878157,0.3139665392843648,-1.7475944906024974,-1.2284313091980967,-0.7712321902099705,0.36972768485904584,-0.6972047068585414,1.7835293517154054,-0.7158408256667217,0.12161598471724074,-1.1675985403130573,1.3770720358806658,1.3577520648162382,-0.4087075526394029,1.07543549344988,-1.3899043323005142,1.4365075927047024,1.577592138133886,-0.05312600579591984,0.08771924099986761,-1.2456140274901597,-1.5964912731215994,0.982385023637524,0.5790455793118243,0.8594745440447366,-0.57925730997088,-0.7374204287014937,-0.913420124969484,-0.4805342898093629,0.2424263719246729,-0.12017076508821663,0.7537103277963151,1.717941941317987,1.3476011375201027,0.8318894168626318,-1.46401410031149,-0.29076553951348244,-0.941632889860154,-1.387944841015714,-0.44005884114589755,-1.0642930093020158,-0.09561664809113642,1.1800808738810837,1.6788582910225598,1.5764119905629272,0.06938510251953157,0.21046518077505355,1.0527164167224787,-1.7192982318573853,-0.6842079384245993,0.7542611086609581,0.2805222612962778,0.4206584728948769,-0.14061565261583014,-0.7369655214005145,-1.0366705909178082,0.6254317508183573,-0.8108932736712401,-0.05525691287633596,0.7842724128752613,-0.45576881256940593,-1.0044125224106528,0.6152791517244101,-1.0306910452330802,-0.8574724802562189,0.021956411559383007,0.7093620136041782,-0.9017071383142904,1.2088163220119115,0.4273392589424209,0.005407693171858261,-0.8289732335161955,-0.965869271735948,-1.2104519584075804,0.7896605627318043,0.6316168095464219,1.5087719298245614,0.1403527012109076,-0.3862254374355176,1.2977933953603187,0.016769563963587687,0.4379181286012028,-0.29848063438426303,-1.7556914051792287,0.6419409629806242,-0.5476958814746994,1.395367320544084,-0.15229050087950716,-1.290337307833095,0.3200900102552627,0.21616067058991828,0.8959108072336692,-1.3798962666084162,-1.69886451833124,-0.8288381468525577,-0.35607946785455974,1.6426574487134369,0.4141666706402461,0.1503090780161994,0.8925268624505306,1.4737607440701943,1.1933409163094724,1.5442480975206456,0.4738428851234802,1.368421053193386,0.49122808688007547,-0.6493037338981837,-0.8601750455207755,1.4025129644160261,-0.7211974483447796,0.05041618236093482,-0.47675413020344815,-1.4092052038609961,-1.162750948939076,-0.18764096643020553,0.5861328810043371,-1.1656529409123473,0.02368550640253675,-0.8676546465158507,-0.932847136490233,-0.16432059009694494,0.24055948407230418,-0.17808871257846642,-0.5046508543313961,-1.1564907362545194,-1.015848946113937,-1.7067545658149328,-1.160188892109312,-1.0351997912786297,-0.42092651810071235,0.4036208428940114,1.017608202400961,-1.368421049335885,0.7192982699054589,-1.3685051984474883,0.6488460096140117,1.157234725337746,-0.9677391787083545,1.6790739864156745,-0.21622415046121393,-1.4608040585592508,1.5216243567060088,1.1657914295058633,-0.8340275611407263,-1.0144974909917617,-0.5635654616329597,-0.8407809043424572,0.9806408207909361,0.19415289846289033,0.40014860420601944,0.556838095841886,-0.10809550409888229,-0.3188801008159762,0.9030962948919615,0.6792972921729166,0.033072931158463374,-0.6854433740327366,1.3326889681621863,1.6487645532562456,0.1929827678042248,0.7017543859649122,-0.8070175909939354,-0.15791388975595327,-1.2107185779468739,-1.4918008124119777,-0.19626662127919417,-0.042572002466111425,0.9938322010630644,-0.12985715452805596,-0.2321320716345264,-1.1233009083512921,-0.1941413710081228,-1.315069816186808,1.0415428184790194,-0.08395896440170122,0.8444975342466343,1.2634107694063024,-1.0806820365305156,-1.5959730371662477,-0.05488498622443177,-1.1333858226847624,-0.6201939523714894,-1.5289946119683313,-1.4574351830628656,1.1218708667456623,1.5782748751565336,-0.7020008094441044,0.7017547929015862,1.070175492225694,0.0175438285240526,0.21049254741082077,0.15771100740665292,-0.702345121587453,-1.1598788191902802,-0.16213585514345563,0.2399519232500251,-1.0964270855552476,-0.009213324006112158,-1.3169020985143405,-1.0989089881196206,-0.7181842947153022,-0.7369257495734216,-1.4020941597499026,1.2837521227347222,1.6694141249244376,-1.2533244127273107,-1.6158919432168277,0.36112924204354097,-0.5494175418827927,1.470221611237301,0.8230297823133618,-1.0185472740925232,1.0169167469790095,-0.3686983602740225,1.0525707647361824,-1.526315789414851,1.140350929146273,-1.438596487080591,0.5612386833404249,1.2629528156333576,-1.5970393958973248,-1.1036311810150687,0.5798539974169832,-0.1097198749146294,-1.713945621137822,-1.0329699663989755,-1.7551711129211565,0.34465109690459894,-0.8202787380608475,-0.4608216828695561,0.9967727202076319,0.6386102415530319,0.3152550495264109,0.2756798633934081,0.48729312088687027,-1.333197205601696,-1.3701985554731808,-0.9307011191199434,1.4730333382881837,-0.754534820176071,-1.421261964345773,0.7192078959250565,-1.3684199781648156,1.1228070176524751,1.5964912280701755,-0.03508771929824561,1.5787465058987398,-1.579312233335477,1.6134482370011622,-0.8062826071826082,0.24764349096887794,-1.2841769504741507,-1.6447106410971823,-0.307102946175531,1.0553432619558814,0.9469521585236599,0.4550331041622905,-0.33128319074132623,1.0278477815331426,-0.43121360104423295,-0.9278538954753536,-0.017961105556147026,1.4511349894032657,-1.4382852132389583,0.13926587731299944,1.6485583843445688,0.3333836609905196,1.000156510939411,-0.6140277683422801,1.5263163019118708,-1.1578942217843928,1.2982456140350878,1.3859649122807018,0.5964912280701754,1.017540470135907,0.38581523475530877,1.0526846171703543,-0.420505037699298,1.4364751181300823,-0.2704872527900565,1.2189352788819912,1.6036200289632552,-1.6839756518769158,-1.5527659150064816,-1.1893203315230956,0.7351426501615648,-0.6436686722294195,-0.6972708907962542,-0.14004825159708056,0.009570886139472915,-1.3123708821427345,0.06991322897622956,-0.21171225428447513,-0.42173405917289664,0.6838219988060878,1.71917806101872,1.2280612395988415,-0.26315463785898807,1.2456151769486878,1.105263157894737,0.7719298245614035,1.2280701754385965,0.9473683806492972,0.7368370861432041,-1.1758068814088534,0.7188148269202794,0.8064619409454828,1.7358999129959722,-0.4221792983265905,-0.6859541283505183,1.5417874735039327,0.5054525358835372,1.345084181249089,0.02955630503737714,-0.47796271451608213,-1.2524458867176012,-0.1294424720124499,0.34703505074848356,0.8237860547043943,-1.2457877666172308,-0.6842468647735038,-0.10525948802610437,-1.6667566076903453,0.14030769329876427,1.5438598313006406,0.12280785204847158,1.5438606466915334,1.736842105263158,-0.6666666666666666,-0.6666666666666666,-0.2982456140350877,-0.877192982456144,1.4210526315760597,1.3157894574283449,-0.10526315577895803,-0.5789469094826099,-0.5438599938226885,-1.5614042726221884,-1.7545702788222697,0.3504134159674583,-0.17609920661455122,-1.3704349267236964,0.1387590463276374,0.6987555529767356,0.3658810939288117,-1.3167696906926232,-0.7370497558376239,-1.4561603424314147,1.491228259958125,-0.8070125341292549,0.8947382519706171,-0.8421052920322277,1.315789473679107,-0.9122807017543859,-1.7017543859649122,-1.2456140350877194,-1.1754385964912282,1.2105263157894737,-1.5614035087719298,0.9649122807017544,1.2105263157894806,-1.2807017543858363,0.43859649154354885,1.2456140353568819,0.31578947361179116,0.8596491232575642,-0.07015144296952007,1.421096133656757,-0.8420976973408631,1.1579617293754667,0.000038909986187161207,-1.5263141313978956,-0.5614026092844505,-0.7192983352414719,1.0175438080747725,1.4035087674068523,0.19298265984873902,-0.3508737302551615,-0.08771709606313932,-0.2807017547816907,-0.45614035087719296,-1.7543859649122806,1.1578947368421053,0.7192982456140351],[0.5263157894736842,1.0,-1.736842105263158,-0.12280701754385964,-0.08771929824561403,1.3333333333333333,-1.7017543859649122,-0.12280701754385964,0.45614035087719296,0.0,-1.7543859649122806,-0.6491228070175439,1.631579414731166,-1.526304320330617,-0.017532235494784304,-0.6140346033795343,-1.2456140350877194,1.2280701754385965,1.5614035087719298,-1.087719298245614,-0.9298245614035088,-0.14035087719298245,-1.263157894736842,0.543859649122807,-0.12280701754385964,-0.21052631578947367,1.087719298245614,-0.3684210526315789,0.47368421052631576,-1.6666666666666667,-1.5087719298245614,1.4385964912280702,-0.9649122807017544,-0.8070175438596956,1.0877192918050387,-1.0526348880346417,-1.4557391167701712,0.8775037837065881,-0.2279192967939609,-0.8245620299204259,1.2982233906880727,-0.017565789859350818,-0.47516069310389253,0.6647141149628972,0.4382289812201856,1.2278806842050192,-1.4386145378806903,0.21046258447274419,-0.7194076858086669,0.4385109622573029,1.2806964061315886,-0.631578947368695,-0.2631578947368421,-0.7894736842105263,0.43859649122807015,0.3508771929824561,0.7192982456140351,1.2456140350877194,-1.052631578947371,0.3157894656169186,-0.36842105272913134,-1.4210526316553573,0.5614032055978672,0.24576667874459265,0.5444520585396235,0.5970351755417993,0.7024773562342722,-0.595882924665995,-0.26099223710895886,0.354836794024856,1.1095660163699899,-1.6101901494461697,0.4432261902097651,-1.349497602101903,0.0887126061016372,1.526241786250267,1.613950256589258,-0.666905494397893,-1.5969388116095682,0.7542886341004118,-1.5438599870333487,-1.3508773153950924,-0.3508771929824561,1.2105263157894737,0.8421052631578947,-0.3684210526315789,-1.3859649600280393,-1.649122881090413,0.9473680915145843,0.08774170762829746,0.08817386069334404,0.9839744323429231,0.6533534656311986,-0.9740769741819895,0.2058603670674736,1.6681974105201656,0.3589361465048628,-1.3549575916154564,1.7593929377445179,-0.42648344140819167,-1.199475140879577,0.24279024614014982,0.20854359511631268,1.5664957835683269,-0.032486531074081774,0.4395203058108965,0.6306436564878171,-0.631766647930699,-0.2807246858069816,0.9473533545078747,-1.6666667629479888,-0.14035087719298245,-1.1403508771929824,-0.8070124576393672,0.3333367988574148,-0.9648193788980617,-0.45564546380480986,-0.9456742463601422,-0.2222731215245613,0.4570600758352734,-0.508633132478748,-1.49124098841452,-0.24997859624018437,-0.17411831757881605,-1.6276670141962668,0.3178175104520206,0.7081479515229332,-1.4459375722673404,-0.6143774652231552,-0.15150820490761352,0.6246894460506547,-1.361636289498648,0.5749947877214917,0.11210212775715628,-0.32169206417989127,-0.023846875206898717,-1.5791245034418389,-1.5260665798810888,0.9824501074721957,0.3859595037955032,1.6666666666666667,1.736842105263158,0.7018310491503189,-1.122579843228747,0.5973151593754994,1.5000837761491288,0.692631813582447,-1.1169004001678584,-0.4897614064455315,1.6478106877997158,0.32243262797137345,-0.51757011402911,-1.1840229651522447,0.9855705686080104,-0.36546220902486853,0.8080739481916874,-1.1525934935613125,-0.4857105360936812,-0.8085047203430146,0.43130112459944464,-0.9321807830742906,1.5036079428652926,-1.521607021497093,1.0112166196026868,0.3863813871283772,0.26342233022195854,-0.6141396205074544,0.6665941837027671,0.7017543859649122,0.21052703198975084,-1.6311232834581975,-0.08566705387176601,-0.13270902581431548,0.13302178944645504,-1.6914739706348505,-0.55121076828093,-0.36226298222945086,1.026182286127538,0.7857927329101732,1.740496207787346,-1.4307061737989915,0.7281798709375042,-0.03308935929315415,1.6031151664473655,-1.005061525041192,-0.5102795972135278,-0.956084462957635,-0.7968410366338324,-1.3484916152254014,1.0079161713470604,-1.730456066107896,-0.8189270238724445,-0.15596447908342642,1.3334717845405537,-0.8422344951070203,0.2982322498044064,-1.7017459253232048,-0.666183701403409,-0.6831813047759285,-0.6075279224936343,-1.4192063021806003,-0.4804387617411585,-1.42610008946025,0.11924248095807063,0.8037523659955242,1.8281181919708223,-0.020103944889751913,0.12182187386547941,0.7029664023471466,-1.3400165719467831,-1.563366437292873,0.6286107505534657,1.1653051464255315,1.3108259341531914,-0.7918486376021632,0.8923950385866707,0.16579306781084496,0.339087855771123,-1.5738820517992091,-0.14052718915965393,1.4438813984378696,-0.03471186171998403,-0.08765358009472038,-1.0523954547142313,-1.7543515823036941,-1.6656898299583807,-0.4882527814391206,1.6242785566943738,-0.7091952697057642,-1.2250652303150393,-0.043595238035869927,1.664749830728626,0.5713098166796017,-0.3967799556184081,0.10464900159176597,1.8685218876270988,1.8106715234814668,1.1775904665024894,-1.0466318276872857,-0.2015832612740809,-0.9934810693059625,1.2503001904344437,-1.2196961013534835,1.4977874363506642,0.5280975654448629,-0.7526974340175797,1.737222133585124,0.5645038039047909,-0.06238308020419689,-0.4902717234168199,-0.3329739280529802,-0.12253443469115494,0.7195488370305336,-0.27989908138341457,0.09277345913700877,1.3272351633456005,0.5385639290843065,-1.0481844022385363,-1.5877467881904959,-0.3929248590286136,1.7006672852876028,0.4633665725933212,1.8422331370537366,-0.2068231361355785,-0.9963367525334874,-1.1374314886599382,0.30600488818827776,1.4003714199852777,0.6995304368848376,-0.5111035529820336,1.2743626548805564,-0.015420413299471305,1.5945303325281022,1.5917689431594761,1.1914554336881185,-1.3111431166512828,1.09357487692078,-0.5610932141585391,0.491488792403292,-1.718854503679708,1.5967779009635301,1.4917074137418684,-1.3457454966747444,-1.145252996600441,-0.7268399877061479,-1.0161610882632242,-1.345352785488967,0.6388801096900621,0.9980245864077414,0.2442029820877867,0.99803043964109,-1.3869886612526356,1.2615532607468452,-1.1087211173811469,-0.7178418118072867,-1.3695956533707345,1.073642840547577,-1.0426576437533517,-0.833621368043352,1.824279719519772,1.2390656600972902,-0.7773692678119538,-0.5823963067030573,-0.822854265347644,-0.3290699278026752,0.05364508237622415,0.28174286220459127,1.263249779634003,-1.333061544668412,-0.9285108964722758,-0.8378754957040258,-0.9022188622247852,1.143024006337075,1.408282172320279,-0.4804562761716425,1.2315382071020093,1.000686068384911,0.43804680847785676,1.3756807061369827,0.20437785131046962,-1.030522292207906,0.7391574174926832,-1.697748130755357,-0.5537241280512248,-1.2767144544223008,0.27364684306548703,-0.5817894569132035,-0.7044388179605693,0.6031337279558369,1.1662842119401664,1.100851781404347,-1.3670394251978089,1.5471648712330321,1.719945864189445,1.52693513021576,-0.22806397939103232,-1.6490437561720581,-0.2627873237608214,1.1422844238594463,-0.9754767478247268,0.6457496057668113,1.0477448118713635,-0.629814009493372,-0.9639465973196158,-1.228186563225431,0.6492781244856716,-0.24795762117163264,-0.3698286342460116,-0.7515836724561153,-1.2232972175328136,-0.8513217228276001,-1.1320603372013707,0.06790553171928924,-1.0891134519753458,-0.7895316377113194,1.6892252422051528,-1.198146335111472,1.1249085467735793,-1.3217025053296376,-0.9806146981495323,0.7272644986113673,-1.0860912925958568,0.737988785493549,0.175473304102834,0.07013723320175363,1.526388611001852,1.649910939901505,0.3018177025771793,-1.3398323090157838,-0.37905227371316863,-1.6004906960705214,-1.198312516505927,0.9395105268658427,1.5278766943498816,0.18003053376630798,0.5701714515127928,-1.3031282837190432,-0.948436655283983,-1.057054640463986,-0.013650696845385531,0.04741111704849379,-0.4097975089334894,0.0466812965428261,1.5029976456301615,-0.5914702333201033,0.09358685040610279,-1.3353732031720171,-1.5563798747192277,-1.5838113343914868,-0.5052834139306531,0.8961916869433005,-1.0701698161785291,-1.0701754413810414,1.4912353181144469,0.42114768764971916,-0.5078273847933966,-0.8870486173337299,0.8812520302525979,-1.327727643861201,0.5476602188728499,1.7228216273236243,-1.2183364578102303,0.6954831620355515,0.22045576734784564,1.7580221797704378,-0.5490803608094001,-0.9176835034459252,-0.7686982848972916,1.266966012058115,0.20075246512655032,0.20021106018248544,1.687693490722505,1.6621521103421386,1.1879381890789187,-1.3671723254161647,-1.1504655709426916,1.6581862381337085,1.5453302286542567,-1.4385087919041444,1.3684210731151345,0.9649124684086388,1.1754386200983793,-0.6320768455053112,1.0186009440243573,-1.679698740452211,0.5257275323034862,1.7132410130160112,1.0997805674996861,-1.6836421734419387,0.0815545576495914,1.4055182807576292,1.6047613740649735,0.039190239694043616,0.9765991833092781,-1.1656386256956377,-1.3724637329748641,1.6284956333890266,-1.009582503682467,0.42464668916882736,-0.7923513106879593,-0.1660418492580644,1.4645668073300662,-0.5902111782216359,0.4974500737036384,-1.0432666215304864,1.0194751409579135,-1.5961097760350005,-1.6491225719687326,-1.5964901502493785,-1.3508938116941318,1.3504440685658896,-1.2969547004140922,1.723085985003713,-0.6341060742921705,-0.9936494532165365,0.14298741030666015,1.2285424714058977,1.4343971310538857,1.113841662030546,0.6860653850998618,-1.3609587928646467,0.5314609043052754,1.1324534943684343,1.059147044912999,-0.07825964270783549,1.3874953199008189,1.2543431324438106,-0.9181358278206615,-0.6987635663441925,0.246789700787598,-0.11819930723451952,1.0369481088713084,1.376254583814372,1.5459457354752453,-0.4028033758808027,0.6140530948380308,-0.14035087719298245,0.8420972578608081,-0.5962396512708098,0.9142915198695857,-1.4146694455351023,-0.14155865883268026,0.7248786723087136,1.5027538454324154,1.058426537436249,-0.04473112929601667,0.6835054753436425,-1.3595748942210593,-1.1542774881462896,0.1099450823260239,-0.6834555513840659,-1.0192320023795194,1.42306077034534,-0.6150756775778289,0.7088659607792261,1.127113068709849,-0.4597706206103577,1.676230123375142,1.59504890730973,-0.33319221905208535,1.1305506869400417,-1.3476943215891632,-0.8767471166680162,1.6667521912313106,0.6843485605652603,0.17545179790412027,0.43936245611685915,-0.680343500139364,1.6946460465412971,-1.0670247383088993,0.46654580517920397,1.7680185732985607,0.11152082152066845,1.7026156084542738,0.9741552302102959,0.09177738470019987,-0.7917597956751562,0.2389631781905902,0.573042872406976,-0.821891593734141,-0.05393612748679519,-0.9748904144298912,0.3502464267983327,-1.0715087757375439,1.0124200491688842,1.4258646900125527,-1.4011034814220351,-0.488109898724771,1.201996658041025,-1.5414123825322334,-0.9286706302674811,1.105100569901301,1.3859648757273713,1.5791332127735007,0.4926034306485723,1.654794367230093,0.6145035424653925,-0.19465004342780243,0.33802401488149814,0.269016873468335,1.1645295846692805,-0.24834689895798723,-0.10561091233288164,0.788095086387967,-1.4800002309472404,-1.080445959602825,1.2032772321797496,-0.21794577040333862,-1.1048084842374437,1.1800478714656757,0.3994912589656158,1.6855116207126715,1.16991577294554,1.3038044326515097,0.38992091296029663,1.2664363389700266,-0.44712698539557966,-1.366047450075432,1.4751817386405242,0.6840908738541506,0.3333333333333333,-1.7366458955424329,1.4403153654675944,0.8328869492292229,0.5867834971816587,-1.302364594300723,0.020378475417238893,1.0252772251979514,0.5198403363892027,-0.10504877644548884,-0.0433381234988328,1.418043730099117,1.1270061814247498,1.105360574853128,1.2155414821730863,0.7243348529482553,0.04062814108456365,0.6152231330524421,0.2640537596530758,1.0661728003082462,1.6557627249647195,-0.06373653634788712,0.9139334735960917,-1.1055984615382761,-1.3431381098100592,0.1773838995764371,0.947757296501978,0.12282462657939537,-1.5438604821929507,-0.1752832372508192,-1.5055971671229633,0.5886855370770246,-1.4793993434798933,-0.8565495567517967,0.6502985126888089,-0.747378366567813,-0.8163174617927068,-1.1106961810061537,0.9991145027339109,1.5595898963213717,-0.33676567106159416,1.371359660976986,1.3353211854881413,1.6342791726131034,1.9797833828977767,0.7127989676882228,1.1021941635680295,-0.14461981660410933,-0.30881783825852815,-1.454031722910205,1.5201473343420306,1.2039386879097518,-1.453058616548966,-1.73568223237861,-1.3507524761321532,0.6666666666666666,-0.4385972982647722,0.36845158898256114,-1.6286394337984476,-1.1136286653090155,1.0087569776117506,-0.24000096826186498,-1.3867266054334875,-0.17905187412449217,0.40695965350528435,0.47537671922154434,1.3910117208902724,-1.132187657430456,-1.3293380432001802,0.7267718217665918,0.15452153722231624,-1.5615018054594296,0.07641559906382688,0.7411169816423209,0.8160774032494253,1.0889687345047094,1.1618100895201615,-0.7344461372562995,-0.719773406430326,1.6553032306215427,-0.24391710059347954,-0.613816958323576,-0.5438710310915779,-1.2456140350877194,-1.6666666666666667,0.3684210526315789,0.456950278599672,-0.9949452980831495,-1.283171170235009,-0.032470138663630015,1.4714041530109603,0.2505721203597378,1.5192244225492233,1.421454442948155,-0.21223727334063172,0.06406223569910685,0.9720992694465413,1.3595933664730935,-0.5962066127177352,0.9356374807774096,-1.0433173314287787,-1.2907686080353484,1.1592499146005018,0.6576911194621908,-0.741224474762516,0.5819747729370783,0.11428967010485733,-0.04956333560255678,0.6148500382240472,1.4561639319984845,1.5261837470849267,0.08771929824561403,-0.8245614035087719,-0.43859649122807015,1.7017976487567779,1.4395971449610039,-1.169713835727054,-1.3203054024800285,-0.06128440008488971,-1.2261528082057331,-0.36688776078701923,-1.440882258263665,-1.2632071487319594,-0.7542272105660661,-0.7310394237904295,0.0018403900709522494,0.40131846361739565,0.4668924111602359,0.6816643461835166,-0.32141741136264057,-0.2962149558927368,-0.16827928126533365,-0.2105300632036583,-1.5674955882930433,0.7946946112623088,-0.8401218989075335,-1.1048030690931758,-1.4912125135031897,-0.8245620748117836,-0.6842105263157895,-1.4385964912280702,0.2631578947368421,-0.8070167827364183,1.2105861559023523,-1.682304970626361,0.5308119027598474,-0.5340653025419966,-0.06877766615125475,0.3120987026259236,1.307292961731412,0.4760389911811985,-0.0957337129523355,-0.8235394317868852,-0.33793273542365093,0.8192926100014881,0.08720036756880048,-0.47995099607567676,-0.8411726472046297,-0.4882723600626784,-0.5327245063518689,-1.7297861863838377,-0.7330163003950522,1.371109920622171,0.21107553668397236,0.684238555016455,-0.6842105335872748,1.1929824560439115,-0.43859649122807015,-0.19298245614035087,-1.3333333333333333,1.736842105263158,-1.6315787721486952,-0.31584712709811813,-0.43789806932236086,-1.5242193525970416,0.24799045937589714,1.2667962820405416,1.2537963538621275,1.0533272556721232,-1.1725400740416638,1.4372858542021447,-0.08560835421629684,-0.31583467827412554,0.507602278643416,1.4033131616322574,0.20875717227401996,1.201983825420632,-1.4689855214293828,-0.22532180151552547,1.2827780484872475,-0.4373155678120894,-1.3329571134937368,0.8596491228071378,0.2807017543883577,-1.4736842105263157,1.456140350877193,1.5087719298245614,1.3333333333333333,1.2105263157894737,-1.0701754385964912,-0.8421052538674889,0.10535191143780016,0.4212107732813459,-0.5261167769852048,-1.4558466896294076,0.07038493524348916,-0.9993432137789489,-0.5772890643049856,-0.8049417372895344,-0.5749071069257888,0.9332224740079298,1.3714320964652762,1.4067292130415314,0.9684902653444629,-0.7867654150253627,1.1766032086939777,0.3514516856539018,-0.42068199732953926,1.3686288206318098,-1.3859648688550419,1.4385964912280702,-1.0350877192982457,1.5087719298245614,-0.6842105263157895],[-1.4736842105263157,1.368421052631579,-0.17543859649122806,-0.12280701754385964,0.7368421052631579,-0.9824561403508771,0.8421052631578947,0.9649122807017544,0.8245614035087719,0.9122807017543859,-0.9298245614035088,1.0,-0.2455509715705964,0.7720691978881169,0.3859663433195495,-1.1754385368646092,0.22807017543859648,-1.1228070175438596,0.7017543859649122,0.2982456140350877,0.15789473684210525,-1.719298245614035,-0.19298245614035087,-0.5789473684210527,0.22807017543859648,-1.5087719298245614,-0.8596491228070176,1.456140350877193,0.14035087719298245,-0.8245614035087719,0.9473684210526315,-0.10526315789473684,0.6316025400877185,1.157967572008142,-1.4907913643658777,1.685368256092755,0.5633503168115201,0.8629523788472065,1.6193879883715931,-1.38013580420878,0.3403346228683522,-0.39644360496434755,-1.3790189943246591,0.8128600298433034,-0.0297502611968724,-1.5732270630910803,-0.3460119736286243,-1.1187852574745518,-1.0312841531430215,0.5983489671322288,-0.8065116542878581,-1.2279632639948515,-1.5964912280701755,0.40350877192982454,-0.3333333333333333,1.1403508771929824,0.8947368421052632,-1.1578947368421053,0.1754578645631941,0.07018399714092201,-0.5261444814779953,1.1580292644929215,1.0010846761491876,0.23128645668107914,-1.3964278148791234,-0.5298568231174291,1.1651826924766027,-0.718701878426594,0.8958583964933893,-0.4698349449206452,-0.8859782920715102,-0.3890848301726709,1.5559579701313513,-1.4405623002941077,-1.3786242809402476,-1.1091418350466256,-0.4186424375277524,-0.3119241703054534,-0.7243300677968899,-0.6442220910039952,1.0893439073937483,0.930007385512038,-1.719298245614035,1.368421052631579,-1.631578947368421,0.3333333333333333,0.7193061897337746,-1.3507404958369147,1.526499823156236,0.36848737685503735,-0.8419211049823637,1.1963500372259688,-0.6918789383003705,-0.20674230918125067,-0.19068724106157686,0.7645611028836938,-0.027933060453742768,-0.0738650862546758,1.637683626491605,-0.25024929329708534,1.2039427597116743,-1.3061012219856867,-0.42644104843755887,1.1701944086937635,1.3345622795688925,-0.1738656940453784,0.5290178879890736,-0.481871401162622,0.7927910212340771,-0.06964222267529364,-0.24555110037086875,0.9122807017543859,1.2280701754385965,1.2280701754833623,0.36829783789688775,-1.5789450581046103,1.245369757235438,0.3853832256814162,-1.668008927930807,-0.48913526960618614,1.5716165326011957,-1.2397367609201668,0.2122833352335095,-1.4319937577660902,0.4656968280877668,-1.4687896014777984,1.8706545403189292,0.08154482035242189,1.1480790460157466,0.09306134746954886,0.9895263121266309,1.028735980871469,-0.12187523047776808,1.3236429981776774,-1.7217082309319665,1.30897487967105,-0.4086854375219386,-0.8782982620468965,0.05244072197662665,-0.8947532356020336,-0.3157894736842105,0.5263157894736842,-1.666538661222122,-1.5614912172051396,0.1744686178485862,1.1901495067582504,-1.5129673940638195,0.5923630558046662,1.199547394224938,1.377157426972497,1.1281207527399684,1.6922743380356333,1.3181513452249383,1.3978357159597266,-0.753560356623742,0.3277650147151163,0.15527282736285125,-1.4891822880832586,1.313792409287522,0.07076953408846128,0.782762546227497,1.0575050153910481,-0.007975083021976392,-0.1927093590339072,0.30795643618383434,1.1366693711628302,-0.31563907917365924,0.6491408246372984,-0.017543859649122806,1.0701754387029951,1.2806668308089528,0.4204392132908154,-0.33600650184340547,-0.47937643256687446,-1.5158999734896685,-0.7568419565657761,0.12104899642913991,-1.4870107326485071,-0.8411540558427749,0.6110892007439737,-1.5360030430251765,-0.14554704593571866,-0.1248135789383657,-0.6019085340563304,1.0240454307037956,-0.0687868108266517,-0.5748091316323569,-0.16258221939883144,-0.47495268290320236,0.820679161763695,0.47774974838615375,-1.2613213015338676,-0.19736651086970006,-0.8141502075558997,-0.12312854593741657,0.9825526061802595,1.228070175130484,-0.2982469561760257,0.08737790621621024,-1.0361441240511793,1.1880640711211317,-1.6047555898262793,0.08200148383716922,-1.3017329125102441,1.065710353366565,1.264442730169896,-0.171156723713647,-0.15268203986362025,-1.3440960323450448,-1.086171089832771,1.1773374445090727,-0.6451590431289461,-0.4115534606094653,-0.9033488155545057,-0.27921932954506473,0.2558807601667444,-1.2346375501907436,0.6850834174396433,1.3915549217710868,0.6464609943260645,-0.2323281033998692,0.849433937008787,0.12277438430326386,0.9999367960402921,-1.5438594952362759,-0.24561486164803586,1.175241716480812,-1.562128167924608,0.5735128088677739,0.7991121816089124,-1.0573599208447315,0.046749426642091224,1.2652183910252768,-0.6248705463337546,-0.8715537468618632,-0.9217004434338916,-1.1522332419037258,1.0137932880187732,0.05830633536077235,1.0099670215720638,-0.8320966138113717,0.08023095098087428,-1.9126320313205554,-0.24069755713593685,-0.9673160709437434,-0.30376996666287037,0.3863395370234922,1.1553754180610414,-1.2231724995006135,-0.2720003980135239,-0.7386549471651928,-1.368881691506088,0.4210468733244255,-0.105339744586512,0.298080575042277,-0.842454439490394,-0.9341542536970994,-1.638384096790192,-1.1582271647317144,-0.9269062019806863,-0.3309605869333338,0.26515514672031326,-0.9872826305174907,0.025490212672454392,-1.0744813813288157,-0.3065099862883332,-1.5470020726200178,-1.513014371766094,-0.018563940286512006,1.4190476905857698,0.24117339088353526,-0.2773218289675632,-0.4663485428670206,0.5371349733731099,1.415071547041978,-1.3123407121415194,-0.6967761471189712,-0.1954730140814372,1.2632697485092297,-0.6492360526623248,1.5613968108032876,0.280539314143041,-0.6145288309574127,-0.2816972318758953,-0.6713944006780581,-1.3595546459485488,-1.70107955631594,-1.3755608624564502,-0.9831993802103318,1.1336286734049088,1.4336998724641539,0.8007440896439985,-1.2103476197945913,1.4666349444830606,0.947894466153611,0.9849878619325899,0.547230703219457,-0.8440540207937071,-1.2454691475147326,1.1071374989652258,-1.7583762511098635,-0.2225680255028388,-0.5427169975616754,-1.0506348354412336,0.014761518026213474,0.5439504811093118,-0.9823077056423928,-1.0002090464301394,0.38596412223746834,1.034839072028674,1.5255822815752575,-1.616429838485672,0.5873981315458637,1.651154513794425,-0.775534557612438,-0.46383505416834964,-1.6836621604839408,-0.42923137456461086,1.5666645657148095,1.5776217903421967,0.05221518666338783,-0.7768039193360239,0.4897729626061482,0.09077063847292384,-0.7096460929208792,-1.176866057830873,-0.22066609856140695,-0.5832650169386735,-0.4619492084780241,-1.5318148827632125,1.5728473092310704,-0.5523175467286185,-0.5062305992910524,-1.5432997424800494,1.31560373625992,-0.7545476609357424,0.14035085538552808,1.070045985459645,-0.9133887721764165,0.3640792048502325,1.319759076597899,0.11906277457383031,0.3383265756354343,1.5763237288211158,-1.7177287888557768,0.3855472152414271,0.151196005045894,-1.3079991213280504,1.597634541364864,-1.2215933885027348,-1.592303125881614,-1.685456810974468,0.34200305746450993,-0.49135824510797044,-1.2987809136447088,0.1590653372215659,1.1691504351870907,-1.5773732474892534,0.9521997285708115,-0.22688899103674134,0.5044272174864995,-0.173541611882188,-0.26375497244824014,1.6315211989639566,1.4736841501807043,-0.00024062259960819576,0.7008956595354218,1.5052529902421437,0.443450610101244,-0.26793760350815227,-1.5717986531797947,-0.6489803713564721,-0.9484836213936609,-0.6236232849936054,0.5192602345058953,-0.3280893463180911,0.1874855976242219,-0.40849469983914816,-1.3820669584233136,0.6170043619363268,0.40295047779047105,0.14189482961249947,-0.9697031892649761,-0.665923449326529,-0.1848875641948046,-0.42828302016902275,-1.2647141820358418,0.08102338457760253,0.025157436708166527,0.0749486930165415,0.33326051141375845,-1.228196793082156,1.6842139039533959,0.7192403959490434,0.8591702190422581,0.963203109226485,-1.466666135741011,-0.6124090075250759,1.6709316955924516,1.0584574607196426,0.5891576984095114,-0.04239597423187324,-0.23548491528456905,-0.9644146615404126,1.6477103005342149,0.1742281171850496,-1.031508998144016,0.41954242225268956,0.8472905582089506,-0.8871457328117012,0.6983685460341184,-1.0491953580021522,